{"learner":{"attributes":{"best_iteration":"12","best_score":"0.16817813503353551"},"feature_names":["rTotalApparentEnergy_mean","rTotalApparentEnergy_std","rTotalApparentEnergy_change_point_score","rTotalApparentEnergy_ks_test_statistic","rTotalApparentEnergy_skew","rTotalApparentEnergy_trend_slope","rTotalApparentEnergy_dominant_frequency","rTotalApparentEnergy_spectral_peak","rTotalApparentEnergy_spectral_flatness","rTotalApparentEnergy_freq_energy_ratio_low_high","rTotalApparentEnergy_welch_peak_power","rTotalApparentEnergy_welch_total_power","airTotal_mean","airTotal_std","airTotal_change_point_score","airTotal_ks_test_statistic","airTotal_skew","airTotal_trend_slope","airTotal_dominant_frequency","airTotal_spectral_peak","airTotal_spectral_flatness","airTotal_freq_energy_ratio_low_high","airTotal_welch_peak_power","airTotal_welch_total_power","aPowerFactorPF_L2_mean","aPowerFactorPF_L2_std","aPowerFactorPF_L2_change_point_score","aPowerFactorPF_L2_ks_test_statistic","aPowerFactorPF_L2_skew","aPowerFactorPF_L2_trend_slope","aPowerFactorPF_L2_dominant_frequency","aPowerFactorPF_L2_spectral_peak","aPowerFactorPF_L2_spectral_flatness","aPowerFactorPF_L2_freq_energy_ratio_low_high","aPowerFactorPF_L2_welch_peak_power","aPowerFactorPF_L2_welch_total_power","aCosPhi_L3_mean","aCosPhi_L3_std","aCosPhi_L3_change_point_score","aCosPhi_L3_ks_test_statistic","aCosPhi_L3_skew","aCosPhi_L3_trend_slope","aCosPhi_L3_dominant_frequency","aCosPhi_L3_spectral_peak","aCosPhi_L3_spectral_flatness","aCosPhi_L3_freq_energy_ratio_low_high","aCosPhi_L3_welch_peak_power","aCosPhi_L3_welch_total_power","aCosPhi_L1_mean","aCosPhi_L1_std","aCosPhi_L1_change_point_score","aCosPhi_L1_ks_test_statistic","aCosPhi_L1_skew","aCosPhi_L1_trend_slope","aCosPhi_L1_dominant_frequency","aCosPhi_L1_spectral_peak","aCosPhi_L1_spectral_flatness","aCosPhi_L1_freq_energy_ratio_low_high","aCosPhi_L1_welch_peak_power","aCosPhi_L1_welch_total_power","aVoltage_L1_N_mean","aVoltage_L1_N_std","aVoltage_L1_N_change_point_score","aVoltage_L1_N_ks_test_statistic","aVoltage_L1_N_skew","aVoltage_L1_N_trend_slope","aVoltage_L1_N_dominant_frequency","aVoltage_L1_N_spectral_peak","aVoltage_L1_N_spectral_flatness","aVoltage_L1_N_freq_energy_ratio_low_high","aVoltage_L1_N_welch_peak_power","aVoltage_L1_N_welch_total_power","aVoltage_L3_N_mean","aVoltage_L3_N_std","aVoltage_L3_N_change_point_score","aVoltage_L3_N_ks_test_statistic","aVoltage_L3_N_skew","aVoltage_L3_N_trend_slope","aVoltage_L3_N_dominant_frequency","aVoltage_L3_N_spectral_peak","aVoltage_L3_N_spectral_flatness","aVoltage_L3_N_freq_energy_ratio_low_high","aVoltage_L3_N_welch_peak_power","aVoltage_L3_N_welch_total_power","aCosPhi_L2_mean","aCosPhi_L2_std","aCosPhi_L2_change_point_score","aCosPhi_L2_ks_test_statistic","aCosPhi_L2_skew","aCosPhi_L2_trend_slope","aCosPhi_L2_dominant_frequency","aCosPhi_L2_spectral_peak","aCosPhi_L2_spectral_flatness","aCosPhi_L2_freq_energy_ratio_low_high","aCosPhi_L2_welch_peak_power","aCosPhi_L2_welch_total_power","aVoltage_L2_N_mean","aVoltage_L2_N_std","aVoltage_L2_N_change_point_score","aVoltage_L2_N_ks_test_statistic","aVoltage_L2_N_skew","aVoltage_L2_N_trend_slope","aVoltage_L2_N_dominant_frequency","aVoltage_L2_N_spectral_peak","aVoltage_L2_N_spectral_flatness","aVoltage_L2_N_freq_energy_ratio_low_high","aVoltage_L2_N_welch_peak_power","aVoltage_L2_N_welch_total_power","rTotalReactiveEnergy_mean","rTotalReactiveEnergy_std","rTotalReactiveEnergy_change_point_score","rTotalReactiveEnergy_ks_test_statistic","rTotalReactiveEnergy_skew","rTotalReactiveEnergy_trend_slope","rTotalReactiveEnergy_dominant_frequency","rTotalReactiveEnergy_spectral_peak","rTotalReactiveEnergy_spectral_flatness","rTotalReactiveEnergy_freq_energy_ratio_low_high","rTotalReactiveEnergy_welch_peak_power","rTotalReactiveEnergy_welch_total_power"],"feature_types":[],"gradient_booster":{"model":{"gbtree_model_param":{"num_parallel_tree":"1","num_trees":"43"},"iteration_indptr":[0,1,2,3,4,5,6,7,8,9,10,11,12,13,14,15,16,17,18,19,20,21,22,23,24,25,26,27,28,29,30,31,32,33,34,35,36,37,38,39,40,41,42,43],"tree_info":[0,0,0,0,0,0,0,0,0,0,0,0,0,0,0,0,0,0,0,0,0,0,0,0,0,0,0,0,0,0,0,0,0,0,0,0,0,0,0,0,0,0,0],"trees":[{"base_weights":[1.6775565E-2,-1.10621065E-1,6.3537216E-1,1.8454343E-1,-3.69362E-1,-1.8622717E0,7.3852986E-1,1.3434018E-1,1.4562047E0,-2.0215113E0,-2.5067124E-1,-8.4248066E-2,-1.0748297E0,8.6651826E-1,2.8096965E-1,-8.452145E-2,3.0145723E-1,1.4756085E0,7.626793E-1,-2.5238643E0,-1.2682968E0,-3.26849E-1,1.468188E-1,-1.6768434E0,1.0377839E0,-2.3934257E0,9.072626E-1,3.397709E-1,-5.9830475E-1,-4.6424796E-3,9.559949E-3,6.7844638E-3,2.001936E-2,3.7232365E-2,4.810829E-2,-1.5439316E-2,4.090688E-2,-8.5519426E-2,-6.030612E-2,-5.381693E-2,-7.392101E-3,-2.328676E-2,-9.055437E-3,-7.502431E-2,5.6973477E-3,-7.367946E-2,4.3329378E-3,4.229991E-2,-1.3457631E-2,3.7911236E-2,-8.577715E-2,-2.4541728E-2,2.9518934E-2,7.513737E-3,2.4707183E-2,-6.4419344E-2,-6.1281626E-3],"categories":[],"categories_nodes":[],"categories_segments":[],"categories_sizes":[],"default_left":[0,0,0,0,0,0,0,0,0,0,0,0,0,0,0,0,0,0,0,0,0,0,0,0,0,0,0,0,0,0,0,0,0,0,0,0,0,0,0,0,0,0,0,0,0,0,0,0,0,0,0,0,0,0,0,0,0],"id":0,"left_children":[1,3,5,7,9,11,13,15,17,19,21,-1,23,25,27,29,31,33,35,37,39,41,43,45,47,49,51,53,55,-1,-1,-1,-1,-1,-1,-1,-1,-1,-1,-1,-1,-1,-1,-1,-1,-1,-1,-1,-1,-1,-1,-1,-1,-1,-1,-1,-1],"loss_changes":[4.3961616E3,3.532619E3,2.4558403E3,1.3780024E3,4.831293E3,2.3637073E2,5.347368E2,7.604802E2,7.9001465E0,6.1767236E2,6.9659375E2,0E0,2.5143944E2,9.517041E2,1.0370871E2,2.2059048E2,3.3791187E2,8.094482E0,1.9219845E1,1.0640625E2,3.021687E2,3.0961304E2,3.208819E2,1.8662564E2,2.1267845E1,1.1222873E2,3.751421E2,8.3558685E1,7.131145E1,0E0,0E0,0E0,0E0,0E0,0E0,0E0,0E0,0E0,0E0,0E0,0E0,0E0,0E0,0E0,0E0,0E0,0E0,0E0,0E0,0E0,0E0,0E0,0E0,0E0,0E0,0E0,0E0],"parents":[2147483647,0,0,1,1,2,2,3,3,4,4,5,5,6,6,7,7,8,8,9,9,10,10,12,12,13,13,14,14,15,15,16,16,17,17,18,18,19,19,20,20,21,21,22,22,23,23,24,24,25,25,26,26,27,27,28,28],"right_children":[2,4,6,8,10,12,14,16,18,20,22,-1,24,26,28,30,32,34,36,38,40,42,44,46,48,50,52,54,56,-1,-1,-1,-1,-1,-1,-1,-1,-1,-1,-1,-1,-1,-1,-1,-1,-1,-1,-1,-1,-1,-1,-1,-1,-1,-1,-1,-1],"split_conditions":[8.9649296E-1,4.336904E5,1.6141728E-2,3.5810435E0,3.7473444E-2,1.1504797E-2,1.26481255E2,1.3055267E0,2.0066889E-2,7.2082686E-1,3.196331E-2,-8.4248066E-2,3.5914127E-8,2.6796913E0,6.102683E-1,1.1588529E0,2.9864464E-2,7.059144E-1,7.777376E-1,2.7105441E-2,6.9354606E-1,6.723037E-1,-6.94617E-1,1.00334445E-2,3.4013605E-3,7.856809E-1,5.65818E-1,1.6166166E0,3.3670033E-3,-4.6424796E-3,9.559949E-3,6.7844638E-3,2.001936E-2,3.7232365E-2,4.810829E-2,-1.5439316E-2,4.090688E-2,-8.5519426E-2,-6.030612E-2,-5.381693E-2,-7.392101E-3,-2.328676E-2,-9.055437E-3,-7.502431E-2,5.6973477E-3,-7.367946E-2,4.3329378E-3,4.229991E-2,-1.3457631E-2,3.7911236E-2,-8.577715E-2,-2.4541728E-2,2.9518934E-2,7.513737E-3,2.4707183E-2,-6.4419344E-2,-6.1281626E-3],"split_indices":[48,12,35,119,35,35,19,57,18,104,37,0,115,107,61,28,37,27,56,35,27,27,36,114,18,51,36,93,114,0,0,0,0,0,0,0,0,0,0,0,0,0,0,0,0,0,0,0,0,0,0,0,0,0,0,0,0],"split_type":[0,0,0,0,0,0,0,0,0,0,0,0,0,0,0,0,0,0,0,0,0,0,0,0,0,0,0,0,0,0,0,0,0,0,0,0,0,0,0,0,0,0,0,0,0,0,0,0,0,0,0,0,0,0,0,0,0],"sum_hessian":[5.577665E4,4.6251555E4,9.525097E3,2.1604096E4,2.4647457E4,3.765468E2,9.14855E3,2.0785664E4,8.184318E2,1.6500352E3,2.2997422E4,1.8268855E2,1.9385826E2,7.1467197E3,2.0018301E3,8.998184E3,1.17874795E4,7.9361176E2,2.4820053E1,9.872426E2,6.627925E2,1.9300457E4,3.6969656E3,1.5134604E2,4.2512226E1,8.696503E1,7.059755E3,1.8778999E3,1.2393008E2,7.743171E3,1.2550128E3,9.38989E3,2.3975908E3,1.3143826E2,6.621735E2,7.1278796E0,1.7692173E1,7.4180365E2,2.4543895E2,4.6278165E2,2.0001086E2,1.6555388E3,1.7644918E4,4.7854275E1,3.6491113E3,1.1065958E2,4.068646E1,3.5614437E1,6.897787E0,6.892795E0,8.0072235E1,1.2784664E2,6.931908E3,1.5345509E3,3.4334906E2,2.5305197E1,9.862488E1],"tree_param":{"num_deleted":"0","num_feature":"120","num_nodes":"57","size_leaf_vector":"1"}},{"base_weights":[2.8312726E-2,3.3134627E-1,-3.1968823E-1,7.680904E-1,1.9488166E-1,-2.3184204E0,-2.564468E-1,-1.3550022E0,8.222695E-1,8.6615056E-1,1.1208171E-1,-2.5736907E0,-1.1569971E0,-1.8663431E0,-1.9446659E-1,5.86502E-1,-2.380982E0,1.4413396E0,7.6704735E-1,-2.3455055E0,1.0064514E0,5.4355497E-3,3.5500747E-1,-2.6160367E0,-5.71561E-1,6.240203E-1,-2.2965121E0,-2.1698384E0,5.3018683E-1,-8.5532504E-1,-1.24385886E-1,3.0997792E-2,-1.9971512E-2,-7.836231E-2,-7.326389E-3,4.670549E-2,3.1947315E-2,-4.640488E-2,2.483315E-2,-4.0427707E-2,-8.2161166E-2,2.022216E-2,3.8310055E-2,8.390408E-3,-3.9926474E-3,8.156669E-3,1.8751377E-2,-2.2709843E-2,-8.3688505E-2,-6.93833E-2,3.44699E-2,3.7088912E-2,-1.2932909E-2,-8.1657276E-2,-2.5958195E-2,-7.4895985E-2,-2.5201082E-2,-5.5412993E-2,3.3045568E-2,-1.2645599E-2,-3.190985E-2,-5.609712E-3,1.2714541E-2],"categories":[],"categories_nodes":[],"categories_segments":[],"categories_sizes":[],"default_left":[0,0,0,0,0,0,0,0,0,0,0,0,0,0,0,0,0,0,0,0,0,0,0,0,0,0,0,0,0,0,0,0,0,0,0,0,0,0,0,0,0,0,0,0,0,0,0,0,0,0,0,0,0,0,0,0,0,0,0,0,0,0,0],"id":1,"left_children":[1,3,5,7,9,11,13,15,17,19,21,23,25,27,29,31,33,35,37,39,41,43,45,47,49,51,53,55,57,59,61,-1,-1,-1,-1,-1,-1,-1,-1,-1,-1,-1,-1,-1,-1,-1,-1,-1,-1,-1,-1,-1,-1,-1,-1,-1,-1,-1,-1,-1,-1,-1,-1],"loss_changes":[5.912165E3,1.7852734E3,3.2958237E3,8.217925E2,1.268519E3,2.3027051E2,2.5221904E3,3.573267E2,2.3474072E2,1.1320537E3,5.265034E2,5.114746E1,3.021117E2,6.84449E2,1.127408E3,3.1597765E1,2.5153687E1,6.69458E0,3.2516064E2,2.2237427E1,1.8251587E2,4.891663E2,1.4228723E2,4.956787E1,4.728881E1,3.479969E1,3.4460907E1,2.3624585E2,1.2912744E2,1.6705774E2,6.287162E2,0E0,0E0,0E0,0E0,0E0,0E0,0E0,0E0,0E0,0E0,0E0,0E0,0E0,0E0,0E0,0E0,0E0,0E0,0E0,0E0,0E0,0E0,0E0,0E0,0E0,0E0,0E0,0E0,0E0,0E0,0E0,0E0],"parents":[2147483647,0,0,1,1,2,2,3,3,4,4,5,5,6,6,7,7,8,8,9,9,10,10,11,11,12,12,13,13,14,14,15,15,16,16,17,17,18,18,19,19,20,20,21,21,22,22,23,23,24,24,25,25,26,26,27,27,28,28,29,29,30,30],"right_children":[2,4,6,8,10,12,14,16,18,20,22,24,26,28,30,32,34,36,38,40,42,44,46,48,50,52,54,56,58,60,62,-1,-1,-1,-1,-1,-1,-1,-1,-1,-1,-1,-1,-1,-1,-1,-1,-1,-1,-1,-1,-1,-1,-1,-1,-1,-1,-1,-1,-1,-1,-1,-1],"split_conditions":[2.0969752E8,6.996849E-1,4.99E-1,2.6698744E0,1E0,5.605331E-1,3.1032084E-2,8.6850446E-1,7.30388E-1,3.221731E0,2.02095E8,1.38646E-1,2.2105962E8,3.689641E-1,2.13462E8,-5.7542197E-6,6.1492867E0,1.2259605E-1,1.6141728E-2,-1.1286695E-5,8.127689E-1,8.264592E-1,6.666667E-3,-6.0794086E0,3.9952704E-1,-1.2961572E-1,8.212629E-1,9.5788586E-1,-7.008291E-1,7.73E-1,9.06957E-1,3.0997792E-2,-1.9971512E-2,-7.836231E-2,-7.326389E-3,4.670549E-2,3.1947315E-2,-4.640488E-2,2.483315E-2,-4.0427707E-2,-8.2161166E-2,2.022216E-2,3.8310055E-2,8.390408E-3,-3.9926474E-3,8.156669E-3,1.8751377E-2,-2.2709843E-2,-8.3688505E-2,-6.93833E-2,3.44699E-2,3.7088912E-2,-1.2932909E-2,-8.1657276E-2,-2.5958195E-2,-7.4895985E-2,-2.5201082E-2,-5.5412993E-2,3.3045568E-2,-1.2645599E-2,-3.190985E-2,-5.609712E-3,1.2714541E-2],"split_indices":[0,56,74,83,14,24,35,48,48,107,0,50,0,113,0,41,22,46,35,53,51,13,42,88,88,88,36,84,88,74,36,0,0,0,0,0,0,0,0,0,0,0,0,0,0,0,0,0,0,0,0,0,0,0,0,0,0,0,0,0,0,0,0],"split_type":[0,0,0,0,0,0,0,0,0,0,0,0,0,0,0,0,0,0,0,0,0,0,0,0,0,0,0,0,0,0,0,0,0,0,0,0,0,0,0,0,0,0,0,0,0,0,0,0,0,0,0,0,0,0,0,0,0,0,0,0,0,0,0],"sum_hessian":[5.605984E4,2.9967008E4,2.609283E4,7.1315117E3,2.2835496E4,7.983359E2,2.5294494E4,1.762733E2,6.9552383E3,2.5050256E3,2.033047E4,6.525454E2,1.4579048E2,9.3573175E2,2.4358764E4,6.0944134E1,1.1532916E2,5.655899E2,6.3896484E3,1.0368023E2,2.4013455E3,1.4131048E4,6.1994224E3,6.382642E2,1.4281182E1,5.6921513E1,8.886897E1,8.3091797E2,1.0481377E2,2.3329717E3,2.2025791E4,4.6553738E1,1.4390394E1,1.09157585E2,6.1715746E0,5.08056E2,5.7533867E1,6.250028E1,6.3271484E3,2.3093117E1,8.058711E1,8.873418E2,1.5140035E3,4.752474E3,9.378574E3,4.443578E3,1.7558442E3,1.5766509E1,6.2249774E2,7.167931E0,7.113251E0,3.7325E1,1.959651E1,7.2502754E1,1.636622E1,7.182327E2,1.12685234E2,1.851176E1,8.630201E1,6.09294E2,1.7236776E3,1.9986855E4,2.0389363E3],"tree_param":{"num_deleted":"0","num_feature":"120","num_nodes":"63","size_leaf_vector":"1"}},{"base_weights":[2.3348182E-2,-1.4690492E0,5.8836367E-2,-2.111096E0,-6.736105E-1,-5.93392E-2,6.089493E-1,-6.969936E-1,-2.4097004E0,-2.6218724E-1,-2.3850105E0,1.7327994E-1,-2.53402E-1,3.970904E-1,1.0011958E0,-7.6465346E-2,-6.890447E-2,-7.876376E-2,-9.7458994E-1,2.7198565E-1,-2.0185556E0,-3.017771E-2,-7.893724E-2,7.537581E-1,9.1077544E-2,-1.5972605E0,-2.0159946E-1,9.965294E-2,7.984088E-1,-7.906009E-2,1.0633057E0,4.3976672E-2,-1.582404E-2,-7.306431E-2,1.54852215E-2,-3.6108E-2,1.413531E-2,4.0355943E-2,-7.922024E-2,1.9931331E-2,3.1848524E-2,1.125701E-2,-2.4155458E-4,-6.827943E-2,-2.1844195E-2,-8.052513E-3,5.762353E-3,-4.631984E-2,5.1085385E-3,-6.9391124E-2,2.550804E-2,3.7453588E-2,5.15145E-3],"categories":[],"categories_nodes":[],"categories_segments":[],"categories_sizes":[],"default_left":[0,0,0,0,0,0,0,0,0,0,0,0,0,0,0,0,0,0,0,0,0,0,0,0,0,0,0,0,0,0,0,0,0,0,0,0,0,0,0,0,0,0,0,0,0,0,0,0,0,0,0,0,0],"id":2,"left_children":[1,3,5,7,9,11,13,15,17,19,21,23,25,27,29,-1,31,-1,33,35,37,-1,-1,39,41,43,45,47,49,-1,51,-1,-1,-1,-1,-1,-1,-1,-1,-1,-1,-1,-1,-1,-1,-1,-1,-1,-1,-1,-1,-1,-1],"loss_changes":[2.960673E3,6.591719E2,3.5512163E3,2.9837183E2,4.0752518E2,2.029792E3,8.012207E2,1.3704802E2,7.457031E1,4.4443918E2,1.4192871E1,9.750833E2,1.7049084E3,7.4838965E2,7.421709E2,0E0,6.1265816E1,0E0,8.1055664E1,9.172113E1,1.8812164E2,0E0,0E0,7.674597E1,4.7239175E2,4.668806E2,4.948067E2,3.5562958E2,1.0360608E2,0E0,3.8092944E2,0E0,0E0,0E0,0E0,0E0,0E0,0E0,0E0,0E0,0E0,0E0,0E0,0E0,0E0,0E0,0E0,0E0,0E0,0E0,0E0,0E0,0E0],"parents":[2147483647,0,0,1,1,2,2,3,3,4,4,5,5,6,6,7,7,8,8,9,9,10,10,11,11,12,12,13,13,14,14,16,16,18,18,19,19,20,20,23,23,24,24,25,25,26,26,27,27,28,28,30,30],"right_children":[2,4,6,8,10,12,14,16,18,20,22,24,26,28,30,-1,32,-1,34,36,38,-1,-1,40,42,44,46,48,50,-1,52,-1,-1,-1,-1,-1,-1,-1,-1,-1,-1,-1,-1,-1,-1,-1,-1,-1,-1,-1,-1,-1,-1],"split_conditions":[4.78E-1,4.1067E-2,8.0333054E-1,2.0379232E8,2.26279E8,2.0969752E8,8.139075E-1,1.8670075E8,8.2227534E-1,1.6242361E-1,4.188E-2,7.029591E-1,1.6334878E-2,1.6199104E-2,1.85596E8,-7.6465346E-2,4.185104E-3,-7.876376E-2,-1.5559515E-1,1.6250277E1,7.3026186E-1,-3.017771E-2,-7.893724E-2,3.2376976E0,4.4625476E-2,7.8525656E-1,3.44312E-2,1.2136471E-2,1.2542332E-2,-7.906009E-2,2.2651442E2,4.3976672E-2,-1.582404E-2,-7.306431E-2,1.54852215E-2,-3.6108E-2,1.413531E-2,4.0355943E-2,-7.922024E-2,1.9931331E-2,3.1848524E-2,1.125701E-2,-2.4155458E-4,-6.827943E-2,-2.1844195E-2,-8.052513E-3,5.762353E-3,-4.631984E-2,5.1085385E-3,-6.9391124E-2,2.550804E-2,3.7453588E-2,5.15145E-3],"split_indices":[74,38,51,0,0,0,51,0,51,37,38,44,25,49,0,0,85,0,88,79,51,0,0,33,25,51,49,25,25,0,72,0,0,0,0,0,0,0,0,0,0,0,0,0,0,0,0,0,0,0,0,0,0],"split_type":[0,0,0,0,0,0,0,0,0,0,0,0,0,0,0,0,0,0,0,0,0,0,0,0,0,0,0,0,0,0,0,0,0,0,0,0,0,0,0,0,0,0,0,0,0,0,0,0,0,0,0,0,0],"sum_hessian":[5.591485E4,1.2969138E3,5.4617938E4,7.1584E2,5.810737E2,4.4959785E4,9.658151E3,1.2604841E2,5.897916E2,4.701434E2,1.1093033E2,2.0447078E4,2.4512707E4,6.2740723E3,3.3840789E3,3.210121E1,9.39472E1,5.517706E2,3.802099E1,3.6117795E2,1.0896546E2,1.0405485E1,1.0052484E2,2.5338735E3,1.7913205E4,9.077232E2,2.3604984E4,3.605405E3,2.6686675E3,5.755626E1,3.3265227E3,2.0359282E1,7.358791E1,1.9590216E1,1.8430773E1,3.881425E1,3.223637E2,1.3865563E1,9.50999E1,1.736813E3,7.970604E2,4.8391675E3,1.3074037E4,5.5320184E2,3.545213E2,2.0680809E4,2.924177E3,1.3675096E2,3.468654E3,9.932346E0,2.658735E3,2.9120776E3,4.1444492E2],"tree_param":{"num_deleted":"0","num_feature":"120","num_nodes":"53","size_leaf_vector":"1"}},{"base_weights":[-2.5508017E-3,-1.4011168E-1,5.318211E-1,-9.9691325E-1,-9.217901E-2,-1.8832711E0,6.2092924E-1,-1.7748592E0,1.0235003E0,-2.1294446E-1,1.05293065E-1,-1.4570819E0,-7.72421E-2,-1.6301271E0,6.5484124E-1,-7.4844724E-1,-2.2250874E0,-1.4666177E0,1.2766747E0,-3.179936E-1,-6.3479155E-2,-3.4124184E-2,2.3959975E-1,7.172979E-1,-1.6832584E0,-2.2245016E0,-4.9091466E-2,3.9172885E-1,9.757196E-1,-6.2078472E-2,-8.809345E-3,-0E0,-7.098624E-2,1.5206874E-2,-7.41409E-2,1.9657852E-3,4.305508E-2,-1.539483E-2,-7.5480635E-3,4.0305555E-3,-5.2737473E-3,-1.7221313E-2,5.7176617E-4,-4.210448E-3,9.24227E-3,-0E0,4.214467E-2,-1.8633267E-2,-6.752501E-2,-1.5933752E-2,-7.71518E-2,2.2447435E-2,-7.215855E-2,5.4231733E-3,2.0102968E-2,3.1749126E-2,2.2133056E-3],"categories":[],"categories_nodes":[],"categories_segments":[],"categories_sizes":[],"default_left":[0,0,0,0,0,0,0,0,0,0,0,0,0,0,0,0,0,0,0,0,0,0,0,0,0,0,0,0,0,0,0,0,0,0,0,0,0,0,0,0,0,0,0,0,0,0,0,0,0,0,0,0,0,0,0,0,0],"id":3,"left_children":[1,3,5,7,9,11,13,15,17,19,21,23,-1,25,27,29,31,33,35,37,39,41,43,45,47,49,51,53,55,-1,-1,-1,-1,-1,-1,-1,-1,-1,-1,-1,-1,-1,-1,-1,-1,-1,-1,-1,-1,-1,-1,-1,-1,-1,-1,-1,-1],"loss_changes":[4.0528088E3,1.8000288E3,2.429911E3,3.6533237E3,9.904896E2,9.021631E1,8.320137E2,7.707803E2,4.101093E2,4.043767E2,2.9522137E2,1.1782776E2,0E0,1.5031653E2,9.0414355E2,2.9279572E2,8.3717285E1,1.0733447E2,6.486267E1,2.0175513E2,2.1259653E2,2.0800017E2,1.6294989E2,9.692677E0,1.0423511E2,4.227661E1,8.2261955E1,3.1937585E2,1.4717822E2,0E0,0E0,0E0,0E0,0E0,0E0,0E0,0E0,0E0,0E0,0E0,0E0,0E0,0E0,0E0,0E0,0E0,0E0,0E0,0E0,0E0,0E0,0E0,0E0,0E0,0E0,0E0,0E0],"parents":[2147483647,0,0,1,1,2,2,3,3,4,4,5,5,6,6,7,7,8,8,9,9,10,10,11,11,13,13,14,14,15,15,16,16,17,17,18,18,19,19,20,20,21,21,22,22,23,23,24,24,25,25,26,26,27,27,28,28],"right_children":[2,4,6,8,10,12,14,16,18,20,22,24,-1,26,28,30,32,34,36,38,40,42,44,46,48,50,52,54,56,-1,-1,-1,-1,-1,-1,-1,-1,-1,-1,-1,-1,-1,-1,-1,-1,-1,-1,-1,-1,-1,-1,-1,-1,-1,-1,-1,-1],"split_conditions":[8.9027303E-1,5.3129E-2,1.1743643E-2,2.8569463E3,1.6048073E0,2.2196986E-1,3.1308913E0,2.2646414E2,-8.5628223E-1,7.841164E-1,8.3244556E-1,2.1184192E-9,-7.72421E-2,8.2478E-2,9.1639596E-1,4.82184E-1,2.2539584E2,2.2642377E2,4.937235E0,2.1296643E-1,1.4419142E2,5.240208E-1,2.230978E2,2.3161363E2,4.731981E-1,-2.5287938E0,-3.1493014E-1,7.048579E-3,1.516282E2,-6.2078472E-2,-8.809345E-3,-0E0,-7.098624E-2,1.5206874E-2,-7.41409E-2,1.9657852E-3,4.305508E-2,-1.539483E-2,-7.5480635E-3,4.0305555E-3,-5.2737473E-3,-1.7221313E-2,5.7176617E-4,-4.210448E-3,9.24227E-3,-0E0,4.214467E-2,-1.8633267E-2,-6.752501E-2,-1.5933752E-2,-7.71518E-2,2.2447435E-2,-7.215855E-2,5.4231733E-3,2.0102968E-2,3.1749126E-2,2.2133056E-3],"split_indices":[48,26,25,115,57,88,71,96,88,51,48,19,0,26,48,24,60,60,71,28,19,24,96,60,116,88,64,58,19,0,0,0,0,0,0,0,0,0,0,0,0,0,0,0,0,0,0,0,0,0,0,0,0,0,0,0,0],"split_type":[0,0,0,0,0,0,0,0,0,0,0,0,0,0,0,0,0,0,0,0,0,0,0,0,0,0,0,0,0,0,0,0,0,0,0,0,0,0,0,0,0,0,0,0,0,0,0,0,0,0,0,0,0,0,0,0,0],"sum_hessian":[5.513425E4,4.3848777E4,1.128547E4,2.3208225E3,4.1527957E4,4.002522E2,1.0885218E4,1.6759961E3,6.448265E2,2.5770822E4,1.5757134E4,2.3317766E2,1.6707454E2,1.602289E2,1.0724989E4,5.1265894E2,1.1633372E3,5.8615498E1,5.8621094E2,1.5130534E4,1.0640288E4,7.7296235E3,8.0275103E3,2.139367E1,2.11784E2,1.15711044E2,4.4517845E1,5.89586E3,4.829129E3,1.4003876E2,3.7262015E2,1.6496159E1,1.1468411E3,1.836331E1,4.025219E1,4.2129074E1,5.440819E2,4.723712E3,1.0406822E4,3.7456887E3,6.894599E3,7.1443994E2,7.0151836E3,1.0169224E3,7.010588E3,1.0925901E1,1.0467768E1,6.462381E1,1.4716019E2,1.4495093E1,1.0121596E2,3.3766354E1,1.0751489E1,3.1288994E3,2.7669604E3,4.654273E3,1.748558E2],"tree_param":{"num_deleted":"0","num_feature":"120","num_nodes":"57","size_leaf_vector":"1"}},{"base_weights":[2.0724757E-2,-1.4375415E0,5.1964283E-2,-2.1510718E0,-1.2472335E-1,-6.3004196E-2,7.1495456E-1,-2.24968E0,3.6661685E-2,-6.859042E-1,4.9445945E-1,-1.2116079E-1,3.6469293E-1,-1.7729435E0,7.544545E-1,-2.2795144E-2,-2.266117E0,-1.630325E0,-2.4039428E-1,6.06962E-1,-3.706821E-2,-1.4070556E-1,1.2138802E0,2.7318555E-1,7.734438E-1,-2.1645122E0,4.0659776E-1,4.9846834E-1,9.6937126E-1,-7.177974E-2,-2.5815215E-2,-1.1684678E-3,-6.648472E-2,-6.930727E-2,8.091436E-5,2.2741433E-2,-6.700822E-2,-5.0682653E-2,-3.114343E-3,-2.6568353E-2,4.2249065E-2,-2.768594E-3,1.3131944E-2,2.5740538E-2,-7.487116E-2,-7.1644284E-2,-7.603928E-3,-2.0347575E-2,4.1002404E-2,8.476888E-3,2.3794336E-2,3.1519253E-2,-4.9971525E-2],"categories":[],"categories_nodes":[],"categories_segments":[],"categories_sizes":[],"default_left":[0,0,0,0,0,0,0,0,0,0,0,0,0,0,0,0,0,0,0,0,0,0,0,0,0,0,0,0,0,0,0,0,0,0,0,0,0,0,0,0,0,0,0,0,0,0,0,0,0,0,0,0,0],"id":4,"left_children":[1,3,5,7,9,11,13,15,-1,17,19,21,23,25,27,-1,29,31,33,35,-1,37,39,41,43,45,47,49,51,-1,-1,-1,-1,-1,-1,-1,-1,-1,-1,-1,-1,-1,-1,-1,-1,-1,-1,-1,-1,-1,-1,-1,-1],"loss_changes":[2.5471519E3,1.096575E3,4.174418E3,2.5294702E2,1.4476656E2,1.1606849E3,7.9667334E2,1.4106689E1,0E0,9.024495E1,3.7868305E1,1.0715544E3,2.0790588E2,1.1056363E2,4.3670117E2,0E0,1.2402832E1,5.196071E1,7.341758E1,6.0655327E1,0E0,2.480891E3,1.6002618E2,2.3846408E2,1.4674945E2,2.1102661E1,2.0857502E1,2.1419409E2,3.6607227E2,0E0,0E0,0E0,0E0,0E0,0E0,0E0,0E0,0E0,0E0,0E0,0E0,0E0,0E0,0E0,0E0,0E0,0E0,0E0,0E0,0E0,0E0,0E0,0E0],"parents":[2147483647,0,0,1,1,2,2,3,3,4,4,5,5,6,6,7,7,9,9,10,10,11,11,12,12,13,13,14,14,16,16,17,17,18,18,19,19,21,21,22,22,23,23,24,24,25,25,26,26,27,27,28,28],"right_children":[2,4,6,8,10,12,14,16,-1,18,20,22,24,26,28,-1,30,32,34,36,-1,38,40,42,44,46,48,50,52,-1,-1,-1,-1,-1,-1,-1,-1,-1,-1,-1,-1,-1,-1,-1,-1,-1,-1,-1,-1,-1,-1,-1,-1],"split_conditions":[3.221731E0,8.2478E-2,9.005139E-1,4.1841446E1,7.788906E-1,2.4913628E-2,3.3327E-2,1.4406407E0,3.6661685E-2,2.2768765E-8,6.7114094E-3,2.1663774E1,3.6889212E0,3.5914127E-8,9.208948E-1,-2.2795144E-2,3.5338265E-1,1.19585E-1,7.757449E-1,2.67416E-1,-3.706821E-2,4.9017E-2,7.6982725E-1,8.191599E-1,8.0768937E-1,2.3274458E2,2.3274458E2,1.2389526E-2,7.523082E-1,-7.177974E-2,-2.5815215E-2,-1.1684678E-3,-6.648472E-2,-6.930727E-2,8.091436E-5,2.2741433E-2,-6.700822E-2,-5.0682653E-2,-3.114343E-3,-2.6568353E-2,4.2249065E-2,-2.768594E-3,1.3131944E-2,2.5740538E-2,-7.487116E-2,-7.1644284E-2,-7.603928E-3,-2.0347575E-2,4.1002404E-2,8.476888E-3,2.3794336E-2,3.1519253E-2,-4.9971525E-2],"split_indices":[107,26,48,109,87,46,26,69,0,115,18,109,33,115,48,0,73,86,39,26,0,26,39,48,39,72,72,46,37,0,0,0,0,0,0,0,0,0,0,0,0,0,0,0,0,0,0,0,0,0,0,0,0],"split_type":[0,0,0,0,0,0,0,0,0,0,0,0,0,0,0,0,0,0,0,0,0,0,0,0,0,0,0,0,0,0,0,0,0,0,0,0,0,0,0,0,0,0,0,0,0,0,0,0,0,0,0,0,0],"sum_hessian":[5.592908E4,1.1711654E3,5.4757914E4,7.5783105E2,4.1333438E2,4.6665973E4,8.091943E3,7.366065E2,2.1224539E1,2.1729288E2,1.9604152E2,4.1082344E4,5.583626E3,1.2519017E2,7.966753E3,8.993434E0,7.2761304E2,6.791307E1,1.4937979E2,1.8494225E2,1.109927E1,4.0491375E4,5.909696E2,4.565597E3,1.01802875E3,1.0638732E2,1.8802853E1,3.6396062E3,4.3271465E3,7.181841E2,9.4289465E0,1.6505217E1,5.1407856E1,1.5427622E1,1.3395218E2,1.786903E2,6.251943E0,1.1136785E3,3.9377695E4,3.4204456E1,5.5676514E2,1.3026534E3,3.2629436E3,1.0049798E3,1.3048956E1,9.987061E1,6.5167036E0,8.50261E0,1.0300241E1,1.9319395E3,1.7076669E3,4.273387E3,5.375944E1],"tree_param":{"num_deleted":"0","num_feature":"120","num_nodes":"53","size_leaf_vector":"1"}},{"base_weights":[3.648261E-3,-2.3070115E-1,2.530038E-1,-1.5062752E0,-1.7287196E-1,-1.5064898E0,2.954356E-1,6.749338E-1,-1.6430883E0,-2.660564E-1,3.3471998E-2,-1.8451328E0,-4.8496178E-1,5.3794175E-1,3.1173188E-2,1.186957E0,-7.044633E-2,-2.0613887E0,-7.333934E-1,-9.668141E-1,-2.2853997E-1,4.754511E-2,-1.9936312E0,-2.163977E0,-1.303638E0,-6.861498E-2,-1.23472095E-1,6.054705E-1,-3.7048763E-1,-4.1861504E-2,2.4671037E-1,-8.673382E-3,4.3408427E-2,-6.6242754E-2,1.8288601E-2,-3.6244366E-2,-0E0,-3.795752E-2,1.5189657E-3,-1.4129583E-2,-4.423382E-3,-1.1930272E-3,1.5647499E-2,-7.748678E-2,4.2497655E-3,-2.0269854E-2,-7.089546E-2,8.025195E-3,-7.242606E-2,-7.3354326E-2,3.4889285E-3,1.4046534E-2,2.7099289E-2,-4.195124E-2,3.2083208E-3,-3.2572034E-3,8.3209025E-3,1.4885416E-2,4.6057135E-4],"categories":[],"categories_nodes":[],"categories_segments":[],"categories_sizes":[],"default_left":[0,0,0,0,0,0,0,0,0,0,0,0,0,0,0,0,0,0,0,0,0,0,0,0,0,0,0,0,0,0,0,0,0,0,0,0,0,0,0,0,0,0,0,0,0,0,0,0,0,0,0,0,0,0,0,0,0,0,0],"id":5,"left_children":[1,3,5,7,9,11,13,15,17,19,21,23,25,27,29,31,-1,33,35,37,39,41,43,45,47,-1,49,51,53,55,57,-1,-1,-1,-1,-1,-1,-1,-1,-1,-1,-1,-1,-1,-1,-1,-1,-1,-1,-1,-1,-1,-1,-1,-1,-1,-1,-1,-1],"loss_changes":[3.237603E3,2.1052485E3,2.0039841E3,3.7170483E2,5.2554156E2,2.1577795E2,1.6794866E3,1.1345726E2,4.3946948E2,4.9380762E2,2.4134029E2,7.532214E1,9.613937E1,8.389475E2,1.9765736E2,1.9377045E1,0E0,9.7614746E1,1.13486435E2,2.337334E2,3.4624457E2,3.251004E2,6.0398956E1,3.6463135E1,2.826581E2,0E0,7.1050476E1,5.1634863E2,4.316573E2,1.7714078E2,1.6679822E2,0E0,0E0,0E0,0E0,0E0,0E0,0E0,0E0,0E0,0E0,0E0,0E0,0E0,0E0,0E0,0E0,0E0,0E0,0E0,0E0,0E0,0E0,0E0,0E0,0E0,0E0,0E0,0E0],"parents":[2147483647,0,0,1,1,2,2,3,3,4,4,5,5,6,6,7,7,8,8,9,9,10,10,11,11,12,12,13,13,14,14,15,15,17,17,18,18,19,19,20,20,21,21,22,22,23,23,24,24,26,26,27,27,28,28,29,29,30,30],"right_children":[2,4,6,8,10,12,14,16,18,20,22,24,26,28,30,32,-1,34,36,38,40,42,44,46,48,-1,50,52,54,56,58,-1,-1,-1,-1,-1,-1,-1,-1,-1,-1,-1,-1,-1,-1,-1,-1,-1,-1,-1,-1,-1,-1,-1,-1,-1,-1,-1,-1],"split_conditions":[7.89421E-1,1.4176544E0,3.221731E0,2.2353905E2,1.04646385E-2,5.1117E-2,7.874008E-1,1.85957E-2,1.4673438E-2,5.4233205E-1,8.1014425E-1,1.587527E-2,7.747774E-1,3.468282E0,1.927007E0,1.1280569E-2,-7.044633E-2,6.361782E3,8.1014425E-1,1.3250015E0,2.2404102E2,3.5082438E0,9.644217E-1,-2.254198E-3,3.122347E0,-6.861498E-2,1.2842715E0,1.7844763E-1,5.081422E-1,1.41088E-1,9.478132E-2,-8.673382E-3,4.3408427E-2,-6.6242754E-2,1.8288601E-2,-3.6244366E-2,-0E0,-3.795752E-2,1.5189657E-3,-1.4129583E-2,-4.423382E-3,-1.1930272E-3,1.5647499E-2,-7.748678E-2,4.2497655E-3,-2.0269854E-2,-7.089546E-2,8.025195E-3,-7.242606E-2,-7.3354326E-2,3.4889285E-3,1.4046534E-2,2.7099289E-2,-4.195124E-2,3.2083208E-3,-3.2572034E-3,8.3209025E-3,1.4885416E-2,4.6057135E-4],"split_indices":[51,31,107,72,58,50,13,85,25,24,39,25,39,105,55,49,0,115,39,28,96,45,84,101,91,0,57,95,61,86,95,0,0,0,0,0,0,0,0,0,0,0,0,0,0,0,0,0,0,0,0,0,0,0,0,0,0,0,0],"split_type":[0,0,0,0,0,0,0,0,0,0,0,0,0,0,0,0,0,0,0,0,0,0,0,0,0,0,0,0,0,0,0,0,0,0,0,0,0,0,0,0,0,0,0,0,0,0,0,0,0,0,0,0,0,0,0,0,0,0,0],"sum_hessian":[5.5400727E4,2.8558426E4,2.68423E4,1.2364661E3,2.732196E4,6.3051514E2,2.6211785E4,7.235158E1,1.1641144E3,1.8823883E4,8.498078E3,4.721561E2,1.5835904E2,1.3666456E4,1.2545329E4,6.2480522E1,9.871055E0,7.956552E2,3.684592E2,9.538081E2,1.7870074E4,8.441246E3,5.6831818E1,2.9361588E2,1.7854022E2,2.6181566E1,1.3217747E2,1.2721974E4,9.444823E2,9.368856E3,3.1764727E3,6.8256035E0,5.565492E1,7.828749E2,1.2780361E1,2.3376259E2,1.3469661E2,7.7161993E2,1.821882E2,5.08469E3,1.2785385E4,7.0936914E3,1.3475547E3,4.6608597E1,1.0223219E1,1.7563955E1,2.7605194E2,6.992323E1,1.0861698E2,1.1674307E1,1.2050317E2,7.8580127E3,4.863961E3,3.1034448E2,6.341378E2,7.801044E3,1.5678127E3,1.6048984E3,1.5715741E3],"tree_param":{"num_deleted":"0","num_feature":"120","num_nodes":"59","size_leaf_vector":"1"}},{"base_weights":[-1.1684455E-2,2.5941715E-1,-3.152396E-1,6.271023E-1,1.1689043E-1,-1.6159617E0,-2.4104057E-1,-1.9688824E0,6.918877E-1,7.9138726E-2,1.3821702E0,-1.8391685E0,-6.667498E-1,-8.821455E-1,-1.6395101E-1,-0E0,-2.2018683E0,-7.525545E-1,7.478698E-1,3.0049077E-1,-2.7931752E-2,4.9599242E-1,1.4110652E0,-2.028762E0,-2.998177E-1,-2.5218767E-1,-1.955609E0,-7.9804665E-1,-1.8533419E0,-1.4432762E0,-1.2997371E-1,-3.521114E-2,3.1289294E-2,-7.113418E-2,-1.3623996E-2,6.353499E-3,-5.8357254E-2,3.402382E-2,1.7452743E-2,6.4137587E-3,1.7282246E-2,-3.4317495E-3,7.453575E-3,-2.5279764E-2,4.0482037E-2,4.4885527E-2,2.1663865E-2,-5.2447673E-2,-6.802631E-2,3.0712618E-2,-6.859176E-2,-3.6836546E-2,4.349234E-3,-7.505137E-2,-0E0,-2.1783717E-2,-4.3443054E-2,-3.3955302E-3,-6.936755E-2,-5.8957033E-2,-1.2377162E-3,-1.0091783E-3,-1.2786206E-2],"categories":[],"categories_nodes":[],"categories_segments":[],"categories_sizes":[],"default_left":[0,0,0,0,0,0,0,0,0,0,0,0,0,0,0,0,0,0,0,0,0,0,0,0,0,0,0,0,0,0,0,0,0,0,0,0,0,0,0,0,0,0,0,0,0,0,0,0,0,0,0,0,0,0,0,0,0,0,0,0,0,0,0],"id":6,"left_children":[1,3,5,7,9,11,13,15,17,19,21,23,25,27,29,31,33,35,37,39,41,43,45,47,49,51,53,55,57,59,61,-1,-1,-1,-1,-1,-1,-1,-1,-1,-1,-1,-1,-1,-1,-1,-1,-1,-1,-1,-1,-1,-1,-1,-1,-1,-1,-1,-1,-1,-1,-1,-1],"loss_changes":[4.5199155E3,1.5197498E3,2.499026E3,1.3639087E3,9.976924E2,2.926582E2,1.2107317E3,9.068628E1,6.401936E2,4.814611E2,1.3211914E1,3.274077E2,1.4153687E2,2.1089941E2,9.5007825E2,2.654129E1,1.5537598E1,3.1259668E2,4.885752E2,1.5857379E2,2.943443E2,2.4594727E1,3.9987793E0,4.0914062E1,3.0662558E2,7.470632E1,5.5037292E1,1.4621033E2,1.2598834E2,3.4123096E2,5.7700836E2,0E0,0E0,0E0,0E0,0E0,0E0,0E0,0E0,0E0,0E0,0E0,0E0,0E0,0E0,0E0,0E0,0E0,0E0,0E0,0E0,0E0,0E0,0E0,0E0,0E0,0E0,0E0,0E0,0E0,0E0,0E0,0E0],"parents":[2147483647,0,0,1,1,2,2,3,3,4,4,5,5,6,6,7,7,8,8,9,9,10,10,11,11,12,12,13,13,14,14,15,15,16,16,17,17,18,18,19,19,20,20,21,21,22,22,23,23,24,24,25,25,26,26,27,27,28,28,29,29,30,30],"right_children":[2,4,6,8,10,12,14,16,18,20,22,24,26,28,30,32,34,36,38,40,42,44,46,48,50,52,54,56,58,60,62,-1,-1,-1,-1,-1,-1,-1,-1,-1,-1,-1,-1,-1,-1,-1,-1,-1,-1,-1,-1,-1,-1,-1,-1,-1,-1,-1,-1,-1,-1,-1,-1],"split_conditions":[4.336904E5,5.567639E-1,2.165863E-3,3.5255138E5,8.696101E-2,5.5733E-2,4.4750647E5,2.2669353E2,1.1743643E-2,7.661523E-1,6.223974E-1,6.114522E3,2.2683722E2,2.2736546E2,5.1673E-2,2.2662598E2,2.2698614E-1,1.9967911E6,2.2423833E2,3.0229997E-2,4.0894478E5,1.273E0,3.9140872E5,2.331609E0,2.2645622E2,8.7767625E-1,2.2748865E-3,4.4492378E5,7.7208054E-1,7.0428365E-1,2.05835E6,-3.521114E-2,3.1289294E-2,-7.113418E-2,-1.3623996E-2,6.353499E-3,-5.8357254E-2,3.402382E-2,1.7452743E-2,6.4137587E-3,1.7282246E-2,-3.4317495E-3,7.453575E-3,-2.5279764E-2,4.0482037E-2,4.4885527E-2,2.1663865E-2,-5.2447673E-2,-6.802631E-2,3.0712618E-2,-6.859176E-2,-3.6836546E-2,4.349234E-3,-7.505137E-2,-0E0,-2.1783717E-2,-4.3443054E-2,-3.3955302E-3,-6.936755E-2,-5.8957033E-2,-1.2377162E-3,-1.0091783E-3,-1.2786206E-2],"split_indices":[12,24,34,12,113,26,12,60,25,56,20,119,60,60,26,60,34,108,60,37,12,74,12,69,60,84,101,12,39,27,108,0,0,0,0,0,0,0,0,0,0,0,0,0,0,0,0,0,0,0,0,0,0,0,0,0,0,0,0,0,0,0,0],"split_type":[0,0,0,0,0,0,0,0,0,0,0,0,0,0,0,0,0,0,0,0,0,0,0,0,0,0,0,0,0,0,0,0,0,0,0,0,0,0,0,0,0,0,0,0,0,0,0,0,0,0,0,0,0,0,0,0,0,0,0,0,0,0,0],"sum_hessian":[5.4920414E4,2.9009988E4,2.5910424E4,8.101194E3,2.0908795E4,1.3961434E3,2.4514281E4,1.9594334E2,7.9052505E3,2.0305053E4,6.037416E2,1.1286597E3,2.674838E2,2.6287405E3,2.188554E4,2.086507E1,1.7507828E2,2.938271E2,7.6114233E3,6.6208574E3,1.3684195E4,2.06298E1,5.831118E2,1.00409424E3,1.2456537E2,2.0411221E2,6.33716E1,2.4223572E3,2.0638342E2,5.641251E2,2.1321414E4,9.703532E0,1.1161538E1,1.6857082E2,6.5074663E0,1.5784833E2,1.3597878E2,2.7827932E3,4.82863E3,4.7750835E3,1.8457738E3,1.0476894E4,3.2073022E3,7.484464E0,1.3145336E1,5.68013E2,1.5098794E1,2.7901434E2,7.250799E2,7.443064E1,5.0134724E1,6.047407E1,1.4363814E2,5.1730488E1,1.164111E1,2.0554573E3,3.6689972E2,3.530781E1,1.7107562E2,4.3077893E2,1.3334619E2,1.5751349E4,5.570066E3],"tree_param":{"num_deleted":"0","num_feature":"120","num_nodes":"63","size_leaf_vector":"1"}},{"base_weights":[4.0550143E-3,2.6590684E-1,-2.8578627E-1,5.225104E-1,7.581975E-3,-1.8117498E0,-1.9908395E-1,-1.8656671E0,5.516604E-1,-1.5275408E-1,3.1012878E-1,-1.9726092E0,-2.4661127E-1,-8.3220285E-1,-1.2907435E-1,-6.722775E-2,4.0104434E-1,8.738766E-1,4.0996176E-1,-9.409782E-3,-3.1877646E-1,5.252318E-1,1.8067482E-1,-2.0690043E0,-1.046172E0,8.9220756E-1,-6.725345E-2,-7.2629213E-1,-1.9476076E0,5.132195E-2,-4.0048414E-1,-2.0814974E-2,3.8571212E-2,3.3448488E-2,8.531873E-3,6.371657E-3,2.0083569E-2,-3.4905258E-3,6.057775E-3,4.4959537E-3,-1.2638302E-2,1.8131988E-2,-4.462795E-3,6.514489E-3,-6.9656014E-2,-6.750266E-2,-5.604386E-2,-6.6857085E-2,-3.7127347E-3,3.844704E-2,-0E0,-1.9411292E-2,-5.502721E-2,-9.3890345E-3,-6.8437204E-2,6.714516E-3,-1.2185839E-2,-1.51905995E-2,-1.5795232E-4],"categories":[],"categories_nodes":[],"categories_segments":[],"categories_sizes":[],"default_left":[0,0,0,0,0,0,0,0,0,0,0,0,0,0,0,0,0,0,0,0,0,0,0,0,0,0,0,0,0,0,0,0,0,0,0,0,0,0,0,0,0,0,0,0,0,0,0,0,0,0,0,0,0,0,0,0,0,0,0],"id":7,"left_children":[1,3,5,7,9,11,13,15,17,19,21,23,25,27,29,-1,31,33,35,37,39,41,43,45,47,49,-1,51,53,55,57,-1,-1,-1,-1,-1,-1,-1,-1,-1,-1,-1,-1,-1,-1,-1,-1,-1,-1,-1,-1,-1,-1,-1,-1,-1,-1,-1,-1],"loss_changes":[4.1926216E3,1.9235374E3,3.4669927E3,1.0141997E3,7.019099E2,3.5256982E2,1.0989482E3,1.1070886E2,6.554072E2,2.2478983E2,1.38982E2,1.0880176E2,2.9104327E2,2.8784827E2,1.0942194E3,0E0,1.8955587E1,5.006809E2,4.7316772E2,1.0418612E2,1.6825964E2,6.480658E1,1.980921E2,1.741211E1,1.22423004E2,2.5401337E1,0E0,2.488645E2,7.758832E1,9.552328E2,2.909536E2,0E0,0E0,0E0,0E0,0E0,0E0,0E0,0E0,0E0,0E0,0E0,0E0,0E0,0E0,0E0,0E0,0E0,0E0,0E0,0E0,0E0,0E0,0E0,0E0,0E0,0E0,0E0,0E0],"parents":[2147483647,0,0,1,1,2,2,3,3,4,4,5,5,6,6,7,7,8,8,9,9,10,10,11,11,12,12,13,13,14,14,16,16,17,17,18,18,19,19,20,20,21,21,22,22,23,23,24,24,25,25,27,27,28,28,29,29,30,30],"right_children":[2,4,6,8,10,12,14,16,18,20,22,24,26,28,30,-1,32,34,36,38,40,42,44,46,48,50,-1,52,54,56,58,-1,-1,-1,-1,-1,-1,-1,-1,-1,-1,-1,-1,-1,-1,-1,-1,-1,-1,-1,-1,-1,-1,-1,-1,-1,-1,-1,-1],"split_conditions":[2.0969752E8,8.953784E-3,2.8465599E-2,3.5178034E5,2.02095E8,2.6808742E-1,2.13462E8,8.0712974E-1,1E0,1.5456442E2,2.0481E8,9.644217E-1,2.263682E2,2.13055E8,1.3422819E-2,-6.722775E-2,5.4155283E0,2.2679907E2,2.4803178E-2,7.015136E-1,6.688963E-3,1.1916203E-2,2.2849161E2,2.2920161E-2,6.975491E-1,4.8932744E5,-6.725345E-2,2.2789276E2,6.024453E-1,2.304859E8,1.1764706E-1,-2.0814974E-2,3.8571212E-2,3.3448488E-2,8.531873E-3,6.371657E-3,2.0083569E-2,-3.4905258E-3,6.057775E-3,4.4959537E-3,-1.2638302E-2,1.8131988E-2,-4.462795E-3,6.514489E-3,-6.9656014E-2,-6.750266E-2,-5.604386E-2,-6.6857085E-2,-3.7127347E-3,3.844704E-2,-0E0,-1.9411292E-2,-5.502721E-2,-9.3890345E-3,-6.8437204E-2,6.714516E-3,-1.2185839E-2,-1.51905995E-2,-1.5795232E-4],"split_indices":[0,17,35,12,0,113,0,84,14,19,0,84,72,0,114,0,71,72,37,27,30,17,60,35,68,12,0,72,68,0,114,0,0,0,0,0,0,0,0,0,0,0,0,0,0,0,0,0,0,0,0,0,0,0,0,0,0,0,0],"split_type":[0,0,0,0,0,0,0,0,0,0,0,0,0,0,0,0,0,0,0,0,0,0,0,0,0,0,0,0,0,0,0,0,0,0,0,0,0,0,0,0,0,0,0,0,0,0,0,0,0,0,0,0,0,0,0,0,0,0,0],"sum_hessian":[5.523925E4,2.9022121E4,2.6217129E4,1.4557538E4,1.4464583E4,1.4075282E3,2.48096E4,1.7414859E2,1.438339E4,9.453324E3,5.0112593E3,1.2756205E3,1.3190782E2,2.4677214E3,2.2341879E4,1.5582068E2,1.8327913E1,4.389527E3,9.993862E3,5.076105E3,4.377219E3,1.8791847E3,3.1320747E3,1.1531051E3,1.2251528E2,8.261605E1,4.9291767E1,2.2564966E3,2.1122472E2,1.3420529E4,8.92135E3,7.7936587E0,1.0534254E1,3.3367534E3,1.0527737E3,5.244003E3,4.74986E3,3.3803772E3,1.6957277E3,6.6623315E2,3.7109858E3,1.7460289E3,1.3315579E2,3.0994521E3,3.2622673E1,8.986518E2,2.5445338E2,5.5420734E1,6.709454E1,6.030392E1,2.2312132E1,2.0419407E3,2.1455598E2,2.6476727E1,1.8474799E2,9.800463E3,3.620067E3,7.3790967E3,1.5422528E3],"tree_param":{"num_deleted":"0","num_feature":"120","num_nodes":"59","size_leaf_vector":"1"}},{"base_weights":[2.8184868E-2,-6.5595776E-2,5.837222E-1,-8.131269E-1,-1.8643957E-2,-1.3743129E0,6.816733E-1,-1.2882079E0,9.6694815E-1,1.3519827E-1,-1.580694E-1,-7.8973526E-1,-6.6120274E-2,-6.709988E-2,7.0758295E-1,-6.468486E-1,-1.7378205E0,1.3726617E0,-1.1184522E0,4.6443835E-1,3.568114E-2,-4.6396233E-2,-3.5370523E-1,2.7003643E-1,-1.5549855E0,3.956459E-1,8.92222E-1,-6.324617E-2,-1.2001923E-2,-1.3765608E-2,-5.954577E-2,1.7686186E-2,4.3455932E-2,2.0223386E-3,-6.388957E-2,1.3189766E-2,3.9644152E-2,-2.4561954E-3,8.686472E-3,-2.0995805E-2,3.3770958E-3,-2.2407342E-2,-9.10207E-3,-6.857431E-2,3.1853966E-2,-6.918272E-2,-2.4383469E-2,-5.8282714E-2,1.3678542E-2,-6.7643456E-2,2.8439103E-2],"categories":[],"categories_nodes":[],"categories_segments":[],"categories_sizes":[],"default_left":[0,0,0,0,0,0,0,0,0,0,0,0,0,0,0,0,0,0,0,0,0,0,0,0,0,0,0,0,0,0,0,0,0,0,0,0,0,0,0,0,0,0,0,0,0,0,0,0,0,0,0],"id":8,"left_children":[1,3,5,7,9,11,13,15,17,19,21,23,-1,-1,25,27,29,31,33,35,37,39,41,43,45,47,49,-1,-1,-1,-1,-1,-1,-1,-1,-1,-1,-1,-1,-1,-1,-1,-1,-1,-1,-1,-1,-1,-1,-1,-1],"loss_changes":[2.910067E3,1.6765295E3,1.5482048E3,2.3894185E3,9.644554E2,1.593274E2,5.618367E2,6.396001E2,5.060824E2,6.999785E2,5.150682E2,1.7677214E2,0E0,0E0,4.372644E2,3.3077237E2,2.6208423E2,1.2768555E0,1.0678148E2,1.7592139E2,4.4945096E2,1.4354557E3,1.9668091E2,1.691649E2,5.8925964E1,2.5091937E2,1.7790576E2,0E0,0E0,0E0,0E0,0E0,0E0,0E0,0E0,0E0,0E0,0E0,0E0,0E0,0E0,0E0,0E0,0E0,0E0,0E0,0E0,0E0,0E0,0E0,0E0],"parents":[2147483647,0,0,1,1,2,2,3,3,4,4,5,5,6,6,7,7,8,8,9,9,10,10,11,11,14,14,15,15,16,16,17,17,18,18,19,19,20,20,21,21,22,22,23,23,24,24,25,25,26,26],"right_children":[2,4,6,8,10,12,14,16,18,20,22,24,-1,-1,26,28,30,32,34,36,38,40,42,44,46,48,50,-1,-1,-1,-1,-1,-1,-1,-1,-1,-1,-1,-1,-1,-1,-1,-1,-1,-1,-1,-1,-1,-1,-1,-1],"split_conditions":[9.005139E-1,5.7012E-2,4.0609E-2,2.6024288E-1,4.336904E5,1.6556962E-1,1.8604597E8,2.1361003E0,2.1705658E8,7.760262E-1,1.3422819E-2,2.0379232E8,-6.6120274E-2,-6.709988E-2,9.06957E-1,4.0596075E0,2.2423833E2,-9.383448E-1,2.2645622E2,2.3546152E0,4.0502672E5,4.4997878E5,4.6545262E5,3.794279E5,7.7531654E-1,5.093922E0,3.35E-1,-6.324617E-2,-1.2001923E-2,-1.3765608E-2,-5.954577E-2,1.7686186E-2,4.3455932E-2,2.0223386E-3,-6.388957E-2,1.3189766E-2,3.9644152E-2,-2.4561954E-3,8.686472E-3,-2.0995805E-2,3.3770958E-3,-2.2407342E-2,-9.10207E-3,-6.857431E-2,3.1853966E-2,-6.918272E-2,-2.4383469E-2,-5.8282714E-2,1.3678542E-2,-6.7643456E-2,2.8439103E-2],"split_indices":[48,26,26,113,12,88,0,105,0,32,114,0,0,0,36,107,60,88,60,118,12,12,12,12,32,107,98,0,0,0,0,0,0,0,0,0,0,0,0,0,0,0,0,0,0,0,0,0,0,0,0],"split_type":[0,0,0,0,0,0,0,0,0,0,0,0,0,0,0,0,0,0,0,0,0,0,0,0,0,0,0,0,0,0,0,0,0,0,0,0,0,0,0,0,0,0,0,0,0,0,0,0,0,0,0],"sum_hessian":[5.584778E4,4.778183E4,8.065953E3,2.8215242E3,4.4960305E4,3.830384E2,7.6829146E3,2.2277432E3,5.93781E2,2.1372838E4,2.3587465E4,2.1468283E2,1.6835558E2,6.8731285E1,7.6141836E3,9.201905E2,1.3075527E3,4.9776227E2,9.601877E1,4.957976E3,1.6414863E4,1.5019302E4,8.568163E3,9.006284E1,1.2461999E2,2.834189E3,4.7799946E3,1.4777939E2,7.7241113E2,1.4083055E2,1.1667222E3,7.3908253E0,4.9037143E2,4.212129E1,5.3897476E1,4.6954907E3,2.6248553E2,1.1142288E4,5.2725737E3,2.980063E3,1.2039239E4,1.2979226E3,7.2702407E3,2.0077845E1,6.9985E1,6.626615E1,5.8353836E1,4.7220406E1,2.7869685E3,1.7653627E1,4.762341E3],"tree_param":{"num_deleted":"0","num_feature":"120","num_nodes":"51","size_leaf_vector":"1"}},{"base_weights":[1.6511096E-2,-7.539081E-2,4.519705E-1,1.5023437E-1,-2.9832664E-1,6.955928E-1,4.0295523E-2,3.4501162E-1,4.2656553E-3,-1.4965789E0,-2.4190481E-1,9.265366E-1,4.6218726E-1,-1.7838742E0,9.47901E-2,-1.4121672E0,3.7665075E-1,-7.115873E-2,2.6958275E-1,3.7259892E-1,-1.6858329E0,-1.3442808E0,-1.9629489E-1,1.1741569E0,7.2182256E-1,-5.2673256E-1,5.5577075E-1,-7.735414E-2,-6.739459E-2,-1.8840278E0,1.349077E-1,-4.61763E-3,-6.347004E-2,2.3581687E-2,8.264481E-3,-1.1708597E-2,-3.9956157E-4,4.882114E-3,1.9074278E-2,3.192753E-2,-2.1839065E-2,-1.9266974E-2,-5.9459414E-2,-1.7743148E-2,-5.8269776E-2,-1.4512957E-2,-3.0941914E-3,3.8210455E-2,2.5109118E-2,3.2889485E-2,2.1092976E-2,-5.5696595E-2,3.0321942E-3,1.8636122E-2,-1.7470598E-2,-5.499022E-2,3.3747822E-2,-3.1821416E-3,-6.484041E-2,1.9635387E-5,1.4573289E-2],"categories":[],"categories_nodes":[],"categories_segments":[],"categories_sizes":[],"default_left":[0,0,0,0,0,0,0,0,0,0,0,0,0,0,0,0,0,0,0,0,0,0,0,0,0,0,0,0,0,0,0,0,0,0,0,0,0,0,0,0,0,0,0,0,0,0,0,0,0,0,0,0,0,0,0,0,0,0,0,0,0],"id":9,"left_children":[1,3,5,7,9,11,13,15,17,19,21,23,25,27,29,31,33,35,37,39,41,43,45,47,49,51,53,55,-1,57,59,-1,-1,-1,-1,-1,-1,-1,-1,-1,-1,-1,-1,-1,-1,-1,-1,-1,-1,-1,-1,-1,-1,-1,-1,-1,-1,-1,-1,-1,-1],"loss_changes":[2.210512E3,2.2940374E3,9.648959E2,6.4416046E2,1.5492863E3,3.2436768E2,3.5514902E2,5.397887E2,2.5948697E2,3.6644116E2,1.1002847E3,1.5141406E2,2.7915155E2,6.1801086E1,2.7542505E2,1.2976782E2,4.0428674E2,1.7735489E2,1.0996205E2,6.685872E1,2.0256104E2,3.419176E2,5.459166E2,1.8281006E1,2.5447388E1,2.0333725E2,1.1313788E2,4.1427555E1,0E0,2.0114761E1,1.5019046E2,0E0,0E0,0E0,0E0,0E0,0E0,0E0,0E0,0E0,0E0,0E0,0E0,0E0,0E0,0E0,0E0,0E0,0E0,0E0,0E0,0E0,0E0,0E0,0E0,0E0,0E0,0E0,0E0,0E0,0E0],"parents":[2147483647,0,0,1,1,2,2,3,3,4,4,5,5,6,6,7,7,8,8,9,9,10,10,11,11,12,12,13,13,14,14,15,15,16,16,17,17,18,18,19,19,20,20,21,21,22,22,23,23,24,24,25,25,26,26,27,27,29,29,30,30],"right_children":[2,4,6,8,10,12,14,16,18,20,22,24,26,28,30,32,34,36,38,40,42,44,46,48,50,52,54,56,-1,58,60,-1,-1,-1,-1,-1,-1,-1,-1,-1,-1,-1,-1,-1,-1,-1,-1,-1,-1,-1,-1,-1,-1,-1,-1,-1,-1,-1,-1,-1,-1],"split_conditions":[3.7378296E-2,1.9988E6,1.9988E6,2.889607E-1,8.327468E-1,2.242636E2,4.19E-1,2.5014074E0,1.3075246E0,2.2366714E2,3.7473444E-2,1.4788836E-3,3.7412133E0,-4.7549496E0,2.7105441E-2,7.9152215E-1,1.4788836E-3,1.5429478E0,1.02554E-1,5.051834E0,1.6305745E0,2.2651442E2,2.2319566E2,1.99851E6,2.2057558E2,5.1586E-2,2.3732393E1,4.4559755E0,-6.739459E-2,-1.564617E0,3.7816846E0,-4.61763E-3,-6.347004E-2,2.3581687E-2,8.264481E-3,-1.1708597E-2,-3.9956157E-4,4.882114E-3,1.9074278E-2,3.192753E-2,-2.1839065E-2,-1.9266974E-2,-5.9459414E-2,-1.7743148E-2,-5.8269776E-2,-1.4512957E-2,-3.0941914E-3,3.8210455E-2,2.5109118E-2,3.2889485E-2,2.1092976E-2,-5.5696595E-2,3.0321942E-3,1.8636122E-2,-1.7470598E-2,-5.499022E-2,3.3747822E-2,-3.1821416E-3,-6.484041E-2,1.9635387E-5,1.4573289E-2],"split_indices":[94,108,108,35,31,60,62,107,93,60,35,22,107,88,35,87,22,69,38,21,105,72,60,108,72,50,23,55,0,16,45,0,0,0,0,0,0,0,0,0,0,0,0,0,0,0,0,0,0,0,0,0,0,0,0,0,0,0,0,0,0],"split_type":[0,0,0,0,0,0,0,0,0,0,0,0,0,0,0,0,0,0,0,0,0,0,0,0,0,0,0,0,0,0,0,0,0,0,0,0,0,0,0,0,0,0,0,0,0,0,0,0,0,0,0,0,0,0,0,0,0,0,0,0,0],"sum_hessian":[5.5226906E4,4.5602426E4,9.624479E3,2.2663293E4,2.2939135E4,6.0447095E3,3.5797693E3,9.705712E3,1.295758E4,1.0293334E3,2.1909803E4,3.0347551E3,3.0099546E3,1.0212497E2,3.4776443E3,1.7015599E2,9.535557E3,1.0088298E4,2.8692825E3,9.4187874E1,9.3514557E2,8.6823676E2,2.1041564E4,1.3688213E3,1.6659337E3,2.590159E2,2.7509387E3,1.838569E1,8.373928E1,6.74243E1,3.41022E3,5.605166E1,1.1410434E2,2.2258015E3,7.309755E3,1.6367323E3,8.451565E3,2.1453599E3,7.2392255E2,5.9211952E1,3.4975925E1,1.5135527E2,7.837903E2,3.4439822E2,5.238385E2,5.670431E3,1.5371134E4,1.2300122E3,1.3880902E2,2.2130678E2,1.444627E3,8.586916E1,1.7314673E2,2.6639553E3,8.698328E1,7.4136043E0,1.0972087E1,6.6579647E0,6.0766335E1,2.4231497E3,9.870704E2],"tree_param":{"num_deleted":"0","num_feature":"120","num_nodes":"61","size_leaf_vector":"1"}},{"base_weights":[1.3572332E-2,2.658093E-1,-2.6811844E-1,5.27676E-1,4.9951643E-2,-1.7235775E0,-2.219513E-1,-7.019011E-1,5.750482E-1,-7.710008E-2,3.033344E-1,-6.1066426E-2,-1.1552098E0,-6.6007435E-1,-1.5676847E-1,4.1656513E-2,-1.8244568E0,4.3452588E-1,8.6998546E-1,1.3257252E-1,-1.8074211E-1,4.626829E-1,1.2660366E-1,-1.6985239E0,-0E0,-8.4158933E-1,-3.2375187E-1,-2.2616722E-1,2.1435922E-1,-6.05238E-2,6.715474E-3,-6.3058324E-2,-2.5387047E-2,7.03745E-3,2.1538805E-2,3.3643052E-2,1.91183E-2,5.128609E-3,-2.5603475E-2,-2.6106853E-3,-1.3760508E-2,1.6055075E-2,-5.1923124E-3,-3.2363296E-2,6.5428857E-3,-6.254149E-2,-4.300859E-3,-4.0531747E-2,3.2955725E-2,-2.7949052E-2,9.542836E-3,-5.4848664E-2,-8.258242E-3,-3.95769E-2,-5.7872785E-3,1.5838621E-2,4.7715157E-4],"categories":[],"categories_nodes":[],"categories_segments":[],"categories_sizes":[],"default_left":[0,0,0,0,0,0,0,0,0,0,0,0,0,0,0,0,0,0,0,0,0,0,0,0,0,0,0,0,0,0,0,0,0,0,0,0,0,0,0,0,0,0,0,0,0,0,0,0,0,0,0,0,0,0,0,0,0],"id":10,"left_children":[1,3,5,7,9,11,13,15,17,19,21,-1,23,25,27,29,31,33,35,37,39,41,43,45,47,49,51,53,55,-1,-1,-1,-1,-1,-1,-1,-1,-1,-1,-1,-1,-1,-1,-1,-1,-1,-1,-1,-1,-1,-1,-1,-1,-1,-1,-1,-1],"loss_changes":[3.921073E3,1.6453916E3,1.7498733E3,7.6673193E2,5.140771E2,9.39707E1,7.209752E2,4.0873688E2,5.236035E2,2.3109747E2,1.4971796E2,0E0,1.4260803E2,1.9851648E2,5.66721E2,9.9102295E1,3.1576233E1,4.5212378E2,2.1181787E2,1.01305016E2,1.7823576E2,8.449707E1,2.3817125E2,6.812192E1,1.01719124E2,1.1531885E2,9.791848E1,8.051516E2,1.9931195E2,0E0,0E0,0E0,0E0,0E0,0E0,0E0,0E0,0E0,0E0,0E0,0E0,0E0,0E0,0E0,0E0,0E0,0E0,0E0,0E0,0E0,0E0,0E0,0E0,0E0,0E0,0E0,0E0],"parents":[2147483647,0,0,1,1,2,2,3,3,4,4,5,5,6,6,7,7,8,8,9,9,10,10,12,12,13,13,14,14,15,15,16,16,17,17,18,18,19,19,20,20,21,21,22,22,23,23,24,24,25,25,26,26,27,27,28,28],"right_children":[2,4,6,8,10,12,14,16,18,20,22,-1,24,26,28,30,32,34,36,38,40,42,44,46,48,50,52,54,56,-1,-1,-1,-1,-1,-1,-1,-1,-1,-1,-1,-1,-1,-1,-1,-1,-1,-1,-1,-1,-1,-1,-1,-1,-1,-1,-1,-1],"split_conditions":[4.336904E5,8.274113E-3,4.78E-1,1.97621E6,1.9965E6,3.3693838E0,1.99882E6,2.2933308E2,5.883337E-1,2.7666667E-1,1.99851E6,-6.1066426E-2,2.2984616E2,3.8392013E-1,1.0765183E-1,5.78E-1,6.425051E-1,2.6689114E-2,2.2555746E2,9.200149E-1,3.6827025E0,5.333368E-1,7.7441084E-1,6.0997534E0,6.8597096E-1,9.644217E-1,4.631203E0,1.5065541E-2,6.514003E-1,-6.05238E-2,6.715474E-3,-6.3058324E-2,-2.5387047E-2,7.03745E-3,2.1538805E-2,3.3643052E-2,1.91183E-2,5.128609E-3,-2.5603475E-2,-2.6106853E-3,-1.3760508E-2,1.6055075E-2,-5.1923124E-3,-3.2363296E-2,6.5428857E-3,-6.254149E-2,-4.300859E-3,-4.0531747E-2,3.2955725E-2,-2.7949052E-2,9.542836E-3,-5.4848664E-2,-8.258242E-3,-3.95769E-2,-5.7872785E-3,1.5838621E-2,4.7715157E-4],"split_indices":[12,17,74,108,108,31,108,96,20,30,108,0,72,28,47,62,27,94,96,84,31,116,87,71,27,84,71,25,44,0,0,0,0,0,0,0,0,0,0,0,0,0,0,0,0,0,0,0,0,0,0,0,0,0,0,0,0],"split_type":[0,0,0,0,0,0,0,0,0,0,0,0,0,0,0,0,0,0,0,0,0,0,0,0,0,0,0,0,0,0,0,0,0,0,0,0,0,0,0,0,0,0,0,0,0,0,0,0,0,0,0,0,0,0,0,0,0],"sum_hessian":[5.518238E4,2.911451E4,2.6067867E4,1.3152926E4,1.5961583E4,7.9935754E2,2.526851E4,4.8667462E2,1.2666252E4,1.0629944E4,5.331639E3,5.7417896E2,2.2517859E2,3.2694565E3,2.1999055E4,2.9326663E2,1.9340796E2,8.582853E3,4.083399E3,3.5140781E3,7.1158657E3,2.8004888E3,2.5311501E3,1.5279498E2,7.2383606E1,2.1207197E3,1.1487367E3,1.8535385E4,3.463669E3,2.2054081E1,2.7121255E2,1.6246739E2,3.0940575E1,4.66306E3,3.9197925E3,2.3129438E3,1.7704551E3,3.4062341E3,1.0784408E2,5.1576826E3,1.9581832E3,2.6034312E3,1.970577E2,1.649732E2,2.366177E3,1.281592E2,2.4635786E1,3.222071E1,4.016289E1,2.037741E3,8.297873E1,4.529382E1,1.1034429E3,7.2473486E2,1.781065E4,1.4101583E3,2.0535107E3],"tree_param":{"num_deleted":"0","num_feature":"120","num_nodes":"57","size_leaf_vector":"1"}},{"base_weights":[2.1039635E-2,2.5771898E-1,-2.3654217E-1,1.4159678E-1,7.250265E-1,-1.5298486E0,-1.5099384E-1,2.6966417E-1,-9.7038366E-2,-5.365946E-1,7.7134323E-1,-1.7903346E0,-6.522881E-1,-5.7909125E-1,-8.545125E-2,2.3995931E-1,4.107134E-2,-1.69563E-1,3.2240856E-1,-1.6486211E0,3.0410212E-1,-3.269907E-1,8.113644E-1,-1.062411E0,-1.9076722E0,-6.0356837E-2,-1.6504389E-1,-2.0070176E0,-5.444402E-1,8.711003E-2,-3.2828364E-1,-4.9969167E-2,8.186371E-3,2.5366736E-3,-8.930616E-3,1.4071668E-2,-1.1499106E-2,-1.0908618E-2,-6.3081115E-2,2.7231216E-2,-6.291484E-2,-1.0654989E-3,-7.2124444E-2,3.0956715E-2,1.8609954E-2,2.585028E-2,-4.2832084E-2,-6.0725134E-2,-1.4846968E-2,-2.0529862E-2,2.2141514E-2,-4.9853417E-5,-6.86275E-2,-2.6477225E-2,-1.1086141E-2,8.108896E-3,-1.068041E-2,-2.7144928E-3,-1.7225958E-2],"categories":[],"categories_nodes":[],"categories_segments":[],"categories_sizes":[],"default_left":[0,0,0,0,0,0,0,0,0,0,0,0,0,0,0,0,0,0,0,0,0,0,0,0,0,0,0,0,0,0,0,0,0,0,0,0,0,0,0,0,0,0,0,0,0,0,0,0,0,0,0,0,0,0,0,0,0,0,0],"id":11,"left_children":[1,3,5,7,9,11,13,15,17,19,21,23,25,27,29,31,-1,33,35,37,39,41,43,45,47,-1,49,51,53,55,57,-1,-1,-1,-1,-1,-1,-1,-1,-1,-1,-1,-1,-1,-1,-1,-1,-1,-1,-1,-1,-1,-1,-1,-1,-1,-1,-1,-1],"loss_changes":[3.3876055E3,1.5707693E3,2.9423818E3,7.0913477E2,3.374922E2,3.7388184E2,6.99793E2,4.6332617E2,2.4642207E2,1.9274498E2,2.4508789E2,1.0361279E2,2.3312045E2,1.6059814E2,9.0731506E2,5.4614575E2,0E0,1.9797105E2,1.0297467E2,3.8621307E1,1.5375166E2,1.11297325E2,2.0192896E2,1.039413E2,3.3545166E1,0E0,1.18025085E2,2.5787079E1,1.8354938E2,9.2205444E2,4.771709E2,0E0,0E0,0E0,0E0,0E0,0E0,0E0,0E0,0E0,0E0,0E0,0E0,0E0,0E0,0E0,0E0,0E0,0E0,0E0,0E0,0E0,0E0,0E0,0E0,0E0,0E0,0E0,0E0],"parents":[2147483647,0,0,1,1,2,2,3,3,4,4,5,5,6,6,7,7,8,8,9,9,10,10,11,11,12,12,13,13,14,14,15,15,17,17,18,18,19,19,20,20,21,21,22,22,23,23,24,24,26,26,27,27,28,28,29,29,30,30],"right_children":[2,4,6,8,10,12,14,16,18,20,22,24,26,28,30,32,-1,34,36,38,40,42,44,46,48,-1,50,52,54,56,58,-1,-1,-1,-1,-1,-1,-1,-1,-1,-1,-1,-1,-1,-1,-1,-1,-1,-1,-1,-1,-1,-1,-1,-1,-1,-1,-1,-1],"split_conditions":[1.9988E6,4.1486032E-2,5.0292E-2,2.6755852E-1,2.9899628E0,5.400062E-1,1.99882E6,7.92878E0,4.0894478E5,3.5558056E5,1.9765688E6,1.8685188E0,6.0299733E-3,5.59E-1,1.3422819E-2,3.214E-2,4.107134E-2,2.614738E0,4.1779044E5,2.6182017E-1,4.1491675E5,2.6473155E0,1.81483E-1,9.5798345E-3,7.0220646E-3,-6.0356837E-2,3.5099503E1,1.3846042E0,2.1780978E-1,5.0941312E5,4.343155E-1,-4.9969167E-2,8.186371E-3,2.5366736E-3,-8.930616E-3,1.4071668E-2,-1.1499106E-2,-1.0908618E-2,-6.3081115E-2,2.7231216E-2,-6.291484E-2,-1.0654989E-3,-7.2124444E-2,3.0956715E-2,1.8609954E-2,2.585028E-2,-4.2832084E-2,-6.0725134E-2,-1.4846968E-2,-2.0529862E-2,2.2141514E-2,-4.9853417E-5,-6.86275E-2,-2.6477225E-2,-1.1086141E-2,8.108896E-3,-1.068041E-2,-2.7144928E-3,-1.7225958E-2],"split_indices":[108,85,26,90,83,24,108,109,12,12,108,105,85,74,114,26,0,31,12,95,12,105,26,95,17,0,109,105,28,12,116,0,0,0,0,0,0,0,0,0,0,0,0,0,0,0,0,0,0,0,0,0,0,0,0,0,0,0,0],"split_type":[0,0,0,0,0,0,0,0,0,0,0,0,0,0,0,0,0,0,0,0,0,0,0,0,0,0,0,0,0,0,0,0,0,0,0,0,0,0,0,0,0,0,0,0,0,0,0,0,0,0,0,0,0,0,0,0,0,0,0],"sum_hessian":[5.556385E4,2.8958154E4,2.6605695E4,2.3197176E4,5.76098E3,1.6486697E3,2.4957025E4,1.5097439E4,8.0997363E3,2.0295186E2,5.5580283E3,1.2695433E3,3.7912634E2,3.3107773E3,2.1646248E4,1.4679139E4,4.1830096E2,6.9077856E3,1.1919502E3,8.709708E1,1.15854774E2,1.9445528E2,5.3635728E3,1.7907993E2,1.0904634E3,1.0372285E2,2.754035E2,7.599052E1,3.2347869E3,1.2653026E4,8.993222E3,1.5993248E2,1.4519206E4,2.1658103E3,4.7419756E3,1.00988983E3,1.8206035E2,1.9778635E1,6.731844E1,9.412126E1,2.1733519E1,1.7083296E2,2.3622318E1,2.9956033E3,2.3679695E3,2.3909182E1,1.5517075E2,1.072121E3,1.8342403E1,1.7712015E2,9.8283356E1,6.525527E0,6.946499E1,1.2652334E3,1.9695535E3,9.038689E3,3.614337E3,4.2797437E3,4.7134785E3],"tree_param":{"num_deleted":"0","num_feature":"120","num_nodes":"59","size_leaf_vector":"1"}},{"base_weights":[1.27369715E-2,2.4447234E-1,-2.4101241E-1,5.494665E-1,7.174215E-2,-1.4568586E0,-1.839566E-1,8.034355E-1,3.0407888E-1,-5.487695E-2,2.3589176E-1,-8.289526E-1,-1.7337924E0,-2.3243122E-1,1.0658731E-1,1.0905675E0,5.60836E-1,-7.8031874E-1,3.6930737E-1,-1.3124195E-1,1.7352842E-1,1.6809201E-1,4.811824E-1,5.0511366E-1,-1.3192992E0,1.4731401E-2,-1.7623689E0,-1.8578653E-1,-5.901384E-1,-1.1557283E0,1.6884595E-1,2.7313238E-2,3.805873E-2,8.094099E-3,2.478222E-2,-3.3751983E-2,3.857214E-2,-4.277134E-2,1.3733811E-2,2.1629853E-3,-8.896408E-3,-5.9001846E-3,1.0506054E-2,5.6636264E-3,-3.6427565E-2,1.761374E-2,4.445952E-3,-5.650765E-2,2.3675116E-2,-5.9349064E-2,-2.2879776E-2,-5.6369424E-2,-2.2901379E-2,-2.0140179E-2,-3.5686183E-3,-3.7424088E-2,-8.042089E-3,-4.6290266E-3,-6.635742E-2,9.046333E-3,-8.4178E-3],"categories":[],"categories_nodes":[],"categories_segments":[],"categories_sizes":[],"default_left":[0,0,0,0,0,0,0,0,0,0,0,0,0,0,0,0,0,0,0,0,0,0,0,0,0,0,0,0,0,0,0,0,0,0,0,0,0,0,0,0,0,0,0,0,0,0,0,0,0,0,0,0,0,0,0,0,0,0,0,0,0],"id":12,"left_children":[1,3,5,7,9,11,13,15,17,19,21,23,25,27,29,31,33,35,37,39,41,43,45,47,49,-1,51,53,55,57,59,-1,-1,-1,-1,-1,-1,-1,-1,-1,-1,-1,-1,-1,-1,-1,-1,-1,-1,-1,-1,-1,-1,-1,-1,-1,-1,-1,-1,-1,-1],"loss_changes":[3.2467463E3,1.5199413E3,1.8267324E3,6.4912964E2,3.8316113E2,2.014751E2,3.5468243E2,3.5499756E2,3.757562E2,1.814472E2,1.3295618E2,2.4021004E2,5.349536E1,3.5935583E2,2.8246796E2,5.9351807E1,1.9082166E2,1.7891017E2,5.8427264E2,2.3672844E2,1.5122296E2,9.984151E1,4.5952362E1,5.765087E1,8.617508E1,0E0,2.151538E1,6.270604E2,4.974781E2,1.605679E2,1.7808476E2,0E0,0E0,0E0,0E0,0E0,0E0,0E0,0E0,0E0,0E0,0E0,0E0,0E0,0E0,0E0,0E0,0E0,0E0,0E0,0E0,0E0,0E0,0E0,0E0,0E0,0E0,0E0,0E0,0E0,0E0],"parents":[2147483647,0,0,1,1,2,2,3,3,4,4,5,5,6,6,7,7,8,8,9,9,10,10,11,11,12,12,13,13,14,14,15,15,16,16,17,17,18,18,19,19,20,20,21,21,22,22,23,23,24,24,26,26,27,27,28,28,29,29,30,30],"right_children":[2,4,6,8,10,12,14,16,18,20,22,24,26,28,30,32,34,36,38,40,42,44,46,48,50,-1,52,54,56,58,60,-1,-1,-1,-1,-1,-1,-1,-1,-1,-1,-1,-1,-1,-1,-1,-1,-1,-1,-1,-1,-1,-1,-1,-1,-1,-1,-1,-1,-1,-1],"split_conditions":[4.336904E5,6.140563E-1,1.9260217E-3,2.243169E2,1.3883749E0,2.2642827E2,4.225675E0,5.7638723E-2,2.1583E-2,6.5670305E-1,2.2601855E0,3.906313E0,-7.567445E0,2.2703302E2,3.5207742E-1,8.139075E-1,9.749267E-3,5.4870415E-1,3.5331416E5,2.682879E-2,2.143119E-2,4.9075375E1,7.726502E-1,5.7E-1,7.2200626E-1,1.4731401E-2,1.6895393E0,4.4997878E5,5.778408E-1,4.8272375E5,5.1551294E5,2.7313238E-2,3.805873E-2,8.094099E-3,2.478222E-2,-3.3751983E-2,3.857214E-2,-4.277134E-2,1.3733811E-2,2.1629853E-3,-8.896408E-3,-5.9001846E-3,1.0506054E-2,5.6636264E-3,-3.6427565E-2,1.761374E-2,4.445952E-3,-5.650765E-2,2.3675116E-2,-5.9349064E-2,-2.2879776E-2,-5.6369424E-2,-2.2901379E-2,-2.0140179E-2,-3.5686183E-3,-3.7424088E-2,-8.042089E-3,-4.6290266E-3,-6.635742E-2,9.046333E-3,-8.4178E-3],"split_indices":[12,13,34,60,57,72,55,13,38,24,57,21,88,60,84,51,46,24,12,34,85,106,80,74,80,0,88,12,13,12,12,0,0,0,0,0,0,0,0,0,0,0,0,0,0,0,0,0,0,0,0,0,0,0,0,0,0,0,0,0,0],"split_type":[0,0,0,0,0,0,0,0,0,0,0,0,0,0,0,0,0,0,0,0,0,0,0,0,0,0,0,0,0,0,0,0,0,0,0,0,0,0,0,0,0,0,0,0,0,0,0,0,0,0,0,0,0,0,0,0,0,0,0,0,0],"sum_hessian":[5.5211223E4,2.8858746E4,2.6352477E4,1.0431882E4,1.8426865E4,1.1790629E3,2.5173414E4,5.1233384E3,5.3085435E3,1.040095E4,8.025915E3,3.6339792E2,8.156649E2,2.1576172E4,3.5972415E3,2.34271E3,2.7806284E3,2.9970917E2,5.0088345E3,7.7974473E3,2.6035022E3,6.29195E3,1.733965E3,9.729979E1,2.660981E2,9.862937E0,8.05802E2,1.9090828E4,2.4853445E3,1.6736183E2,3.4298796E3,8.26385E2,1.516325E3,1.1930687E3,1.5875597E3,2.6242105E2,3.7288116E1,1.8646158E2,4.822373E3,3.360912E3,4.436535E3,7.998688E2,1.8036335E3,6.2372974E3,5.4652958E1,1.4048842E3,3.2908072E2,8.295168E0,8.900462E1,1.335685E2,1.3252963E2,7.8136536E2,2.4436604E1,2.6169697E3,1.6473857E4,8.875373E2,1.5978071E3,8.253463E1,8.48272E1,2.697647E3,7.3223254E2],"tree_param":{"num_deleted":"0","num_feature":"120","num_nodes":"61","size_leaf_vector":"1"}},{"base_weights":[9.624827E-3,-9.844812E-1,3.9938208E-2,-1.646109E0,-6.1234508E-2,2.5606063E-1,-1.9800074E-1,-1.7832869E0,-3.7300822E-1,-5.05543E-1,5.406185E-1,9.1312665E-1,1.5460631E-1,-1.1861109E0,-1.3416857E-1,-1.8516351E0,-5.83526E-1,-1.5288345E0,8.263967E-1,1.0457972E0,-6.383234E-1,6.315012E-1,-6.906993E-2,1.0302489E0,4.263574E-1,6.4454E-1,7.8479916E-2,-6.542445E-1,-1.6067296E0,-2.2235905E-1,1.4332902E-1,-5.860581E-2,-1.9438138E-2,3.3777922E-2,-3.6997546E-2,-5.5443242E-2,-1.0817195E-3,4.4255015E-2,-4.755486E-2,1.6244084E-2,4.1917615E-2,-1.4826158E-2,-6.927735E-2,2.1939108E-2,-3.203168E-2,2.305971E-2,3.4516346E-2,1.9001635E-2,-1.9650294E-2,2.2522341E-2,6.390555E-3,5.806427E-3,-2.88999E-3,8.4897E-3,-2.8139124E-2,-5.3417664E-2,1.5608088E-2,-1.696144E-2,-5.3089364E-3,8.387795E-3,-9.057558E-3],"categories":[],"categories_nodes":[],"categories_segments":[],"categories_sizes":[],"default_left":[0,0,0,0,0,0,0,0,0,0,0,0,0,0,0,0,0,0,0,0,0,0,0,0,0,0,0,0,0,0,0,0,0,0,0,0,0,0,0,0,0,0,0,0,0,0,0,0,0,0,0,0,0,0,0,0,0,0,0,0,0],"id":13,"left_children":[1,3,5,7,9,11,13,15,17,19,21,23,25,27,29,31,33,35,37,39,41,43,-1,45,47,49,51,53,55,57,59,-1,-1,-1,-1,-1,-1,-1,-1,-1,-1,-1,-1,-1,-1,-1,-1,-1,-1,-1,-1,-1,-1,-1,-1,-1,-1,-1,-1,-1,-1],"loss_changes":[1.6583368E3,9.934187E2,2.747306E3,1.6318286E2,1.8268558E2,1.8654148E3,1.6026768E3,6.69187E1,1.3342654E2,8.179938E1,7.307564E1,2.1181714E2,9.040778E2,3.4195386E2,5.8466675E2,8.537109E0,4.9870224E1,1.5864716E1,6.70521E1,2.5108757E0,9.171562E1,3.1577599E1,0E0,5.7880127E1,1.369627E2,1.0224988E2,3.798109E2,1.5285687E2,1.6803516E2,3.070932E2,3.066383E2,0E0,0E0,0E0,0E0,0E0,0E0,0E0,0E0,0E0,0E0,0E0,0E0,0E0,0E0,0E0,0E0,0E0,0E0,0E0,0E0,0E0,0E0,0E0,0E0,0E0,0E0,0E0,0E0,0E0,0E0],"parents":[2147483647,0,0,1,1,2,2,3,3,4,4,5,5,6,6,7,7,8,8,9,9,10,10,11,11,12,12,13,13,14,14,15,15,16,16,17,17,18,18,19,19,20,20,21,21,23,23,24,24,25,25,26,26,27,27,28,28,29,29,30,30],"right_children":[2,4,6,8,10,12,14,16,18,20,22,24,26,28,30,32,34,36,38,40,42,44,-1,46,48,50,52,54,56,58,60,-1,-1,-1,-1,-1,-1,-1,-1,-1,-1,-1,-1,-1,-1,-1,-1,-1,-1,-1,-1,-1,-1,-1,-1,-1,-1,-1,-1,-1,-1],"split_conditions":[3.7412133E0,8.2478E-2,4.336904E5,7.0616925E-1,7.8228307E-1,7.473778E-9,5.7012E-2,2.3247894E2,2.300639E2,7.3722464E-1,2.68707E-1,2.2739555E2,7.029591E-1,2.3149796E0,2.0227554E0,7.3236995E6,2.1184192E-9,2.0427171E6,2.00331E6,6.5048456E-1,1.9991611E6,4.8440054E-2,-6.906993E-2,1.9782E6,1.99782E6,5.296672E-1,2.6755852E-1,8.649598E-3,2.6050674E3,1.99882E6,2.05835E6,-5.860581E-2,-1.9438138E-2,3.3777922E-2,-3.6997546E-2,-5.5443242E-2,-1.0817195E-3,4.4255015E-2,-4.755486E-2,1.6244084E-2,4.1917615E-2,-1.4826158E-2,-6.927735E-2,2.1939108E-2,-3.203168E-2,2.305971E-2,3.4516346E-2,1.9001635E-2,-1.9650294E-2,2.2522341E-2,6.390555E-3,5.806427E-3,-2.88999E-3,8.4897E-3,-2.8139124E-2,-5.3417664E-2,1.5608088E-2,-1.696144E-2,-5.3089364E-3,8.387795E-3,-9.057558E-3],"split_indices":[107,26,12,27,87,19,26,96,96,87,26,96,44,81,57,10,19,108,108,27,108,58,0,108,108,116,90,47,118,108,108,0,0,0,0,0,0,0,0,0,0,0,0,0,0,0,0,0,0,0,0,0,0,0,0,0,0,0,0,0,0],"split_type":[0,0,0,0,0,0,0,0,0,0,0,0,0,0,0,0,0,0,0,0,0,0,0,0,0,0,0,0,0,0,0,0,0,0,0,0,0,0,0,0,0,0,0,0,0,0,0,0,0,0,0,0,0,0,0,0,0,0,0,0,0],"sum_hessian":[5.504786E4,1.6268895E3,5.342097E4,9.466327E2,6.802569E2,2.7995238E4,2.5425729E4,8.535533E2,9.307943E1,3.921111E2,2.8814578E2,3.741995E3,2.4253244E4,1.5406368E3,2.3885092E4,8.062703E2,4.728292E1,4.747104E1,4.560839E1,2.9722462E1,3.6238864E2,2.802208E2,7.9249854E0,3.0138328E3,7.281625E2,3.259044E3,2.09942E4,6.827081E2,8.579287E2,1.81269E4,5.7581924E3,7.972834E2,8.986954E0,1.1849388E1,3.5433533E1,4.0431923E1,7.039116E0,3.7231647E1,8.376744E0,1.2714224E1,1.7008238E1,3.2958264E2,3.2805992E1,2.7062915E2,9.591639E0,5.618398E2,2.451993E3,6.2386176E2,1.0430074E2,2.8019087E3,4.5713544E2,1.2937312E4,8.0568877E3,1.4038478E2,5.4232336E2,8.226E2,3.5328697E1,2.6158474E3,1.5511053E4,4.4790376E3,1.2791548E3],"tree_param":{"num_deleted":"0","num_feature":"120","num_nodes":"61","size_leaf_vector":"1"}},{"base_weights":[1.05587235E-2,-1.0455421E0,3.6578905E-2,-1.6021091E0,-1.477547E-1,-4.3253075E-2,5.842326E-1,-1.6584581E0,3.4435987E-2,-1.1878674E0,1.1545157E-1,1.3912854E-1,-2.0495613E-1,-1.1555858E0,6.3698626E-1,-6.692136E-1,-1.7488341E0,-2.840762E-1,-2.0025115E0,2.9114345E-1,-1.2566149E0,1.0913268E-1,1.2117412E0,-1.2150753E0,-1.4947507E-1,-1.8236972E-1,-1.6197985E0,4.502991E-1,9.21314E-1,-5.403569E-2,-0E0,-3.4019656E-2,-5.6936573E-2,-6.603634E-2,2.762107E-3,-7.862292E-2,-2.831922E-2,-4.787435E-2,1.1754923E-2,2.8585943E-3,-6.334804E-2,-3.4900114E-4,9.799145E-3,3.9054528E-2,3.668242E-3,-1.5709843E-2,-5.084885E-2,-1.85545E-2,-3.0338434E-3,-6.1305508E-2,3.0271636E-2,9.444878E-3,-6.1814923E-2,5.5797664E-3,2.3196239E-2,3.1826276E-2,1.7130464E-2],"categories":[],"categories_nodes":[],"categories_segments":[],"categories_sizes":[],"default_left":[0,0,0,0,0,0,0,0,0,0,0,0,0,0,0,0,0,0,0,0,0,0,0,0,0,0,0,0,0,0,0,0,0,0,0,0,0,0,0,0,0,0,0,0,0,0,0,0,0,0,0,0,0,0,0,0,0],"id":14,"left_children":[1,3,5,7,9,11,13,15,-1,17,19,21,23,25,27,29,31,33,35,37,39,41,43,45,47,49,51,53,55,-1,-1,-1,-1,-1,-1,-1,-1,-1,-1,-1,-1,-1,-1,-1,-1,-1,-1,-1,-1,-1,-1,-1,-1,-1,-1,-1,-1],"loss_changes":[1.514299E3,6.605875E2,2.352719E3,1.2728198E2,1.4029323E2,1.3849885E3,6.29125E2,6.833496E1,0E0,7.383299E1,9.806668E1,7.089381E2,1.3939108E3,8.948181E1,3.512705E2,4.9382652E1,2.5333252E1,3.6133453E1,2.3927155E1,5.4431206E1,4.857643E1,5.2280664E2,1.8670105E1,3.6981946E2,5.505064E2,1.3947963E2,9.2184814E1,3.1406372E2,8.804468E1,0E0,0E0,0E0,0E0,0E0,0E0,0E0,0E0,0E0,0E0,0E0,0E0,0E0,0E0,0E0,0E0,0E0,0E0,0E0,0E0,0E0,0E0,0E0,0E0,0E0,0E0,0E0,0E0],"parents":[2147483647,0,0,1,1,2,2,3,3,4,4,5,5,6,6,7,7,9,9,10,10,11,11,12,12,13,13,14,14,15,15,16,16,17,17,18,18,19,19,20,20,21,21,22,22,23,23,24,24,25,25,26,26,27,27,28,28],"right_children":[2,4,6,8,10,12,14,16,-1,18,20,22,24,26,28,30,32,34,36,38,40,42,44,46,48,50,52,54,56,-1,-1,-1,-1,-1,-1,-1,-1,-1,-1,-1,-1,-1,-1,-1,-1,-1,-1,-1,-1,-1,-1,-1,-1,-1,-1,-1,-1],"split_conditions":[3.1324043E0,8.2478E-2,9.027911E-1,1.666774E4,1.8670075E8,2.0969752E8,1.1743643E-2,1.8028812E0,3.4435987E-2,-3.723426E-4,2.2230669E8,2.3659686E2,5.4396E-2,2.0379232E8,8.0668813E-1,2.6796913E0,3.5889893E0,3.3444816E-3,8.4712565E-1,-8.933904E-1,1.5281359E0,1.2286482E0,3.3444814E-2,2.2657774E2,2.13672E8,1.8982272E8,3.6079031E-3,2.3787522E0,2.2668854E2,-5.403569E-2,-0E0,-3.4019656E-2,-5.6936573E-2,-6.603634E-2,2.762107E-3,-7.862292E-2,-2.831922E-2,-4.787435E-2,1.1754923E-2,2.8585943E-3,-6.334804E-2,-3.4900114E-4,9.799145E-3,3.9054528E-2,3.668242E-3,-1.5709843E-2,-5.084885E-2,-1.85545E-2,-3.0338434E-3,-6.1305508E-2,3.0271636E-2,9.444878E-3,-6.1814923E-2,5.5797664E-3,2.3196239E-2,3.1826276E-2,1.7130464E-2],"split_indices":[83,26,48,119,0,0,25,69,0,65,0,118,26,0,39,107,9,18,84,76,33,33,18,96,0,0,59,33,96,0,0,0,0,0,0,0,0,0,0,0,0,0,0,0,0,0,0,0,0,0,0,0,0,0,0,0,0],"split_type":[0,0,0,0,0,0,0,0,0,0,0,0,0,0,0,0,0,0,0,0,0,0,0,0,0,0,0,0,0,0,0,0,0,0,0,0,0,0,0,0,0,0,0,0,0,0,0,0,0,0,0,0,0,0,0,0,0],"sum_hessian":[5.5126086E4,1.3235342E3,5.380255E4,8.158628E2,5.0767145E2,4.6957664E4,6.844889E3,7.999634E2,1.5899414E1,1.01974E2,4.0569745E2,2.2066014E4,2.4891648E4,2.0016086E2,6.644728E3,6.861516E1,7.313482E2,4.9671032E1,5.2302967E1,3.611038E2,4.4593655E1,2.1467902E4,5.981106E2,1.2937692E3,2.359788E4,6.576357E1,1.343973E2,4.0147866E3,2.6299417E3,2.5876923E1,4.273823E1,6.508269E1,6.662655E2,7.571446E0,4.2099586E1,3.4328762E1,1.7974207E1,1.4267086E1,3.468367E2,1.6209528E1,2.8384125E1,1.3468103E4,7.9998003E3,5.813285E2,1.6782124E1,4.6704114E2,8.26728E2,2.531487E3,2.1066393E4,2.567214E1,4.009143E1,2.0250898E1,1.1414639E2,2.0614697E3,1.9533169E3,2.1160798E3,5.138618E2],"tree_param":{"num_deleted":"0","num_feature":"120","num_nodes":"57","size_leaf_vector":"1"}},{"base_weights":[1.1387904E-2,2.2555062E-1,-2.184078E-1,1.296947E-1,7.419859E-1,-1.3082856E0,-1.3700351E-1,9.975862E-2,1.2332534E0,-9.852079E-1,8.30082E-1,-6.1680907E-1,-1.644306E0,-1.9790523E-1,1.8097359E-1,6.0206497E-1,5.5471763E-2,9.801164E-1,1.2702451E0,-1.8879905E-1,-1.4844283E0,-6.303245E-2,8.461449E-1,-8.8265246E-1,7.6742923E-1,-1.715399E0,-1.0595213E0,-4.8328063E-1,-1.4910252E-1,2.8250104E-1,-4.1806042E-1,-2.2186955E-2,2.1186108E-2,-1.0598683E-3,8.317138E-3,-0E0,3.4067E-2,4.0173363E-2,1.7037451E-2,-6.6943005E-2,8.078044E-3,-6.696274E-2,-1.40945325E-2,1.7345428E-2,2.9804626E-2,-5.5869766E-2,-1.5239649E-2,4.101455E-2,-1.5473607E-2,5.8170343E-5,-5.4305818E-2,7.5687175E-3,-5.01797E-2,2.8350158E-3,-1.8675396E-2,4.0469892E-4,-1.148083E-2,1.4306564E-2,-2.033892E-3,2.991626E-3,-4.0913444E-2],"categories":[],"categories_nodes":[],"categories_segments":[],"categories_sizes":[],"default_left":[0,0,0,0,0,0,0,0,0,0,0,0,0,0,0,0,0,0,0,0,0,0,0,0,0,0,0,0,0,0,0,0,0,0,0,0,0,0,0,0,0,0,0,0,0,0,0,0,0,0,0,0,0,0,0,0,0,0,0,0,0],"id":15,"left_children":[1,3,5,7,9,11,13,15,17,19,21,23,25,27,29,31,33,35,37,39,41,-1,43,45,47,49,51,53,55,57,59,-1,-1,-1,-1,-1,-1,-1,-1,-1,-1,-1,-1,-1,-1,-1,-1,-1,-1,-1,-1,-1,-1,-1,-1,-1,-1,-1,-1,-1,-1],"loss_changes":[2.707506E3,1.4090277E3,2.3532207E3,7.925509E2,6.7926587E2,4.2538477E2,4.7829947E2,5.1984467E2,2.6154785E0,8.461063E1,1.9487866E2,2.2405681E2,4.700708E1,2.8816376E2,2.4145264E2,1.7801086E2,4.0081577E2,9.010048E0,6.404419E-1,7.609643E1,8.539011E1,0E0,1.2450415E2,1.7849982E2,6.774489E1,2.2728027E1,9.847948E1,1.9215546E2,6.195681E2,2.035404E2,2.614171E2,0E0,0E0,0E0,0E0,0E0,0E0,0E0,0E0,0E0,0E0,0E0,0E0,0E0,0E0,0E0,0E0,0E0,0E0,0E0,0E0,0E0,0E0,0E0,0E0,0E0,0E0,0E0,0E0,0E0,0E0],"parents":[2147483647,0,0,1,1,2,2,3,3,4,4,5,5,6,6,7,7,8,8,9,9,10,10,11,11,12,12,13,13,14,14,15,15,16,16,17,17,18,18,19,19,20,20,22,22,23,23,24,24,25,25,26,26,27,27,28,28,29,29,30,30],"right_children":[2,4,6,8,10,12,14,16,18,20,22,24,26,28,30,32,34,36,38,40,42,-1,44,46,48,50,52,54,56,58,60,-1,-1,-1,-1,-1,-1,-1,-1,-1,-1,-1,-1,-1,-1,-1,-1,-1,-1,-1,-1,-1,-1,-1,-1,-1,-1,-1,-1,-1,-1],"split_conditions":[1.9988E6,9.06957E-1,5.3129E-2,9.963373E2,1.1743643E-2,2.2671693E2,2.4271328E0,6.867254E-1,7.751082E-1,1.9967911E6,3.01E-1,2.8569463E3,7.509517E-1,1.99882E6,3.0049737E-8,1.97621E6,1.9965E6,6.6490793E-1,4.336568E1,9.0802187E-1,9.7266513E-1,-6.303245E-2,9.1854024E-1,1.2542332E-2,2.0016026E6,-6.0794086E0,3.1128E-2,7.5012255E-1,1.3468013E-2,1.3422819E-2,2.00805E6,-2.2186955E-2,2.1186108E-2,-1.0598683E-3,8.317138E-3,-0E0,3.4067E-2,4.0173363E-2,1.7037451E-2,-6.6943005E-2,8.078044E-3,-6.696274E-2,-1.40945325E-2,1.7345428E-2,2.9804626E-2,-5.5869766E-2,-1.5239649E-2,4.101455E-2,-1.5473607E-2,5.8170343E-5,-5.4305818E-2,7.5687175E-3,-5.01797E-2,2.8350158E-3,-1.8675396E-2,4.0469892E-4,-1.148083E-2,1.4306564E-2,-2.033892E-3,2.991626E-3,-4.0913444E-2],"split_indices":[108,36,26,115,25,96,57,44,39,108,62,115,68,108,115,108,108,80,109,48,36,0,48,25,108,88,86,48,114,114,108,0,0,0,0,0,0,0,0,0,0,0,0,0,0,0,0,0,0,0,0,0,0,0,0,0,0,0,0,0,0],"split_type":[0,0,0,0,0,0,0,0,0,0,0,0,0,0,0,0,0,0,0,0,0,0,0,0,0,0,0,0,0,0,0,0,0,0,0,0,0,0,0,0,0,0,0,0,0,0,0,0,0,0,0,0,0,0,0,0,0,0,0,0,0],"sum_hessian":[5.5012258E4,2.8476182E4,2.6536076E4,2.402079E4,4.4553936E3,1.8421492E3,2.4693928E4,2.3388541E4,6.3224756E2,2.1512703E2,4.2402666E3,6.0444666E2,1.2377025E3,2.0726773E4,3.9671533E3,1.8923093E3,2.1496232E4,8.806731E1,5.441803E2,8.41834E1,1.3094362E2,2.2630598E1,4.2176357E3,5.0791202E2,9.6534645E1,1.0999888E3,1.3771376E2,3.0230105E3,1.7703764E4,3.3938254E3,5.7332776E2,9.709799E1,1.7952113E3,1.506605E4,6.4301816E3,8.563509E0,7.950379E1,5.3686804E2,7.3122377E0,1.4954806E1,6.92286E1,7.936153E1,5.1582092E1,1.0855242E3,3.1321116E3,1.5440282E2,3.5350922E2,6.801494E1,2.8519703E1,6.8946753E0,1.0930941E3,4.008721E1,9.762654E1,4.8772577E2,2.5352847E3,1.0115568E4,7.588195E3,2.2685894E3,1.1252362E3,3.629475E2,2.1038025E2],"tree_param":{"num_deleted":"0","num_feature":"120","num_nodes":"61","size_leaf_vector":"1"}},{"base_weights":[1.7117962E-2,2.1921787E-1,-1.9893178E-1,1.256262E-1,6.255712E-1,-1.4532622E0,-1.2988523E-1,2.5335568E-1,-8.9460775E-2,-6.8640333E-1,6.953541E-1,-1.6169885E0,-8.168785E-1,2.0232525E-1,-1.6711254E-1,6.821138E-1,1.8769142E-1,-1.7466046E-1,3.093031E-1,1.8526604E-2,-2.0982888E0,9.559115E-1,5.5250317E-1,-1.6351916E0,-5.312835E-1,-1.4323973E-2,-1.5600377E0,-1.5842735E0,2.5021374E-1,-4.212508E-2,-2.5411835E-1,2.4806013E-2,-4.9974803E-2,-2.2435956E-2,6.4034415E-3,-7.68981E-3,5.843985E-3,-1.9665746E-2,1.1614181E-2,8.64E-3,-5.4678593E-2,-5.3707633E-2,-7.847076E-2,3.1652804E-2,-2.2073502E-2,-6.2427975E-2,1.7822009E-2,-4.181326E-2,-5.3644586E-2,-4.9465287E-2,3.106424E-2,-5.4306418E-2,1.1116845E-2,2.8464556E-4,-5.5931207E-2,-6.1079975E-2,-1.3650401E-2,-2.9520239E-5,1.4200502E-2,9.5206726E-4,-1.583017E-2,-1.5786938E-2,-2.87092E-3],"categories":[],"categories_nodes":[],"categories_segments":[],"categories_sizes":[],"default_left":[0,0,0,0,0,0,0,0,0,0,0,0,0,0,0,0,0,0,0,0,0,0,0,0,0,0,0,0,0,0,0,0,0,0,0,0,0,0,0,0,0,0,0,0,0,0,0,0,0,0,0,0,0,0,0,0,0,0,0,0,0,0,0],"id":16,"left_children":[1,3,5,7,9,11,13,15,17,19,21,23,25,27,29,31,33,35,37,39,41,43,45,47,49,51,53,55,57,59,61,-1,-1,-1,-1,-1,-1,-1,-1,-1,-1,-1,-1,-1,-1,-1,-1,-1,-1,-1,-1,-1,-1,-1,-1,-1,-1,-1,-1,-1,-1,-1,-1],"loss_changes":[2.3972385E3,1.0782765E3,2.2966982E3,6.336901E2,4.8676953E2,1.40625E2,3.110833E2,4.0665698E2,2.918808E2,2.6854416E2,1.8590039E2,1.8999512E1,1.700941E2,2.1646295E2,2.4577057E2,4.6648407E2,1.8001318E2,1.7843674E2,8.4952515E1,8.0867645E1,4.832855E0,1.5066577E2,1.182818E2,1.792749E1,3.5756733E1,8.992071E1,5.2106323E1,2.4359436E1,1.2513426E2,3.1050244E2,5.376689E2,0E0,0E0,0E0,0E0,0E0,0E0,0E0,0E0,0E0,0E0,0E0,0E0,0E0,0E0,0E0,0E0,0E0,0E0,0E0,0E0,0E0,0E0,0E0,0E0,0E0,0E0,0E0,0E0,0E0,0E0,0E0,0E0],"parents":[2147483647,0,0,1,1,2,2,3,3,4,4,5,5,6,6,7,7,8,8,9,9,10,10,11,11,12,12,13,13,14,14,15,15,16,16,17,17,18,18,19,19,20,20,21,21,22,22,23,23,24,24,25,25,26,26,27,27,28,28,29,29,30,30],"right_children":[2,4,6,8,10,12,14,16,18,20,22,24,26,28,30,32,34,36,38,40,42,44,46,48,50,52,54,56,58,60,62,-1,-1,-1,-1,-1,-1,-1,-1,-1,-1,-1,-1,-1,-1,-1,-1,-1,-1,-1,-1,-1,-1,-1,-1,-1,-1,-1,-1,-1,-1,-1,-1],"split_conditions":[4.336904E5,4.1486032E-2,2.8465599E-2,2.7666667E-1,3.5558056E5,7.374786E-1,-4.850919E-1,7.473778E-9,4.0894478E5,2.2974057E2,7.543627E-9,8.8348575E-3,-1.9519186E-1,4.95E-1,4.88601E0,2.308519E2,1.2136471E-2,3.3E-1,1.96545E-1,1.1903863E-1,1.0277E-1,8.938684E0,3.7997E-2,4.7151685E0,7.198001E-1,7.686135E-1,2.2430933E2,7.5381516E1,8.4491974E-1,2.2679907E2,5.8490014E0,2.4806013E-2,-4.9974803E-2,-2.2435956E-2,6.4034415E-3,-7.68981E-3,5.843985E-3,-1.9665746E-2,1.1614181E-2,8.64E-3,-5.4678593E-2,-5.3707633E-2,-7.847076E-2,3.1652804E-2,-2.2073502E-2,-6.2427975E-2,1.7822009E-2,-4.181326E-2,-5.3644586E-2,-4.9465287E-2,3.106424E-2,-5.4306418E-2,1.1116845E-2,2.8464556E-4,-5.5931207E-2,-6.1079975E-2,-1.3650401E-2,-2.9520239E-5,1.4200502E-2,9.5206726E-4,-1.583017E-2,-1.5786938E-2,-2.87092E-3],"split_indices":[12,85,35,30,12,68,88,19,12,72,19,34,88,98,117,72,25,30,26,85,26,117,26,9,44,44,72,19,48,72,117,0,0,0,0,0,0,0,0,0,0,0,0,0,0,0,0,0,0,0,0,0,0,0,0,0,0,0,0,0,0,0,0],"split_type":[0,0,0,0,0,0,0,0,0,0,0,0,0,0,0,0,0,0,0,0,0,0,0,0,0,0,0,0,0,0,0,0,0,0,0,0,0,0,0,0,0,0,0,0,0,0,0,0,0,0,0,0,0,0,0,0,0,0,0,0,0,0,0],"sum_hessian":[5.489913E4,2.8366857E4,2.653227E4,2.3059357E4,5.3075005E3,1.3822626E3,2.5150008E4,1.4469448E4,8.589909E3,2.6690952E2,5.0405913E3,1.0967749E3,2.8548764E2,2.5318696E3,2.2618139E4,1.9185157E3,1.2550933E4,7.0797314E3,1.5101779E3,1.7869229E2,8.821722E1,1.7803124E3,3.2602786E3,1.0773586E3,1.9416315E1,1.3840887E2,1.4707877E2,6.4494446E1,2.4673752E3,9.286874E3,1.3331264E4,1.8336543E3,8.486144E1,2.1611702E2,1.2334816E4,5.9323696E3,1.1473617E3,8.960517E1,1.4205726E3,1.5737059E2,2.1321697E1,4.92646E1,3.8952614E1,1.7285471E3,5.176528E1,1.674159E1,3.243537E3,2.0943248E2,8.6792615E2,1.1742522E1,7.6737933E0,2.3817001E1,1.1459187E2,1.778286E1,1.292959E2,4.797468E1,1.6519768E1,1.0970701E3,1.370305E3,8.0269004E3,1.2599739E3,5.2825396E3,8.048724E3],"tree_param":{"num_deleted":"0","num_feature":"120","num_nodes":"63","size_leaf_vector":"1"}},{"base_weights":[5.2495156E-3,1.9788292E-1,-2.0116383E-1,4.297202E-1,-8.504485E-3,-1.3749874E0,-1.4378294E-1,-1.4743164E0,4.5587653E-1,-1.627903E-1,2.3101597E-1,-4.0376925E-1,-1.5697454E0,-5.13465E-1,-8.807488E-2,-5.5639282E-2,6.433532E-1,9.0876E-1,3.7357464E-1,-9.13892E-3,-3.7790078E-1,-5.2716542E-2,3.1358498E-1,-1.3375006E0,4.5403633E-1,-1.6618489E0,-8.0261403E-1,-1.3303772E0,-4.5336238E-1,-2.7012851E-2,-3.2948673E-1,3.5308395E-2,-1.057472E-2,3.3337384E-2,1.3835996E-2,7.3159058E-3,2.2678431E-2,1.8164343E-3,-1.1951611E-2,-8.392094E-3,-2.4442296E-2,1.4041406E-2,-8.388526E-3,1.028011E-2,-4.4684038E-2,2.3463337E-2,-5.156116E-2,2.6115302E-2,-3.3133116E-2,-5.259869E-2,-2.219498E-2,1.57311E-2,-4.821328E-2,-5.9119157E-2,-8.203734E-3,-1.8268472E-2,-4.350794E-4,5.033617E-3,-9.53919E-3,-4.610658E-2,-8.006937E-3],"categories":[],"categories_nodes":[],"categories_segments":[],"categories_sizes":[],"default_left":[0,0,0,0,0,0,0,0,0,0,0,0,0,0,0,0,0,0,0,0,0,0,0,0,0,0,0,0,0,0,0,0,0,0,0,0,0,0,0,0,0,0,0,0,0,0,0,0,0,0,0,0,0,0,0,0,0,0,0,0,0],"id":17,"left_children":[1,3,5,7,9,11,13,15,17,19,21,23,25,27,29,-1,31,33,35,37,39,41,43,45,47,49,51,53,55,57,59,-1,-1,-1,-1,-1,-1,-1,-1,-1,-1,-1,-1,-1,-1,-1,-1,-1,-1,-1,-1,-1,-1,-1,-1,-1,-1,-1,-1,-1,-1],"loss_changes":[2.1678494E3,1.349758E3,1.7713157E3,6.619182E2,5.5139374E2,2.2963696E2,5.1631055E2,1.1485257E2,4.8714697E2,2.9977094E2,1.371181E2,1.675282E2,6.847803E1,1.591914E2,3.2125946E2,0E0,1.1792031E1,1.4112183E2,5.425709E2,1.3171083E2,1.666499E2,1.4075945E2,1.04466064E2,6.533472E1,6.288356E1,5.9733887E0,1.09321045E2,1.292573E2,1.7125513E2,9.00151E2,3.728679E2,0E0,0E0,0E0,0E0,0E0,0E0,0E0,0E0,0E0,0E0,0E0,0E0,0E0,0E0,0E0,0E0,0E0,0E0,0E0,0E0,0E0,0E0,0E0,0E0,0E0,0E0,0E0,0E0,0E0,0E0],"parents":[2147483647,0,0,1,1,2,2,3,3,4,4,5,5,6,6,7,7,8,8,9,9,10,10,11,11,12,12,13,13,14,14,16,16,17,17,18,18,19,19,20,20,21,21,22,22,23,23,24,24,25,25,26,26,27,27,28,28,29,29,30,30],"right_children":[2,4,6,8,10,12,14,16,18,20,22,24,26,28,30,-1,32,34,36,38,40,42,44,46,48,50,52,54,56,58,60,-1,-1,-1,-1,-1,-1,-1,-1,-1,-1,-1,-1,-1,-1,-1,-1,-1,-1,-1,-1,-1,-1,-1,-1,-1,-1,-1,-1,-1,-1],"split_conditions":[2.0969752E8,8.067149E-1,1.4272527E-2,1.85596E8,2.010545E8,7.541999E-1,1.99882E6,7.472364E-1,7.5105804E-1,1.5456442E2,8.634751E-1,7.09119E-1,9.644217E-1,5.82E-1,2.2665991E2,-5.5639282E-2,-3.0683435E-2,2.0379232E8,9.0802187E-1,4.6503637E-2,1.980821E8,2.0379232E8,8.096184E-1,2.2401653E2,2.2723697E2,3.2107022E-1,1.9841472E0,3.8530074E-2,2.13462E8,1.3422819E-2,4.3116716E-1,3.5308395E-2,-1.057472E-2,3.3337384E-2,1.3835996E-2,7.3159058E-3,2.2678431E-2,1.8164343E-3,-1.1951611E-2,-8.392094E-3,-2.4442296E-2,1.4041406E-2,-8.388526E-3,1.028011E-2,-4.4684038E-2,2.3463337E-2,-5.156116E-2,2.6115302E-2,-3.3133116E-2,-5.259869E-2,-2.219498E-2,1.57311E-2,-4.821328E-2,-5.9119157E-2,-8.203734E-3,-1.8268472E-2,-4.350794E-4,5.033617E-3,-9.53919E-3,-4.610658E-2,-8.006937E-3],"split_indices":[0,13,25,0,0,87,108,80,84,19,84,80,84,62,96,0,40,0,48,34,0,0,87,72,96,102,69,34,0,114,24,0,0,0,0,0,0,0,0,0,0,0,0,0,0,0,0,0,0,0,0,0,0,0,0,0,0,0,0,0,0],"split_type":[0,0,0,0,0,0,0,0,0,0,0,0,0,0,0,0,0,0,0,0,0,0,0,0,0,0,0,0,0,0,0,0,0,0,0,0,0,0,0,0,0,0,0,0,0,0,0,0,0,0,0,0,0,0,0,0,0,0,0,0,0],"sum_hessian":[5.4517574E4,2.8201764E4,2.6315812E4,1.328271E4,1.4919053E4,1.2243425E3,2.509147E4,1.7854416E2,1.3104166E4,9.076001E3,5.843052E3,2.058297E2,1.0185129E3,3.2827847E3,2.1808686E4,1.5720514E2,2.1339022E1,2.0116719E3,1.1092494E4,5.296995E3,3.779006E3,1.3154333E3,4.527618E3,9.8521164E1,1.0730853E2,9.0703E2,1.114828E2,2.2207765E2,3.060707E3,1.7409527E4,4.3991577E3,1.4630384E1,6.708637E0,1.5183671E3,4.9330487E2,7.8951367E3,3.1973574E3,4.4871494E3,8.098455E2,2.959958E3,8.190482E2,3.933285E2,9.2210486E2,4.494728E3,3.2890068E1,1.1923333E1,8.659783E1,8.675104E1,2.0557499E1,8.9523083E2,1.1799234E1,3.9896927E1,7.158588E1,1.4555775E2,7.651989E1,2.370803E3,6.8990393E2,1.0380156E4,7.029372E3,2.696683E2,4.1294893E3],"tree_param":{"num_deleted":"0","num_feature":"120","num_nodes":"61","size_leaf_vector":"1"}},{"base_weights":[2.2371534E-2,-4.799359E-2,4.2594895E-1,-1.0806512E0,-2.790057E-2,-4.4898555E-1,4.961089E-1,-1.4087235E0,2.4830844E-1,-8.185761E-2,2.802217E-1,-1.4939018E0,1.5288815E-1,2.9509208E-1,7.7488536E-1,-1.4758506E0,3.0229751E-2,3.9237463E-1,-7.002467E-2,-9.594615E-2,1.0249501E0,-1.4594773E0,3.2293922E-1,-1.671325E0,4.6197477E-1,6.0826004E-1,-2.6072162E-1,-4.048866E-1,3.2643434E-1,-1.5365791E0,7.945079E-1,-4.8268214E-2,3.9457446E-3,1.6361509E-2,-5.8066327E-2,-2.6349738E-2,-2.3130102E-3,3.7154086E-2,-1.298766E-2,-5.97851E-3,-6.079504E-2,6.4913086E-3,2.4253486E-2,-5.7524677E-2,-1.2174813E-2,-1.3324732E-2,3.6821395E-2,2.3841826E-2,-6.349745E-2,8.090499E-3,-3.685698E-2,7.0342245E-3,-4.9272574E-2,1.1524677E-2,-7.1470565E-3,-6.0302526E-2,-1.0320211E-2,2.028865E-2,3.1477652E-2],"categories":[],"categories_nodes":[],"categories_segments":[],"categories_sizes":[],"default_left":[0,0,0,0,0,0,0,0,0,0,0,0,0,0,0,0,0,0,0,0,0,0,0,0,0,0,0,0,0,0,0,0,0,0,0,0,0,0,0,0,0,0,0,0,0,0,0,0,0,0,0,0,0,0,0,0,0,0,0],"id":18,"left_children":[1,3,5,7,9,11,13,15,17,19,21,23,25,27,29,31,-1,33,-1,35,37,39,41,43,45,47,49,51,53,55,57,-1,-1,-1,-1,-1,-1,-1,-1,-1,-1,-1,-1,-1,-1,-1,-1,-1,-1,-1,-1,-1,-1,-1,-1,-1,-1,-1,-1],"loss_changes":[1.56369E3,9.719585E2,5.0220325E2,3.9110364E2,7.6446545E2,3.8295374E2,4.2316162E2,1.1661963E2,6.352381E1,6.098217E2,5.091372E2,7.9105316E1,7.31814E1,9.672116E1,1.4507056E2,6.720654E1,0E0,4.9120373E1,0E0,6.415145E2,1.11805725E2,9.6740906E1,3.4853424E2,3.8954773E1,1.337335E1,7.4274536E1,9.668003E1,1.3900925E2,9.363391E1,9.981304E0,9.4896484E1,0E0,0E0,0E0,0E0,0E0,0E0,0E0,0E0,0E0,0E0,0E0,0E0,0E0,0E0,0E0,0E0,0E0,0E0,0E0,0E0,0E0,0E0,0E0,0E0,0E0,0E0,0E0,0E0],"parents":[2147483647,0,0,1,1,2,2,3,3,4,4,5,5,6,6,7,7,8,8,9,9,10,10,11,11,12,12,13,13,14,14,15,15,17,17,19,19,20,20,21,21,22,22,23,23,24,24,25,25,26,26,27,27,28,28,29,29,30,30],"right_children":[2,4,6,8,10,12,14,16,18,20,22,24,26,28,30,32,-1,34,-1,36,38,40,42,44,46,48,50,52,54,56,58,-1,-1,-1,-1,-1,-1,-1,-1,-1,-1,-1,-1,-1,-1,-1,-1,-1,-1,-1,-1,-1,-1,-1,-1,-1,-1,-1,-1],"split_conditions":[4.7918808E-2,4.71E-1,5.093922E0,8.2478E-2,8.876774E-1,8.2478E-2,9.065751E-1,4.1841446E1,1.5175133E-2,2.8569463E3,8.1052494E-1,9.5788586E-1,4.6597224E-1,4.4598E-2,3.7997E-2,6.3087934E-1,3.0229751E-2,7.0042497E-1,-7.002467E-2,4.7396725E-1,2.2534375E2,2.2486694E2,9.208948E-1,2.3161363E2,8.2289934E-1,1.0067114E-2,7.901345E-1,2.260516E2,7.797467E-1,8.256314E-1,9.4531786E-1,-4.8268214E-2,3.9457446E-3,1.6361509E-2,-5.8066327E-2,-2.6349738E-2,-2.3130102E-3,3.7154086E-2,-1.298766E-2,-5.97851E-3,-6.079504E-2,6.4913086E-3,2.4253486E-2,-5.7524677E-2,-1.2174813E-2,-1.3324732E-2,3.6821395E-2,2.3841826E-2,-6.349745E-2,8.090499E-3,-3.685698E-2,7.0342245E-3,-4.9272574E-2,1.1524677E-2,-7.1470565E-3,-6.0302526E-2,-1.0320211E-2,2.028865E-2,3.1477652E-2],"split_indices":[94,98,107,26,48,26,48,109,46,115,84,84,116,38,26,24,0,27,0,24,60,60,48,60,56,30,51,60,68,44,48,0,0,0,0,0,0,0,0,0,0,0,0,0,0,0,0,0,0,0,0,0,0,0,0,0,0,0,0],"split_type":[0,0,0,0,0,0,0,0,0,0,0,0,0,0,0,0,0,0,0,0,0,0,0,0,0,0,0,0,0,0,0,0,0,0,0,0,0,0,0,0,0,0,0,0,0,0,0,0,0,0,0,0,0,0,0,0,0,0,0],"sum_hessian":[5.5052566E4,4.6878773E4,8.1737905E3,8.9262256E2,4.5986152E4,6.0550195E2,7.5682886E3,7.1621735E2,1.764052E2,3.913603E4,6.8501206E3,2.2089427E2,3.8460773E2,4.4005747E3,3.1677139E3,6.9730255E2,1.8914816E1,1.6813087E2,8.274311E0,3.864605E4,4.8997943E2,1.6262442E2,6.687496E3,2.0302731E2,1.7866957E1,1.8348235E2,2.0112537E2,1.869437E2,4.2136313E3,2.5419111E1,3.1422947E3,6.7298444E2,2.4318108E1,1.6039903E2,7.731851E0,1.1300177E3,3.7516035E4,4.4254172E2,4.7437714E1,4.513404E1,1.1749039E2,5.3106235E3,1.3768723E3,1.7978989E2,2.3237425E1,7.798066E0,1.0068891E1,1.7481535E2,8.666994E0,1.2845494E2,7.2670425E1,1.2172646E2,6.5217224E1,3.9311292E3,2.825021E2,1.8253492E1,7.165618E0,1.828461E3,1.3138336E3],"tree_param":{"num_deleted":"0","num_feature":"120","num_nodes":"59","size_leaf_vector":"1"}},{"base_weights":[1.3140105E-2,-5.674676E-2,3.4547257E-1,-1.0167801E0,-3.7316628E-2,-6.5151316E-1,3.8827002E-1,-1.4921297E0,-0E0,-5.0775245E-2,1.0307673E0,-1.1308535E0,1.274014E-1,5.4653233E-1,2.2717643E-1,-1.5589073E0,2.8489413E-2,1.01640604E-1,-6.814686E-2,1.941335E-3,-1.9000632E-1,1.1490933E0,-6.1068875E-1,-1.3831769E0,7.062873E-1,-1.0994655E0,4.4482073E-1,7.5158405E-1,3.363977E-1,1.1220345E-1,4.3566075E-1,-0E0,-4.9570467E-2,-1.8464448E-2,1.4042241E-2,1.4527795E-3,-8.632732E-3,-1.1476505E-2,-2.746649E-3,3.8194183E-2,1.6497564E-2,-5.7174996E-2,2.4304891E-2,-4.803236E-2,1.7608713E-2,3.8255133E-2,-1.8754393E-2,2.1295013E-2,-5.3743478E-2,3.5134155E-2,-7.985724E-3,3.3925895E-2,1.9541733E-2,1.22379465E-2,-3.60913E-2,4.0838933E-3,-4.8253946E-2,1.4172372E-2,-4.5098744E-2],"categories":[],"categories_nodes":[],"categories_segments":[],"categories_sizes":[],"default_left":[0,0,0,0,0,0,0,0,0,0,0,0,0,0,0,0,0,0,0,0,0,0,0,0,0,0,0,0,0,0,0,0,0,0,0,0,0,0,0,0,0,0,0,0,0,0,0,0,0,0,0,0,0,0,0,0,0,0,0],"id":19,"left_children":[1,3,5,7,9,11,13,15,17,19,21,23,25,27,29,31,-1,33,-1,35,37,39,41,43,45,47,49,51,53,55,57,-1,-1,-1,-1,-1,-1,-1,-1,-1,-1,-1,-1,-1,-1,-1,-1,-1,-1,-1,-1,-1,-1,-1,-1,-1,-1,-1,-1],"loss_changes":[1.2704186E3,8.4214746E2,4.0573718E2,4.327309E2,6.361386E2,1.4690138E2,2.3168884E2,1.0024585E2,6.374791E1,3.211904E2,1.0834149E2,1.1443887E2,5.8639572E1,1.9688904E2,1.0795029E2,1.5987061E1,0E0,6.571704E1,0E0,3.8802097E2,2.1547357E2,1.8932495E1,6.5611496E1,6.1924835E1,2.141024E1,3.5738216E1,5.7599144E1,9.6836914E1,1.7811917E2,8.422053E1,4.5295227E1,0E0,0E0,0E0,0E0,0E0,0E0,0E0,0E0,0E0,0E0,0E0,0E0,0E0,0E0,0E0,0E0,0E0,0E0,0E0,0E0,0E0,0E0,0E0,0E0,0E0,0E0,0E0,0E0],"parents":[2147483647,0,0,1,1,2,2,3,3,4,4,5,5,6,6,7,7,8,8,9,9,10,10,11,11,12,12,13,13,14,14,15,15,17,17,19,19,20,20,21,21,22,22,23,23,24,24,25,25,26,26,27,27,28,28,29,29,30,30],"right_children":[2,4,6,8,10,12,14,16,18,20,22,24,26,28,30,32,-1,34,-1,36,38,40,42,44,46,48,50,52,54,56,58,-1,-1,-1,-1,-1,-1,-1,-1,-1,-1,-1,-1,-1,-1,-1,-1,-1,-1,-1,-1,-1,-1,-1,-1,-1,-1,-1,-1],"split_conditions":[3.4300584E-2,3.221731E0,3.7412133E0,8.2478E-2,2.8569463E3,7.2046294E0,1.76183E-1,4.8057732E-1,2.9720651E-2,1.0164427E0,2.2639807E2,1.4134276E-1,7.747774E-1,2.2460988E2,6.0623193E0,-3.366554E-3,2.8489413E-2,4.7975376E-1,-6.814686E-2,2.7600527E0,2.403498E-1,7.352941E-3,1.3261682E0,1.1563825E-2,7.2146803E-1,4.4503757E-1,7.8959644E-1,1.8443936E-2,1.999996E0,5.311297E-3,6.212574E0,-0E0,-4.9570467E-2,-1.8464448E-2,1.4042241E-2,1.4527795E-3,-8.632732E-3,-1.1476505E-2,-2.746649E-3,3.8194183E-2,1.6497564E-2,-5.7174996E-2,2.4304891E-2,-4.803236E-2,1.7608713E-2,3.8255133E-2,-1.8754393E-2,2.1295013E-2,-5.3743478E-2,3.5134155E-2,-7.985724E-3,3.3925895E-2,1.9541733E-2,1.22379465E-2,-3.60913E-2,4.0838933E-3,-4.8253946E-2,1.4172372E-2,-4.5098744E-2],"split_indices":[94,107,107,26,115,31,26,113,94,13,72,114,39,72,117,65,0,70,0,81,28,18,43,17,104,20,39,59,86,77,4,0,0,0,0,0,0,0,0,0,0,0,0,0,0,0,0,0,0,0,0,0,0,0,0,0,0,0,0],"split_type":[0,0,0,0,0,0,0,0,0,0,0,0,0,0,0,0,0,0,0,0,0,0,0,0,0,0,0,0,0,0,0,0,0,0,0,0,0,0,0,0,0,0,0,0,0,0,0,0,0,0,0,0,0,0,0,0,0,0,0],"sum_hessian":[5.468803E4,4.5185207E4,9.502826E3,8.941843E2,4.4291023E4,3.896386E2,9.1131875E3,6.087746E2,2.8540973E2,4.3741867E4,5.491534E2,2.4130814E2,1.4833049E2,4.593152E3,4.520035E3,5.930519E2,1.5722749E1,2.73923E2,1.1486715E1,3.1726238E4,1.2015631E4,5.130156E2,3.6137775E1,2.1280312E2,2.8505016E1,2.931373E1,1.19016754E2,2.321182E3,2.27197E3,2.9168804E3,1.6031549E3,6.5697093E0,5.864821E2,9.0413445E1,1.8350957E2,2.7351352E4,4.374886E3,4.4402686E3,7.575362E3,4.6216388E2,5.085174E1,1.9301176E1,1.68366E1,1.9871478E2,1.4088328E1,2.0914562E1,7.5904536E0,7.1713567E0,2.2142374E1,6.0677406E1,5.8339344E1,6.562222E2,1.6649597E3,2.195475E3,7.6494995E1,2.8876797E3,2.920066E1,1.5918663E3,1.1288601E1],"tree_param":{"num_deleted":"0","num_feature":"120","num_nodes":"59","size_leaf_vector":"1"}},{"base_weights":[1.2837046E-2,2.0534979E-1,-1.942683E-1,7.3411965E-1,1.2611116E-1,-1.2580564E0,-1.5366682E-1,9.1914546E-1,1.11285694E-1,3.9194033E-2,4.4151548E-1,-1.5807371E0,-5.687044E-1,-1.1289238E0,-1.1095028E-1,6.357696E-1,1.0762136E0,-5.3780716E-2,2.9247242E-1,1.4788388E-1,-8.718568E-2,-1.2592866E0,4.606091E-1,-5.0265614E-2,-1.0963143E0,-4.618332E-2,-1.5751922E0,-6.1958474E-1,-1.543194E0,-6.230514E-1,-5.5625275E-2,1.0491787E-2,2.7648153E-2,-4.5188848E-2,3.4159817E-2,1.6749494E-2,-2.7593158E-2,-2.840564E-2,5.2308235E-3,-5.1562814E-3,9.124464E-3,1.5416182E-2,-5.4108404E-2,2.336141E-2,1.061182E-2,-4.7838718E-2,8.9077605E-3,-6.0200818E-2,1.4618769E-2,-6.281971E-2,-2.1012897E-2,-2.5299398E-2,2.1112056E-2,-5.3656235E-2,-1.2399126E-2,-5.07323E-2,-1.855841E-2,-2.9071777E-3,1.5380074E-2],"categories":[],"categories_nodes":[],"categories_segments":[],"categories_sizes":[],"default_left":[0,0,0,0,0,0,0,0,0,0,0,0,0,0,0,0,0,0,0,0,0,0,0,0,0,0,0,0,0,0,0,0,0,0,0,0,0,0,0,0,0,0,0,0,0,0,0,0,0,0,0,0,0,0,0,0,0,0,0],"id":20,"left_children":[1,3,5,7,9,11,13,15,17,19,21,23,25,27,29,31,33,-1,35,37,39,41,43,-1,45,47,49,51,53,55,57,-1,-1,-1,-1,-1,-1,-1,-1,-1,-1,-1,-1,-1,-1,-1,-1,-1,-1,-1,-1,-1,-1,-1,-1,-1,-1,-1,-1],"loss_changes":[2.186742E3,1.1903207E3,1.1399075E3,4.259358E2,6.7745154E2,2.1313916E2,1.059283E3,1.24897705E2,2.8054337E2,2.6635004E2,1.7374011E2,1.2642822E0,1.6312717E2,2.2234644E2,6.903899E2,7.399567E1,4.814209E1,0E0,2.1826126E2,2.0188576E2,2.5959833E2,4.990483E1,1.825409E2,0E0,1.854026E1,2.0045096E2,3.6993042E1,1.1589194E2,1.0750037E2,7.462964E1,4.411971E2,0E0,0E0,0E0,0E0,0E0,0E0,0E0,0E0,0E0,0E0,0E0,0E0,0E0,0E0,0E0,0E0,0E0,0E0,0E0,0E0,0E0,0E0,0E0,0E0,0E0,0E0,0E0,0E0],"parents":[2147483647,0,0,1,1,2,2,3,3,4,4,5,5,6,6,7,7,8,8,9,9,10,10,11,11,12,12,13,13,14,14,15,15,16,16,18,18,19,19,20,20,21,21,22,22,24,24,25,25,26,26,27,27,28,28,29,29,30,30],"right_children":[2,4,6,8,10,12,14,16,18,20,22,24,26,28,30,32,34,-1,36,38,40,42,44,-1,46,48,50,52,54,56,58,-1,-1,-1,-1,-1,-1,-1,-1,-1,-1,-1,-1,-1,-1,-1,-1,-1,-1,-1,-1,-1,-1,-1,-1,-1,-1,-1,-1],"split_conditions":[2.0969752E8,7.473778E-9,5.73E-1,2.2756345E2,1.0815853E-2,5.4396E-2,5.3129E-2,8.110659E-1,3.5331416E5,1.4715719E-1,6.4563E-2,7.557348E-1,4.7889188E5,2.2645622E2,4.46646E5,5.4307E-2,2.447675E0,-5.3780716E-2,1.99782E6,7.6778495E-9,2.02095E8,3.9515048E-1,1.76183E-1,-5.0265614E-2,8.697915E-4,2.14245E8,7.1800876E-1,3.5099503E1,8.259782E-1,8.0712974E-1,2.3888843E8,1.0491787E-2,2.7648153E-2,-4.5188848E-2,3.4159817E-2,1.6749494E-2,-2.7593158E-2,-2.840564E-2,5.2308235E-3,-5.1562814E-3,9.124464E-3,1.5416182E-2,-5.4108404E-2,2.336141E-2,1.061182E-2,-4.7838718E-2,8.9077605E-3,-6.0200818E-2,1.4618769E-2,-6.281971E-2,-2.1012897E-2,-2.5299398E-2,2.1112056E-2,-5.3656235E-2,-1.2399126E-2,-5.07323E-2,-1.855841E-2,-2.9071777E-3,1.5380074E-2],"split_indices":[0,19,98,96,46,26,26,51,12,30,26,80,12,60,12,50,71,0,108,19,0,20,26,0,101,0,80,109,87,84,0,0,0,0,0,0,0,0,0,0,0,0,0,0,0,0,0,0,0,0,0,0,0,0,0,0,0,0,0],"split_type":[0,0,0,0,0,0,0,0,0,0,0,0,0,0,0,0,0,0,0,0,0,0,0,0,0,0,0,0,0,0,0,0,0,0,0,0,0,0,0,0,0,0,0,0,0,0,0,0,0,0,0,0,0,0,0,0,0,0,0],"sum_hessian":[5.4843074E4,2.8424516E4,2.6418559E4,3.7017473E3,2.4722768E4,9.69017E2,2.5449543E4,2.8525747E3,8.491725E2,1.938462E4,5.33815E3,6.5809875E2,3.1091827E2,1.0656968E3,2.4383846E4,1.0214212E3,1.8311536E3,7.537067E1,7.738018E2,1.0424339E4,8.960279E3,5.7812176E1,5.280338E3,6.3042206E2,2.7676712E1,2.0611461E2,1.0480366E2,4.8037006E2,5.853267E2,2.3748293E3,2.2009016E4,4.5846436E2,5.629568E2,6.1592617E0,1.8249943E3,6.431557E2,1.3064607E2,1.779391E2,1.0246399E4,7.4475186E3,1.512761E3,1.1746726E1,4.6065453E1,1.6004241E3,3.6799136E3,2.1406134E1,6.2705784E0,4.367314E1,1.6244147E2,6.9798096E1,3.5005558E1,4.2112204E2,5.9248016E1,5.1148743E2,7.3839264E1,7.3512276E1,2.301317E3,2.0617809E4,1.3912072E3],"tree_param":{"num_deleted":"0","num_feature":"120","num_nodes":"59","size_leaf_vector":"1"}},{"base_weights":[1.802907E-2,-5.8538463E-2,4.332803E-1,-1.11526944E-1,2.314611E-1,-1.1892616E0,4.8116636E-1,-1.2483397E-1,8.579456E-1,2.4026272E-1,-6.7048475E-2,8.543028E-1,-1.5246537E0,-8.4943396E-1,5.134348E-1,-9.1093117E-1,-9.061467E-2,-5.148367E-1,1.1065557E0,4.0433013E-1,1.3204332E-1,3.608608E-2,-5.323294E-3,-1.6141077E0,9.6670315E-3,-1.2699981E0,5.756965E-1,3.6109912E-1,7.973952E-1,-5.0065983E-2,-1.9440142E-2,-4.149257E-2,-2.5509216E-3,-3.401007E-2,3.5369672E-2,-2.4189617E-2,3.694166E-2,1.8258622E-2,7.873708E-3,-1.7690369E-3,6.895785E-3,-5.4328434E-2,-0E0,-1.2805955E-2,-5.3081583E-2,-2.946517E-2,3.3335913E-2,-4.2989533E-2,1.2219883E-2,-3.410549E-2,2.5835292E-2],"categories":[],"categories_nodes":[],"categories_segments":[],"categories_sizes":[],"default_left":[0,0,0,0,0,0,0,0,0,0,0,0,0,0,0,0,0,0,0,0,0,0,0,0,0,0,0,0,0,0,0,0,0,0,0,0,0,0,0,0,0,0,0,0,0,0,0,0,0,0,0],"id":21,"left_children":[1,3,5,7,9,11,13,15,17,19,-1,21,23,25,27,29,31,33,35,37,39,-1,-1,41,-1,43,45,47,49,-1,-1,-1,-1,-1,-1,-1,-1,-1,-1,-1,-1,-1,-1,-1,-1,-1,-1,-1,-1,-1,-1],"loss_changes":[1.7394033E3,7.0963324E2,6.621383E2,5.034665E2,1.4791388E2,1.6974026E2,3.5569873E2,1.0355078E3,1.8152713E2,1.2578381E2,0E0,1.146137E1,3.6100555E1,1.1900688E2,3.4832837E2,3.1734033E2,4.299186E2,7.7590546E1,5.886389E1,7.582501E1,7.0552185E1,0E0,0E0,3.7048218E1,0E0,5.246759E1,3.475871E1,2.4996838E2,1.2905396E2,0E0,0E0,0E0,0E0,0E0,0E0,0E0,0E0,0E0,0E0,0E0,0E0,0E0,0E0,0E0,0E0,0E0,0E0,0E0,0E0,0E0,0E0],"parents":[2147483647,0,0,1,1,2,2,3,3,4,4,5,5,6,6,7,7,8,8,9,9,11,11,12,12,13,13,14,14,15,15,16,16,17,17,18,18,19,19,20,20,23,23,25,25,26,26,27,27,28,28],"right_children":[2,4,6,8,10,12,14,16,18,20,-1,22,24,26,28,30,32,34,36,38,40,-1,-1,42,-1,44,46,48,50,-1,-1,-1,-1,-1,-1,-1,-1,-1,-1,-1,-1,-1,-1,-1,-1,-1,-1,-1,-1,-1,-1],"split_conditions":[8.9649296E-1,2.926151E-2,-9.312557E-1,2.933263E3,8.0887306E-1,2.2428215E2,1.7649744E-1,4.6957022E-1,4.937235E0,6.6396E-1,-6.7048475E-2,-6.040613E-1,7.9257697E-1,8.013886E0,9.295444E-1,8.0259585E-1,3.434E-2,2.3080072E2,7.6982725E-1,1.0487753E1,1.4270408E0,3.608608E-2,-5.323294E-3,5.652124E-1,9.6670315E-3,-3.6158127E-1,7.4626864E-3,3.5207742E-1,6.4608866E-1,-5.0065983E-2,-1.9440142E-2,-4.149257E-2,-2.5509216E-3,-3.401007E-2,3.5369672E-2,-2.4189617E-2,3.694166E-2,1.8258622E-2,7.873708E-3,-1.7690369E-3,6.895785E-3,-5.4328434E-2,-0E0,-1.2805955E-2,-5.3081583E-2,-2.946517E-2,3.3335913E-2,-4.2989533E-2,1.2219883E-2,-3.410549E-2,2.5835292E-2],"split_indices":[48,37,84,118,39,96,73,24,71,44,0,52,80,21,48,48,86,96,39,31,70,0,0,95,0,64,114,84,39,0,0,0,0,0,0,0,0,0,0,0,0,0,0,0,0,0,0,0,0,0,0],"split_type":[0,0,0,0,0,0,0,0,0,0,0,0,0,0,0,0,0,0,0,0,0,0,0,0,0,0,0,0,0,0,0,0,0,0,0,0,0,0,0,0,0,0,0,0,0,0,0,0,0,0,0],"sum_hessian":[5.4696855E4,4.618126E4,8.515593E3,3.9049363E4,7.1318994E3,2.4271089E2,8.272882E3,3.8522566E4,5.267956E2,7.107042E3,2.4857462E1,3.3619568E1,2.0909132E2,1.9450635E2,8.078375E3,1.6045768E3,3.6917992E4,8.012723E1,4.4666837E2,2.8206526E3,4.286389E3,2.649154E1,7.1280265E0,1.9986588E2,9.225455E0,1.5066475E2,4.3841602E1,5.261449E3,2.8169258E3,4.7974664E2,1.1248302E3,2.8115262E2,3.663684E4,6.0219395E1,1.9907833E1,1.4780293E1,4.3188806E2,1.3112083E3,1.5094443E3,1.3548313E3,2.931558E3,1.8670734E2,1.3158525E1,5.0628616E1,1.0003613E2,9.969124E0,3.387248E1,8.081997E1,5.1806294E3,3.4471966E1,2.7824539E3],"tree_param":{"num_deleted":"0","num_feature":"120","num_nodes":"51","size_leaf_vector":"1"}},{"base_weights":[1.7810667E-2,-3.3675097E-2,3.986573E-1,1.1546265E-1,-1.822628E-1,-4.317089E-3,7.216806E-1,9.043144E-2,1.1413813E0,-1.0576485E0,-1.22615695E-1,-1.1689194E0,3.031953E-1,-1.5237854E0,7.655162E-1,-1.1255138E-2,3.0156958E-1,1.1824318E0,-4.5312714E-2,-5.041081E-1,-1.4554462E0,-4.4049045E-1,-7.230481E-2,-1.4585223E0,-4.1246322E-1,-1.2559866E0,3.475974E-1,-5.427637E-2,-0E0,-7.4863577E-1,8.100341E-1,2.6449133E-3,-4.592952E-3,-5.0188057E-2,1.033829E-2,3.825767E-2,2.8093401E-2,-3.231203E-2,-3.2227729E-3,-4.9487844E-2,-2.036208E-2,-1.2716197E-2,-8.0213144E-2,2.4297726E-3,-8.711919E-3,-5.362546E-3,-4.8782807E-2,-5.1060867E-2,1.3744097E-2,-5.4829083E-2,3.409487E-2,1.5181645E-2,-3.7592843E-3,-4.260435E-2,1.1504734E-2,2.700187E-2,5.212908E-3],"categories":[],"categories_nodes":[],"categories_segments":[],"categories_sizes":[],"default_left":[0,0,0,0,0,0,0,0,0,0,0,0,0,0,0,0,0,0,0,0,0,0,0,0,0,0,0,0,0,0,0,0,0,0,0,0,0,0,0,0,0,0,0,0,0,0,0,0,0,0,0,0,0,0,0,0,0],"id":22,"left_children":[1,3,5,7,9,11,13,15,17,19,21,23,25,27,29,31,33,35,-1,37,39,41,43,45,47,49,51,-1,-1,53,55,-1,-1,-1,-1,-1,-1,-1,-1,-1,-1,-1,-1,-1,-1,-1,-1,-1,-1,-1,-1,-1,-1,-1,-1,-1,-1],"loss_changes":[1.0722922E3,1.0673407E3,8.4820935E2,6.162622E2,1.2588672E3,1.0390361E3,3.5713965E2,5.039835E2,6.2960815E1,3.3635352E2,3.609107E2,1.3067804E2,1.5883835E2,2.2404922E1,2.4008643E2,2.0361548E2,3.932447E2,2.564392E0,0E0,1.3492723E2,8.235156E1,2.3180048E2,5.974705E2,5.065973E1,1.772659E2,7.558161E1,1.4121072E2,0E0,0E0,7.006532E1,1.0700537E2,0E0,0E0,0E0,0E0,0E0,0E0,0E0,0E0,0E0,0E0,0E0,0E0,0E0,0E0,0E0,0E0,0E0,0E0,0E0,0E0,0E0,0E0,0E0,0E0,0E0,0E0],"parents":[2147483647,0,0,1,1,2,2,3,3,4,4,5,5,6,6,7,7,8,8,9,9,10,10,11,11,12,12,13,13,14,14,15,15,16,16,17,17,19,19,20,20,21,21,22,22,23,23,24,24,25,25,26,26,29,29,30,30],"right_children":[2,4,6,8,10,12,14,16,18,20,22,24,26,28,30,32,34,36,-1,38,40,42,44,46,48,50,52,-1,-1,54,56,-1,-1,-1,-1,-1,-1,-1,-1,-1,-1,-1,-1,-1,-1,-1,-1,-1,-1,-1,-1,-1,-1,-1,-1,-1,-1],"split_conditions":[9.102903E-1,1.9988E6,9.1447574E-1,3.5810435E0,5.9843E-2,5.4396E-2,2.721709E0,1.3612354E0,4.1491675E5,2.2686386E2,4.4997878E5,8.2174015E-1,3.4866798E0,8.301802E-1,1.7963E-2,3.0103806E-1,3.932067E-1,1.99441E6,-4.5312714E-2,5.400062E-1,6.3285583E-1,1.99882E6,1.3422819E-2,8.0887306E-1,6.990137E-1,2.3183244E2,2.304859E8,-5.427637E-2,-0E0,9.505531E-1,3.5001564E0,2.6449133E-3,-4.592952E-3,-5.0188057E-2,1.033829E-2,3.825767E-2,2.8093401E-2,-3.231203E-2,-3.2227729E-3,-4.9487844E-2,-2.036208E-2,-1.2716197E-2,-8.0213144E-2,2.4297726E-3,-8.711919E-3,-5.362546E-3,-4.8782807E-2,-5.1060867E-2,1.3744097E-2,-5.4829083E-2,3.409487E-2,1.5181645E-2,-3.7592843E-3,-4.260435E-2,1.1504734E-2,2.700187E-2,5.212908E-3],"split_indices":[36,108,48,119,26,26,71,45,12,96,12,87,71,56,38,30,24,108,0,24,24,108,114,39,68,72,0,0,0,48,81,0,0,0,0,0,0,0,0,0,0,0,0,0,0,0,0,0,0,0,0,0,0,0,0,0,0],"split_type":[0,0,0,0,0,0,0,0,0,0,0,0,0,0,0,0,0,0,0,0,0,0,0,0,0,0,0,0,0,0,0,0,0,0,0,0,0,0,0,0,0,0,0,0,0,0,0,0,0,0,0,0,0,0,0,0,0],"sum_hessian":[5.4671293E4,4.8160254E4,6.511037E3,2.4033607E4,2.4126646E4,2.8967522E3,3.614285E3,2.3463379E4,5.702273E2,1.5367908E3,2.2589857E4,6.046834E2,2.2920688E3,6.796177E1,3.5463232E3,1.5835248E4,7.6281313E3,5.6234503E2,7.8823023E0,6.44696E2,8.920948E2,3.0834524E3,1.9506404E4,4.3565512E2,1.690283E2,6.1937084E1,2.2301318E3,6.017223E1,7.789536E0,1.00198425E2,3.4461248E3,9.271701E3,6.563547E3,1.06127304E2,7.5220044E3,4.9675964E2,6.558535E1,2.7821906E2,3.6647693E2,7.7633844E2,1.1575635E2,3.0335728E3,4.987947E1,1.1270136E4,8.236269E3,2.9998243E1,4.056569E2,6.944101E1,9.9587296E1,5.1803707E1,1.0133375E1,1.7307526E3,4.9937918E2,6.5074776E1,3.512365E1,3.2031353E3,2.429895E2],"tree_param":{"num_deleted":"0","num_feature":"120","num_nodes":"57","size_leaf_vector":"1"}},{"base_weights":[2.2685371E-2,1.8489842E-1,-1.4755033E-1,3.9319542E-1,-1.4091706E-2,-1.0441766E0,-7.311108E-2,-1.3395381E0,4.1641206E-1,-1.576975E-1,2.564514E-1,-5.1247054E-1,-1.4004713E0,-4.3796402E-1,-1.9988734E-2,-5.0595127E-2,4.8059726E-1,8.450325E-1,3.5127223E-1,1.0089523E-2,-2.3126818E-1,-1.886035E-1,3.3192813E-1,-9.527994E-1,3.818703E-2,-1.5199537E0,-8.548888E-2,2.316469E-1,-5.45095E-1,4.3157947E-1,-5.370995E-2,4.0944494E-2,-2.3099924E-2,3.3114642E-2,1.4366121E-2,7.74516E-3,2.2694673E-2,3.6239505E-2,-4.26273E-4,-4.7359047E-3,-1.3640135E-2,1.44244125E-2,-1.541567E-2,3.204152E-2,9.391184E-3,-4.7093786E-2,-1.6393295E-2,8.109379E-3,-6.2496793E-2,-4.9990177E-2,-2.5199914E-2,-2.1589333E-2,3.8936306E-2,-9.250356E-3,1.965831E-2,-1.5752342E-2,-5.3431526E-2,1.5010529E-2,-5.418426E-2,1.1975789E-2,-4.061926E-3],"categories":[],"categories_nodes":[],"categories_segments":[],"categories_sizes":[],"default_left":[0,0,0,0,0,0,0,0,0,0,0,0,0,0,0,0,0,0,0,0,0,0,0,0,0,0,0,0,0,0,0,0,0,0,0,0,0,0,0,0,0,0,0,0,0,0,0,0,0,0,0,0,0,0,0,0,0,0,0,0,0],"id":23,"left_children":[1,3,5,7,9,11,13,15,17,19,21,23,25,27,29,-1,31,33,35,37,39,41,43,45,47,49,51,53,55,57,59,-1,-1,-1,-1,-1,-1,-1,-1,-1,-1,-1,-1,-1,-1,-1,-1,-1,-1,-1,-1,-1,-1,-1,-1,-1,-1,-1,-1,-1,-1],"loss_changes":[1.5166056E3,1.165988E3,1.7875928E3,5.5306177E2,5.588124E2,3.8666528E2,4.792641E2,9.093225E1,3.7744165E2,1.1616464E2,1.676867E2,2.0115518E2,1.9167236E2,2.2586877E2,3.287294E2,0E0,2.598662E1,1.4254883E2,4.570642E2,7.810567E1,1.06284424E2,1.4143298E2,9.627316E1,1.05691956E2,1.634542E2,5.2845215E1,8.386917E1,9.021158E1,1.355708E2,1.4816666E2,6.589982E2,0E0,0E0,0E0,0E0,0E0,0E0,0E0,0E0,0E0,0E0,0E0,0E0,0E0,0E0,0E0,0E0,0E0,0E0,0E0,0E0,0E0,0E0,0E0,0E0,0E0,0E0,0E0,0E0,0E0,0E0],"parents":[2147483647,0,0,1,1,2,2,3,3,4,4,5,5,6,6,7,7,8,8,9,9,10,10,11,11,12,12,13,13,14,14,16,16,17,17,18,18,19,19,20,20,21,21,22,22,23,23,24,24,25,25,26,26,27,27,28,28,29,29,30,30],"right_children":[2,4,6,8,10,12,14,16,18,20,22,24,26,28,30,-1,32,34,36,38,40,42,44,46,48,50,52,54,56,58,60,-1,-1,-1,-1,-1,-1,-1,-1,-1,-1,-1,-1,-1,-1,-1,-1,-1,-1,-1,-1,-1,-1,-1,-1,-1,-1,-1,-1,-1,-1],"split_conditions":[2.0969752E8,8.953784E-3,5.7012E-2,1.85596E8,2.02095E8,2.2666708E2,4.4997878E5,8.0362564E-1,7.1882313E-1,7.874177E-1,8.5453176E-1,5.240208E-1,9.644217E-1,7.4848723E-1,-7.433482E-1,-5.0595127E-2,4.3727E-2,2.0167946E8,9.1447574E-1,7.913536E-1,1.97858E8,4.1491675E5,2.0230414E8,4.626E-2,6.868576E-1,7.2224563E-1,7.418191E-1,2.12275E8,2.14245E8,8.051472E2,4.591235E5,4.0944494E-2,-2.3099924E-2,3.3114642E-2,1.4366121E-2,7.74516E-3,2.2694673E-2,3.6239505E-2,-4.26273E-4,-4.7359047E-3,-1.3640135E-2,1.44244125E-2,-1.541567E-2,3.204152E-2,9.391184E-3,-4.7093786E-2,-1.6393295E-2,8.109379E-3,-6.2496793E-2,-4.9990177E-2,-2.5199914E-2,-2.1589333E-2,3.8936306E-2,-9.250356E-3,1.965831E-2,-1.5752342E-2,-5.3431526E-2,1.5010529E-2,-5.418426E-2,1.1975789E-2,-4.061926E-3],"split_indices":[0,17,26,0,0,72,12,84,84,39,84,24,84,48,88,0,38,0,48,48,0,12,0,26,24,27,68,0,0,119,12,0,0,0,0,0,0,0,0,0,0,0,0,0,0,0,0,0,0,0,0,0,0,0,0,0,0,0,0,0,0],"split_type":[0,0,0,0,0,0,0,0,0,0,0,0,0,0,0,0,0,0,0,0,0,0,0,0,0,0,0,0,0,0,0,0,0,0,0,0,0,0,0,0,0,0,0,0,0,0,0,0,0,0,0,0,0,0,0,0,0,0,0,0,0],"sum_hessian":[5.4916883E4,2.812297E4,2.6793914E4,1.3741065E4,1.4381904E4,2.0517937E3,2.474212E4,1.8019553E2,1.356087E4,9.396975E3,4.98493E3,8.2543396E2,1.2263596E3,3.141656E3,2.1600465E4,1.5743492E2,2.2760605E1,1.7853638E3,1.1775507E4,2.8620671E3,6.534907E3,7.2123267E2,4.2636978E3,4.5872366E2,3.667103E2,1.1235432E3,1.02816414E2,4.3222855E2,2.7094272E3,1.4983837E3,2.010208E4,1.3838707E1,8.921898E0,1.1598652E3,6.254984E2,9.178001E3,2.5975051E3,5.7166924E1,2.8049001E3,4.677034E3,1.857873E3,2.283016E2,4.9293103E2,1.9423701E2,4.0694607E3,2.0048439E2,2.582393E2,3.3228882E2,3.4421486E1,1.0218253E3,1.017179E2,7.153999E1,3.1276423E1,1.8444925E2,2.4777928E2,2.6120635E3,9.736378E1,1.4686726E3,2.9710993E1,2.9719915E3,1.713009E4],"tree_param":{"num_deleted":"0","num_feature":"120","num_nodes":"61","size_leaf_vector":"1"}},{"base_weights":[1.0780219E-2,1.8328263E-1,-1.7048447E-1,4.2934245E-1,5.3035796E-2,-9.912116E-1,-1.3257216E-1,6.795119E-1,2.1355855E-1,-5.9938233E-2,2.7417862E-1,-1.0477234E-1,-1.3731782E0,-1.55429E-1,5.146289E-1,9.584749E-1,4.6412694E-1,-1.2293277E0,2.7584603E-1,1.0407541E-1,-1.5874578E-1,5.29824E-1,1.0871732E-1,3.050529E-1,-1.4248728E0,-1.405795E0,1.3379933E-1,-7.1211345E-2,-4.7400331E-1,-1.8668635E0,5.774066E-1,3.446155E-2,2.443097E-2,6.837651E-3,2.3244675E-2,4.665254E-4,-4.9091935E-2,1.2899183E-2,-8.32477E-3,-2.3584066E-2,3.9976975E-3,-6.2231463E-3,8.038685E-3,1.3298862E-2,2.6978204E-2,-2.9525072E-3,1.2264734E-2,-3.3657316E-2,2.2325635E-2,-5.844393E-2,1.7700825E-2,-4.2514145E-2,-7.602019E-2,-1.6523845E-2,3.2433107E-2,-4.3657687E-2,-1.8172307E-3,-3.1687137E-2,-1.0037376E-2,-9.521497E-3,-7.6390654E-2,2.426334E-2,-3.986784E-3],"categories":[],"categories_nodes":[],"categories_segments":[],"categories_sizes":[],"default_left":[0,0,0,0,0,0,0,0,0,0,0,0,0,0,0,0,0,0,0,0,0,0,0,0,0,0,0,0,0,0,0,0,0,0,0,0,0,0,0,0,0,0,0,0,0,0,0,0,0,0,0,0,0,0,0,0,0,0,0,0,0,0,0],"id":24,"left_children":[1,3,5,7,9,11,13,15,17,19,21,23,25,27,29,31,33,35,37,39,41,43,45,47,49,51,53,55,57,59,61,-1,-1,-1,-1,-1,-1,-1,-1,-1,-1,-1,-1,-1,-1,-1,-1,-1,-1,-1,-1,-1,-1,-1,-1,-1,-1,-1,-1,-1,-1,-1,-1],"loss_changes":[1.6994799E3,8.9221045E2,8.2364966E2,5.194601E2,4.5521695E2,3.9466882E2,3.74632E2,2.6645142E2,4.6524136E2,1.954168E2,2.601012E2,1.9299564E2,4.1239502E1,6.5613544E2,1.2985527E2,4.592444E1,1.7021533E2,8.940677E1,3.60782E2,8.8887634E1,1.220847E2,8.348053E1,2.135845E2,1.5185098E2,7.525632E1,3.6309204E1,1.19180155E1,3.412501E2,4.212096E2,1.6697441E1,1.1576428E2,0E0,0E0,0E0,0E0,0E0,0E0,0E0,0E0,0E0,0E0,0E0,0E0,0E0,0E0,0E0,0E0,0E0,0E0,0E0,0E0,0E0,0E0,0E0,0E0,0E0,0E0,0E0,0E0,0E0,0E0,0E0,0E0],"parents":[2147483647,0,0,1,1,2,2,3,3,4,4,5,5,6,6,7,7,8,8,9,9,10,10,11,11,12,12,13,13,14,14,15,15,16,16,17,17,18,18,19,19,20,20,21,21,22,22,23,23,24,24,25,25,26,26,27,27,28,28,29,29,30,30],"right_children":[2,4,6,8,10,12,14,16,18,20,22,24,26,28,30,32,34,36,38,40,42,44,46,48,50,52,54,56,58,60,62,-1,-1,-1,-1,-1,-1,-1,-1,-1,-1,-1,-1,-1,-1,-1,-1,-1,-1,-1,-1,-1,-1,-1,-1,-1,-1,-1,-1,-1,-1,-1,-1],"split_conditions":[2.0969752E8,6.124666E-3,4.5345306E0,2.2532639E2,2.02095E8,2.0229564E0,2.39934E8,1E0,1.8604597E8,1.0239501E-2,2.0481E8,2.2230669E8,5.5096803E0,2.32029E8,7.760453E-1,1.9723651E8,2.2770073E0,2.2682921E2,2.0379232E8,4.320152E0,5.9309704E-3,2.444803E0,7.887929E-1,2.14245E8,3.2148766E1,9.838109E-3,2.2907217E2,-7.7758414E-1,8.1111E-2,7.5423512E0,2.4032514E8,3.446155E-2,2.443097E-2,6.837651E-3,2.3244675E-2,4.665254E-4,-4.9091935E-2,1.2899183E-2,-8.32477E-3,-2.3584066E-2,3.9976975E-3,-6.2231463E-3,8.038685E-3,1.3298862E-2,2.6978204E-2,-2.9525072E-3,1.2264734E-2,-3.3657316E-2,2.2325635E-2,-5.844393E-2,1.7700825E-2,-4.2514145E-2,-7.602019E-2,-1.6523845E-2,3.2433107E-2,-4.3657687E-2,-1.8172307E-3,-3.1687137E-2,-1.0037376E-2,-9.521497E-3,-7.6390654E-2,2.426334E-2,-3.986784E-3],"split_indices":[0,17,107,96,0,69,0,14,0,17,0,0,71,0,39,0,33,72,0,22,46,43,87,0,109,17,72,84,38,71,0,0,0,0,0,0,0,0,0,0,