{"learner":{"attributes":{"best_iteration":"34","best_score":"0.11318679830409097"},"feature_names":["rTotalActivePower","rTotalReactivePower","rTotalApparentPower","rTotalReactiveEnergy","rTotalApparentEnergy","aCurrentL1","aCurrentL2","aCurrentL3","aVoltage_L1_N","aVoltage_L2_N","aVoltage_L3_N","aActivePower_L1","aActivePower_L2","aActivePower_L3","aReactivePower_L1","aReactivePower_L2","aReactivePower_L3","aApparentPower_L1","aApparentPower_L2","aApparentPower_L3","aCosPhi_L1","aCosPhi_L2","aCosPhi_L3","aPowerFactorPF_L1","aPowerFactorPF_L2","airTotal","airDurchfluss","airTempeatur"],"feature_types":[],"gradient_booster":{"model":{"gbtree_model_param":{"num_parallel_tree":"1","num_trees":"65"},"iteration_indptr":[0,1,2,3,4,5,6,7,8,9,10,11,12,13,14,15,16,17,18,19,20,21,22,23,24,25,26,27,28,29,30,31,32,33,34,35,36,37,38,39,40,41,42,43,44,45,46,47,48,49,50,51,52,53,54,55,56,57,58,59,60,61,62,63,64,65],"tree_info":[0,0,0,0,0,0,0,0,0,0,0,0,0,0,0,0,0,0,0,0,0,0,0,0,0,0,0,0,0,0,0,0,0,0,0,0,0,0,0,0,0,0,0,0,0,0,0,0,0,0,0,0,0,0,0,0,0,0,0,0,0,0,0,0,0],"trees":[{"base_weights":[-2.0748203E-1,8.13609E-2,-6.004909E-1,-9.2755765E-1,3.9525345E-1,-1.1179745E0,-5.039285E-1,-8.551526E-2,-5.7499018E-2,2.713219E-2,2.7705267E-1,1.4348282E-1,-9.112128E-2,-6.432907E-3,-6.472143E-2],"categories":[],"categories_nodes":[],"categories_segments":[],"categories_sizes":[],"default_left":[0,0,0,0,0,0,0,0,0,0,0,0,0,0,0],"id":0,"left_children":[1,3,5,7,9,11,13,-1,-1,-1,-1,-1,-1,-1,-1],"loss_changes":[6.2906934E3,1.0115537E4,1.1726338E3,2.1172656E2,4.4288076E3,8.357666E1,2.4826362E3,0E0,0E0,0E0,0E0,0E0,0E0,0E0,0E0],"parents":[2147483647,0,0,1,1,2,2,3,3,4,4,5,5,6,6],"right_children":[2,4,6,8,10,12,14,-1,-1,-1,-1,-1,-1,-1,-1],"split_conditions":[1.30903E6,1.56981E5,1.9484E5,3.00532E7,3.1948277E1,2.5732203E1,1.33298E6,-8.551526E-2,-5.7499018E-2,2.713219E-2,2.7705267E-1,1.4348282E-1,-9.112128E-2,-6.432907E-3,-6.472143E-2],"split_indices":[3,25,25,4,27,27,3,0,0,0,0,0,0,0,0],"split_type":[0,0,0,0,0,0,0,0,0,0,0,0,0,0,0],"sum_hessian":[5.5414855E4,3.1940365E4,2.3474492E4,7.578915E3,2.4361451E4,3.6905906E3,1.97839E4,4.7548003E3,2.8241147E3,2.3888113E4,4.733372E2,9.554904E0,3.6810356E3,8.122919E3,1.1660981E4],"tree_param":{"num_deleted":"0","num_feature":"28","num_nodes":"15","size_leaf_vector":"1"}},{"base_weights":[-1.9650735E-1,6.1995484E-2,-5.5772877E-1,-9.0610754E-1,3.4556323E-1,-1.1036873E0,-4.6045202E-1,-8.3604336E-2,-5.614611E-2,6.0470764E-2,1.641656E-3,-4.7370248E-2,-9.263918E-2,-4.2639957E-3,-6.1327152E-2],"categories":[],"categories_nodes":[],"categories_segments":[],"categories_sizes":[],"default_left":[0,0,0,0,0,0,0,0,0,0,0,0,0,0,0],"id":1,"left_children":[1,3,5,7,9,11,13,-1,-1,-1,-1,-1,-1,-1,-1],"loss_changes":[5.121768E3,8.776849E3,1.2147422E3,1.9458691E2,3.2294683E3,7.2708496E1,2.353414E3,0E0,0E0,0E0,0E0,0E0,0E0,0E0,0E0],"parents":[2147483647,0,0,1,1,2,2,3,3,4,4,5,5,6,6],"right_children":[2,4,6,8,10,12,14,-1,-1,-1,-1,-1,-1,-1,-1],"split_conditions":[1.30903E6,3.0528978E7,1.9484E5,3.00532E7,1.66958E5,1.3094E6,2.0745E5,-8.3604336E-2,-5.614611E-2,6.0470764E-2,1.641656E-3,-4.7370248E-2,-9.263918E-2,-4.2639957E-3,-6.1327152E-2],"split_indices":[3,4,25,4,25,3,25,0,0,0,0,0,0,0,0],"split_type":[0,0,0,0,0,0,0,0,0,0,0,0,0,0,0],"sum_hessian":[5.4849484E4,3.1970453E4,2.287903E4,7.2426514E3,2.4727803E4,3.4591426E3,1.9419887E4,4.535024E3,2.7076272E3,1.1066891E4,1.3660912E4,2.5296828E2,3.2061743E3,8.1871797E3,1.1232707E4],"tree_param":{"num_deleted":"0","num_feature":"28","num_nodes":"15","size_leaf_vector":"1"}},{"base_weights":[-1.7138182E-1,6.910039E-2,-5.19747E-1,-8.4974027E-1,3.213546E-1,-1.0454584E0,-4.3091822E-1,-8.0545165E-2,-5.1475037E-2,2.1698097E-2,2.1203446E-1,1.6587518E-1,-8.5447185E-2,-3.40478E-3,-5.8319833E-2],"categories":[],"categories_nodes":[],"categories_segments":[],"categories_sizes":[],"default_left":[0,0,0,0,0,0,0,0,0,0,0,0,0,0,0],"id":2,"left_children":[1,3,5,7,9,11,13,-1,-1,-1,-1,-1,-1,-1,-1],"loss_changes":[4.559696E3,7.463325E3,1.037669E3,2.1508105E2,3.0936763E3,1.0202124E2,2.1411448E3,0E0,0E0,0E0,0E0,0E0,0E0,0E0,0E0],"parents":[2147483647,0,0,1,1,2,2,3,3,4,4,5,5,6,6],"right_children":[2,4,6,8,10,12,14,-1,-1,-1,-1,-1,-1,-1,-1],"split_conditions":[3.38675E7,3.0528978E7,1.9484E5,3.00204E7,3.1948277E1,2.5732203E1,1.33298E6,-8.0545165E-2,-5.1475037E-2,2.1698097E-2,2.1203446E-1,1.6587518E-1,-8.5447185E-2,-3.40478E-3,-5.8319833E-2],"split_indices":[4,4,25,4,27,27,3,0,0,0,0,0,0,0,0],"split_type":[0,0,0,0,0,0,0,0,0,0,0,0,0,0,0],"sum_hessian":[5.4426363E4,3.2199004E4,2.222736E4,6.9353667E3,2.5263637E4,3.2119922E3,1.9015367E4,4.127692E3,2.8076743E3,2.4691607E4,5.720297E2,1.0184104E1,3.201808E3,8.11667E3,1.0898696E4],"tree_param":{"num_deleted":"0","num_feature":"28","num_nodes":"15","size_leaf_vector":"1"}},{"base_weights":[-1.6014808E-1,5.709808E-2,-4.8127592E-1,-8.1523585E-1,2.849119E-1,-1.0295407E0,-3.90083E-1,-7.9611324E-2,-5.1441405E-2,5.0340805E-2,2.1184683E-4,1.11221604E-1,-8.391705E-2,-1.0272586E-3,-5.52138E-2],"categories":[],"categories_nodes":[],"categories_segments":[],"categories_sizes":[],"default_left":[0,0,0,0,0,0,0,0,0,0,0,0,0,0,0],"id":3,"left_children":[1,3,5,7,9,11,13,-1,-1,-1,-1,-1,-1,-1,-1],"loss_changes":[3.7589937E3,6.3870576E3,1.0867705E3,2.0086914E2,2.424392E3,5.4162598E1,2.054583E3,0E0,0E0,0E0,0E0,0E0,0E0,0E0,0E0],"parents":[2147483647,0,0,1,1,2,2,3,3,4,4,5,5,6,6],"right_children":[2,4,6,8,10,12,14,-1,-1,-1,-1,-1,-1,-1,-1],"split_conditions":[1.30903E6,3.0528978E7,1.9484E5,1.25449E6,3.20016E7,2.5732203E1,1.33298E6,-7.9611324E-2,-5.1441405E-2,5.0340805E-2,2.1184683E-4,1.11221604E-1,-8.391705E-2,-1.0272586E-3,-5.52138E-2],"split_indices":[3,4,25,3,4,27,3,0,0,0,0,0,0,0,0],"split_type":[0,0,0,0,0,0,0,0,0,0,0,0,0,0,0],"sum_hessian":[5.3880582E4,3.2138617E4,2.1741965E4,6.6548E3,2.5483818E4,3.0998E3,1.8642166E4,3.4353428E3,3.219457E3,1.1615862E4,1.3867956E4,8.934892E0,3.0908652E3,8.1329263E3,1.0509238E4],"tree_param":{"num_deleted":"0","num_feature":"28","num_nodes":"15","size_leaf_vector":"1"}},{"base_weights":[-1.476329E-1,5.6565773E-2,-4.571942E-1,-7.985178E-1,2.6621097E-1,-9.950226E-1,-3.689067E-1,-6.560776E-2,2.1513382E-1,1.7887594E-2,1.717663E-1,-8.4043704E-2,-1.6614148E-2,-1.7224842E-4,-5.3543832E-2],"categories":[],"categories_nodes":[],"categories_segments":[],"categories_sizes":[],"default_left":[0,0,0,0,0,0,0,0,0,0,0,0,0,0,0],"id":4,"left_children":[1,3,5,7,9,11,13,-1,-1,-1,-1,-1,-1,-1,-1],"loss_changes":[3.3873027E3,5.788101E3,1.01103516E3,2.6475293E2,2.1759397E3,1.0240283E2,1.963332E3,0E0,0E0,0E0,0E0,0E0,0E0,0E0,0E0],"parents":[2147483647,0,0,1,1,2,2,3,3,4,4,5,5,6,6],"right_children":[2,4,6,8,10,12,14,-1,-1,-1,-1,-1,-1,-1,-1],"split_conditions":[1.30903E6,3.0528978E7,1.31189E6,9.97039E-1,3.1948277E1,1.3690689E2,1.33298E6,-6.560776E-2,2.1513382E-1,1.7887594E-2,1.717663E-1,-8.4043704E-2,-1.6614148E-2,-1.7224842E-4,-5.3543832E-2],"split_indices":[3,4,3,21,27,15,3,0,0,0,0,0,0,0,0],"split_type":[0,0,0,0,0,0,0,0,0,0,0,0,0,0,0],"sum_hessian":[5.358519E4,3.2287332E4,2.1297861E4,6.3570415E3,2.593029E4,3.0023623E3,1.8295498E4,6.335411E3,2.1630407E1,2.5313973E4,6.16317E2,2.8461904E3,1.5617192E2,8.118692E3,1.0176807E4],"tree_param":{"num_deleted":"0","num_feature":"28","num_nodes":"15","size_leaf_vector":"1"}},{"base_weights":[-1.3678338E-1,5.256843E-2,-4.306347E-1,-7.473223E-1,2.4065693E-1,-9.815395E-1,-3.4480545E-1,-7.234884E-2,-4.1724607E-2,4.3548312E-2,-1.3087813E-3,1.865375E-1,-8.0497555E-2,1.2700637E-3,-4.806194E-2],"categories":[],"categories_nodes":[],"categories_segments":[],"categories_sizes":[],"default_left":[0,0,0,0,0,0,0,0,0,0,0,0,0,0,0],"id":5,"left_children":[1,3,5,7,9,11,13,-1,-1,-1,-1,-1,-1,-1,-1],"loss_changes":[2.9511863E3,4.8527886E3,9.824968E2,2.0821973E2,1.9943176E3,1.2007007E2,1.614054E3,0E0,0E0,0E0,0E0,0E0,0E0,0E0,0E0],"parents":[2147483647,0,0,1,1,2,2,3,3,4,4,5,5,6,6],"right_children":[2,4,6,8,10,12,14,-1,-1,-1,-1,-1,-1,-1,-1],"split_conditions":[1.30903E6,3.0528978E7,3.46297E7,3.00532E7,1.66958E5,2.569E1,3.558797E7,-7.234884E-2,-4.1724607E-2,4.3548312E-2,-1.3087813E-3,1.865375E-1,-8.0497555E-2,1.2700637E-3,-4.806194E-2],"split_indices":[3,4,4,4,25,27,4,0,0,0,0,0,0,0,0],"split_type":[0,0,0,0,0,0,0,0,0,0,0,0,0,0,0],"sum_hessian":[5.303829E4,3.225435E4,2.0783938E4,6.1401367E3,2.6114213E4,2.8008047E3,1.7983133E4,3.7617405E3,2.3783962E3,1.2102322E4,1.4011892E4,1.063372E1,2.7901711E3,7.3460474E3,1.0637087E4],"tree_param":{"num_deleted":"0","num_feature":"28","num_nodes":"15","size_leaf_vector":"1"}},{"base_weights":[-1.2811102E-1,5.3082358E-2,-4.170962E-1,-7.203475E-1,2.2422096E-1,-9.528769E-1,-3.353523E-1,2.4109486E-1,-5.8979608E-2,1.5125879E-2,1.6035163E-1,-7.951143E-2,-2.0586574E-3,5.452909E-4,-4.6960592E-2],"categories":[],"categories_nodes":[],"categories_segments":[],"categories_sizes":[],"default_left":[0,0,0,0,0,0,0,0,0,0,0,0,0,0,0],"id":6,"left_children":[1,3,5,7,9,11,13,-1,-1,-1,-1,-1,-1,-1,-1],"loss_changes":[2.7483853E3,4.270137E3,8.8563477E2,1.8016846E2,1.73312E3,7.294922E1,1.4698275E3,0E0,0E0,0E0,0E0,0E0,0E0,0E0,0E0],"parents":[2147483647,0,0,1,1,2,2,3,3,4,4,5,5,6,6],"right_children":[2,4,6,8,10,12,14,-1,-1,-1,-1,-1,-1,-1,-1],"split_conditions":[1.30903E6,1.25529E6,1.31189E6,1.7954556E2,3.2240677E1,1.3872386E2,2.0641066E5,2.4109486E-1,-5.8979608E-2,1.5125879E-2,1.6035163E-1,-7.951143E-2,-2.0586574E-3,5.452909E-4,-4.6960592E-2],"split_indices":[3,3,3,17,27,15,25,0,0,0,0,0,0,0,0],"split_type":[0,0,0,0,0,0,0,0,0,0,0,0,0,0,0],"sum_hessian":[5.2486727E4,3.2259902E4,2.0226822E4,5.8445464E3,2.6415355E4,2.6767004E3,1.7550123E4,1.2678973E1,5.8318677E3,2.5865945E4,5.494095E2,2.5942935E3,8.240684E1,7.3205596E3,1.02295625E4],"tree_param":{"num_deleted":"0","num_feature":"28","num_nodes":"15","size_leaf_vector":"1"}},{"base_weights":[-1.305209E-1,3.0839829E-2,-3.9268476E-1,-6.904396E-1,1.831754E-1,-9.189238E-1,-3.1500104E-1,-5.691757E-2,1.8365751E-1,5.966833E-2,6.4272294E-3,-2.7994117E-2,-7.847608E-2,-3.8438855E-4,-4.3703243E-2],"categories":[],"categories_nodes":[],"categories_segments":[],"categories_sizes":[],"default_left":[0,0,0,0,0,0,0,0,0,0,0,0,0,0,0],"id":7,"left_children":[1,3,5,7,9,11,13,-1,-1,-1,-1,-1,-1,-1,-1],"loss_changes":[2.1974092E3,3.5329521E3,8.0880396E2,2.1181079E2,1.5260466E3,7.351489E1,1.2033646E3,0E0,0E0,0E0,0E0,0E0,0E0,0E0,0E0],"parents":[2147483647,0,0,1,1,2,2,3,3,4,4,5,5,6,6],"right_children":[2,4,6,8,10,12,14,-1,-1,-1,-1,-1,-1,-1,-1],"split_conditions":[1.30903E6,1.25529E6,1.31189E6,9.97039E-1,6.9383335E0,3.38964E7,3.558797E7,-5.691757E-2,1.8365751E-1,5.966833E-2,6.4272294E-3,-2.7994117E-2,-7.847608E-2,-3.8438855E-4,-4.3703243E-2],"split_indices":[3,3,3,21,26,4,4,0,0,0,0,0,0,0,0],"split_type":[0,0,0,0,0,0,0,0,0,0,0,0,0,0,0],"sum_hessian":[5.1943273E4,3.2153213E4,1.9790062E4,5.606295E3,2.6546918E4,2.544843E3,1.7245219E4,5.58267E3,2.3625034E1,4.1877144E3,2.2359205E4,2.0682414E2,2.3380188E3,7.24801E3,9.997209E3],"tree_param":{"num_deleted":"0","num_feature":"28","num_nodes":"15","size_leaf_vector":"1"}},{"base_weights":[-1.2028092E-1,-3.0806296E-2,-5.451622E-1,-6.7013544E-1,6.269919E-2,-6.599932E-1,2.3356184E-1,-6.637096E-2,-3.5796285E-2,3.4305613E-2,-9.7798975E-3,-5.685088E-2,4.923145E-2,-6.76433E-2,4.413032E-2],"categories":[],"categories_nodes":[],"categories_segments":[],"categories_sizes":[],"default_left":[0,0,0,0,0,0,0,0,0,0,0,0,0,0,0],"id":8,"left_children":[1,3,5,7,9,11,13,-1,-1,-1,-1,-1,-1,-1,-1],"loss_changes":[1.9559623E3,2.5409102E3,8.0044775E2,1.8490063E2,2.4574326E3,4.191521E2,3.8352606E2,0E0,0E0,0E0,0E0,0E0,0E0,0E0,0E0],"parents":[2147483647,0,0,1,1,2,2,3,3,4,4,5,5,6,6],"right_children":[2,4,6,8,10,12,14,-1,-1,-1,-1,-1,-1,-1,-1],"split_conditions":[1.33298E6,3.0528978E7,3.75037E7,1.25467E6,3.20016E7,1.8296667E1,1.3958108E0,-6.637096E-2,-3.5796285E-2,3.4305613E-2,-9.7798975E-3,-5.685088E-2,4.923145E-2,-6.76433E-2,4.413032E-2],"split_indices":[3,4,4,3,4,26,5,0,0,0,0,0,0,0,0],"split_type":[0,0,0,0,0,0,0,0,0,0,0,0,0,0,0],"sum_hessian":[5.145188E4,4.250216E4,8.949721E3,5.422774E3,3.7079387E4,7.799744E3,1.1499761E3,3.270927E3,2.151847E3,1.2494213E4,2.4585172E4,7.547961E3,2.5178328E2,2.5928583E2,8.9069025E2],"tree_param":{"num_deleted":"0","num_feature":"28","num_nodes":"15","size_leaf_vector":"1"}},{"base_weights":[-1.0007351E-1,5.432727E-2,-3.6016747E-1,-6.397084E-1,1.8667875E-1,-9.160644E-1,-2.8094614E-1,-9.394867E-2,-4.5804985E-2,5.4583576E-2,6.7736423E-3,-7.6267384E-2,1.13269035E-2,-2.03137E-3,-4.1930772E-2],"categories":[],"categories_nodes":[],"categories_segments":[],"categories_sizes":[],"default_left":[0,0,0,0,0,0,0,0,0,0,0,0,0,0,0],"id":9,"left_children":[1,3,5,7,9,11,13,-1,-1,-1,-1,-1,-1,-1,-1],"loss_changes":[2.056282E3,2.9513672E3,8.397595E2,1.9745874E2,1.3552534E3,6.582605E1,1.01260046E3,0E0,0E0,0E0,0E0,0E0,0E0,0E0,0E0],"parents":[2147483647,0,0,1,1,2,2,3,3,4,4,5,5,6,6],"right_children":[2,4,6,8,10,12,14,-1,-1,-1,-1,-1,-1,-1,-1],"split_conditions":[1.30903E6,1.25529E6,1.31189E6,2.6576271E1,7.0416665E0,1.395534E2,2.0745E5,-9.394867E-2,-4.5804985E-2,5.4583576E-2,6.7736423E-3,-7.6267384E-2,1.13269035E-2,-2.03137E-3,-4.1930772E-2],"split_indices":[3,3,3,27,26,15,25,0,0,0,0,0,0,0,0],"split_type":[0,0,0,0,0,0,0,0,0,0,0,0,0,0,0],"sum_hessian":[5.120257E4,3.2129463E4,1.9073105E4,5.145363E3,2.69841E4,2.378331E3,1.6694775E4,6.3768E2,4.5076826E3,4.7048286E3,2.2279271E4,2.3209766E3,5.735452E1,8.029811E3,8.664963E3],"tree_param":{"num_deleted":"0","num_feature":"28","num_nodes":"15","size_leaf_vector":"1"}},{"base_weights":[-1.016618E-1,-1.2337289E-1,1.6109096E0,-6.374073E-1,-6.660617E-2,1.4982629E0,4.9978817E-1,-9.21474E-2,-4.6020225E-2,2.6060496E-2,-1.7083585E-2,1.4829575E-1,-1.49206575E-2],"categories":[],"categories_nodes":[],"categories_segments":[],"categories_sizes":[],"default_left":[0,0,0,0,0,0,0,0,0,0,0,0,0],"id":10,"left_children":[1,3,5,7,9,11,-1,-1,-1,-1,-1,-1,-1],"loss_changes":[1.8845991E3,1.4604658E3,3.2121484E2,1.7129309E2,2.5299604E3,3.484508E2,0E0,0E0,0E0,0E0,0E0,0E0,0E0],"parents":[2147483647,0,0,1,1,2,2,3,3,4,4,5,5],"right_children":[2,4,6,8,10,12,-1,-1,-1,-1,-1,-1,-1],"split_conditions":[3.2240677E1,3.0528978E7,1.4687657E2,2.6576271E1,1.66958E5,3.12269E7,4.9978817E-1,-9.21474E-2,-4.6020225E-2,2.6060496E-2,-1.7083585E-2,1.4829575E-1,-1.49206575E-2],"split_indices":[27,4,11,27,25,4,0,0,0,0,0,0,0],"split_type":[0,0,0,0,0,0,0,0,0,0,0,0,0],"sum_hessian":[5.0686402E4,5.0052348E4,6.340539E2,4.977132E3,4.5075215E4,6.1940607E2,1.4647812E1,6.004539E2,4.376678E3,1.2215214E4,3.286E4,5.1687274E2,1.0253332E2],"tree_param":{"num_deleted":"0","num_feature":"28","num_nodes":"13","size_leaf_vector":"1"}},{"base_weights":[-9.389476E-2,-1.15027115E-1,1.497968E0,-4.1185644E-2,-4.8160452E-1,1.625517E0,-1.284172E0,-5.1048085E-2,2.514838E-3,-5.053867E-2,3.2387476E-2,1.3958381E-1,-9.8820776E-2,-1.476197E-1,8.494061E-2],"categories":[],"categories_nodes":[],"categories_segments":[],"categories_sizes":[],"default_left":[0,0,0,0,0,0,0,0,0,0,0,0,0,0,0],"id":11,"left_children":[1,3,5,7,9,11,13,-1,-1,-1,-1,-1,-1,-1,-1],"loss_changes":[1.6943254E3,1.3454817E3,2.3516748E2,1.7622816E3,1.0491516E3,1.7874658E2,3.767566E1,0E0,0E0,0E0,0E0,0E0,0E0,0E0,0E0],"parents":[2147483647,0,0,1,1,2,2,3,3,4,4,5,5,6,6],"right_children":[2,4,6,8,10,12,14,-1,-1,-1,-1,-1,-1,-1,-1],"split_conditions":[3.2240677E1,1.33298E6,2.194052E2,3.04624E7,1.35037E6,2.2684201E2,1.26314E6,-5.1048085E-2,2.514838E-3,-5.053867E-2,3.2387476E-2,1.3958381E-1,-9.8820776E-2,-1.476197E-1,8.494061E-2],"split_indices":[27,3,18,4,3,8,3,0,0,0,0,0,0,0,0],"split_type":[0,0,0,0,0,0,0,0,0,0,0,0,0,0,0],"sum_hessian":[5.0367195E4,4.97078E4,6.5939557E2,4.1374316E4,8.333483E3,6.3070514E2,2.8690401E1,4.5174316E3,3.6856883E4,7.172445E3,1.1610388E3,6.097288E2,2.0976309E1,2.3414461E1,5.275938E0],"tree_param":{"num_deleted":"0","num_feature":"28","num_nodes":"15","size_leaf_vector":"1"}},{"base_weights":[-8.187185E-2,9.597567E-2,-2.4090761E-1,1.026533E0,-2.0186061E-2,-8.374258E-1,-1.7705952E-1,1.0588345E-1,5.888124E-2,8.44678E-2,-4.8052818E-3,2.3505008E-2,-8.0659576E-2,-4.544246E-3,-3.910818E-2],"categories":[],"categories_nodes":[],"categories_segments":[],"categories_sizes":[],"default_left":[0,0,0,0,0,0,0,0,0,0,0,0,0,0,0],"id":12,"left_children":[1,3,5,7,9,11,13,-1,-1,-1,-1,-1,-1,-1,-1],"loss_changes":[1.4141514E3,2.5514392E3,1.0051398E3,2.1999146E2,8.744544E2,4.5793665E2,8.82444E2,0E0,0E0,0E0,0E0,0E0,0E0,0E0,0E0],"parents":[2147483647,0,0,1,1,2,2,3,3,4,4,5,5,6,6],"right_children":[2,4,6,8,10,12,14,-1,-1,-1,-1,-1,-1,-1,-1],"split_conditions":[2.2533975E2,1.04605774E2,2.5552838E2,1.28854E6,2.5596666E1,2.2501456E2,8.627943E-1,1.0588345E-1,5.888124E-2,8.44678E-2,-4.8052818E-3,2.3505008E-2,-8.0659576E-2,-4.544246E-3,-3.910818E-2],"split_indices":[10,15,19,3,27,8,20,0,0,0,0,0,0,0,0],"split_type":[0,0,0,0,0,0,0,0,0,0,0,0,0,0,0],"sum_hessian":[4.9996805E4,2.360232E4,2.6394484E4,2.6189846E3,2.0983336E4,2.5512993E3,2.3843184E4,1.3480895E3,1.270895E3,7.449086E2,2.0238428E4,3.15224E2,2.2360754E3,1.7091904E4,6.751279E3],"tree_param":{"num_deleted":"0","num_feature":"28","num_nodes":"15","size_leaf_vector":"1"}},{"base_weights":[-8.311993E-2,3.7842948E-2,-2.9499406E-1,-5.7357556E-1,1.3582347E-1,-8.7942225E-1,-2.1364324E-1,-9.075208E-2,-4.044625E-2,3.5619834E-3,4.694942E-2,-7.491027E-2,-1.0184359E-2,-3.858E-2,2.7257018E-3],"categories":[],"categories_nodes":[],"categories_segments":[],"categories_sizes":[],"default_left":[0,0,0,0,0,0,0,0,0,0,0,0,0,0,0],"id":13,"left_children":[1,3,5,7,9,11,13,-1,-1,-1,-1,-1,-1,-1,-1],"loss_changes":[1.2723379E3,1.8931743E3,8.5761865E2,1.7622363E2,1.1108286E3,7.63219E1,1.0301655E3,0E0,0E0,0E0,0E0,0E0,0E0,0E0,0E0],"parents":[2147483647,0,0,1,1,2,2,3,3,4,4,5,5,6,6],"right_children":[2,4,6,8,10,12,14,-1,-1,-1,-1,-1,-1,-1,-1],"split_conditions":[1.30903E6,3.04624E7,1.31189E6,1.4865E5,1.80077E5,1.3690689E2,6.6549426E-1,-9.075208E-2,-4.044625E-2,3.5619834E-3,4.694942E-2,-7.491027E-2,-1.0184359E-2,-3.858E-2,2.7257018E-3],"split_indices":[3,4,3,25,25,15,24,0,0,0,0,0,0,0,0],"split_type":[0,0,0,0,0,0,0,0,0,0,0,0,0,0,0],"sum_hessian":[4.9643152E4,3.1601352E4,1.8041803E4,4.3642734E3,2.7237078E4,2.2038223E3,1.58379795E4,5.1800494E2,3.8462688E3,2.2572E4,4.665077E3,2.0767588E3,1.2706345E2,7.6758813E3,8.162098E3],"tree_param":{"num_deleted":"0","num_feature":"28","num_nodes":"15","size_leaf_vector":"1"}},{"base_weights":[-7.247515E-2,3.3958398E-2,-3.0906314E-1,1.0829549E-1,-4.491756E-1,-6.280299E-1,-2.418717E-1,-5.632485E-2,1.3665885E-2,-4.9428333E-2,3.7530053E-2,-8.433168E-2,-3.3266462E-2,8.573071E-2,-2.4209041E-2],"categories":[],"categories_nodes":[],"categories_segments":[],"categories_sizes":[],"default_left":[0,0,0,0,0,0,0,0,0,0,0,0,0,0,0],"id":14,"left_children":[1,3,5,7,9,11,13,-1,-1,-1,-1,-1,-1,-1,-1],"loss_changes":[1.2420934E3,1.2218514E3,3.2787537E2,1.435293E3,6.6880066E2,2.3883154E2,9.4111597E2,0E0,0E0,0E0,0E0,0E0,0E0,0E0,0E0],"parents":[2147483647,0,0,1,1,2,2,3,3,4,4,5,5,6,6],"right_children":[2,4,6,8,10,12,14,-1,-1,-1,-1,-1,-1,-1,-1],"split_conditions":[1.3001667E1,3.558797E7,1.65711E5,3.00204E7,1.35037E6,2.643E1,1.28323E6,-5.632485E-2,1.3665885E-2,-4.9428333E-2,3.7530053E-2,-8.433168E-2,-3.3266462E-2,8.573071E-2,-2.4209041E-2],"split_indices":[26,4,25,4,3,27,3,0,0,0,0,0,0,0,0],"split_type":[0,0,0,0,0,0,0,0,0,0,0,0,0,0,0],"sum_hessian":[4.932525E4,3.402053E4,1.530472E4,2.9484457E4,4.5360723E3,2.6621228E3,1.2642597E4,2.0637278E3,2.742073E4,3.8544998E3,6.815728E2,9.1516614E2,1.7469567E3,5.32121E2,1.2110476E4],"tree_param":{"num_deleted":"0","num_feature":"28","num_nodes":"15","size_leaf_vector":"1"}},{"base_weights":[-6.200016E-2,1.1904586E-1,-2.1094774E-1,1.0085576E0,1.8753568E-2,-8.0083233E-1,-1.5366033E-1,1.3571286E-1,6.710891E-2,-5.7094996E-3,2.7639756E-2,-7.045895E-2,1.04257725E-1,3.6398955E-2,-1.7054591E-2],"categories":[],"categories_nodes":[],"categories_segments":[],"categories_sizes":[],"default_left":[0,0,0,0,0,0,0,0,0,0,0,0,0,0,0],"id":15,"left_children":[1,3,5,7,9,11,13,-1,-1,-1,-1,-1,-1,-1,-1],"loss_changes":[1.3256158E3,1.9793228E3,9.112565E2,2.687046E2,5.746103E2,3.4767798E2,8.459603E2,0E0,0E0,0E0,0E0,0E0,0E0,0E0,0E0],"parents":[2147483647,0,0,1,1,2,2,3,3,4,4,5,5,6,6],"right_children":[2,4,6,8,10,12,14,-1,-1,-1,-1,-1,-1,-1,-1],"split_conditions":[2.2346619E2,9.9444176E1,1.102066E0,3.7176415E-1,6.869068E-1,3.2240677E1,6.991667E0,1.3571286E-1,6.710891E-2,-5.7094996E-3,2.7639756E-2,-7.045895E-2,1.04257725E-1,3.6398955E-2,-1.7054591E-2],"split_indices":[8,15,7,23,24,27,26,0,0,0,0,0,0,0,0],"split_type":[0,0,0,0,0,0,0,0,0,0,0,0,0,0,0],"sum_hessian":[4.9156934E4,2.2187518E4,2.6969418E4,2.2476455E3,1.9939871E4,2.386656E3,2.4582762E4,4.7505902E2,1.7725864E3,1.56185625E4,4.321309E3,2.3099712E3,7.668495E1,2.1227388E3,2.2460023E4],"tree_param":{"num_deleted":"0","num_feature":"28","num_nodes":"15","size_leaf_vector":"1"}},{"base_weights":[-6.421027E-2,3.680656E-2,-2.9043555E-1,1.0453356E-1,-4.1614154E-1,-6.032877E-1,-2.261239E-1,-5.2479796E-2,1.2775936E-2,-4.61376E-2,3.2295167E-2,-6.0944635E-2,-2.7605405E-2,8.951677E-2,-2.3568897E-2],"categories":[],"categories_nodes":[],"categories_segments":[],"categories_sizes":[],"default_left":[0,0,0,0,0,0,0,0,0,0,0,0,0,0,0],"id":16,"left_children":[1,3,5,7,9,11,13,-1,-1,-1,-1,-1,-1,-1,-1],"loss_changes":[1.1168054E3,1.03637E3,3.0339294E2,1.1794171E3,5.511967E2,1.0070856E2,1.0844255E3,0E0,0E0,0E0,0E0,0E0,0E0,0E0,0E0],"parents":[2147483647,0,0,1,1,2,2,3,3,4,4,5,5,6,6],"right_children":[2,4,6,8,10,12,14,-1,-1,-1,-1,-1,-1,-1,-1],"split_conditions":[1.3001667E1,3.558797E7,1.65711E5,3.00204E7,1.35037E6,8.4004176E-1,1.28323E6,-5.2479796E-2,1.2775936E-2,-4.61376E-2,3.2295167E-2,-6.0944635E-2,-2.7605405E-2,8.951677E-2,-2.3568897E-2],"split_indices":[26,4,25,4,3,21,3,0,0,0,0,0,0,0,0],"split_type":[0,0,0,0,0,0,0,0,0,0,0,0,0,0,0],"sum_hessian":[4.8868438E4,3.378319E4,1.5085247E4,2.93893E4,4.393888E3,2.5713547E3,1.2513893E4,1.9426854E3,2.7446615E4,3.696449E3,6.974394E2,1.636449E3,9.349057E2,5.822534E2,1.1931639E4],"tree_param":{"num_deleted":"0","num_feature":"28","num_nodes":"15","size_leaf_vector":"1"}},{"base_weights":[-5.7140324E-2,-5.2146506E-1,-1.5999576E-2,-8.875933E-2,-4.54642E-1,2.7543932E-1,-1.5816468E-1,3.036476E-1,-3.7695397E-2,5.555594E-3,6.973031E-2,-7.921953E-3,-5.5589482E-2],"categories":[],"categories_nodes":[],"categories_segments":[],"categories_sizes":[],"default_left":[0,0,0,0,0,0,0,0,0,0,0,0,0],"id":17,"left_children":[1,3,5,-1,7,9,11,-1,-1,-1,-1,-1,-1],"loss_changes":[9.29447E2,1.5182263E2,1.8519651E3,0E0,1.655188E2,1.775969E3,9.574537E2,0E0,0E0,0E0,0E0,0E0,0E0],"parents":[2147483647,0,0,1,1,2,2,4,4,5,5,6,6],"right_children":[2,4,6,-1,8,10,12,-1,-1,-1,-1,-1,-1],"split_conditions":[1.56455E5,1.24982E6,1.28323E6,-8.875933E-2,-5.87938E-1,3.17967E7,2.2730472E2,3.036476E-1,-3.7695397E-2,5.555594E-3,6.973031E-2,-7.921953E-3,-5.5589482E-2],"split_indices":[25,3,3,0,21,4,8,0,0,0,0,0,0],"split_type":[0,0,0,0,0,0,0,0,0,0,0,0,0],"sum_hessian":[4.8657402E4,3.9597053E3,4.46977E4,4.1132996E2,3.5483752E3,1.4654634E4,3.0043064E4,8.863958E0,3.5395112E3,1.0832524E4,3.8221099E3,2.6967635E4,3.0754285E3],"tree_param":{"num_deleted":"0","num_feature":"28","num_nodes":"13","size_leaf_vector":"1"}},{"base_weights":[-6.0369227E-2,-1.19956415E-2,-4.3771142E-1,4.1824132E-1,-7.179045E-2,-8.4291995E-1,-1.9197999E-2,8.409812E-2,6.0848757E-3,3.721507E-2,-8.381411E-3,-8.420502E-2,-4.117997E-2,4.983071E-2,-1.1539484E-2],"categories":[],"categories_nodes":[],"categories_segments":[],"categories_sizes":[],"default_left":[0,0,0,0,0,0,0,0,0,0,0,0,0,0,0],"id":18,"left_children":[1,3,5,7,9,11,13,-1,-1,-1,-1,-1,-1,-1,-1],"loss_changes":[8.8316364E2,1.1033289E3,9.3226746E2,1.1142827E3,6.3559015E2,1.8384473E2,2.1184302E2,0E0,0E0,0E0,0E0,0E0,0E0,0E0,0E0],"parents":[2147483647,0,0,1,1,2,2,3,3,4,4,5,5,6,6],"right_children":[2,4,6,8,10,12,14,-1,-1,-1,-1,-1,-1,-1,-1],"split_conditions":[2.2741931E2,1.04605774E2,1.3745277E0,1.26532E6,2.5596666E1,6.605671E-1,2.5596666E1,8.409812E-2,6.0848757E-3,3.721507E-2,-8.381411E-3,-8.420502E-2,-4.117997E-2,4.983071E-2,-1.1539484E-2],"split_indices":[8,15,5,3,27,24,27,0,0,0,0,0,0,0,0],"split_type":[0,0,0,0,0,0,0,0,0,0,0,0,0,0,0],"sum_hessian":[4.8385223E4,4.2887887E4,5.497334E3,5.232768E3,3.765512E4,2.7927224E3,2.7046116E3,1.8622234E3,3.3705444E3,2.1221943E3,3.5532926E4,1.7550021E3,1.0377203E3,4.3965277E2,2.2649587E3],"tree_param":{"num_deleted":"0","num_feature":"28","num_nodes":"15","size_leaf_vector":"1"}},{"base_weights":[-5.4929588E-2,-7.053571E-2,1.1319032E0,-1.1708949E0,-5.4024033E-2,1.2540369E0,-1.6583446E0,5.3859826E-2,-9.917372E-2,3.9401907E-4,-3.0663673E-2,9.276579E-2,2.9841006E-1,-7.824909E-2,-1.4604215E-1],"categories":[],"categories_nodes":[],"categories_segments":[],"categories_sizes":[],"default_left":[0,0,0,0,0,0,0,0,0,0,0,0,0,0,0],"id":19,"left_children":[1,3,5,7,9,11,13,-1,-1,-1,-1,-1,-1,-1,-1],"loss_changes":[8.923118E2,8.638683E2,2.1402112E2,7.053308E1,8.9620905E2,1.5506757E2,1.6167679E0,0E0,0E0,0E0,0E0,0E0,0E0,0E0,0E0],"parents":[2147483647,0,0,1,1,2,2,3,3,4,4,5,5,6,6],"right_children":[2,4,6,8,10,12,14,-1,-1,-1,-1,-1,-1,-1,-1],"split_conditions":[3.2240677E1,-1.1830593E2,2.194052E2,2.236868E2,2.0745E5,1.4687657E2,2.2278844E2,5.3859826E-2,-9.917372E-2,3.9401907E-4,-3.0663673E-2,9.276579E-2,2.9841006E-1,-7.824909E-2,-1.4604215E-1],"split_indices":[27,15,18,8,25,11,10,0,0,0,0,0,0,0,0],"split_type":[0,0,0,0,0,0,0,0,0,0,0,0,0,0,0],"sum_hessian":[4.817835E4,4.755356E4,6.247895E2,7.0246716E2,4.6851094E4,5.9886414E2,2.5925348E1,1.998457E1,6.8248254E2,3.966021E4,7.1908813E3,5.74101E2,2.4763153E1,5.237424E0,2.0687923E1],"tree_param":{"num_deleted":"0","num_feature":"28","num_nodes":"15","size_leaf_vector":"1"}},{"base_weights":[-4.4263028E-2,9.298372E-2,-1.5989071E-1,7.9266274E-1,2.086613E-2,-7.0540005E-1,-1.0900766E-1,1.0857947E-1,5.127686E-2,-5.216756E-3,2.6635783E-2,-1.9906234E-2,-8.7676354E-2,-4.8334524E-3,-4.680165E-2],"categories":[],"categories_nodes":[],"categories_segments":[],"categories_sizes":[],"default_left":[0,0,0,0,0,0,0,0,0,0,0,0,0,0,0],"id":20,"left_children":[1,3,5,7,9,11,13,-1,-1,-1,-1,-1,-1,-1,-1],"loss_changes":[7.6277264E2,1.1088973E3,7.240076E2,1.7881079E2,5.2392163E2,3.8605493E2,5.518262E2,0E0,0E0,0E0,0E0,0E0,0E0,0E0,0E0],"parents":[2147483647,0,0,1,1,2,2,3,3,4,4,5,5,6,6],"right_children":[2,4,6,8,10,12,14,-1,-1,-1,-1,-1,-1,-1,-1],"split_conditions":[2.2516118E2,4.053803E-1,1.1186182E0,-1.75591E2,6.869068E-1,2.2810815E2,2.1415853E5,1.0857947E-1,5.127686E-2,-5.216756E-3,2.6635783E-2,-1.9906234E-2,-8.7676354E-2,-4.8334524E-3,-4.680165E-2],"split_indices":[10,20,7,14,24,10,25,0,0,0,0,0,0,0,0],"split_type":[0,0,0,0,0,0,0,0,0,0,0,0,0,0,0],"sum_hessian":[4.8064E4,2.1977143E4,2.6086855E4,2.0530256E3,1.9924117E4,2.2250276E3,2.3861828E4,4.607356E2,1.59229E3,1.5604572E4,4.3195444E3,1.004387E3,1.2206405E3,2.1593807E4,2.2680225E3],"tree_param":{"num_deleted":"0","num_feature":"28","num_nodes":"15","size_leaf_vector":"1"}},{"base_weights":[-4.5368694E-2,3.6045432E-2,-2.5578442E-1,-4.4441462E-1,8.464692E-2,-4.0913475E-1,-1.4511448E-1,-8.7767385E-2,-2.987762E-2,2.8464487E-2,-5.5092396E-3,7.185444E-3,-4.2727627E-2,4.6585213E-2,-1.9816836E-2],"categories":[],"categories_nodes":[],"categories_segments":[],"categories_sizes":[],"default_left":[0,0,0,0,0,0,0,0,0,0,0,0,0,0,0],"id":21,"left_children":[1,3,5,7,9,11,13,-1,-1,-1,-1,-1,-1,-1,-1],"loss_changes":[8.187438E2,8.046533E2,2.2621057E2,1.5221912E2,1.2760454E3,3.304187E2,5.565569E2,0E0,0E0,0E0,0E0,0E0,0E0,0E0,0E0],"parents":[2147483647,0,0,1,1,2,2,3,3,4,4,5,5,6,6],"right_children":[2,4,6,8,10,12,14,-1,-1,-1,-1,-1,-1,-1,-1],"split_conditions":[1.3176666E1,1.25528E6,6.677581E-1,1.4865E5,3.20016E7,6.1380476E-1,2.5127617E2,-8.7767385E-2,-2.987762E-2,2.8464487E-2,-5.5092396E-3,7.185444E-3,-4.2727627E-2,4.6585213E-2,-1.9816836E-2],"split_indices":[26,3,24,25,4,24,13,0,0,0,0,0,0,0,0],"split_type":[0,0,0,0,0,0,0,0,0,0,0,0,0,0,0],"sum_hessian":[4.779186E4,3.4458977E4,1.333288E4,3.1650186E3,3.1293959E4,5.5879307E3,7.744949E3,3.3247293E2,2.8325457E3,1.1385915E4,1.9908045E4,1.0758063E3,4.5121245E3,9.409613E2,6.803988E3],"tree_param":{"num_deleted":"0","num_feature":"28","num_nodes":"15","size_leaf_vector":"1"}},{"base_weights":[-4.3542907E-2,8.3543524E-2,-1.6139211E-1,6.385462E-1,9.567167E-3,-7.060281E-1,-1.1090632E-1,9.953634E-2,4.201675E-2,-6.3429534E-2,2.8478813E-3,-2.3666123E-2,-8.481665E-2,2.8431224E-2,-1.4368516E-2],"categories":[],"categories_nodes":[],"categories_segments":[],"categories_sizes":[],"default_left":[0,0,0,0,0,0,0,0,0,0,0,0,0,0,0],"id":22,"left_children":[1,3,5,7,9,11,13,-1,-1,-1,-1,-1,-1,-1,-1],"loss_changes":[7.1304565E2,9.40416E2,6.791234E2,1.8980676E2,4.1064203E2,2.9600818E2,6.959019E2,0E0,0E0,0E0,0E0,0E0,0E0,0E0,0E0],"parents":[2147483647,0,0,1,1,2,2,3,3,4,4,5,5,6,6],"right_children":[2,4,6,8,10,12,14,-1,-1,-1,-1,-1,-1,-1,-1],"split_conditions":[2.2528844E2,1.04605774E2,1.1186182E0,3.7176415E-1,3.0528978E7,2.2810815E2,7.358333E0,9.953634E-2,4.201675E-2,-6.3429534E-2,2.8478813E-3,-2.3666123E-2,-8.481665E-2,2.8431224E-2,-1.4368516E-2],"split_indices":[10,15,7,23,4,10,26,0,0,0,0,0,0,0,0],"split_type":[0,0,0,0,0,0,0,0,0,0,0,0,0,0,0],"sum_hessian":[4.7607945E4,2.2905986E4,2.4701959E4,2.693499E3,2.0212488E4,2.094879E3,2.260708E4,4.519761E2,2.2415227E3,6.318074E2,1.9580682E4,9.483302E2,1.1465486E3,2.8472864E3,1.9759793E4],"tree_param":{"num_deleted":"0","num_feature":"28","num_nodes":"15","size_leaf_vector":"1"}},{"base_weights":[-3.861674E-2,-6.1760557E-1,-1.060091E-2,-8.714498E-2,-5.2790046E-1,1.8259898E-1,-1.18725635E-1,-1.4684004E-2,-5.7582717E-2,-2.5221187E-4,6.2110797E-2,-5.9532035E-2,-5.210296E-3],"categories":[],"categories_nodes":[],"categories_segments":[],"categories_sizes":[],"default_left":[0,0,0,0,0,0,0,0,0,0,0,0,0],"id":23,"left_children":[1,3,5,-1,7,9,11,-1,-1,-1,-1,-1,-1],"loss_changes":[7.698076E2,8.978931E1,9.45709E2,0E0,1.1642401E2,1.7641138E3,9.73022E2,0E0,0E0,0E0,0E0,0E0,0E0],"parents":[2147483647,0,0,1,1,2,2,4,4,5,5,6,6],"right_children":[2,4,6,-1,8,10,12,-1,-1,-1,-1,-1,-1],"split_conditions":[1.53541E5,1.4865E5,1.28323E6,-8.714498E-2,1.25041E6,1.65533E5,1.28819E6,-1.4684004E-2,-5.7582717E-2,-2.5221187E-4,6.2110797E-2,-5.9532035E-2,-5.210296E-3],"split_indices":[25,25,3,0,3,25,3,0,0,0,0,0,0],"split_type":[0,0,0,0,0,0,0,0,0,0,0,0,0],"sum_hessian":[4.74608E4,2.189925E3,4.5270875E4,3.5702878E2,1.8328964E3,1.6244222E4,2.9026654E4,6.3504956E2,1.1978468E3,1.2328801E4,3.9154207E3,2.3504707E3,2.6676184E4],"tree_param":{"num_deleted":"0","num_feature":"28","num_nodes":"13","size_leaf_vector":"1"}},{"base_weights":[-4.0215217E-2,3.481042E-2,-2.371269E-1,8.732526E-2,-3.4238976E-1,-2.4822703E-1,1.5871621E0,-3.0050429E-2,1.1015477E-2,-4.1923605E-2,3.9828993E-2,-4.3887336E-2,-1.5298702E-2,-1.2647687E-2,1.6286598E-1],"categories":[],"categories_nodes":[],"categories_segments":[],"categories_sizes":[],"default_left":[0,0,0,0,0,0,0,0,0,0,0,0,0,0,0],"id":24,"left_children":[1,3,5,7,9,11,13,-1,-1,-1,-1,-1,-1,-1,-1],"loss_changes":[7.001025E2,6.797063E2,2.6482886E2,6.735332E2,6.143599E2,2.2614624E2,5.888925E1,0E0,0E0,0E0,0E0,0E0,0E0,0E0,0E0],"parents":[2147483647,0,0,1,1,2,2,3,3,4,4,5,5,6,6],"right_children":[2,4,6,8,10,12,14,-1,-1,-1,-1,-1,-1,-1,-1],"split_conditions":[1.3176666E1,2.0641066E5,2.29635E5,1.56455E5,1.35037E6,1.65711E5,1.4226161E0,-3.0050429E-2,1.1015477E-2,-4.1923605E-2,3.9828993E-2,-4.3887336E-2,-1.5298702E-2,-1.2647687E-2,1.6286598E-1],"split_indices":[26,25,25,25,3,25,5,0,0,0,0,0,0,0,0],"split_type":[0,0,0,0,0,0,0,0,0,0,0,0,0,0,0],"sum_hessian":[4.738746E4,3.4313562E4,1.3073896E4,3.012066E4,4.1929023E3,1.2995276E4,7.862087E1,2.8945325E3,2.7226127E4,3.4643826E3,7.2851984E2,2.1782527E3,1.0817023E4,1.5426957E1,6.3193913E1],"tree_param":{"num_deleted":"0","num_feature":"28","num_nodes":"15","size_leaf_vector":"1"}},{"base_weights":[-2.965114E-2,1.7726239E-2,-3.0943257E-1,6.588206E-1,-1.3483968E-2,-6.643222E-1,-5.0693366E-4,-1.0105053E-2,7.567496E-2,3.027651E-2,-5.6288447E-3,-8.701472E-2,-3.6579225E-2,6.891444E-2,-5.068474E-3],"categories":[],"categories_nodes":[],"categories_segments":[],"categories_sizes":[],"default_left":[0,0,0,0,0,0,0,0,0,0,0,0,0,0,0],"id":25,"left_children":[1,3,5,7,9,11,13,-1,-1,-1,-1,-1,-1,-1,-1],"loss_changes":[6.249102E2,8.0671674E2,7.484363E2,4.0506317E2,8.351074E2,2.7679456E2,1.9311118E2,0E0,0E0,0E0,0E0,0E0,0E0,0E0,0E0],"parents":[2147483647,0,0,1,1,2,2,3,3,4,4,5,5,6,6],"right_children":[2,4,6,8,10,12,14,-1,-1,-1,-1,-1,-1,-1,-1],"split_conditions":[2.2684201E2,2.5562712E1,3.1856186E2,6.4594495E-1,6.991667E0,2.6383333E1,6.877966E0,-1.0105053E-2,7.567496E-2,3.027651E-2,-5.6288447E-3,-8.701472E-2,-3.6579225E-2,6.891444E-2,-5.068474E-3],"split_indices":[8,27,17,24,26,27,26,0,0,0,0,0,0,0,0],"split_type":[0,0,0,0,0,0,0,0,0,0,0,0,0,0,0],"sum_hessian":[4.714167E4,4.0314992E4,6.826678E3,1.8712152E3,3.8443777E4,3.1766172E3,3.6500613E3,4.8747034E2,1.3837449E3,4.857652E3,3.3586125E4,1.0821622E3,2.0944548E3,2.4754126E2,3.40252E3],"tree_param":{"num_deleted":"0","num_feature":"28","num_nodes":"15","size_leaf_vector":"1"}},{"base_weights":[-2.6393464E-2,-1.0148321E0,-1.2466307E-2,1.4142325E0,-1.1182582E0,-4.0075976E-1,2.0831445E-2,-9.083235E-2,1.4410906E-1,-1.1834736E-2,-9.803517E-2,-8.635853E-2,-2.7397137E-2,8.9882076E-2,-3.1180814E-5],"categories":[],"categories_nodes":[],"categories_segments":[],"categories_sizes":[],"default_left":[0,0,0,0,0,0,0,0,0,0,0,0,0,0,0],"id":26,"left_children":[1,3,5,7,9,11,13,-1,-1,-1,-1,-1,-1,-1,-1],"loss_changes":[6.4653534E2,1.6465912E2,5.989214E2,2.5901772E1,5.634265E1,1.5152661E2,9.863216E2,0E0,0E0,0E0,0E0,0E0,0E0,0E0,0E0],"parents":[2147483647,0,0,1,1,2,2,3,3,4,4,5,5,6,6],"right_children":[2,4,6,8,10,12,14,-1,-1,-1,-1,-1,-1,-1,-1],"split_conditions":[-1.1830593E2,1.26129E6,1.56981E5,-3.6151946E-1,2.2588564E2,1.4865E5,1.57388E5,-9.083235E-2,1.4410906E-1,-1.1834736E-2,-9.803517E-2,-8.635853E-2,-2.7397137E-2,8.9882076E-2,-3.1180814E-5],"split_indices":[15,3,25,20,10,25,25,0,0,0,0,0,0,0,0],"split_type":[0,0,0,0,0,0,0,0,0,0,0,0,0,0,0],"sum_hessian":[4.6971707E4,6.520876E2,4.6319617E4,2.635559E1,6.25732E2,3.6581616E3,4.2661457E4,3.1738143E0,2.3181776E1,5.4758114E1,5.709739E2,3.120728E2,3.3460889E3,8.144611E2,4.1846996E4],"tree_param":{"num_deleted":"0","num_feature":"28","num_nodes":"15","size_leaf_vector":"1"}},{"base_weights":[-2.4533423E-2,-1.023176E0,-1.1431255E-2,1.2033652E0,-1.1137054E0,5.540309E-2,-1.899909E-1,1.2200727E-1,-1.4838102E-2,-2.1244416E-2,-9.6828684E-2,4.8443828E-2,1.5181312E-3,1.6405137E-1,-1.6505279E-2],"categories":[],"categories_nodes":[],"categories_segments":[],"categories_sizes":[],"default_left":[0,0,0,0,0,0,0,0,0,0,0,0,0,0,0],"id":27,"left_children":[1,3,5,7,9,11,13,-1,-1,-1,-1,-1,-1,-1,-1],"loss_changes":[6.131156E2,1.2293799E2,5.520687E2,1.031086E1,4.0718384E1,6.698734E2,3.8875076E2,0E0,0E0,0E0,0E0,0E0,0E0,0E0,0E0],"parents":[2147483647,0,0,1,1,2,2,3,3,4,4,5,5,6,6],"right_children":[2,4,6,8,10,12,14,-1,-1,-1,-1,-1,-1,-1,-1],"split_conditions":[-1.1830593E2,3.10129E7,8.588794E-1,3.0337714E2,2.258591E2,2.56E1,7.2508473E0,1.2200727E-1,-1.4838102E-2,-2.1244416E-2,-9.6828684E-2,4.8443828E-2,1.5181312E-3,1.6405137E-1,-1.6505279E-2],"split_indices":[15,4,20,0,10,27,26,0,0,0,0,0,0,0,0],"split_type":[0,0,0,0,0,0,0,0,0,0,0,0,0,0,0],"sum_hessian":[4.6865027E4,6.063556E2,4.625867E4,2.3429773E1,5.8292584E2,3.365978E4,1.2598893E4,1.923275E1,4.197024E0,5.178191E1,5.311439E2,2.1272334E3,3.1532547E4,7.814845E1,1.2520744E4],"tree_param":{"num_deleted":"0","num_feature":"28","num_nodes":"15","size_leaf_vector":"1"}},{"base_weights":[-1.7847681E-2,-9.847584E-1,-5.9421714E-3,1.3560858E0,-1.081654E0,-5.7536286E-1,1.4810832E-2,8.702409E-2,2.0776643E-1,-1.944243E-2,-9.4518684E-2,-8.589899E-2,-3.79596E-2,1.3313961E-2,-5.399064E-3],"categories":[],"categories_nodes":[],"categories_segments":[],"categories_sizes":[],"default_left":[0,0,0,0,0,0,0,0,0,0,0,0,0,0,0],"id":28,"left_children":[1,3,5,7,9,11,13,-1,-1,-1,-1,-1,-1,-1,-1],"loss_changes":[5.3901166E2,1.2984412E2,5.467338E2,6.1655083E0,3.936963E1,8.374567E1,5.445631E2,0E0,0E0,0E0,0E0,0E0,0E0,0E0,0E0],"parents":[2147483647,0,0,1,1,2,2,3,3,4,4,5,5,6,6],"right_children":[2,4,6,8,10,12,14,-1,-1,-1,-1,-1,-1,-1,-1],"split_conditions":[-1.1830593E2,1.26129E6,1.25449E6,3.9942435E2,2.2588564E2,1.4865E5,1.0576271E1,8.702409E-2,2.0776643E-1,-1.944243E-2,-9.4518684E-2,-8.589899E-2,-3.79596E-2,1.3313961E-2,-5.399064E-3],"split_indices":[15,3,3,0,10,25,26,0,0,0,0,0,0,0,0],"split_type":[0,0,0,0,0,0,0,0,0,0,0,0,0,0,0],"sum_hessian":[4.683033E4,5.690548E2,4.6261273E4,2.2342655E1,5.4671216E2,1.62644E3,4.4634832E4,1.8908573E1,3.434081E0,5.097141E1,4.9574075E2,2.9131348E2,1.3351265E3,1.57377295E4,2.8897104E4],"tree_param":{"num_deleted":"0","num_feature":"28","num_nodes":"15","size_leaf_vector":"1"}},{"base_weights":[-2.5218157E-2,-5.4216677E-1,-4.227874E-3,2.8683195E0,-5.562375E-1,8.791829E-2,-1.5527557E-1,3.1588686E-1,1.1743943E-1,-3.923709E-2,-8.579204E-2,7.1639504E-4,7.355157E-2,-4.7327742E-2,-5.212196E-3],"categories":[],"categories_nodes":[],"categories_segments":[],"categories_sizes":[],"default_left":[0,0,0,0,0,0,0,0,0,0,0,0,0,0,0],"id":29,"left_children":[1,3,5,7,9,11,13,-1,-1,-1,-1,-1,-1,-1,-1],"loss_changes":[5.063603E2,8.793976E1,6.242427E2,7.946171E0,6.494641E1,1.807613E3,6.6314655E2,0E0,0E0,0E0,0E0,0E0,0E0,0E0,0E0],"parents":[2147483647,0,0,1,1,2,2,3,3,4,4,5,5,6,6],"right_children":[2,4,6,8,10,12,14,-1,-1,-1,-1,-1,-1,-1,-1],"split_conditions":[3.00204E7,-5.988441E-1,1.3088E6,4.1778454E-1,6.6999483E-1,3.35146E7,3.46297E7,3.1588686E-1,1.1743943E-1,-3.923709E-2,-8.579204E-2,7.1639504E-4,7.355157E-2,-4.7327742E-2,-5.212196E-3],"split_indices":[4,21,3,24,24,4,4,0,0,0,0,0,0,0,0],"split_type":[0,0,0,0,0,0,0,0,0,0,0,0,0,0,0],"sum_hessian":[4.6669047E4,1.8204108E3,4.4848637E4,7.0643783E0,1.8133464E3,2.7855271E4,1.6993365E4,3.5749888E0,3.4893892E0,1.5888772E3,2.244692E2,2.5408121E4,2.44715E3,2.9677039E3,1.4025662E4],"tree_param":{"num_deleted":"0","num_feature":"28","num_nodes":"15","size_leaf_vector":"1"}},{"base_weights":[-1.7199827E-2,1.9263925E-2,-3.3284557E-1,3.3436057E-1,-2.813554E-2,-8.683945E-1,-6.5556206E-2,-8.114411E-3,4.5187395E-2,3.5199203E-2,-4.480341E-3,-8.351406E-2,-5.6195855E-2,-3.968255E-2,2.3427455E-2],"categories":[],"categories_nodes":[],"categories_segments":[],"categories_sizes":[],"default_left":[0,0,0,0,0,0,0,0,0,0,0,0,0,0,0],"id":30,"left_children":[1,3,5,7,9,11,13,-1,-1,-1,-1,-1,-1,-1,-1],"loss_changes":[5.360721E2,6.2359247E2,6.9033734E2,5.3129956E2,4.5726923E2,4.5197876E1,4.8523212E2,0E0,0E0,0E0,0E0,0E0,0E0,0E0,0E0],"parents":[2147483647,0,0,1,1,2,2,3,3,4,4,5,5,6,6],"right_children":[2,4,6,8,10,12,14,-1,-1,-1,-1,-1,-1,-1,-1],"split_conditions":[2.2741931E2,1.0741866E2,8.341336E1,1.0144311E0,2.5562712E1,1.4048897E2,2.6383333E1,-8.114411E-3,4.5187395E-2,3.5199203E-2,-4.480341E-3,-8.351406E-2,-5.6195855E-2,-3.968255E-2,2.3427455E-2],"split_indices":[8,15,14,5,27,12,27,0,0,0,0,0,0,0,0],"split_type":[0,0,0,0,0,0,0,0,0,0,0,0,0,0,0],"sum_hessian":[4.6573004E4,4.175016E4,4.8228447E3,5.459045E3,3.6291113E4,1.6052184E3,3.2176265E3,1.8560514E3,3.6029934E3,2.014247E3,3.4276867E4,8.2684076E2,7.783776E2,1.4650034E3,1.752623E3],"tree_param":{"num_deleted":"0","num_feature":"28","num_nodes":"15","size_leaf_vector":"1"}},{"base_weights":[-8.574728E-3,-9.8048854E-1,1.3086135E-3,-3.1609488E-1,-1.0293664E-1,3.8388114E-2,-2.6361206E-1,1.1804704E-1,-7.038385E-2,6.933078E-2,1.9632145E-3,-3.6072638E-2,4.143228E-2],"categories":[],"categories_nodes":[],"categories_segments":[],"categories_sizes":[],"default_left":[0,0,0,0,0,0,0,0,0,0,0,0,0],"id":31,"left_children":[1,3,5,7,-1,9,11,-1,-1,-1,-1,-1,-1],"loss_changes":[4.4761588E2,9.043787E1,4.530451E2,1.4162796E2,0E0,4.6778152E2,7.99448E2,0E0,0E0,0E0,0E0,0E0,0E0],"parents":[2147483647,0,0,1,1,2,2,3,3,5,5,6,6],"right_children":[2,4,6,8,-1,10,12,-1,-1,-1,-1,-1,-1],"split_conditions":[4.0293103E-1,1.26554E6,1.33343E6,-5.7607514E-1,-1.0293664E-1,8.678343E1,1.35037E6,1.1804704E-1,-7.038385E-2,6.933078E-2,1.9632145E-3,-3.6072638E-2,4.143228E-2],"split_indices":[24,3,3,21,0,12,3,0,0,0,0,0,0],"split_type":[0,0,0,0,0,0,0,0,0,0,0,0,0],"sum_hessian":[4.658981E4,4.6861963E2,4.6121188E4,1.4318948E2,3.2543015E2,4.0459066E4,5.662123E3,3.382419E1,1.09365295E2,6.8653625E2,3.9772527E4,4.5859277E3,1.0761953E3],"tree_param":{"num_deleted":"0","num_feature":"28","num_nodes":"13","size_leaf_vector":"1"}},{"base_weights":[-1.6038422E-2,4.2438447E-2,-1.791797E-1,-9.740945E-1,5.7743594E-2,-5.055301E-1,-8.663676E-2,9.012748E-2,-8.608157E-2,1.9053437E-2,-1.246207E-3,-1.3512758E-2,-7.819118E-2,-8.862519E-3,1.3125734E-1],"categories":[],"categories_nodes":[],"categories_segments":[],"categories_sizes":[],"default_left":[0,0,0,0,0,0,0,0,0,0,0,0,0,0,0],"id":32,"left_children":[1,3,5,7,9,11,13,-1,-1,-1,-1,-1,-1,-1,-1],"loss_changes":[4.4216043E2,5.3075635E2,3.692825E2,9.495361E1,4.367344E2,4.2101184E2,3.7191714E2,0E0,0E0,0E0,0E0,0E0,0E0,0E0,0E0],"parents":[2147483647,0,0,1,1,2,2,3,3,4,4,5,5,6,6],"right_children":[2,4,6,8,10,12,14,-1,-1,-1,-1,-1,-1,-1,-1],"split_conditions":[8.588794E-1,-1.1830593E2,2.6203333E1,1.26129E6,3.2230157E2,2.2606091E2,2.28538E5,9.012748E-2,-8.608157E-2,1.9053437E-2,-1.246207E-3,-1.3512758E-2,-7.819118E-2,-8.862519E-3,1.3125734E-1],"split_indices":[20,15,27,3,18,8,25,0,0,0,0,0,0,0,0],"split_type":[0,0,0,0,0,0,0,0,0,0,0,0,0,0,0],"sum_hessian":[4.6346082E4,3.411694E4,1.222914E4,5.055373E2,3.3611406E4,2.701032E3,9.528107E3,2.0495377E1,4.850419E2,9.802531E3,2.3808873E4,1.5569553E3,1.1440767E3,9.402807E3,1.2530122E2],"tree_param":{"num_deleted":"0","num_feature":"28","num_nodes":"15","size_leaf_vector":"1"}},{"base_weights":[-1.36765195E-2,2.602163E-2,-2.5993225E-1,-4.9225783E-1,5.0975073E-2,-3.8515067E-1,3.548029E-1,2.0211466E-1,-4.1265197E-2,9.267061E-3,-1.1852729E-2,-3.5473604E-2,8.04998E-2,-6.301324E-2,5.07531E-2],"categories":[],"categories_nodes":[],"categories_segments":[],"categories_sizes":[],"default_left":[0,0,0,0,0,0,0,0,0,0,0,0,0,0,0],"id":33,"left_children":[1,3,5,7,9,11,13,-1,-1,-1,-1,-1,-1,-1,-1],"loss_changes":[4.5306058E2,5.16112E2,4.9532413E2,9.653598E1,4.773871E2,3.917312E2,3.361312E2,0E0,0E0,0E0,0E0,0E0,0E0,0E0,0E0],"parents":[2147483647,0,0,1,1,2,2,3,3,4,4,5,5,6,6],"right_children":[2,4,6,8,10,12,14,-1,-1,-1,-1,-1,-1,-1,-1],"split_conditions":[2.0745E5,3.00532E7,3.75037E7,-5.988441E-1,1.3153334E1,1.8296667E1,2.5976667E1,2.0211466E-1,-4.1265197E-2,9.267061E-3,-1.1852729E-2,-3.5473604E-2,8.04998E-2,-6.301324E-2,5.07531E-2],"split_indices":[25,4,4,21,26,26,27,0,0,0,0,0,0,0,0],"split_type":[0,0,0,0,0,0,0,0,0,0,0,0,0,0,0],"sum_hessian":[4.6341895E4,3.9908457E4,6.433436E3,1.832643E3,3.8075812E4,5.3449966E3,1.0884397E3,1.0275224E1,1.8223677E3,2.8807992E4,9.267822E3,5.147286E3,1.9771016E2,2.105765E2,8.778631E2],"tree_param":{"num_deleted":"0","num_feature":"28","num_nodes":"15","size_leaf_vector":"1"}},{"base_weights":[-2.2448853E-2,-3.2557905E-2,8.403779E-1,-4.8443833E-1,-7.860602E-3,1.1205401E0,2.6258336E-2,3.9722707E-2,-5.774804E-2,3.9116483E-2,-3.6287005E-3,9.66496E-2,-9.769566E-2,-3.6188453E-2,2.1044944E-1],"categories":[],"categories_nodes":[],"categories_segments":[],"categories_sizes":[],"default_left":[0,0,0,0,0,0,0,0,0,0,0,0,0,0,0],"id":34,"left_children":[1,3,5,7,9,11,13,-1,-1,-1,-1,-1,-1,-1,-1],"loss_changes":[4.0295822E2,5.0964423E2,1.2191666E2,5.286421E2,7.86191E2,6.873459E1,1.6825911E2,0E0,0E0,0E0,0E0,0E0,0E0,0E0,0E0],"parents":[2147483647,0,0,1,1,2,2,3,3,4,4,5,5,6,6],"right_children":[2,4,6,8,10,12,14,-1,-1,-1,-1,-1,-1,-1,-1],"split_conditions":[3.2240677E1,5.0166667E-1,3.10129E7,2.2400693E2,6.877966E0,2.278283E2,4.5366615E1,3.9722707E-2,-5.774804E-2,3.9116483E-2,-3.6287005E-3,9.66496E-2,-9.769566E-2,-3.6188453E-2,2.1044944E-1],"split_indices":[27,26,4,8,26,10,15,0,0,0,0,0,0,0,0],"split_type":[0,0,0,0,0,0,0,0,0,0,0,0,0,0,0],"sum_hessian":[4.620395E4,4.5669426E4,5.345253E2,2.3660647E3,4.330336E4,3.974676E2,1.3705775E2,4.4976965E2,1.916295E3,3.0309514E3,4.027241E4,3.8555878E2,1.1908807E1,1.1606726E2,2.0990492E1],"tree_param":{"num_deleted":"0","num_feature":"28","num_nodes":"15","size_leaf_vector":"1"}},{"base_weights":[-1.7826108E-2,-8.504674E-2,1.3666373E-1,-9.960696E-2,8.3683866E-1,1.6203216E-1,-7.754896E-1,-4.8538886E-2,-6.2050996E-3,3.1785164E-3,8.756711E-2,-3.0570966E-3,2.4321776E-2,1.1225196E-1,-7.752771E-2],"categories":[],"categories_nodes":[],"categories_segments":[],"categories_sizes":[],"default_left":[0,0,0,0,0,0,0,0,0,0,0,0,0,0,0],"id":35,"left_children":[1,3,5,7,9,11,13,-1,-1,-1,-1,-1,-1,-1,-1],"loss_changes":[4.7829083E2,4.3075928E2,3.2312585E2,3.6247925E2,9.737793E1,3.7583426E2,1.4952304E2,0E0,0E0,0E0,0E0,0E0,0E0,0E0,0E0],"parents":[2147483647,0,0,1,1,2,2,3,3,4,4,5,5,6,6],"right_children":[2,4,6,8,10,12,14,-1,-1,-1,-1,-1,-1,-1,-1],"split_conditions":[6.797568E-1,3.2240677E1,3.0854237E1,1.102066E0,9.876059E-1,3.33723E7,-5.374917E0,-4.8538886E-2,-6.2050996E-3,3.1785164E-3,8.756711E-2,-3.0570966E-3,2.4321776E-2,1.1225196E-1,-7.752771E-2],"split_indices":[24,27,27,7,5,4,15,0,0,0,0,0,0,0,0],"split_type":[0,0,0,0,0,0,0,0,0,0,0,0,0,0,0],"sum_hessian":[4.605576E4,3.2092586E4,1.3963177E4,3.1594098E4,4.9848834E2,1.358581E4,3.7736664E2,1.3856235E3,3.0208475E4,1.1734142E2,3.811469E2,5.5605625E3,8.0252476E3,2.9065428E1,3.483012E2],"tree_param":{"num_deleted":"0","num_feature":"28","num_nodes":"15","size_leaf_vector":"1"}},{"base_weights":[-1.10973865E-2,-8.9202917E-1,-3.0579136E-3,-1.6336556E-1,-9.920296E-2,5.8497496E-2,-1.3724072E-1,1.2140755E-1,-7.326127E-2,3.8043633E-2,2.2155927E-3,-3.830146E-2,-4.53861E-3],"categories":[],"categories_nodes":[],"categories_segments":[],"categories_sizes":[],"default_left":[0,0,0,0,0,0,0,0,0,0,0,0,0],"id":36,"left_children":[1,3,5,7,-1,9,11,-1,-1,-1,-1,-1,-1],"loss_changes":[3.2565448E2,1.00857056E2,3.764626E2,1.6243964E2,0E0,4.0013312E2,3.9079703E2,0E0,0E0,0E0,0E0,0E0,0E0],"parents":[2147483647,0,0,1,1,2,2,3,3,5,5,6,6],"right_children":[2,4,6,8,-1,10,12,-1,-1,-1,-1,-1,-1],"split_conditions":[4.0293103E-1,1.26554E6,8.443909E-1,2.2910187E2,-9.920296E-2,2.5603333E1,2.6203333E1,1.2140755E-1,-7.326127E-2,3.8043633E-2,2.2155927E-3,-3.830146E-2,-4.53861E-3],"split_indices":[24,3,20,9,0,27,27,0,0,0,0,0,0],"split_type":[0,0,0,0,0,0,0,0,0,0,0,0,0],"sum_hessian":[4.599202E4,4.1537277E2,4.557665E4,1.3072667E2,2.846461E2,3.1243547E4,1.4333102E4,4.0135197E1,9.059147E1,2.1964226E3,2.9047125E4,2.788594E3,1.1544507E4],"tree_param":{"num_deleted":"0","num_feature":"28","num_nodes":"13","size_leaf_vector":"1"}},{"base_weights":[-1.9792346E-2,-4.7987396E-1,-1.7079993E-3,-8.483928E-2,-3.930952E-1,1.3267992E-1,-7.004098E-2,6.904763E-4,-4.940738E-2,-3.408354E-3,7.5876355E-2,-2.399037E-2,2.2783794E-3],"categories":[],"categories_nodes":[],"categories_segments":[],"categories_sizes":[],"default_left":[0,0,0,0,0,0,0,0,0,0,0,0,0],"id":37,"left_children":[1,3,5,-1,7,9,11,-1,-1,-1,-1,-1,-1],"loss_changes":[3.8210727E2,8.5336945E1,4.0583096E2,0E0,1.3162485E2,2.0953027E3,6.511266E2,0E0,0E0,0E0,0E0,0E0,0E0],"parents":[2147483647,0,0,1,1,2,2,4,4,5,5,6,6],"right_children":[2,4,6,-1,8,10,12,-1,-1,-1,-1,-1,-1],"split_conditions":[1.53541E5,1.4865E5,1.66958E5,-8.483928E-2,1.25041E6,3.17967E7,3.33415E7,6.904763E-4,-4.940738E-2,-3.408354E-3,7.5876355E-2,-2.399037E-2,2.2783794E-3],"split_indices":[25,25,25,0,3,4,4,0,0,0,0,0,0],"split_type":[0,0,0,0,0,0,0,0,0,0,0,0,0],"sum_hessian":[4.5929156E4,1.7364263E3,4.419273E4,2.2923154E2,1.5071947E3,1.4895893E4,2.929684E4,5.291753E2,9.780194E2,1.2238057E4,2.657836E3,8.863951E3,2.0432889E4],"tree_param":{"num_deleted":"0","num_feature":"28","num_nodes":"13","size_leaf_vector":"1"}},{"base_weights":[-9.585112E-3,-5.442239E-2,1.7913458E-1,-1.1055247E0,-4.552318E-2,3.799678E-1,-1.8115737E-2,-3.1111138E-3,-9.170084E-2,1.7355459E-2,-6.8113296E-3,2.0661807E-2,7.345296E-2,-4.3821663E-2,6.8155574E-3],"categories":[],"categories_nodes":[],"categories_segments":[],"categories_sizes":[],"default_left":[0,0,0,0,0,0,0,0,0,0,0,0,0,0,0],"id":38,"left_children":[1,3,5,7,9,11,13,-1,-1,-1,-1,-1,-1,-1,-1],"loss_changes":[3.877907E2,3.4628064E2,3.485588E2,8.957581E0,3.6868466E2,2.865777E2,2.3770511E2,0E0,0E0,0E0,0E0,0E0,0E0,0E0,0E0],"parents":[2147483647,0,0,1,1,2,2,3,3,4,4,5,5,6,6],"right_children":[2,4,6,8,10,12,14,-1,-1,-1,-1,-1,-1,-1,-1],"split_conditions":[6.8756557E-1,-1.22058136E2,2.2495355E2,2.2390155E2,6.877966E0,1.98846E5,1.062592E0,-3.1111138E-3,-9.170084E-2,1.7355459E-2,-6.8113296E-3,2.0661807E-2,7.345296E-2,-4.3821663E-2,6.8155574E-3],"split_indices":[24,15,10,8,26,25,5,0,0,0,0,0,0,0,0],"split_type":[0,0,0,0,0,0,0,0,0,0,0,0,0,0,0],"sum_hessian":[4.5829254E4,3.703177E4,8.797484E3,3.1033588E2,3.6721434E4,4.3591426E3,4.4383423E3,7.8613915E0,3.0247446E2,4.7501313E3,3.1971303E4,3.5262947E3,8.3284796E2,7.25711E2,3.712631E3],"tree_param":{"num_deleted":"0","num_feature":"28","num_nodes":"15","size_leaf_vector":"1"}},{"base_weights":[-1.606317E-2,-9.201355E-1,-7.5450693E-3,1.1124407E0,-1.0087023E0,4.2409163E-2,-1.4874516E-1,-2.6661368E-2,1.1535012E-1,3.0050954E-2,-8.49173E-2,3.851779E-2,9.078422E-4,-4.2835075E-2,-6.6356985E-3],"categories":[],"categories_nodes":[],"categories_segments":[],"categories_sizes":[],"default_left":[0,0,0,0,0,0,0,0,0,0,0,0,0,0,0],"id":39,"left_children":[1,3,5,7,9,11,13,-1,-1,-1,-1,-1,-1,-1,-1],"loss_changes":[3.525377E2,7.7439606E1,3.1997296E2,8.435169E0,2.3069153E1,4.5300006E2,3.0105716E2,0E0,0E0,0E0,0E0,0E0,0E0,0E0,0E0],"parents":[2147483647,0,0,1,1,2,2,3,3,4,4,5,5,6,6],"right_children":[2,4,6,8,10,12,14,-1,-1,-1,-1,-1,-1,-1,-1],"split_conditions":[-1.1830593E2,1.26129E6,8.588794E-1,-1.9354477E2,2.2324924E2,2.5596666E1,2.6003334E1,-2.6661368E-2,1.1535012E-1,3.0050954E-2,-8.49173E-2,3.851779E-2,9.078422E-4,-4.2835075E-2,-6.6356985E-3],"split_indices":[15,3,20,14,8,27,27,0,0,0,0,0,0,0,0],"split_type":[0,0,0,0,0,0,0,0,0,0,0,0,0,0,0],"sum_hessian":[4.578814E4,4.268266E2,4.5361312E4,1.75565E1,4.092701E2,3.3506883E4,1.1854429E4,3.0769887E0,1.4479511E1,1.1467747E1,3.9780237E2,2.2488616E3,3.1258023E4,1.7691451E3,1.0085283E4],"tree_param":{"num_deleted":"0","num_feature":"28","num_nodes":"15","size_leaf_vector":"1"}},{"base_weights":[-6.825572E-3,-8.8272864E-1,1.0532963E-3,1.0756432E0,-9.6752E-1,7.212901E-1,-8.710778E-3,5.8635265E-2,1.6514832E-1,-7.58878E-3,-8.7887645E-2,9.230195E-2,2.7119562E-3,-4.2311907E-2,4.984512E-4],"categories":[],"categories_nodes":[],"categories_segments":[],"categories_sizes":[],"default_left":[0,0,0,0,0,0,0,0,0,0,0,0,0,0,0],"id":40,"left_children":[1,3,5,7,9,11,13,-1,-1,-1,-1,-1,-1,-1,-1],"loss_changes":[3.1509766E2,6.807092E1,3.1822165E2,4.8644276E0,4.0198975E1,1.7431567E2,3.4119382E2,0E0,0E0,0E0,0E0,0E0,0E0,0E0,0E0],"parents":[2147483647,0,0,1,1,2,2,3,3,4,4,5,5,6,6],"right_children":[2,4,6,8,10,12,14,-1,-1,-1,-1,-1,-1,-1,-1],"split_conditions":[-1.1830593E2,1.26129E6,-8.3523655E-1,2.71187E2,2.2588564E2,1.0605055E0,1.102066E0,5.8635265E-2,1.6514832E-1,-7.58878E-3,-8.7887645E-2,9.230195E-2,2.7119562E-3,-4.2311907E-2,4.984512E-4],"split_indices":[15,3,22,19,10,7,7,0,0,0,0,0,0,0,0],"split_type":[0,0,0,0,0,0,0,0,0,0,0,0,0,0,0],"sum_hessian":[4.5647855E4,4.0657635E2,4.524128E4,1.6605066E1,3.8997128E2,6.0477637E2,4.4636504E4,1.2837608E1,3.7674575E0,4.6670475E1,3.433008E2,3.7555072E2,2.2922566E2,1.2545844E3,4.3381918E4],"tree_param":{"num_deleted":"0","num_feature":"28","num_nodes":"15","size_leaf_vector":"1"}},{"base_weights":[-8.879231E-3,7.947628E-2,-9.819199E-2,4.6846333E-1,3.0958036E-2,-4.9920747E-1,-6.269538E-2,-3.153194E-2,4.322151E-2,-5.2306768E-2,4.0687053E-3,3.8053583E-2,-5.660693E-2,3.842374E-2,-8.628135E-3],"categories":[],"categories_nodes":[],"categories_segments":[],"categories_sizes":[],"default_left":[0,0,0,0,0,0,0,0,0,0,0,0,0,0,0],"id":41,"left_children":[1,3,5,7,9,11,13,-1,-1,-1,-1,-1,-1,-1,-1],"loss_changes":[3.6107388E2,4.3404517E2,3.2385138E2,1.4345056E2,2.6734348E2,3.5907538E2,4.931557E2,0E0,0E0,0E0,0E0,0E0,0E0,0E0,0E0],"parents":[2147483647,0,0,1,1,2,2,3,3,4,4,5,5,6,6],"right_children":[2,4,6,8,10,12,14,-1,-1,-1,-1,-1,-1,-1,-1],"split_conditions":[2.2533975E2,9.9444176E1,5.0166667E-1,1.25761E6,3.0528978E7,1.26554E6,6.991667E0,-3.153194E-2,4.322151E-2,-5.2306768E-2,4.0687053E-3,3.8053583E-2,-5.660693E-2,3.842374E-2,-8.628135E-3],"split_indices":[10,15,26,3,4,3,26,0,0,0,0,0,0,0,0],"split_type":[0,0,0,0,0,0,0,0,0,0,0,0,0,0,0],"sum_hessian":[4.575497E4,2.3000309E4,2.275466E4,2.5500383E3,2.0450271E4,1.8496935E3,2.0904967E4,1.8061064E2,2.3694277E3,5.66375E2,1.9883896E4,3.1635095E2,1.5333424E3,1.5782228E3,1.9326744E4],"tree_param":{"num_deleted":"0","num_feature":"28","num_nodes":"15","size_leaf_vector":"1"}},{"base_weights":[-1.1174521E-2,-9.795803E-2,6.932347E-2,-1.1657238E-1,7.965321E-1,3.979832E-1,1.8343534E-2,-1.1183641E-2,5.3078324E-2,7.51714E-2,-5.2886847E-2,-2.078528E-2,4.564907E-2,9.678555E-3,-1.2510052E-2],"categories":[],"categories_nodes":[],"categories_segments":[],"categories_sizes":[],"default_left":[0,0,0,0,0,0,0,0,0,0,0,0,0,0,0],"id":42,"left_children":[1,3,5,7,9,11,13,-1,-1,-1,-1,-1,-1,-1,-1],"loss_changes":[3.181476E2,3.6488715E2,3.9581177E2,3.5801114E2,8.590106E1,3.4484027E2,3.5797876E2,0E0,0E0,0E0,0E0,0E0,0E0,0E0,0E0],"parents":[2147483647,0,0,1,1,2,2,3,3,4,4,5,5,6,6],"right_children":[2,4,6,8,10,12,14,-1,-1,-1,-1,-1,-1,-1,-1],"split_conditions":[6.6663724E-1,3.2240677E1,8.398243E-1,2.28538E5,2.2577147E2,1.79765E5,1.2748333E1,-1.1183641E-2,5.3078324E-2,7.51714E-2,-5.2886847E-2,-2.078528E-2,4.564907E-2,9.678555E-3,-1.2510052E-2],"split_indices":[24,27,22,25,8,25,26,0,0,0,0,0,0,0,0],"split_type":[0,0,0,0,0,0,0,0,0,0,0,0,0,0,0],"sum_hessian":[4.554014E4,2.191494E4,2.3625201E4,2.1468676E4,4.4626346E2,3.1718665E3,2.0453334E4,2.0885266E4,5.8340906E2,4.091944E2,3.7069073E1,6.412703E2,2.5305962E3,1.2900776E4,7.5525586E3],"tree_param":{"num_deleted":"0","num_feature":"28","num_nodes":"15","size_leaf_vector":"1"}},{"base_weights":[2.8696945E-3,-8.912454E-3,5.865301E-1,3.750385E-2,-1.4174584E-1,3.65535E-2,9.0756243E-1,-8.302459E-2,3.691021E-3,-1.44968545E-2,2.8046636E-2,4.5271162E-2,-6.915288E-2,5.759627E-2,1.8485425E-1],"categories":[],"categories_nodes":[],"categories_segments":[],"categories_sizes":[],"default_left":[0,0,0,0,0,0,0,0,0,0,0,0,0,0,0],"id":43,"left_children":[1,3,5,7,9,11,13,-1,-1,-1,-1,-1,-1,-1,-1],"loss_changes":[3.136342E2,2.7560574E2,1.5924399E2,2.8504468E2,2.1109793E2,1.5537057E2,1.5266632E2,0E0,0E0,0E0,0E0,0E0,0E0,0E0,0E0],"parents":[2147483647,0,0,1,1,2,2,3,3,4,4,5,5,6,6],"right_children":[2,4,6,8,10,12,14,-1,-1,-1,-1,-1,-1,-1,-1],"split_conditions":[7.795638E-1,1.32E1,2.6783333E1,-1.22058136E2,1.7819727E2,1.729E1,1.781E1,-8.302459E-2,3.691021E-3,-1.44968545E-2,2.8046636E-2,4.5271162E-2,-6.915288E-2,5.759627E-2,1.8485425E-1],"split_indices":[23,26,27,15,15,26,26,0,0,0,0,0,0,0,0],"split_type":[0,0,0,0,0,0,0,0,0,0,0,0,0,0,0],"sum_hessian":[4.5600023E4,4.4698043E4,9.019821E2,3.3123375E4,1.1574667E4,3.327353E2,5.692468E2,2.4978299E2,3.2873594E4,1.0752559E4,8.2210846E2,2.0986281E2,1.2287248E2,4.9895145E2,7.0295395E1],"tree_param":{"num_deleted":"0","num_feature":"28","num_nodes":"15","size_leaf_vector":"1"}},{"base_weights":[-1.728448E-2,-4.4659483E-1,-1.7753682E-3,-8.444226E-2,-3.526656E-1,-9.854812E-2,7.10322E-2,4.8896763E-3,-4.9636036E-2,-4.0084075E-2,5.10266E-4,8.787083E-3,-4.2861007E-2],"categories":[],"categories_nodes":[],"categories_segments":[],"categories_sizes":[],"default_left":[0,0,0,0,0,0,0,0,0,0,0,0,0],"id":44,"left_children":[1,3,5,-1,7,9,11,-1,-1,-1,-1,-1,-1],"loss_changes":[3.0133624E2,8.81416E1,3.078068E2,0E0,1.4687933E2,7.801387E2,5.617848E2,0E0,0E0,0E0,0E0,0E0,0E0],"parents":[2147483647,0,0,1,1,2,2,4,4,5,5,6,6],"right_children":[2,4,6,-1,8,10,12,-1,-1,-1,-1,-1,-1],"split_conditions":[1.53264E5,2.93354E7,2.6856667E1,-8.444226E-2,1.25041E6,3.17967E7,3.629352E7,4.8896763E-3,-4.9636036E-2,-4.0084075E-2,5.10266E-4,8.787083E-3,-4.2861007E-2],"split_indices":[25,4,27,0,3,4,4,0,0,0,0,0,0],"split_type":[0,0,0,0,0,0,0,0,0,0,0,0,0],"sum_hessian":[4.526288E4,1.5774996E3,4.368538E4,2.1380986E2,1.3636898E3,1.8756281E4,2.4929098E4,5.274713E2,8.362185E2,3.9212375E3,1.4835043E4,2.3463514E4,1.4655857E3],"tree_param":{"num_deleted":"0","num_feature":"28","num_nodes":"13","size_leaf_vector":"1"}},{"base_weights":[3.490134E-3,-7.4346715E-1,1.1215163E-2,-3.5903588E-1,-1.1053057E0,-4.321881E-1,2.4629554E-2,1.3366422E-1,-3.391987E-2,-2.9065454E-2,-9.0966806E-2,-2.142294E-2,-6.686594E-2,1.0508024E-2,-3.112286E-3],"categories":[],"categories_nodes":[],"categories_segments":[],"categories_sizes":[],"default_left":[0,0,0,0,0,0,0,0,0,0,0,0,0,0,0],"id":45,"left_children":[1,3,5,7,9,11,13,-1,-1,-1,-1,-1,-1,-1,-1],"loss_changes":[2.6275336E2,6.452997E1,2.6810565E2,2.7587702E1,3.0008545E0,8.714705E1,2.903432E2,0E0,0E0,0E0,0E0,0E0,0E0,0E0,0E0],"parents":[2147483647,0,0,1,1,2,2,3,3,4,4,5,5,6,6],"right_children":[2,4,6,8,10,12,14,-1,-1,-1,-1,-1,-1,-1,-1],"split_conditions":[-6.431096E-1,1.3122336E6,1.25449E6,1.2387329E2,2.2208096E2,1.25049E6,1.28323E6,1.3366422E-1,-3.391987E-2,-2.9065454E-2,-9.0966806E-2,-2.142294E-2,-6.686594E-2,1.0508024E-2,-3.112286E-3],"split_indices":[21,3,3,13,8,3,3,0,0,0,0,0,0,0,0],"split_type":[0,0,0,0,0,0,0,0,0,0,0,0,0,0,0],"sum_hessian":[4.5545004E4,4.6563824E2,4.5079363E4,2.2633423E2,2.3930402E2,1.3231394E3,4.3756223E4,6.160395E0,2.2017384E2,6.131731E0,2.3317227E2,9.2900793E2,3.9413156E2,1.6403416E4,2.7352809E4],"tree_param":{"num_deleted":"0","num_feature":"28","num_nodes":"15","size_leaf_vector":"1"}},{"base_weights":[-2.6010887E-3,-7.842147E-1,3.7915416E-3,-9.184935E-3,-9.645404E-2,2.5903525E-2,-2.3124552E-1,1.17951564E-1,-6.469115E-2,1.5625035E-3,1.5193667E-1,-7.787435E-2,1.2887112E-2],"categories":[],"categories_nodes":[],"categories_segments":[],"categories_sizes":[],"default_left":[0,0,0,0,0,0,0,0,0,0,0,0,0],"id":46,"left_children":[1,3,5,7,-1,9,11,-1,-1,-1,-1,-1,-1],"loss_changes":[2.26776E2,1.1614987E2,2.3388582E2,1.4808095E2,0E0,5.0242227E2,1.1043749E3,0E0,0E0,0E0,0E0,0E0,0E0],"parents":[2147483647,0,0,1,1,2,2,3,3,5,5,6,6],"right_children":[2,4,6,8,-1,10,12,-1,-1,-1,-1,-1,-1],"split_conditions":[4.0293103E-1,3.20016E7,3.629352E7,2.2864256E2,-9.645404E-2,3.62638E7,3.68854E7,1.17951564E-1,-6.469115E-2,1.5625035E-3,1.5193667E-1,-7.787435E-2,1.2887112E-2],"split_indices":[24,4,4,9,0,4,4,0,0,0,0,0,0],"split_type":[0,0,0,0,0,0,0,0,0,0,0,0,0],"sum_hessian":[4.537279E4,3.677235E2,4.5005066E4,1.2693045E2,2.4079305E2,4.113583E4,3.8692383E3,4.4266243E1,8.266421E1,4.09902E4,1.4562926E2,1.3471892E3,2.522049E3],"tree_param":{"num_deleted":"0","num_feature":"28","num_nodes":"13","size_leaf_vector":"1"}},{"base_weights":[-2.0517446E-2,7.495177E-2,-8.209994E-2,-8.136268E-2,6.0070896E-1,-6.832434E-1,-3.237204E-2,3.4981596E-3,-4.5199346E-2,-7.272345E-2,5.6345638E-2,1.7283581E-1,-6.1464053E-2,6.450549E-2,-6.1202566E-3],"categories":[],"categories_nodes":[],"categories_segments":[],"categories_sizes":[],"default_left":[0,0,0,0,0,0,0,0,0,0,0,0,0,0,0],"id":47,"left_children":[1,3,5,7,9,11,13,-1,-1,-1,-1,-1,-1,-1,-1],"loss_changes":[2.658307E2,1.4571038E3,8.2158594E2,8.122275E2,5.8135486E2,4.5098785E2,9.10254E2,0E0,0E0,0E0,0E0,0E0,0E0,0E0,0E0],"parents":[2147483647,0,0,1,1,2,2,3,3,4,4,5,5,6,6],"right_children":[2,4,6,8,10,12,14,-1,-1,-1,-1,-1,-1,-1,-1],"split_conditions":[1.28323E6,3.17967E7,1.28818E6,1.62961E5,-1.809991E2,-6.131837E-1,1.73493E5,3.4981596E-3,-4.5199346E-2,-7.272345E-2,5.6345638E-2,1.7283581E-1,-6.1464053E-2,6.450549E-2,-6.1202566E-3],"split_indices":[3,4,3,25,14,21,25,0,0,0,0,0,0,0,0],"split_type":[0,0,0,0,0,0,0,0,0,0,0,0,0,0,0],"sum_hessian":[4.5214137E4,1.7728625E4,2.7485512E4,1.3665835E4,4.06279E3,2.0993662E3,2.5386146E4,1.0836188E4,2.829647E3,2.427678E2,3.8200222E3,5.482547E1,2.0445408E3,1.257532E3,2.4128613E4],"tree_param":{"num_deleted":"0","num_feature":"28","num_nodes":"15","size_leaf_vector":"1"}},{"base_weights":[7.29545E-4,2.5231304E-2,-2.401929E-1,2.529737E-1,-3.180974E-4,-3.0108678E-1,1.6694914E0,-1.42813455E-2,4.005607E-2,-8.27519E-3,5.938229E-3,-6.037755E-2,-5.4352027E-3,-4.990597E-2,3.6989054E-1],"categories":[],"categories_nodes":[],"categories_segments":[],"categories_sizes":[],"default_left":[0,0,0,0,0,0,0,0,0,0,0,0,0,0,0],"id":48,"left_children":[1,3,5,7,9,11,13,-1,-1,-1,-1,-1,-1,-1,-1],"loss_changes":[2.6734747E2,2.3923926E2,4.8629572E2,4.3083316E2,2.7758078E2,4.2157077E2,8.583799E2,0E0,0E0,0E0,0E0,0E0,0E0,0E0,0E0],"parents":[2147483647,0,0,1,1,2,2,3,3,4,4,5,5,6,6],"right_children":[2,4,6,8,10,12,14,-1,-1,-1,-1,-1,-1,-1,-1],"split_conditions":[2.2909503E2,1.2544767E2,1.8296667E1,1.0025271E0,6.6521174E-1,1.10278305E2,2.06059E5,-1.42813455E-2,4.005607E-2,-8.27519E-3,5.938229E-3,-6.037755E-2,-5.4352027E-3,-4.990597E-2,3.6989054E-1],"split_indices":[10,16,26,5,24,14,25,0,0,0,0,0,0,0,0],"split_type":[0,0,0,0,0,0,0,0,0,0,0,0,0,0,0],"sum_hessian":[4.5291957E4,4.111167E4,4.1802866E3,4.1468135E3,3.6964855E4,4.0515342E3,1.287523E2,1.494132E3,2.6526816E3,1.5510914E4,2.1453943E4,1.395904E3,2.6556301E3,7.219046E1,5.6561848E1],"tree_param":{"num_deleted":"0","num_feature":"28","num_nodes":"15","size_leaf_vector":"1"}},{"base_weights":[-2.1720566E-3,5.20218E-2,-9.2529155E-2,-2.1128567E-2,1.1685038E0,-4.216255E-1,5.056842E-4,6.2535917E-3,-1.7752534E-2,1.0204635E-1,2.5550498E-2,-2.2019716E-3,-6.9543675E-2,8.548448E-2,-2.7333058E-3],"categories":[],"categories_nodes":[],"categories_segments":[],"categories_sizes":[],"default_left":[0,0,0,0,0,0,0,0,0,0,0,0,0,0,0],"id":49,"left_children":[1,3,5,7,9,11,13,-1,-1,-1,-1,-1,-1,-1,-1],"loss_changes":[2.2183804E2,2.3127998E3,5.200658E2,5.182334E2,1.3659326E2,6.459385E2,4.791646E2,0E0,0E0,0E0,0E0,0E0,0E0,0E0,0E0],"parents":[2147483647,0,0,1,1,2,2,3,3,4,4,5,5,6,6],"right_children":[2,4,6,8,10,12,14,-1,-1,-1,-1,-1,-1,-1,-1],"split_conditions":[3.36567E7,1.8139E5,1.31189E6,1.28323E6,9.0456396E-1,1.3094E6,1.31191E6,6.2535917E-3,-1.7752534E-2,1.0204635E-1,2.5550498E-2,-2.2019716E-3,-6.9543675E-2,8.548448E-2,-2.7333058E-3],"split_indices":[4,25,3,3,21,3,3,0,0,0,0,0,0,0,0],"split_type":[0,0,0,0,0,0,0,0,0,0,0,0,0,0,0],"sum_hessian":[4.5301047E4,2.8316707E4,1.698434E4,2.6575879E4,1.7408281E3,3.7430623E3,1.3241278E4,1.7759467E4,8.816414E3,1.5707166E3,1.7011156E2,1.9688596E3,1.7742026E3,4.1604166E2,1.2825236E4],"tree_param":{"num_deleted":"0","num_feature":"28","num_nodes":"15","size_leaf_vector":"1"}},{"base_weights":[-1.2332201E-2,-9.999182E-2,5.4506075E-2,-4.64631E-1,4.0998454E-3,8.441596E-2,-4.9266663E-1,-3.296603E-2,-8.1705526E-2,4.623076E-2,-1.3297321E-2,5.924153E-3,1.7147505E-1,-6.18071E-2,-5.9164204E-3],"categories":[],"categories_nodes":[],"categories_segments":[],"categories_sizes":[],"default_left":[0,0,0,0,0,0,0,0,0,0,0,0,0,0,0],"id":50,"left_children":[1,3,5,7,9,11,13,-1,-1,-1,-1,-1,-1,-1,-1],"loss_changes":[2.6435257E2,7.409153E2,4.1893442E2,1.3515668E2,1.4498896E3,5.540902E2,1.5070575E2,0E0,0E0,0E0,0E0,0E0,0E0,0E0,0E0],"parents":[2147483647,0,0,1,1,2,2,3,3,4,4,5,5,6,6],"right_children":[2,4,6,8,10,12,14,-1,-1,-1,-1,-1,-1,-1,-1],"split_conditions":[2.6888136E1,3.17967E7,3.629352E7,3.17249E7,3.2183384E7,2.13847E5,2.22156E5,-3.296603E-2,-8.1705526E-2,4.623076E-2,-1.3297321E-2,5.924153E-3,1.7147505E-1,-6.18071E-2,-5.9164204E-3],"split_indices":[27,4,4,4,4,25,25,0,0,0,0,0,0,0,0],"split_type":[0,0,0,0,0,0,0,0,0,0,0,0,0,0,0],"sum_hessian":[4.511738E4,1.9518934E4,2.5598443E4,4.334409E3,1.5184525E4,2.4272207E4,1.3262347E3,3.922358E3,4.1205106E2,3.4764094E3,1.1708116E4,2.413948E4,1.3272783E2,8.0554016E2,5.206946E2],"tree_param":{"num_deleted":"0","num_feature":"28","num_nodes":"15","size_leaf_vector":"1"}},{"base_weights":[-3.0680872E-3,-1.4663243E-2,4.6521077E-1,-2.6516484E-2,4.4417375E-1,-2.0333938E-1,6.899552E-1,-1.1453888E-3,-7.823567E-2,2.5362123E-2,1.8201005E-1,-7.9127684E-2,4.686984E-2,6.3746E-2,-4.6091385E-2],"categories":[],"categories_nodes":[],"categories_segments":[],"categories_sizes":[],"default_left":[0,0,0,0,0,0,0,0,0,0,0,0,0,0,0],"id":51,"left_children":[1,3,5,7,9,11,13,-1,-1,-1,-1,-1,-1,-1,-1],"loss_changes":[2.4467865E2,2.3916725E2,1.637063E2,4.9829236E2,2.6091464E2,1.6639558E2,1.0038666E2,0E0,0E0,0E0,0E0,0E0,0E0,0E0,0E0],"parents":[2147483647,0,0,1,1,2,2,3,3,4,4,5,5,6,6],"right_children":[2,4,6,8,10,12,14,-1,-1,-1,-1,-1,-1,-1,-1],"split_conditions":[7.7551967E-1,1.35037E6,2.6413559E1,1.34996E6,2.4769147E2,2.56669E2,1.3298701E6,-1.1453888E-3,-7.823567E-2,2.5362123E-2,1.8201005E-1,-7.9127684E-2,4.686984E-2,6.3746E-2,-4.6091385E-2],"split_indices":[23,3,27,3,12,17,3,0,0,0,0,0,0,0,0],"split_type":[0,0,0,0,0,0,0,0,0,0,0,0,0,0,0],"sum_hessian":[4.5068215E4,4.397985E4,1.0883646E3,4.2872926E4,1.1069248E3,2.7374152E2,8.1462317E2,4.23168E4,5.56125E2,1.0326394E3,7.428541E1,1.3758221E2,1.361593E2,7.5627106E2,5.8352074E1],"tree_param":{"num_deleted":"0","num_feature":"28","num_nodes":"15","size_leaf_vector":"1"}},{"base_weights":[4.6963512E-4,6.536903E-3,-8.71958E-1,-3.2964222E-2,1.4575268E-1,-9.7821075E-1,2.1033015E0,-6.892427E-2,-1.9715533E-3,-3.8279106E-3,2.2044213E-2,-4.4412553E-2,-8.743335E-2,-2.2841156E-2,4.0259477E-1],"categories":[],"categories_nodes":[],"categories_segments":[],"categories_sizes":[],"default_left":[0,0,0,0,0,0,0,0,0,0,0,0,0,0,0],"id":52,"left_children":[1,3,5,7,9,11,13,-1,-1,-1,-1,-1,-1,-1,-1],"loss_changes":[2.3877438E2,2.4643558E2,9.936151E1,2.4585054E2,2.4206529E2,1.2775909E1,7.543771E1,0E0,0E0,0E0,0E0,0E0,0E0,0E0,0E0],"parents":[2147483647,0,0,1,1,2,2,3,3,4,4,5,5,6,6],"right_children":[2,4,6,8,10,12,14,-1,-1,-1,-1,-1,-1,-1,-1],"split_conditions":[1.8851667E1,6.8535376E-1,1.3238E6,-6.431096E-1,3.33723E7,1.3212E6,2.2730472E2,-6.892427E-2,-1.9715533E-3,-3.8279106E-3,2.2044213E-2,-4.4412553E-2,-8.743335E-2,-2.2841156E-2,4.0259477E-1],"split_indices":[26,24,3,21,4,3,8,0,0,0,0,0,0,0,0],"split_type":[0,0,0,0,0,0,0,0,0,0,0,0,0,0,0],"sum_hessian":[4.512166E4,4.4810586E4,3.1107355E2,3.490609E4,9.904495E3,3.0067844E2,1.03951235E1,3.6266013E2,3.454343E4,3.9224114E3,5.982084E3,5.84075E1,2.4227092E2,5.892681E0,4.502443E0],"tree_param":{"num_deleted":"0","num_feature":"28","num_nodes":"15","size_leaf_vector":"1"}},{"base_weights":[-4.216138E-3,1.5515783E-2,-2.5193143E-1,2.2390905E-1,-1.33797405E-2,-7.5315624E-1,-3.535335E-2,3.4842104E-2,-1.6375659E-2,-8.085713E-3,6.374009E-3,-8.448516E-2,-4.2757172E-2,-8.685513E-3,2.4552622E-1],"categories":[],"categories_nodes":[],"categories_segments":[],"categories_sizes":[],"default_left":[0,0,0,0,0,0,0,0,0,0,0,0,0,0,0],"id":53,"left_children":[1,3,5,7,9,11,13,-1,-1,-1,-1,-1,-1,-1,-1],"loss_changes":[2.2004231E2,2.5107576E2,3.6047162E2,4.470185E2,2.9182993E2,6.5103455E1,5.120941E2,0E0,0E0,0E0,0E0,0E0,0E0,0E0,0E0],"parents":[2147483647,0,0,1,1,2,2,3,3,4,4,5,5,6,6],"right_children":[2,4,6,8,10,12,14,-1,-1,-1,-1,-1,-1,-1,-1],"split_conditions":[2.2786418E2,6.9383335E0,8.5443146E1,3.19315E7,1.79765E5,5.3576088E1,1.8296667E1,3.4842104E-2,-1.6375659E-2,-8.085713E-3,6.374009E-3,-8.448516E-2,-4.2757172E-2,-8.685513E-3,2.4552622E-1],"split_indices":[8,26,14,4,25,16,26,0,0,0,0,0,0,0,0],"split_type":[0,0,0,0,0,0,0,0,0,0,0,0,0,0,0],"sum_hessian":[4.5012957E4,4.169206E4,3.320899E3,5.0769546E3,3.66151E4,1.00152826E3,2.3193706E3,3.419922E3,1.6570326E3,1.888322E4,1.7731883E4,4.3608057E2,5.654477E2,2.2667039E3,5.2666683E1],"tree_param":{"num_deleted":"0","num_feature":"28","num_nodes":"15","size_leaf_vector":"1"}},{"base_weights":[-3.3964182E-3,-3.9797977E-1,9.900836E-3,-8.390044E-2,-3.0713668E-1,7.9994136E-1,1.4102723E-3,6.563473E-3,-4.6511848E-2,-4.8373353E-2,9.356874E-2,-4.3842275E-2,1.1297542E-3],"categories":[],"categories_nodes":[],"categories_segments":[],"categories_sizes":[],"default_left":[0,0,0,0,0,0,0,0,0,0,0,0,0],"id":54,"left_children":[1,3,5,-1,7,9,11,-1,-1,-1,-1,-1,-1],"loss_changes":[2.3571873E2,8.4697754E1,2.9142484E2,0E0,1.3328787E2,2.3021219E2,2.9289648E2,0E0,0E0,0E0,0E0,0E0,0E0],"parents":[2147483647,0,0,1,1,2,2,4,4,5,5,6,6],"right_children":[2,4,6,-1,8,10,12,-1,-1,-1,-1,-1,-1],"split_conditions":[3.00204E7,2.93354E7,1.25483E6,-8.390044E-2,2.95912E7,2.245942E2,3.04624E7,6.563473E-3,-4.6511848E-2,-4.8373353E-2,9.356874E-2,-4.3842275E-2,1.1297542E-3],"split_indices":[4,4,3,0,4,8,4,0,0,0,0,0,0],"split_type":[0,0,0,0,0,0,0,0,0,0,0,0,0],"sum_hessian":[4.4918656E4,1.4641449E3,4.3454508E4,1.8163525E2,1.2825096E3,4.614718E2,4.299304E4,5.2317755E2,7.593321E2,9.3579056E1,3.6789276E2,9.703141E2,4.2022723E4],"tree_param":{"num_deleted":"0","num_feature":"28","num_nodes":"13","size_leaf_vector":"1"}},{"base_weights":[-7.519492E-3,-5.5491738E-2,9.733388E-2,-7.1749285E-2,3.7045658E-1,3.4414658E-1,3.7143826E-2,-4.5195553E-3,-7.975445E-2,-7.042541E-2,4.453347E-2,-5.2571343E-3,7.521504E-2,-3.619765E-2,1.5536517E-2],"categories":[],"categories_nodes":[],"categories_segments":[],"categories_sizes":[],"default_left":[0,0,0,0,0,0,0,0,0,0,0,0,0,0,0],"id":55,"left_children":[1,3,5,7,9,11,13,-1,-1,-1,-1,-1,-1,-1,-1],"loss_changes":[2.2579578E2,2.1327039E2,2.0928711E2,4.3120584E2,2.5261412E2,6.6123486E2,8.493758E2,0E0,0E0,0E0,0E0,0E0,0E0,0E0,0E0],"parents":[2147483647,0,0,1,1,2,2,3,3,4,4,5,5,6,6],"right_children":[2,4,6,8,10,12,14,-1,-1,-1,-1,-1,-1,-1,-1],"split_conditions":[6.797568E-1,1.35037E6,1.28323E6,1.34996E6,2.5763334E1,1.26347E6,3.33723E7,-4.5195553E-3,-7.975445E-2,-7.042541E-2,4.453347E-2,-5.2571343E-3,7.521504E-2,-3.619765E-2,1.5536517E-2],"split_indices":[24,3,3,3,27,3,4,0,0,0,0,0,0,0,0],"split_type":[0,0,0,0,0,0,0,0,0,0,0,0,0,0,0],"sum_hessian":[4.4889066E4,3.0798992E4,1.4090073E4,2.966724E4,1.1317526E3,2.7617563E3,1.1328316E4,2.9159861E4,5.0737848E2,1.4292737E2,9.8882526E2,1.6254698E3,1.1362865E3,2.7433557E3,8.584961E3],"tree_param":{"num_deleted":"0","num_feature":"28","num_nodes":"15","size_leaf_vector":"1"}},{"base_weights":[-1.8966122E-3,-1.3592089E-2,4.343111E-1,1.2410967E-2,-4.3762797E-1,3.9261863E0,3.5288003E-1,6.010924E-4,9.684E-2,-7.2357975E-2,-2.5724785E-3,2.099796E-1,3.5571542E-1,-6.588191E-2,4.259329E-2],"categories":[],"categories_nodes":[],"categories_segments":[],"categories_sizes":[],"default_left":[0,0,0,0,0,0,0,0,0,0,0,0,0,0,0],"id":56,"left_children":[1,3,5,7,9,11,13,-1,-1,-1,-1,-1,-1,-1,-1],"loss_changes":[2.289644E2,4.8205127E2,3.3222263E2,2.4300005E2,4.6769577E2,1.0692566E1,2.3188089E2,0E0,0E0,0E0,0E0,0E0,0E0,0E0,0E0],"parents":[2147483647,0,0,1,1,2,2,3,3,4,4,5,5,6,6],"right_children":[2,4,6,8,10,12,14,-1,-1,-1,-1,-1,-1,-1,-1],"split_conditions":[1.35037E6,3.629352E7,2.27626E5,3.62638E7,3.68854E7,3.8876575E2,2.1475862E2,6.010924E-4,9.684E-2,-7.2357975E-2,-2.5724785E-3,2.099796E-1,3.5571542E-1,-6.588191E-2,4.259329E-2],"split_indices":[3,4,25,4,4,17,11,0,0,0,0,0,0,0,0],"split_type":[0,0,0,0,0,0,0,0,0,0,0,0,0,0,0],"sum_hessian":[4.488616E4,4.371474E4,1.171424E3,4.1189164E4,2.5255718E3,2.6167109E1,1.1452568E3,4.1017008E4,1.7215706E2,1.1885369E3,1.3370348E3,7.6513953E0,1.8515713E1,1.4783548E2,9.974213E2],"tree_param":{"num_deleted":"0","num_feature":"28","num_nodes":"15","size_leaf_vector":"1"}},{"base_weights":[-4.2196834E-3,2.2437898E-2,-1.8094476E-1,-5.61204E-4,5.4754853E-1,-3.9453098E-1,1.213653E-1,1.515031E-3,-5.730851E-2,1.3811685E-1,2.2556428E-2,-1.0073208E-2,-7.370806E-2,2.4614611E-1,-8.448307E-4],"categories":[],"categories_nodes":[],"categories_segments":[],"categories_sizes":[],"default_left":[0,0,0,0,0,0,0,0,0,0,0,0,0,0,0],"id":57,"left_children":[1,3,5,7,9,11,13,-1,-1,-1,-1,-1,-1,-1,-1],"loss_changes":[2.1155713E2,4.7126566E2,3.8009805E2,5.0986447E2,5.0977258E2,4.806468E2,9.3805396E2,0E0,0E0,0E0,0E0,0E0,0E0,0E0,0E0],"parents":[2147483647,0,0,1,1,2,2,3,3,4,4,5,5,6,6],"right_children":[2,4,6,8,10,12,14,-1,-1,-1,-1,-1,-1,-1,-1],"split_conditions":[1.33298E6,1.32388E6,1.34153E6,1.32353E6,1.32402E6,3.629352E7,1.3416E6,1.515031E-3,-5.730851E-2,1.3811685E-1,2.2556428E-2,-1.0073208E-2,-7.370806E-2,2.4614611E-1,-8.448307E-4],"split_indices":[3,3,3,3,3,4,3,0,0,0,0,0,0,0,0],"split_type":[0,0,0,0,0,0,0,0,0,0,0,0,0,0,0],"sum_hessian":[4.4902816E4,3.901731E4,5.8855073E3,3.738041E4,1.6368964E3,3.4489238E3,2.4365835E3,3.6389125E4,9.9128705E2,3.077625E2,1.3291338E3,2.2645242E3,1.1843995E3,1.04826675E2,2.3317568E3],"tree_param":{"num_deleted":"0","num_feature":"28","num_nodes":"15","size_leaf_vector":"1"}},{"base_weights":[-6.5994114E-3,-9.049332E-4,-8.615739E-1,-3.9441755E-1,1.0323994E-2,-9.5142835E-1,1.1426362E0,1.533014E-1,-3.4265E-2,1.5306999E-1,6.2860316E-4,-3.454327E-2,-8.736194E-2,-3.3771634E-2,2.4800059E-1],"categories":[],"categories_nodes":[],"categories_segments":[],"categories_sizes":[],"default_left":[0,0,0,0,0,0,0,0,0,0,0,0,0,0,0],"id":58,"left_children":[1,3,5,7,9,11,13,-1,-1,-1,-1,-1,-1,-1,-1],"loss_changes":[2.1774011E2,1.9641145E2,5.3783188E1,8.1801865E1,2.0772505E2,1.8677887E1,3.9389378E1,0E0,0E0,0E0,0E0,0E0,0E0,0E0,0E0],"parents":[2147483647,0,0,1,1,2,2,3,3,4,4,5,5,6,6],"right_children":[2,4,6,8,10,12,14,-1,-1,-1,-1,-1,-1,-1,-1],"split_conditions":[1.8851667E1,1.25449E6,1.3238E6,2.2258899E2,1.25465E6,1.3212E6,2.2730472E2,1.533014E-1,-3.4265E-2,1.5306999E-1,6.2860316E-4,-3.454327E-2,-8.736194E-2,-3.3771634E-2,2.4800059E-1],"split_indices":[26,3,3,8,3,3,8,0,0,0,0,0,0,0,0],"split_type":[0,0,0,0,0,0,0,0,0,0,0,0,0,0,0],"sum_hessian":[4.47372E4,4.4441766E4,2.954342E2,1.2327263E3,4.320904E4,2.8303262E2,1.2401569E1,1.4959497E1,1.2177668E3,5.817828E1,4.315086E4,5.5980892E1,2.2705174E2,7.023695E0,5.3778744E0],"tree_param":{"num_deleted":"0","num_feature":"28","num_nodes":"15","size_leaf_vector":"1"}},{"base_weights":[2.5553997E-3,-4.2972943E-1,1.446456E-2,-2.5755972E-1,-8.4476936E-1,1.1503687E-1,-4.627468E-2,4.2839438E-1,-2.46508E-2,-7.434648E-2,-2.6951202E-3,-1.0550818E-3,4.0174536E-2,-5.2976448E-2,3.1679618E-4],"categories":[],"categories_nodes":[],"categories_segments":[],"categories_sizes":[],"default_left":[0,0,0,0,0,0,0,0,0,0,0,0,0,0,0],"id":59,"left_children":[1,3,5,7,9,11,13,-1,-1,-1,-1,-1,-1,-1,-1],"loss_changes":[2.3104471E2,8.578731E1,2.6685062E2,2.2230347E2,2.0990524E1,8.032549E2,8.313781E2,0E0,0E0,0E0,0E0,0E0,0E0,0E0,0E0],"parents":[2147483647,0,0,1,1,2,2,3,3,4,4,5,5,6,6],"right_children":[2,4,6,8,10,12,14,-1,-1,-1,-1,-1,-1,-1,-1],"split_conditions":[1.25449E6,1.25049E6,1.28323E6,2.2376492E2,3.1591986E2,3.17967E7,3.25875E7,4.2839438E-1,-2.46508E-2,-7.434648E-2,-2.6951202E-3,-1.0550818E-3,4.0174536E-2,-5.2976448E-2,3.1679618E-4],"split_indices":[3,3,3,10,11,4,4,0,0,0,0,0,0,0,0],"split_type":[0,0,0,0,0,0,0,0,0,0,0,0,0,0,0],"sum_hessian":[4.4884766E4,1.2027664E3,4.3682E4,8.507932E2,3.5197318E2,1.6448098E4,2.7233902E4,6.686677E0,8.441065E2,3.2251178E2,2.9461401E1,1.2312602E4,4.135496E3,2.0757004E3,2.5158203E4],"tree_param":{"num_deleted":"0","num_feature":"28","num_nodes":"15","size_leaf_vector":"1"}},{"base_weights":[3.4590757E-5,-8.317893E-2,6.0079314E-2,-4.4310167E-1,1.34006385E-2,1.5275463E-1,-5.7441033E-2,-6.1438713E-2,-1.1769455E-2,4.4445895E-2,-7.888546E-3,5.5227815E-3,8.4395505E-2,-4.2969164E-2,6.650467E-3],"categories":[],"categories_nodes":[],"categories_segments":[],"categories_sizes":[],"default_left":[0,0,0,0,0,0,0,0,0,0,0,0,0,0,0],"id":60,"left_children":[1,3,5,7,9,11,13,-1,-1,-1,-1,-1,-1,-1,-1],"loss_changes":[2.2353836E2,6.518519E2,2.8305206E2,3.7299506E2,8.7803204E2,1.0928098E3,7.572986E2,0E0,0E0,0E0,0E0,0E0,0E0,0E0,0E0],"parents":[2147483647,0,0,1,1,2,2,3,3,4,4,5,5,6,6],"right_children":[2,4,6,8,10,12,14,-1,-1,-1,-1,-1,-1,-1,-1],"split_conditions":[2.6856667E1,3.17967E7,3.36567E7,2.648E1,1.2691315E6,1.8139E5,1.31189E6,-6.1438713E-2,-1.1769455E-2,4.4445895E-2,-7.888546E-3,5.5227815E-3,8.4395505E-2,-4.2969164E-2,6.650467E-3],"split_indices":[27,4,4,27,3,25,3,0,0,0,0,0,0,0,0],"split_type":[0,0,0,0,0,0,0,0,0,0,0,0,0,0,0],"sum_hessian":[4.473814E4,1.8750729E4,2.5987414E4,3.966807E3,1.4783921E4,1.4529868E4,1.1457545E4,1.9240222E3,2.0427847E3,2.5346575E3,1.2249264E4,1.3270011E4,1.2598575E3,2.60909E3,8.848455E3],"tree_param":{"num_deleted":"0","num_feature":"28","num_nodes":"15","size_leaf_vector":"1"}},{"base_weights":[-8.003698E-3,4.2415354E-2,-1.0797242E-1,-3.6382467E-2,4.3989518E-1,-7.5617325E-1,-1.7642468E-2,9.549956E-4,-6.4455725E-2,5.574692E-2,5.734979E-4,-6.472325E-2,3.4501486E-2,7.135718E-2,-4.149303E-3],"categories":[],"categories_nodes":[],"categories_segments":[],"categories_sizes":[],"default_left":[0,0,0,0,0,0,0,0,0,0,0,0,0,0,0],"id":61,"left_children":[1,3,5,7,9,11,13,-1,-1,-1,-1,-1,-1,-1,-1],"loss_changes":[2.249291E2,9.2911426E2,8.75953E2,9.0646136E2,5.284573E2,9.4148926E1,3.9693445E2,0E0,0E0,0E0,0E0,0E0,0E0,0E0,0E0],"parents":[2147483647,0,0,1,1,2,2,3,3,4,4,5,5,6,6],"right_children":[2,4,6,8,10,12,14,-1,-1,-1,-1,-1,-1,-1,-1],"split_conditions":[1.30903E6,3.33723E7,1.31189E6,1.29825E6,1.83042E5,1.3852481E2,1.31191E6,9.549956E-4,-6.4455725E-2,5.574692E-2,5.734979E-4,-6.472325E-2,3.4501486E-2,7.135718E-2,-4.149303E-3],"split_indices":[3,4,3,3,25,15,3,0,0,0,0,0,0,0,0],"split_type":[0,0,0,0,0,0,0,0,0,0,0,0,0,0,0],"sum_hessian":[4.4623918E4,2.9662924E4,1.4960995E4,2.4755521E4,4.907403E3,1.82935E3,1.31316455E4,2.3279865E4,1.4756554E3,3.1157693E3,1.7916335E3,1.7647565E3,6.459356E1,4.7274753E2,1.2658898E4],"tree_param":{"num_deleted":"0","num_feature":"28","num_nodes":"15","size_leaf_vector":"1"}},{"base_weights":[-1.0047279E-2,6.937163E-2,-7.077064E-2,5.2249724E-1,3.5132453E-2,-4.6317452E-1,-3.8942665E-2,7.918143E-2,3.1593323E-2,-3.2231007E-3,1.6272238E-2,3.5648968E-2,-4.671637E-2,2.6823008E-2,-5.7201087E-3],"categories":[],"categories_nodes":[],"categories_segments":[],"categories_sizes":[],"default_left":[0,0,0,0,0,0,0,0,0,0,0,0,0,0,0],"id":62,"left_children":[1,3,5,7,9,11,13,-1,-1,-1,-1,-1,-1,-1,-1],"loss_changes":[2.1494518E2,2.995608E2,3.154175E2,8.142691E1,2.2328128E2,1.9525372E2,2.7447708E2,0E0,0E0,0E0,0E0,0E0,0E0,0E0,0E0],"parents":[2147483647,0,0,1,1,2,2,3,3,4,4,5,5,6,6],"right_children":[2,4,6,8,10,12,14,-1,-1,-1,-1,-1,-1,-1,-1],"split_conditions":[2.2484882E2,4.5842167E1,1.0259877E0,3.7176415E-1,6.8264395E-1,3.20016E7,1.09270996E2,7.918143E-2,3.1593323E-2,-3.2231007E-3,1.6272238E-2,3.5648968E-2,-4.671637E-2,2.6823008E-2,-5.7201087E-3],"split_indices":[10,14,5,23,24,4,15,0,0,0,0,0,0,0,0],"split_type":[0,0,0,0,0,0,0,0,0,0,0,0,0,0,0],"sum_hessian":[4.4569574E4,1.9311291E4,2.5258283E4,1.3560508E3,1.795524E4,1.8943309E3,2.3363951E4,3.0408646E2,1.0519644E3,1.2367538E4,5.5877026E3,2.1193399E2,1.6823969E3,1.8430493E3,2.1520902E4],"tree_param":{"num_deleted":"0","num_feature":"28","num_nodes":"15","size_leaf_vector":"1"}},{"base_weights":[2.344651E-4,2.047624E-2,-2.0522933E-1,1.7988421E-1,-6.108395E-3,-8.8303083E-1,-1.003536E-1,2.5815113E-2,-1.3427019E-2,-7.4740183E-3,6.647242E-3,-7.659674E-2,7.434787E-3,-3.316085E-2,9.414391E-3],"categories":[],"categories_nodes":[],"categories_segments":[],"categories_sizes":[],"default_left":[0,0,0,0,0,0,0,0,0,0,0,0,0,0,0],"id":63,"left_children":[1,3,5,7,9,11,13,-1,-1,-1,-1,-1,-1,-1,-1],"loss_changes":[1.8557787E2,1.721681E2,2.8433826E2,2.792022E2,2.648812E2,3.316748E1,2.32337E2,0E0,0E0,0E0,0E0,0E0,0E0,0E0,0E0],"parents":[2147483647,0,0,1,1,2,2,3,3,4,4,5,5,6,6],"right_children":[2,4,6,8,10,12,14,-1,-1,-1,-1,-1,-1,-1,-1],"split_conditions":[2.2909503E2,7.1316667E0,-6.6487966E0,3.19315E7,3.33723E7,7.600653E-1,2.6355932E1,2.5815113E-2,-1.3427019E-2,-7.4740183E-3,6.647242E-3,-7.659674E-2,7.434787E-3,-3.316085E-2,9.414391E-3],"split_indices":[10,26,14,4,4,23,27,0,0,0,0,0,0,0,0],"split_type":[0,0,0,0,0,0,0,0,0,0,0,0,0,0,0],"sum_hessian":[4.462401E4,4.062278E4,4.0012314E3,5.8064243E3,3.4816355E4,5.355779E2,3.4656536E3,4.1413623E3,1.6650618E3,1.7608477E4,1.720788E4,5.0303598E2,3.2541904E1,1.4275455E3,2.0381082E3],"tree_param":{"num_deleted":"0","num_feature":"28","num_nodes":"15","size_leaf_vector":"1"}},{"base_weights":[4.4106483E-3,4.077299E-2,-1.0916801E-1,-9.3299574E-1,4.6417207E-2,1.0618824E-1,-2.085637E-1,1.1557352E-1,-8.7141134E-2,-2.7895041E-3,1.011029E-2,-7.722608E-2,1.4074296E-2,-2.0865273E-2,5.028524E-2],"categories":[],"categories_nodes":[],"categories_segments":[],"categories_sizes":[],"default_left":[0,0,0,0,0,0,0,0,0,0,0,0,0,0,0],"id":64,"left_children":[1,3,5,7,9,11,13,-1,-1,-1,-1,-1,-1,-1,-1],"loss_changes":[1.835191E2,1.849547E2,2.3068323E2,6.641576E1,2.124603E2,2.4423227E2,3.0112592E2,0E0,0E0,0E0,0E0,0E0,0E0,0E0,0E0],"parents":[2147483647,0,0,1,1,2,2,3,3,4,4,5,5,6,6],"right_children":[2,4,6,8,10,12,14,-1,-1,-1,-1,-1,-1,-1,-1],"split_conditions":[8.744956E-1,-1.22058136E2,2.7687247E2,2.239287E2,6.6171926E-1,4.200306E2,2.0501306E5,1.1557352E-1,-8.7141134E-2,-2.7895041E-3,1.011029E-2,-7.722608E-2,1.4074296E-2,-2.0865273E-2,5.028524E-2],"split_indices":[21,15,13,8,24,0,25,0,0,0,0,0,0,0,0],"split_type":[0,0,0,0,0,0,0,0,0,0,0,0,0,0,0],"sum_hessian":[4.4436156E4,3.366067E4,1.077548E4,1.9345335E2,3.346722E4,3.4025242E3,7.3729565E3,1.0815802E1,1.8263754E2,1.648202E4,1.6985201E4,2.0374387E2,3.1987803E3,6.960599E3,4.1235757E2],"tree_param":{"num_deleted":"0","num_feature":"28","num_nodes":"15","size_leaf_vector":"1"}}]},"name":"gbtree"},"learner_model_param":{"base_score":"2.2297746E-1","boost_from_average":"1","num_class":"0","num_feature":"28","num_target":"1"},"objective":{"name":"binary:logistic","reg_loss_param":{"scale_pos_weight":"5.02470875"}}},"version":[3,0,2]}