{"learner":{"attributes":{"best_iteration":"4","best_score":"0.128870309823084"},"feature_names":["rTotalActivePower","rTotalReactivePower","rTotalApparentPower","rTotalReactiveEnergy","rTotalApparentEnergy","aCurrentL1","aCurrentL2","aCurrentL3","aVoltage_L1_N","aVoltage_L2_N","aVoltage_L3_N","aActivePower_L1","aActivePower_L2","aActivePower_L3","aReactivePower_L1","aReactivePower_L2","aReactivePower_L3","aApparentPower_L1","aApparentPower_L2","aApparentPower_L3","aCosPhi_L1","aCosPhi_L2","aCosPhi_L3","aPowerFactorPF_L2","airTotal","airDurchfluss","airTempeatur"],"feature_types":[],"gradient_booster":{"model":{"gbtree_model_param":{"num_parallel_tree":"1","num_trees":"35"},"iteration_indptr":[0,1,2,3,4,5,6,7,8,9,10,11,12,13,14,15,16,17,18,19,20,21,22,23,24,25,26,27,28,29,30,31,32,33,34,35],"tree_info":[0,0,0,0,0,0,0,0,0,0,0,0,0,0,0,0,0,0,0,0,0,0,0,0,0,0,0,0,0,0,0,0,0,0,0],"trees":[{"base_weights":[2.4431383E-3,3.3689293E-1,-3.3380288E-1,1.5878903E0,1.929035E-1,-2.2050181E-1,-7.2915316E-1,-1.4819573E-2,2.0383725E-2,7.005522E-3,9.3155506E-4,6.4300834E-3,-3.4545902E-3,-1.7509444E-2,-3.8488754E-3],"categories":[],"categories_nodes":[],"categories_segments":[],"categories_sizes":[],"default_left":[0,0,0,0,0,0,0,0,0,0,0,0,0,0,0],"id":0,"left_children":[1,3,5,7,9,11,13,-1,-1,-1,-1,-1,-1,-1,-1],"loss_changes":[9.006265E3,7.2284224E3,1.7864028E3,2.6348535E2,1.5478491E3,1.1856704E3,2.4675122E3,0E0,0E0,0E0,0E0,0E0,0E0,0E0,0E0],"parents":[2147483647,0,0,1,1,2,2,3,3,4,4,5,5,6,6],"right_children":[2,4,6,8,10,12,14,-1,-1,-1,-1,-1,-1,-1,-1],"split_conditions":[1.9988E6,2.2337034E3,2.2674152E2,-9.893793E-1,1.0038035E1,2.0666504E3,4.068582E3,-1.4819573E-2,2.0383725E-2,7.005522E-3,9.3155506E-4,6.4300834E-3,-3.4545902E-3,-1.7509444E-2,-3.8488754E-3],"split_indices":[3,19,10,22,6,19,0,0,0,0,0,0,0,0,0],"split_type":[0,0,0,0,0,0,0,0,0,0,0,0,0,0,0],"sum_hessian":[8.008041E4,4.0150395E4,3.993001E4,4.1400005E3,3.6010395E4,3.1042936E4,8.887073E3,3.1666618E1,4.108334E3,8.946285E3,2.7064107E4,2.0798757E3,2.896306E4,3.4959653E3,5.3911084E3],"tree_param":{"num_deleted":"0","num_feature":"27","num_nodes":"15","size_leaf_vector":"1"}},{"base_weights":[-3.2535344E-4,6.0203207E-1,-9.811116E-2,-4.8725328E-1,7.821305E-1,-2.958932E-1,3.0829651E-2,-1.3081373E-2,1.0602327E-2,1.7191878E-2,-8.8739285E-4,-1.4686118E-2,-2.1202634E-3,4.817952E-3,-1.54351E-3],"categories":[],"categories_nodes":[],"categories_segments":[],"categories_sizes":[],"default_left":[0,0,0,0,0,0,0,0,0,0,0,0,0,0,0],"id":1,"left_children":[1,3,5,7,9,11,13,-1,-1,-1,-1,-1,-1,-1,-1],"loss_changes":[4.707198E3,2.191191E3,1.7543794E3,1.1488815E3,4.7065015E3,3.00936E3,2.2253066E3,0E0,0E0,0E0,0E0,0E0,0E0,0E0,0E0],"parents":[2147483647,0,0,1,1,2,2,3,3,4,4,5,5,6,6],"right_children":[2,4,6,8,10,12,14,-1,-1,-1,-1,-1,-1,-1,-1],"split_conditions":[8.7578094E2,3.5381028E-1,3.1983413E3,1.3526854E1,2.0944E8,4.0219197E3,1.0692051E1,-1.3081373E-2,1.0602327E-2,1.7191878E-2,-8.8739285E-4,-1.4686118E-2,-2.1202634E-3,4.817952E-3,-1.54351E-3],"split_indices":[14,23,17,5,4,0,6,0,0,0,0,0,0,0,0],"split_type":[0,0,0,0,0,0,0,0,0,0,0,0,0,0,0],"sum_hessian":[7.992718E4,1.1158234E4,6.8768945E4,1.5808809E3,9.577354E3,2.7144252E4,4.16247E4,1.1208666E3,4.6001428E2,5.7148335E3,3.86252E3,3.5053665E3,2.3638885E4,1.2655624E4,2.8969074E4],"tree_param":{"num_deleted":"0","num_feature":"27","num_nodes":"15","size_leaf_vector":"1"}},{"base_weights":[-1.8262945E-3,-9.00093E-2,6.1863E-1,1.9414906E-1,-3.68325E-1,1.3495736E0,1.09429836E-1,2.532355E-2,1.8478807E-3,-1.320021E-2,-3.7193068E-3,-1.9479997E-2,1.8104237E-2,8.367199E-3,-4.843597E-3],"categories":[],"categories_nodes":[],"categories_segments":[],"categories_sizes":[],"default_left":[0,0,0,0,0,0,0,0,0,0,0,0,0,0,0],"id":2,"left_children":[1,3,5,7,9,11,13,-1,-1,-1,-1,-1,-1,-1,-1],"loss_changes":[4.366039E3,5.527641E3,3.6924697E3,3.003248E3,1.7706079E3,9.5641797E2,1.5911804E3,0E0,0E0,0E0,0E0,0E0,0E0,0E0,0E0],"parents":[2147483647,0,0,1,1,2,2,3,3,4,4,5,5,6,6],"right_children":[2,4,6,8,10,12,14,-1,-1,-1,-1,-1,-1,-1,-1],"split_conditions":[9.1443634E-1,4.334932E5,4.1490116E5,2.1247734E3,1.523832E3,1.86047E8,2.1247734E3,2.532355E-2,1.8478807E-3,-1.320021E-2,-3.7193068E-3,-1.9479997E-2,1.8104237E-2,8.367199E-3,-4.843597E-3],"split_indices":[22,24,24,19,11,4,19,0,0,0,0,0,0,0,0],"split_type":[0,0,0,0,0,0,0,0,0,0,0,0,0,0,0],"sum_hessian":[7.98115E4,6.988464E4,9.92686E3,3.4576246E4,3.5308395E4,4.0724678E3,5.8543926E3,8.937971E2,3.368245E4,3.5047302E3,3.1803664E4,1.08716896E2,3.963751E3,2.7617156E3,3.0926772E3],"tree_param":{"num_deleted":"0","num_feature":"27","num_nodes":"15","size_leaf_vector":"1"}},{"base_weights":[-2.7695938E-3,3.182502E-1,-3.2902774E-1,1.4298562E0,1.8960397E-1,-8.2868123E-1,-2.4235894E-1,2.1542663E-2,1.01242075E-2,5.805709E-3,1.9870296E-5,-1.6463334E-2,-8.504631E-3,-1.8046086E-3,-8.989925E-3],"categories":[],"categories_nodes":[],"categories_segments":[],"categories_sizes":[],"default_left":[0,0,0,0,0,0,0,0,0,0,0,0,0,0,0],"id":3,"left_children":[1,3,5,7,9,11,13,-1,-1,-1,-1,-1,-1,-1,-1],"loss_changes":[8.351984E3,5.7435596E3,1.7100972E3,7.0559766E2,1.8218936E3,4.2595654E2,1.5720424E3,0E0,0E0,0E0,0E0,0E0,0E0,0E0,0E0],"parents":[2147483647,0,0,1,1,2,2,3,3,4,4,5,5,6,6],"right_children":[2,4,6,8,10,12,14,-1,-1,-1,-1,-1,-1,-1,-1],"split_conditions":[4.334932E5,8.3210535E0,4.4984388E5,2.2439195E2,3.5172882E1,9.670159E0,2.2674298E2,2.1542663E-2,1.01242075E-2,5.805709E-3,1.9870296E-5,-1.6463334E-2,-8.504631E-3,-1.8046086E-3,-8.989925E-3],"split_indices":[24,6,24,8,25,6,8,0,0,0,0,0,0,0,0],"split_type":[0,0,0,0,0,0,0,0,0,0,0,0,0,0,0],"sum_hessian":[7.973797E4,4.0188605E4,3.9549363E4,4.1640913E3,3.6024516E4,5.8392026E3,3.371016E4,2.9025242E3,1.2615671E3,1.4812888E4,2.1211627E4,1.4477108E3,4.3914917E3,2.7791037E4,5.919123E3],"tree_param":{"num_deleted":"0","num_feature":"27","num_nodes":"15","size_leaf_vector":"1"}},{"base_weights":[4.4813156E-3,6.037716E-1,-9.273557E-2,-2.644797E-1,8.832534E-1,-3.0999437E-1,1.2945688E-1,-1.7735966E-2,9.3623874E-4,-2.6341758E-3,1.3503082E-2,-1.4959767E-2,-2.8521924E-3,4.470969E-3,6.735162E-5],"categories":[],"categories_nodes":[],"categories_segments":[],"categories_sizes":[],"default_left":[0,0,0,0,0,0,0,0,0,0,0,0,0,0,0],"id":4,"left_children":[1,3,5,7,9,11,13,-1,-1,-1,-1,-1,-1,-1,-1],"loss_changes":[4.6821455E3,2.7239316E3,3.3375977E3,1.0539851E3,1.7027529E3,2.5768438E3,9.4857806E2,0E0,0E0,0E0,0E0,0E0,0E0,0E0,0E0],"parents":[2147483647,0,0,1,1,2,2,3,3,4,4,5,5,6,6],"right_children":[2,4,6,8,10,12,14,-1,-1,-1,-1,-1,-1,-1,-1],"split_conditions":[8.7578094E2,1.335839E3,8.332588E-1,-7.213781E-1,3.5381028E-1,5.218317E-1,1.0459438E1,-1.7735966E-2,9.3623874E-4,-2.6341758E-3,1.3503082E-2,-1.4959767E-2,-2.8521924E-3,4.470969E-3,6.735162E-5],"split_indices":[14,11,20,21,23,23,6,0,0,0,0,0,0,0,0],"split_type":[0,0,0,0,0,0,0,0,0,0,0,0,0,0,0],"sum_hessian":[8.034196E4,1.1214782E4,6.912718E4,2.7291917E3,8.485591E3,3.4955594E4,3.4171586E4,6.2549585E2,2.1036958E3,1.2200891E3,7.265502E3,3.0884016E3,3.1867191E4,1.218515E4,2.1986438E4],"tree_param":{"num_deleted":"0","num_feature":"27","num_nodes":"15","size_leaf_vector":"1"}},{"base_weights":[-7.4394895E-3,3.0999026E-1,-3.2990393E-1,1.5266587E0,1.7668557E-1,-9.0514684E-1,-2.5670308E-1,7.7676997E-3,2.0928724E-2,-2.198699E-2,2.4207241E-3,-1.0203341E-2,-1.9080209E-2,-1.7928825E-3,-7.154869E-3],"categories":[],"categories_nodes":[],"categories_segments":[],"categories_sizes":[],"default_left":[0,0,0,0,0,0,0,0,0,0,0,0,0,0,0],"id":5,"left_children":[1,3,5,7,9,11,13,-1,-1,-1,-1,-1,-1,-1,-1],"loss_changes":[8.176258E3,6.523888E3,1.6656938E3,4.5262402E2,1.0089907E3,2.5861646E2,1.2466797E3,0E0,0E0,0E0,0E0,0E0,0E0,0E0,0E0],"parents":[2147483647,0,0,1,1,2,2,3,3,4,4,5,5,6,6],"right_children":[2,4,6,8,10,12,14,-1,-1,-1,-1,-1,-1,-1,-1],"split_conditions":[4.334932E5,2.2237402E3,4.4646897E5,2.6552542E1,1.4148964E2,2.2742847E2,2.259462E2,7.7676997E-3,2.0928724E-2,-2.198699E-2,2.4207241E-3,-1.0203341E-2,-1.9080209E-2,-1.7928825E-3,-7.154869E-3],"split_indices":[24,19,24,26,16,8,8,0,0,0,0,0,0,0,0],"split_type":[0,0,0,0,0,0,0,0,0,0,0,0,0,0,0],"sum_hessian":[7.9871695E4,4.0247016E4,3.962468E4,3.969909E3,3.6277105E4,4.466494E3,3.5158188E4,4.88046E2,3.481863E3,2.7046957E2,3.6006637E4,3.8441653E3,6.22329E2,2.5616777E4,9.541409E3],"tree_param":{"num_deleted":"0","num_feature":"27","num_nodes":"15","size_leaf_vector":"1"}},{"base_weights":[5.0894096E-3,3.2932752E-1,-3.2916978E-1,1.4629614E0,1.8965864E-1,-8.454668E-1,-2.4996519E-1,7.4405284E-3,2.0261876E-2,5.4568993E-3,1.8885899E-4,-1.656979E-2,-8.797967E-3,-1.7685601E-2,-2.9488315E-3],"categories":[],"categories_nodes":[],"categories_segments":[],"categories_sizes":[],"default_left":[0,0,0,0,0,0,0,0,0,0,0,0,0,0,0],"id":6,"left_children":[1,3,5,7,9,11,13,-1,-1,-1,-1,-1,-1,-1,-1],"loss_changes":[8.694262E3,6.443863E3,1.6123882E3,5.315869E2,1.5290612E3,3.5945874E2,6.6362476E2,0E0,0E0,0E0,0E0,0E0,0E0,0E0,0E0],"parents":[2147483647,0,0,1,1,2,2,3,3,4,4,5,5,6,6],"right_children":[2,4,6,8,10,12,14,-1,-1,-1,-1,-1,-1,-1,-1],"split_conditions":[4.334932E5,2.242613E3,4.4830275E5,2.6564285E1,3.5773335E1,1.1273379E3,-7.213781E-1,7.4405284E-3,2.0261876E-2,5.4568993E-3,1.8885899E-4,-1.656979E-2,-8.797967E-3,-1.7685601E-2,-2.9488315E-3],"split_indices":[24,19,24,26,25,12,21,0,0,0,0,0,0,0,0],"split_type":[0,0,0,0,0,0,0,0,0,0,0,0,0,0,0],"sum_hessian":[8.021495E4,4.072087E4,3.9494082E4,4.4622437E3,3.625863E4,5.246006E3,3.4248074E4,6.110859E2,3.851158E3,1.5216375E4,2.1042254E4,1.2764059E3,3.9696E3,4.9488553E2,3.375319E4],"tree_param":{"num_deleted":"0","num_feature":"27","num_nodes":"15","size_leaf_vector":"1"}},{"base_weights":[-1.9937297E-3,-1.0095778E-1,7.612149E-1,1.6764817E-1,-3.3174896E-1,-9.702404E-1,8.984516E-1,2.2600044E-2,1.5145428E-3,-1.2209828E-2,-3.2664456E-3,1.2169267E-2,-1.852225E-2,7.3056435E-3,1.4023192E-2],"categories":[],"categories_nodes":[],"categories_segments":[],"categories_sizes":[],"default_left":[0,0,0,0,0,0,0,0,0,0,0,0,0,0,0],"id":7,"left_children":[1,3,5,7,9,11,13,-1,-1,-1,-1,-1,-1,-1,-1],"loss_changes":[6.0306157E3,4.383091E3,2.1799375E3,2.5322383E3,1.7703506E3,6.462354E2,5.66438E2,0E0,0E0,0E0,0E0,0E0,0E0,0E0,0E0],"parents":[2147483647,0,0,1,1,2,2,3,3,4,4,5,5,6,6],"right_children":[2,4,6,8,10,12,14,-1,-1,-1,-1,-1,-1,-1,-1],"split_conditions":[9.082411E-1,4.334932E5,-9.214364E-1,1.0667819E1,4.7951123E-1,2.2400899E2,9.261283E-1,2.2600044E-2,1.5145428E-3,-1.2209828E-2,-3.2664456E-3,1.2169267E-2,-1.852225E-2,7.3056435E-3,1.4023192E-2],"split_indices":[20,24,21,5,23,10,20,0,0,0,0,0,0,0,0],"split_type":[0,0,0,0,0,0,0,0,0,0,0,0,0,0,0],"sum_hessian":[7.98555E4,7.069376E4,9.161742E3,3.2666758E4,3.8027E4,6.7054095E2,8.491201E3,9.3702374E2,3.1729732E4,3.9593162E3,3.4067684E4,1.3500838E2,5.355326E2,3.3588923E3,5.132309E3],"tree_param":{"num_deleted":"0","num_feature":"27","num_nodes":"15","size_leaf_vector":"1"}},{"base_weights":[2.022446E-3,3.1202385E-1,-3.152672E-1,1.3701633E0,1.8746972E-1,-8.0800736E-1,-2.3095596E-1,1.9177547E-2,3.2888458E-3,5.6370166E-3,4.0055168E-4,-1.6313743E-2,-8.435056E-3,-1.3863455E-3,-7.477117E-3],"categories":[],"categories_nodes":[],"categories_segments":[],"categories_sizes":[],"default_left":[0,0,0,0,0,0,0,0,0,0,0,0,0,0,0],"id":8,"left_children":[1,3,5,7,9,11,13,-1,-1,-1,-1,-1,-1,-1,-1],"loss_changes":[7.864657E3,5.326873E3,1.6388567E3,6.806118E2,1.4533538E3,3.8649365E2,1.4726584E3,0E0,0E0,0E0,0E0,0E0,0E0,0E0,0E0],"parents":[2147483647,0,0,1,1,2,2,3,3,4,4,5,5,6,6],"right_children":[2,4,6,8,10,12,14,-1,-1,-1,-1,-1,-1,-1,-1],"split_conditions":[2.09648E8,8.3210535E0,2.14409E8,2.2140508E3,3.283E1,4.068582E3,2.2663931E2,1.9177547E-2,3.2888458E-3,5.6370166E-3,4.0055168E-4,-1.6313743E-2,-8.435056E-3,-1.3863455E-3,-7.477117E-3],"split_indices":[4,6,4,19,25,0,9,0,0,0,0,0,0,0,0],"split_type":[0,0,0,0,0,0,0,0,0,0,0,0,0,0,0],"sum_hessian":[7.995222E4,4.044376E4,3.9508453E4,4.254696E3,3.6189066E4,5.765548E3,3.3742906E4,3.760908E3,4.9378757E2,1.3624047E4,2.256502E4,1.303269E3,4.462279E3,2.5234906E4,8.507999E3],"tree_param":{"num_deleted":"0","num_feature":"27","num_nodes":"15","size_leaf_vector":"1"}},{"base_weights":[2.191674E-3,3.0390233E-1,-3.0146435E-1,9.4766474E-1,1.0874313E-1,-7.133282E-1,-2.294642E-1,-1.2059156E-2,1.3637728E-2,-3.3962386E-4,5.2039996E-3,-1.482839E-2,-7.3423684E-3,-1.341363E-3,-7.253832E-3],"categories":[],"categories_nodes":[],"categories_segments":[],"categories_sizes":[],"default_left":[0,0,0,0,0,0,0,0,0,0,0,0,0,0,0],"id":9,"left_children":[1,3,5,7,9,11,13,-1,-1,-1,-1,-1,-1,-1,-1],"loss_changes":[7.3182607E3,5.032028E3,1.1781548E3,2.3015107E3,1.2616741E3,3.5594995E2,1.4366915E3,0E0,0E0,0E0,0E0,0E0,0E0,0E0,0E0],"parents":[2147483647,0,0,1,1,2,2,3,3,4,4,5,5,6,6],"right_children":[2,4,6,8,10,12,14,-1,-1,-1,-1,-1,-1,-1,-1],"split_conditions":[1.9988E6,1.1766134E3,1.99882E6,1.97621E6,1.9965E6,4.068582E3,2.259462E2,-1.2059156E-2,1.3637728E-2,-3.3962386E-4,5.2039996E-3,-1.482839E-2,-7.3423684E-3,-1.341363E-3,-7.253832E-3],"split_indices":[3,12,3,3,3,0,8,0,0,0,0,0,0,0,0],"split_type":[0,0,0,0,0,0,0,0,0,0,0,0,0,0,0],"sum_hessian":[7.9873914E4,4.0068574E4,3.980534E4,9.316342E3,3.075223E4,5.915357E3,3.3889984E4,5.9345496E2,8.722887E3,2.1230049E4,9.522183E3,1.324475E3,4.590882E3,2.493745E4,8.952533E3],"tree_param":{"num_deleted":"0","num_feature":"27","num_nodes":"15","size_leaf_vector":"1"}},{"base_weights":[-6.15756E-3,2.897588E-1,-3.0616724E-1,1.4092458E0,1.5842158E-1,-1.8918443E-1,-6.300819E-1,-1.751783E-2,1.825679E-2,3.3210835E-4,5.4284306E-3,7.07848E-3,-3.0593919E-3,-1.4671528E-2,-3.5650749E-3],"categories":[],"categories_nodes":[],"categories_segments":[],"categories_sizes":[],"default_left":[0,0,0,0,0,0,0,0,0,0,0,0,0,0,0],"id":10,"left_children":[1,3,5,7,9,11,13,-1,-1,-1,-1,-1,-1,-1,-1],"loss_changes":[7.0722744E3,5.8923975E3,1.4971018E3,3.9509473E2,1.2822953E3,1.1425481E3,1.9300308E3,0E0,0E0,0E0,0E0,0E0,0E0,0E0,0E0],"parents":[2147483647,0,0,1,1,2,2,3,3,4,4,5,5,6,6],"right_children":[2,4,6,8,10,12,14,-1,-1,-1,-1,-1,-1,-1,-1],"split_conditions":[2.09648E8,2.2337034E3,2.2663931E2,1.86703E8,2.0209E8,9.189391E0,2.9177195E3,-1.751783E-2,1.825679E-2,3.3210835E-4,5.4284306E-3,7.07848E-3,-3.0593919E-3,-1.4671528E-2,-3.5650749E-3],"split_indices":[4,19,9,4,4,7,1,0,0,0,0,0,0,0,0],"split_type":[0,0,0,0,0,0,0,0,0,0,0,0,0,0,0],"sum_hessian":[7.965677E4,4.009868E4,3.955809E4,4.2059653E3,3.589271E4,2.9069914E4,1.0488177E4,4.727134E1,4.158694E3,2.4116217E4,1.1776495E4,1.9020455E3,2.716787E4,4.1598354E3,6.3283413E3],"tree_param":{"num_deleted":"0","num_feature":"27","num_nodes":"15","size_leaf_vector":"1"}},{"base_weights":[6.4888583E-3,6.509873E-1,-6.80801E-2,1.3715668E0,-1.14180125E-1,1.7204115E-1,-3.1233835E-1,1.9618327E-2,1.1026179E-2,4.079585E-3,-1.076778E-2,5.3548114E-3,9.0372676E-5,-1.2742774E-2,-2.8800196E-3],"categories":[],"categories_nodes":[],"categories_segments":[],"categories_sizes":[],"default_left":[0,0,0,0,0,0,0,0,0,0,0,0,0,0,0],"id":11,"left_children":[1,3,5,7,9,11,13,-1,-1,-1,-1,-1,-1,-1,-1],"loss_changes":[3.8575378E3,4.5924854E3,4.2185254E3,3.742705E2,1.3000632E3,1.500189E3,2.0966562E3,0E0,0E0,0E0,0E0,0E0,0E0,0E0,0E0],"parents":[2147483647,0,0,1,1,2,2,3,3,4,4,5,5,6,6],"right_children":[2,4,6,8,10,12,14,-1,-1,-1,-1,-1,-1,-1,-1],"split_conditions":[1.8876829E3,4.32713E5,4.334932E5,2.2439195E2,2.2567056E2,3.4116665E1,1.0931515E3,1.9618327E-2,1.1026179E-2,4.079585E-3,-1.076778E-2,5.3548114E-3,9.0372676E-5,-1.2742774E-2,-2.8800196E-3],"split_indices":[18,24,24,8,8,25,12,0,0,0,0,0,0,0,0],"split_type":[0,0,0,0,0,0,0,0,0,0,0,0,0,0,0],"sum_hessian":[8.0236336E4,8.321233E3,7.191511E4,4.285684E3,4.0355493E3,3.6260973E4,3.5654133E4,3.1523208E3,1.1333632E3,2.5331775E3,1.502372E3,1.437017E4,2.1890805E4,3.8745137E3,3.1779617E4],"tree_param":{"num_deleted":"0","num_feature":"27","num_nodes":"15","size_leaf_vector":"1"}},{"base_weights":[1.2612245E-2,3.0220568E-1,-2.8435844E-1,1.3144381E0,1.8117829E-1,-7.628284E-1,-2.0323096E-1,1.8651249E-2,5.482228E-3,6.232566E-3,8.0382026E-4,-1.4877278E-2,-7.908852E-3,4.030122E-3,-3.586909E-3],"categories":[],"categories_nodes":[],"categories_segments":[],"categories_sizes":[],"default_left":[0,0,0,0,0,0,0,0,0,0,0,0,0,0,0],"id":12,"left_children":[1,3,5,7,9,11,13,-1,-1,-1,-1,-1,-1,-1,-1],"loss_changes":[6.8951543E3,4.969586E3,1.5340342E3,6.020337E2,1.3269143E3,3.2079175E2,1.4154071E3,0E0,0E0,0E0,0E0,0E0,0E0,0E0,0E0],"parents":[2147483647,0,0,1,1,2,2,3,3,4,4,5,5,6,6],"right_children":[2,4,6,8,10,12,14,-1,-1,-1,-1,-1,-1,-1,-1],"split_conditions":[4.334932E5,8.3210535E0,4.4984388E5,2.2041992E3,2.285849E3,1.1657059E1,2.17025E8,1.8651249E-2,5.482228E-3,6.232566E-3,8.0382026E-4,-1.4877278E-2,-7.908852E-3,4.030122E-3,-3.586909E-3],"split_indices":[24,6,24,19,18,5,4,0,0,0,0,0,0,0,0],"split_type":[0,0,0,0,0,0,0,0,0,0,0,0,0,0,0],"sum_hessian":[8.0169555E4,4.0592285E4,3.957727E4,4.330417E3,3.6261867E4,5.7307812E3,3.384649E4,3.664728E3,6.6568884E2,9.9418E3,2.6320068E4,1.427581E3,4.3032E3,4.503656E3,2.9342834E4],"tree_param":{"num_deleted":"0","num_feature":"27","num_nodes":"15","size_leaf_vector":"1"}},{"base_weights":[-1.7179763E-4,2.944439E-1,-3.0336404E-1,9.0116656E-1,1.1892887E-1,-8.58115E-1,-2.2821061E-1,1.7525543E-2,8.273341E-3,-4.313725E-4,5.6147208E-3,-1.6537767E-2,-1.00148E-2,-1.444706E-3,-5.629125E-3],"categories":[],"categories_nodes":[],"categories_segments":[],"categories_sizes":[],"default_left":[0,0,0,0,0,0,0,0,0,0,0,0,0,0,0],"id":13,"left_children":[1,3,5,7,9,11,13,-1,-1,-1,-1,-1,-1,-1,-1],"loss_changes":[7.1361143E3,4.311995E3,1.6388901E3,1.0809062E3,1.5621539E3,1.3378174E2,8.55391E2,0E0,0E0,0E0,0E0,0E0,0E0,0E0,0E0],"parents":[2147483647,0,0,1,1,2,2,3,3,4,4,5,5,6,6],"right_children":[2,4,6,8,10,12,14,-1,-1,-1,-1,-1,-1,-1,-1],"split_conditions":[4.334932E5,1.1604127E3,4.47334E5,7.0297134E3,4.08921E5,8.626667E0,5.0926778E5,1.7525543E-2,8.273341E-3,-4.313725E-4,5.6147208E-3,-1.6537767E-2,-1.00148E-2,-1.444706E-3,-5.629125E-3],"split_indices":[24,12,24,2,24,25,24,0,0,0,0,0,0,0,0],"split_type":[0,0,0,0,0,0,0,0,0,0,0,0,0,0,0],"sum_hessian":[7.988341E4,4.0511453E4,3.9371953E4,9.084674E3,3.1426781E4,4.690844E3,3.468111E4,3.0693845E3,6.015289E3,2.135755E4,1.006923E4,5.984112E2,4.0924329E3,2.2722941E4,1.1958169E4],"tree_param":{"num_deleted":"0","num_feature":"27","num_nodes":"15","size_leaf_vector":"1"}},{"base_weights":[-5.8130715E-3,2.809517E-1,-3.015274E-1,9.061427E-1,1.054785E-1,-1.9112039E-1,-6.1302763E-1,-2.0512795E-2,1.2916756E-2,-6.2168547E-4,5.4487297E-3,-9.283414E-3,-1.389627E-3,-1.5524967E-2,-2.9524914E-3],"categories":[],"categories_nodes":[],"categories_segments":[],"categories_sizes":[],"default_left":[0,0,0,0,0,0,0,0,0,0,0,0,0,0,0],"id":14,"left_children":[1,3,5,7,9,11,13,-1,-1,-1,-1,-1,-1,-1,-1],"loss_changes":[6.7517534E3,4.43172E3,1.3462776E3,2.5617593E3,1.5867491E3,1.275099E3,2.3850605E3,0E0,0E0,0E0,0E0,0E0,0E0,0E0,0E0],"parents":[2147483647,0,0,1,1,2,2,3,3,4,4,5,5,6,6],"right_children":[2,4,6,8,10,12,14,-1,-1,-1,-1,-1,-1,-1,-1],"split_conditions":[2.09648E8,1.1437335E3,2.266672E2,1.86047E8,2.0209E8,4.4984388E5,1.1913247E3,-2.0512795E-2,1.2916756E-2,-6.2168547E-4,5.4487297E-3,-9.283414E-3,-1.389627E-3,-1.5524967E-2,-2.9524914E-3],"split_indices":[4,12,9,4,4,24,12,0,0,0,0,0,0,0,0],"split_type":[0,0,0,0,0,0,0,0,0,0,0,0,0,0,0],"sum_hessian":[7.961328E4,4.0414918E4,3.9198367E4,8.852308E3,3.156261E4,2.8948729E4,1.024964E4,3.8091718E2,8.471391E3,2.1385977E4,1.0176634E4,3.769283E3,2.5179445E4,3.914424E3,6.335216E3],"tree_param":{"num_deleted":"0","num_feature":"27","num_nodes":"15","size_leaf_vector":"1"}},{"base_weights":[-6.731359E-3,2.7217284E-1,-2.9332685E-1,8.02134E-1,8.4526606E-2,-1.8820328E-1,-6.141641E-1,1.7527098E-2,7.101007E-3,-8.6625887E-4,5.0405E-3,-3.1079687E-3,4.5601227E-3,-1.5117257E-2,-3.044928E-3],"categories":[],"categories_nodes":[],"categories_segments":[],"categories_sizes":[],"default_left":[0,0,0,0,0,0,0,0,0,0,0,0,0,0,0],"id":15,"left_children":[1,3,5,7,9,11,13,-1,-1,-1,-1,-1,-1,-1,-1],"loss_changes":[6.361183E3,4.0085112E3,1.3219917E3,1.4749116E3,1.4301365E3,9.301323E2,2.0948218E3,0E0,0E0,0E0,0E0,0E0,0E0,0E0,0E0],"parents":[2147483647,0,0,1,1,2,2,3,3,4,4,5,5,6,6],"right_children":[2,4,6,8,10,12,14,-1,-1,-1,-1,-1,-1,-1,-1],"split_conditions":[4.334932E5,1.6177777E3,2.2678252E2,9.654785E0,4.08921E5,9.1678524E-1,1.5128398E3,1.7527098E-2,7.101007E-3,-8.6625887E-4,5.0405E-3,-3.1079687E-3,4.5601227E-3,-1.5117257E-2,-3.044928E-3],"split_indices":[24,13,9,7,24,22,13,0,0,0,0,0,0,0,0],"split_type":[0,0,0,0,0,0,0,0,0,0,0,0,0,0,0],"sum_hessian":[7.957569E4,4.0325555E4,3.9250133E4,1.0539539E4,2.9786014E4,2.9571498E4,9.678635E3,3.0789263E3,7.4606133E3,2.0019785E4,9.766228E3,2.6777188E4,2.7943105E3,3.786736E3,5.891899E3],"tree_param":{"num_deleted":"0","num_feature":"27","num_nodes":"15","size_leaf_vector":"1"}},{"base_weights":[1.341521E-3,2.784637E-1,-2.8270304E-1,1.316559E0,1.587137E-1,-7.979815E-1,-2.127463E-1,-1.9501014E-2,1.7102096E-2,-2.211234E-2,2.2095686E-3,-8.81073E-3,-1.6658189E-2,-1.4605132E-3,-7.464263E-3],"categories":[],"categories_nodes":[],"categories_segments":[],"categories_sizes":[],"default_left":[0,0,0,0,0,0,0,0,0,0,0,0,0,0,0],"id":16,"left_children":[1,3,5,7,9,11,13,-1,-1,-1,-1,-1,-1,-1,-1],"loss_changes":[6.2753623E3,5.013294E3,1.4165596E3,4.176753E2,1.0909706E3,2.4164624E2,1.2707454E3,0E0,0E0,0E0,0E0,0E0,0E0,0E0,0E0],"parents":[2147483647,0,0,1,1,2,2,3,3,4,4,5,5,6,6],"right_children":[2,4,6,8,10,12,14,-1,-1,-1,-1,-1,-1,-1,-1],"split_conditions":[4.334932E5,2.2337034E3,2.1363E8,1.97619E6,-1.716288E1,2.2786487E2,2.2680586E2,-1.9501014E-2,1.7102096E-2,-2.211234E-2,2.2095686E-3,-8.81073E-3,-1.6658189E-2,-1.4605132E-3,-7.464263E-3],"split_indices":[24,19,4,3,15,10,10,0,0,0,0,0,0,0,0],"split_type":[0,0,0,0,0,0,0,0,0,0,0,0,0,0,0],"sum_hessian":[7.971709E4,4.0353797E4,3.93633E4,4.169008E3,3.618479E4,4.6984966E3,3.4664805E4,4.773521E1,4.1212725E3,2.9499603E2,3.5889793E4,3.9349492E3,7.635474E2,2.755665E4,7.1081523E3],"tree_param":{"num_deleted":"0","num_feature":"27","num_nodes":"15","size_leaf_vector":"1"}},{"base_weights":[-8.582495E-4,5.3550935E-1,-8.794119E-2,9.002274E-1,-3.6288935E-1,1.303579E-1,-2.9851514E-1,8.091323E-3,1.4523532E-2,-8.20363E-3,4.849807E-3,4.29207E-3,1.8113715E-5,-1.2019675E-2,-3.0198256E-3],"categories":[],"categories_nodes":[],"categories_segments":[],"categories_sizes":[],"default_left":[0,0,0,0,0,0,0,0,0,0,0,0,0,0,0],"id":17,"left_children":[1,3,5,7,9,11,13,-1,-1,-1,-1,-1,-1,-1,-1],"loss_changes":[3.7244155E3,3.651186E3,3.1547427E3,5.05604E2,6.8561847E2,9.0594977E2,1.3602156E3,0E0,0E0,0E0,0E0,0E0,0E0,0E0,0E0],"parents":[2147483647,0,0,1,1,2,2,3,3,4,4,5,5,6,6],"right_children":[2,4,6,8,10,12,14,-1,-1,-1,-1,-1,-1,-1,-1],"split_conditions":[8.7578094E2,2.2615015E2,2.09648E8,2.6531423E3,3.0421306E3,1.0606327E1,1.374957E3,8.091323E-3,1.4523532E-2,-8.20363E-3,4.849807E-3,4.29207E-3,1.8113715E-5,-1.2019675E-2,-3.0198256E-3],"split_indices":[14,8,4,17,17,6,13,0,0,0,0,0,0,0,0],"split_type":[0,0,0,0,0,0,0,0,0,0,0,0,0,0,0],"sum_hessian":[7.975093E4,1.1134353E4,6.861658E4,7.9209365E3,3.213416E3,3.3686195E4,3.4930383E4,3.8618645E3,4.0590718E3,2.3268245E3,8.8659155E2,1.2854496E4,2.08317E4,2.9381064E3,3.1992275E4],"tree_param":{"num_deleted":"0","num_feature":"27","num_nodes":"15","size_leaf_vector":"1"}},{"base_weights":[-3.87323E-4,2.724656E-1,-2.8259683E-1,1.3476131E0,1.5575352E-1,-1.8997696E-1,-6.4689314E-1,-1.8105946E-2,1.736355E-2,4.8306785E-3,-5.7096102E-5,-9.07045E-3,-1.4093254E-3,-1.5350598E-2,-2.8643373E-3],"categories":[],"categories_nodes":[],"categories_segments":[],"categories_sizes":[],"default_left":[0,0,0,0,0,0,0,0,0,0,0,0,0,0,0],"id":18,"left_children":[1,3,5,7,9,11,13,-1,-1,-1,-1,-1,-1,-1,-1],"loss_changes":[6.1573667E3,5.0975933E3,1.3244106E3,2.7270557E2,1.3285298E3,1.2964127E3,1.8916741E3,0E0,0E0,0E0,0E0,0E0,0E0,0E0,0E0],"parents":[2147483647,0,0,1,1,2,2,3,3,4,4,5,5,6,6],"right_children":[2,4,6,8,10,12,14,-1,-1,-1,-1,-1,-1,-1,-1],"split_conditions":[2.09648E8,2.2140508E3,2.269054E2,3.55588E5,3.5172882E1,4.4984388E5,1.5358412E3,-1.8105946E-2,1.736355E-2,4.8306785E-3,-5.7096102E-5,-9.07045E-3,-1.4093254E-3,-1.5350598E-2,-2.8643373E-3],"split_indices":[4,19,10,24,25,24,13,0,0,0,0,0,0,0,0],"split_type":[0,0,0,0,0,0,0,0,0,0,0,0,0,0,0],"sum_hessian":[7.995825E4,4.064952E4,3.930873E4,3.9760505E3,3.667347E4,3.1348303E4,7.9604287E3,3.2224174E1,3.9438264E3,1.5223898E4,2.1449572E4,4.0664397E3,2.7281863E4,3.389801E3,4.5706274E3],"tree_param":{"num_deleted":"0","num_feature":"27","num_nodes":"15","size_leaf_vector":"1"}},{"base_weights":[8.3457335E-4,2.7010876E-1,-2.773203E-1,1.250959E0,1.5105723E-1,-7.751356E-1,-2.1357878E-1,2.244928E-2,1.4313239E-2,4.2140856E-4,5.0034462E-3,-8.983062E-3,-1.781291E-2,-3.0917116E-3,8.314161E-3],"categories":[],"categories_nodes":[],"categories_segments":[],"categories_sizes":[],"default_left":[0,0,0,0,0,0,0,0,0,0,0,0,0,0,0],"id":19,"left_children":[1,3,5,7,9,11,13,-1,-1,-1,-1,-1,-1,-1,-1],"loss_changes":[5.9712656E3,4.72735E3,1.2418162E3,2.638838E2,1.038361E3,1.7694238E2,9.2814075E2,0E0,0E0,0E0,0E0,0E0,0E0,0E0,0E0],"parents":[2147483647,0,0,1,1,2,2,3,3,4,4,5,5,6,6],"right_children":[2,4,6,8,10,12,14,-1,-1,-1,-1,-1,-1,-1,-1],"split_conditions":[2.09648E8,1.8876829E3,4.4646897E5,4.9863716E3,2.0209E8,2.1301507E8,2.39907E8,2.244928E-2,1.4313239E-2,4.2140856E-4,5.0034462E-3,-8.983062E-3,-1.781291E-2,-3.0917116E-3,8.314161E-3],"split_indices":[4,18,24,2,4,4,4,0,0,0,0,0,0,0,0],"split_type":[0,0,0,0,0,0,0,0,0,0,0,0,0,0,0],"sum_hessian":[7.971791E4,4.050923E4,3.920867E4,4.3799956E3,3.6129234E4,4.4434756E3,3.47652E4,8.084618E2,3.5715337E3,2.4383562E4,1.1745673E4,4.0348782E3,4.0859738E2,3.3585645E4,1.1795546E3],"tree_param":{"num_deleted":"0","num_feature":"27","num_nodes":"15","size_leaf_vector":"1"}},{"base_weights":[-1.8304939E-3,-1.0317133E-1,5.871697E-1,1.302695E-1,-2.9517287E-1,-1.2671379E0,6.898225E-1,2.0812402E-2,1.0632663E-3,-9.279789E-3,-2.8163928E-3,-8.776795E-3,-2.0438325E-2,1.29350405E-2,5.995831E-3],"categories":[],"categories_nodes":[],"categories_segments":[],"categories_sizes":[],"default_left":[0,0,0,0,0,0,0,0,0,0,0,0,0,0,0],"id":20,"left_children":[1,3,5,7,9,11,13,-1,-1,-1,-1,-1,-1,-1,-1],"loss_changes":[4.7687705E3,3.056377E3,2.2336187E3,2.151365E3,1.1884395E3,1.14987305E2,7.934971E2,0E0,0E0,0E0,0E0,0E0,0E0,0E0,0E0],"parents":[2147483647,0,0,1,1,2,2,3,3,4,4,5,5,6,6],"right_children":[2,4,6,8,10,12,14,-1,-1,-1,-1,-1,-1,-1,-1],"split_conditions":[8.997485E-1,4.334932E5,4.1770237E1,1.2551162E3,1.0285398E3,2.0318318E3,1.8876829E3,2.0812402E-2,1.0632663E-3,-9.279789E-3,-2.8163928E-3,-8.776795E-3,-2.0438325E-2,1.29350405E-2,5.995831E-3],"split_indices":[20,24,16,1,12,19,18,0,0,0,0,0,0,0,0],"split_type":[0,0,0,0,0,0,0,0,0,0,0,0,0,0,0],"sum_hessian":[7.990309E4,6.817829E4,1.1724808E4,3.0764502E4,3.741379E4,6.1236456E2,1.1112443E4,9.081406E2,2.9856361E4,5.316542E3,3.2097246E4,2.3631316E2,3.7605136E2,4.373049E3,6.739394E3],"tree_param":{"num_deleted":"0","num_feature":"27","num_nodes":"15","size_leaf_vector":"1"}},{"base_weights":[-1.1709721E-3,2.492041E-1,-2.540207E-1,9.364736E-1,1.10075586E-1,-1.751061E-1,-6.6956246E-1,1.5752586E-2,-1.6630667E-4,4.080066E-3,-1.5289527E-4,-2.829992E-3,3.7129703E-3,-1.659841E-2,-1.8473354E-3],"categories":[],"categories_nodes":[],"categories_segments":[],"categories_sizes":[],"default_left":[0,0,0,0,0,0,0,0,0,0,0,0,0,0,0],"id":21,"left_children":[1,3,5,7,9,11,13,-1,-1,-1,-1,-1,-1,-1,-1],"loss_changes":[5.052228E3,3.831438E3,1.3001836E3,1.9763252E3,8.653844E2,7.58069E2,2.1246812E3,0E0,0E0,0E0,0E0,0E0,0E0,0E0,0E0],"parents":[2147483647,0,0,1,1,2,2,3,3,4,4,5,5,6,6],"right_children":[2,4,6,8,10,12,14,-1,-1,-1,-1,-1,-1,-1,-1],"split_conditions":[1.9988E6,3.697676E2,2.2696722E2,2.2780022E2,1.0560091E1,9.1678524E-1,4.068582E3,1.5752586E-2,-1.6630667E-4,4.080066E-3,-1.5289527E-4,-2.829992E-3,3.7129703E-3,-1.659841E-2,-1.8473354E-3],"split_indices":[3,15,8,9,6,22,0,0,0,0,0,0,0,0,0],"split_type":[0,0,0,0,0,0,0,0,0,0,0,0,0,0,0],"sum_hessian":[7.979917E4,4.009187E4,3.97073E4,6.744605E3,3.3347266E4,3.3377387E4,6.3299106E3,5.093496E3,1.6511089E3,1.2185027E4,2.116224E4,3.025244E4,3.1249485E3,2.840439E3,3.4894717E3],"tree_param":{"num_deleted":"0","num_feature":"27","num_nodes":"15","size_leaf_vector":"1"}},{"base_weights":[3.5491707E-3,2.5913277E-1,-2.5686958E-1,7.58911E-1,5.5598468E-2,-7.272885E-1,-1.9133182E-1,-2.0029902E-2,1.0558208E-2,2.200826E-3,-4.5485757E-4,5.3753047E-3,-9.7108595E-3,2.4572173E-3,-3.3414203E-3],"categories":[],"categories_nodes":[],"categories_segments":[],"categories_sizes":[],"default_left":[0,0,0,0,0,0,0,0,0,0,0,0,0,0,0],"id":22,"left_children":[1,3,5,7,9,11,13,-1,-1,-1,-1,-1,-1,-1,-1],"loss_changes":[5.316042E3,4.0989814E3,1.2173376E3,2.05677E3,3.1049512E2,2.2378369E2,9.7286536E2,0E0,0E0,0E0,0E0,0E0,0E0,0E0,0E0],"parents":[2147483647,0,0,1,1,2,2,3,3,4,4,5,5,6,6],"right_children":[2,4,6,8,10,12,14,-1,-1,-1,-1,-1,-1,-1,-1],"split_conditions":[1.9988E6,9.856806E0,2.1363E8,1.86047E8,1.0876533E1,2.09648E8,2.17025E8,-2.0029902E-2,1.0558208E-2,2.200826E-3,-4.5485757E-4,5.3753047E-3,-9.7108595E-3,2.4572173E-3,-3.3414203E-3],"split_indices":[3,6,4,4,6,4,4,0,0,0,0,0,0,0,0],"split_type":[0,0,0,0,0,0,0,0,0,0,0,0,0,0,0],"sum_hessian":[7.98643E4,4.031018E4,3.9554113E4,1.1660508E4,2.8649674E4,4.829625E3,3.472449E4,3.6048517E2,1.1300022E4,1.2507344E4,1.6142329E4,1.5918346E2,4.6704414E3,5.502122E3,2.9222367E4],"tree_param":{"num_deleted":"0","num_feature":"27","num_nodes":"15","size_leaf_vector":"1"}},{"base_weights":[3.767615E-3,2.4943218E-1,-2.4900992E-1,1.1312939E0,1.2706763E-1,-7.5436485E-1,-1.8145931E-1,1.6858514E-2,7.3520644E-3,3.129689E-5,4.9020685E-3,-8.319382E-3,-1.7336383E-2,-8.5117965E-4,-6.234415E-3],"categories":[],"categories_nodes":[],"categories_segments":[],"categories_sizes":[],"default_left":[0,0,0,0,0,0,0,0,0,0,0,0,0,0,0],"id":23,"left_children":[1,3,5,7,9,11,13,-1,-1,-1,-1,-1,-1,-1,-1],"loss_changes":[4.9636006E3,4.371701E3,1.3424644E3,5.392744E2,1.1536151E3,2.7069556E2,1.2336041E3,0E0,0E0,0E0,0E0,0E0,0E0,0E0,0E0],"parents":[2147483647,0,0,1,1,2,2,3,3,4,4,5,5,6,6],"right_children":[2,4,6,8,10,12,14,-1,-1,-1,-1,-1,-1,-1,-1],"split_conditions":[2.09648E8,1.912339E3,2.1363E8,2.2465895E2,4.08921E5,2.2733727E2,2.259462E2,1.6858514E-2,7.3520644E-3,3.129689E-5,4.9020685E-3,-8.319382E-3,-1.7336383E-2,-8.5117965E-4,-6.234415E-3],"split_indices":[4,18,4,8,24,8,8,0,0,0,0,0,0,0,0],"split_type":[0,0,0,0,0,0,0,0,0,0,0,0,0,0,0],"sum_hessian":[7.9925555E4,4.0537062E4,3.938849E4,4.934664E3,3.56024E4,4.637465E3,3.4751023E4,3.6110732E3,1.3235908E3,2.4082115E4,1.1520282E4,4.0131416E3,6.243232E2,2.5425982E4,9.325042E3],"tree_param":{"num_deleted":"0","num_feature":"27","num_nodes":"15","size_leaf_vector":"1"}},{"base_weights":[2.6448327E-3,2.52423E-1,-2.5194156E-1,8.057164E-1,8.6601734E-2,-1.0701554E0,-2.3338978E-1,-1.25038205E-2,1.1665607E-2,-5.2079535E-4,4.672925E-3,-3.5270066E-3,-1.8786702E-2,-8.07639E-3,-2.0807046E-3],"categories":[],"categories_nodes":[],"categories_segments":[],"categories_sizes":[],"default_left":[0,0,0,0,0,0,0,0,0,0,0,0,0,0,0],"id":24,"left_children":[1,3,5,7,9,11,13,-1,-1,-1,-1,-1,-1,-1,-1],"loss_changes":[5.0812036E3,3.6989194E3,5.973357E2,1.9356699E3,1.1212761E3,2.8184363E2,1.0787146E3,0E0,0E0,0E0,0E0,0E0,0E0,0E0,0E0],"parents":[2147483647,0,0,1,1,2,2,3,3,4,4,5,5,6,6],"right_children":[2,4,6,8,10,12,14,-1,-1,-1,-1,-1,-1,-1,-1],"split_conditions":[1.9988E6,1.1766134E3,4.1770237E1,1.9762281E6,1.9965E6,2.2563184E2,1.99882E6,-1.25038205E-2,1.1665607E-2,-5.2079535E-4,4.672925E-3,-3.5270066E-3,-1.8786702E-2,-8.07639E-3,-2.0807046E-3],"split_indices":[3,12,16,3,3,9,3,0,0,0,0,0,0,0,0],"split_type":[0,0,0,0,0,0,0,0,0,0,0,0,0,0,0],"sum_hessian":[7.99E4,4.03348E4,3.95652E4,9.295609E3,3.103919E4,8.7133875E2,3.869386E4,5.6201495E2,8.733595E3,2.1372596E4,9.666594E3,3.0251727E2,5.688215E2,5.6291855E3,3.306467E4],"tree_param":{"num_deleted":"0","num_feature":"27","num_nodes":"15","size_leaf_vector":"1"}},{"base_weights":[1.2710986E-3,4.931852E-1,-7.556039E-2,8.401313E-1,-3.5808456E-1,1.15096435E-1,-2.583021E-1,1.5020983E-2,3.0929383E-3,-1.8035546E-2,1.2521679E-3,1.04803905E-4,4.428166E-3,-1.00946175E-2,-2.3666206E-3],"categories":[],"categories_nodes":[],"categories_segments":[],"categories_sizes":[],"default_left":[0,0,0,0,0,0,0,0,0,0,0,0,0,0,0],"id":25,"left_children":[1,3,5,7,9,11,13,-1,-1,-1,-1,-1,-1,-1,-1],"loss_changes":[3.0126428E3,3.182256E3,2.4016262E3,1.5766675E3,1.5233696E3,8.4497595E2,1.3513572E3,0E0,0E0,0E0,0E0,0E0,0E0,0E0,0E0],"parents":[2147483647,0,0,1,1,2,2,3,3,4,4,5,5,6,6],"right_children":[2,4,6,8,10,12,14,-1,-1,-1,-1,-1,-1,-1,-1],"split_conditions":[8.591727E2,2.2615015E2,1.9988E6,1.9988E6,-6.510498E-1,1.9965E6,1.467665E3,1.5020983E-2,3.0929383E-3,-1.8035546E-2,1.2521679E-3,1.04803905E-4,4.428166E-3,-1.00946175E-2,-2.3666206E-3],"split_indices":[14,8,3,3,21,3,13,0,0,0,0,0,0,0,0],"split_type":[0,0,0,0,0,0,0,0,0,0,0,0,0,0,0],"sum_hessian":[7.968372E4,1.0765887E4,6.8917836E4,7.650282E3,3.1156042E3,3.372366E4,3.5194176E4,4.8327173E3,2.817565E3,9.339488E2,2.1816555E3,2.31852E4,1.053846E4,4.105036E3,3.1089139E4],"tree_param":{"num_deleted":"0","num_feature":"27","num_nodes":"15","size_leaf_vector":"1"}},{"base_weights":[5.727391E-4,2.4267443E-1,-2.4879166E-1,1.1796242E0,1.2828879E-1,-7.3608196E-1,-1.8365966E-1,1.6958993E-2,9.1625685E-3,1.7906533E-4,4.62301E-3,-8.2046855E-3,-1.6649362E-2,-1.0855752E-3,-6.334285E-3],"categories":[],"categories_nodes":[],"categories_segments":[],"categories_sizes":[],"default_left":[0,0,0,0,0,0,0,0,0,0,0,0,0,0,0],"id":26,"left_children":[1,3,5,7,9,11,13,-1,-1,-1,-1,-1,-1,-1,-1],"loss_changes":[4.8058623E3,4.3262305E3,1.2422625E3,3.1395996E2,9.730174E2,2.2884082E2,1.0715217E3,0E0,0E0,0E0,0E0,0E0,0E0,0E0,0E0],"parents":[2147483647,0,0,1,1,2,2,3,3,4,4,5,5,6,6],"right_children":[2,4,6,8,10,12,14,-1,-1,-1,-1,-1,-1,-1,-1],"split_conditions":[4.334932E5,1.8876829E3,2.1363E8,2.2439195E2,2.0209E8,2.2742847E2,2.2618059E2,1.6958993E-2,9.1625685E-3,1.7906533E-4,4.62301E-3,-8.2046855E-3,-1.6649362E-2,-1.0855752E-3,-6.334285E-3],"split_indices":[24,18,4,8,4,8,8,0,0,0,0,0,0,0,0],"split_type":[0,0,0,0,0,0,0,0,0,0,0,0,0,0,0],"sum_hessian":[7.9599414E4,4.039193E4,3.9207484E4,4.3899604E3,3.600197E4,4.6157046E3,3.4591777E4,3.24088E3,1.1490806E3,2.430521E4,1.1696758E4,4.0158452E3,5.998596E2,2.6432994E4,8.158784E3],"tree_param":{"num_deleted":"0","num_feature":"27","num_nodes":"15","size_leaf_vector":"1"}},{"base_weights":[5.2840086E-3,-5.694177E-2,4.686446E-1,1.0396849E0,-7.476903E-2,7.578411E-1,-3.2032168E-1,1.9518884E-2,-6.8932213E-3,-1.2878479E-2,-2.3646749E-4,5.159248E-3,1.1725896E-2,-2.048693E-2,-1.8690785E-3],"categories":[],"categories_nodes":[],"categories_segments":[],"categories_sizes":[],"default_left":[0,0,0,0,0,0,0,0,0,0,0,0,0,0,0],"id":27,"left_children":[1,3,5,7,9,11,13,-1,-1,-1,-1,-1,-1,-1,-1],"loss_changes":[2.3046108E3,1.3753522E3,2.160802E3,8.998707E2,3.6627988E3,4.0529517E2,5.6483856E2,0E0,0E0,0E0,0E0,0E0,0E0,0E0,0E0],"parents":[2147483647,0,0,1,1,2,2,3,3,4,4,5,5,6,6],"right_children":[2,4,6,8,10,12,14,-1,-1,-1,-1,-1,-1,-1,-1],"split_conditions":[9.1678524E-1,-3.7082405E1,2.2656883E2,2.2567056E2,4.0219197E3,3.5355857E3,-6.510498E-1,1.9518884E-2,-6.8932213E-3,-1.2878479E-2,-2.3646749E-4,5.159248E-3,1.1725896E-2,-2.048693E-2,-1.8690785E-3],"split_indices":[22,14,8,8,0,0,21,0,0,0,0,0,0,0,0],"split_type":[0,0,0,0,0,0,0,0,0,0,0,0,0,0,0],"sum_hessian":[7.989602E4,7.043525E4,9.460769E3,1.1223892E3,6.931286E4,6.92502E3,2.535749E3,8.531644E2,2.6922476E2,3.887645E3,6.542522E4,2.2568914E3,4.6681284E3,2.9357568E2,2.2421733E3],"tree_param":{"num_deleted":"0","num_feature":"27","num_nodes":"15","size_leaf_vector":"1"}},{"base_weights":[2.7476514E-3,2.4495912E-1,-2.4791445E-1,7.580024E-1,8.1454545E-2,-7.649434E-1,-1.7925768E-1,1.288447E-2,1.4933328E-3,3.4512756E-3,-1.9061209E-4,-8.435452E-3,-1.5200415E-2,-1.0735615E-3,-5.795339E-3],"categories":[],"categories_nodes":[],"categories_segments":[],"categories_sizes":[],"default_left":[0,0,0,0,0,0,0,0,0,0,0,0,0,0,0],"id":28,"left_children":[1,3,5,7,9,11,13,-1,-1,-1,-1,-1,-1,-1,-1],"loss_changes":[4.836412E3,3.3969224E3,1.3872297E3,1.6258774E3,5.676541E2,1.9094092E2,9.081813E2,0E0,0E0,0E0,0E0,0E0,0E0,0E0,0E0],"parents":[2147483647,0,0,1,1,2,2,3,3,4,4,5,5,6,6],"right_children":[2,4,6,8,10,12,14,-1,-1,-1,-1,-1,-1,-1,-1],"split_conditions":[2.09648E8,4.966431E3,2.1363E8,2.2697469E2,3.627E1,2.2783725E2,2.2663931E2,1.288447E-2,1.4933328E-3,3.4512756E-3,-1.9061209E-4,-8.435452E-3,-1.5200415E-2,-1.0735615E-3,-5.795339E-3],"split_indices":[4,0,4,10,25,9,9,0,0,0,0,0,0,0,0],"split_type":[0,0,0,0,0,0,0,0,0,0,0,0,0,0,0],"sum_hessian":[7.965449E4,4.0514168E4,3.914032E4,9.785886E3,3.0728283E4,4.5815254E3,3.4558797E4,6.956075E3,2.8298105E3,1.0312573E4,2.041571E4,3.7465732E3,8.349523E2,2.581776E4,8.741036E3],"tree_param":{"num_deleted":"0","num_feature":"27","num_nodes":"15","size_leaf_vector":"1"}},{"base_weights":[-1.6618846E-3,2.4338597E-1,-2.5494775E-1,1.1530173E0,1.4049725E-1,-6.654998E-1,-1.856553E-1,5.020076E-3,1.6433368E-2,4.173456E-3,-9.469205E-5,-1.3675145E-2,-6.7002787E-3,4.6260795E-3,-3.1641792E-3],"categories":[],"categories_nodes":[],"categories_segments":[],"categories_sizes":[],"default_left":[0,0,0,0,0,0,0,0,0,0,0,0,0,0,0],"id":29,"left_children":[1,3,5,7,9,11,13,-1,-1,-1,-1,-1,-1,-1,-1],"loss_changes":[4.9336504E3,3.7778013E3,1.110042E3,4.4611035E2,1.0170213E3,3.1379663E2,1.1861311E3,0E0,0E0,0E0,0E0,0E0,0E0,0E0,0E0],"parents":[2147483647,0,0,1,1,2,2,3,3,4,4,5,5,6,6],"right_children":[2,4,6,8,10,12,14,-1,-1,-1,-1,-1,-1,-1,-1],"split_conditions":[2.09648E8,2.2337034E3,4.4984388E5,2.6644068E1,3.6488335E1,2.178023E3,2.16451E8,5.020076E-3,1.6433368E-2,4.173456E-3,-9.469205E-5,-1.3675145E-2,-6.7002787E-3,4.6260795E-3,-3.1641792E-3],"split_indices":[4,19,24,26,25,18,4,0,0,0,0,0,0,0,0],"split_type":[0,0,0,0,0,0,0,0,0,0,0,0,0,0,0],"sum_hessian":[7.9483E4,4.0394543E4,3.9088457E4,4.0999175E3,3.6294625E4,5.637032E3,3.3451426E4,6.645113E2,3.4354062E3,1.5931897E4,2.0362729E4,1.3843752E3,4.252657E3,3.4918318E3,2.9959592E4],"tree_param":{"num_deleted":"0","num_feature":"27","num_nodes":"15","size_leaf_vector":"1"}},{"base_weights":[-1.4470019E-3,2.3547748E-1,-2.4550402E-1,1.1048911E0,1.2026737E-1,-2.7445462E-1,6.815832E-1,1.592395E-2,7.901261E-3,-2.1068145E-2,1.7083588E-3,-1.2823482E-2,-2.854181E-3,1.0094032E-2,-1.8989433E-2],"categories":[],"categories_nodes":[],"categories_segments":[],"categories_sizes":[],"default_left":[0,0,0,0,0,0,0,0,0,0,0,0,0,0,0],"id":30,"left_children":[1,3,5,7,9,11,13,-1,-1,-1,-1,-1,-1,-1,-1],"loss_changes":[4.600103E3,4.0401658E3,1.0515989E3,3.4163428E2,9.32842E2,1.3715095E3,3.0168896E2,0E0,0E0,0E0,0E0,0E0,0E0,0E0,0E0],"parents":[2147483647,0,0,1,1,2,2,3,3,4,4,5,5,6,6],"right_children":[2,4,6,8,10,12,14,-1,-1,-1,-1,-1,-1,-1,-1],"split_conditions":[1.9988E6,1.9040063E3,5.39286E5,2.2545898E2,-1.716288E1,4.2245322E-1,2.2830858E2,1.592395E-2,7.901261E-3,-2.1068145E-2,1.7083588E-3,-1.2823482E-2,-2.854181E-3,1.0094032E-2,-1.8989433E-2],"split_indices":[3,18,24,10,15,23,9,0,0,0,0,0,0,0,0],"split_type":[0,0,0,0,0,0,0,0,0,0,0,0,0,0,0],"sum_hessian":[7.95489E4,4.0360195E4,3.9188707E4,4.717717E3,3.5642477E4,3.800597E4,1.1827394E3,3.5710623E3,1.1466547E3,2.8754813E2,3.535493E4,2.35664E3,3.564933E4,1.1256172E3,5.7122154E1],"tree_param":{"num_deleted":"0","num_feature":"27","num_nodes":"15","size_leaf_vector":"1"}},{"base_weights":[-3.4892785E-3,2.234177E-1,-2.3770908E-1,8.7640524E-1,9.7181745E-2,-6.735411E-1,-1.6660938E-1,-2.0810291E-2,1.2797698E-2,-4.322719E-4,4.6379934E-3,-1.3464008E-2,-6.691039E-3,-7.216196E-4,-5.977826E-3],"categories":[],"categories_nodes":[],"categories_segments":[],"categories_sizes":[],"default_left":[0,0,0,0,0,0,0,0,0,0,0,0,0,0,0],"id":31,"left_children":[1,3,5,7,9,11,13,-1,-1,-1,-1,-1,-1,-1,-1],"loss_changes":[4.233041E3,3.3322747E3,1.2126399E3,2.226857E3,1.1995536E3,3.0586182E2,1.1280785E3,0E0,0E0,0E0,0E0,0E0,0E0,0E0,0E0],"parents":[2147483647,0,0,1,1,2,2,3,3,4,4,5,5,6,6],"right_children":[2,4,6,8,10,12,14,-1,-1,-1,-1,-1,-1,-1,-1],"split_conditions":[4.334932E5,8.591727E2,1.99882E6,3.5331706E5,4.08921E5,2.6531423E3,2.259462E2,-2.0810291E-2,1.2797698E-2,-4.322719E-4,4.6379934E-3,-1.3464008E-2,-6.691039E-3,-7.216196E-4,-5.977826E-3],"split_indices":[24,14,3,24,24,17,8,0,0,0,0,0,0,0,0],"split_type":[0,0,0,0,0,0,0,0,0,0,0,0,0,0,0],"sum_hessian":[7.964305E4,4.0448797E4,3.919425E4,6.5475815E3,3.3901215E4,5.48998E3,3.370427E4,3.2977765E2,6.2178037E3,2.2782975E4,1.1118241E4,1.4783513E3,4.0116284E3,2.4816146E4,8.888124E3],"tree_param":{"num_deleted":"0","num_feature":"27","num_nodes":"15","size_leaf_vector":"1"}},{"base_weights":[-2.821014E-3,2.1988879E-1,-2.3245266E-1,1.1019146E0,1.1393059E-1,-1.3821037E-1,-5.676253E-1,1.577784E-2,8.408513E-3,4.17778E-3,-3.4813723E-4,-8.146677E-3,-8.2498806E-4,-1.46833295E-2,-2.2016652E-3],"categories":[],"categories_nodes":[],"categories_segments":[],"categories_sizes":[],"default_left":[0,0,0,0,0,0,0,0,0,0,0,0,0,0,0],"id":32,"left_children":[1,3,5,7,9,11,13,-1,-1,-1,-1,-1,-1,-1,-1],"loss_changes":[4.057545E3,3.7610142E3,1.2324109E3,2.6708496E2,1.0998365E3,1.1243381E3,1.9951948E3,0E0,0E0,0E0,0E0,0E0,0E0,0E0,0E0],"parents":[2147483647,0,0,1,1,2,2,3,3,4,4,5,5,6,6],"right_children":[2,4,6,8,10,12,14,-1,-1,-1,-1,-1,-1,-1,-1],"split_conditions":[2.09648E8,1.8876829E3,2.2674152E2,7.333333E-2,3.4116665E1,1.99882E6,1.5128398E3,1.577784E-2,8.408513E-3,4.17778E-3,-3.4813723E-4,-8.146677E-3,-8.2498806E-4,-1.46833295E-2,-2.2016652E-3],"split_indices":[4,18,10,25,25,3,13,0,0,0,0,0,0,0,0],"split_type":[0,0,0,0,0,0,0,0,0,0,0,0,0,0,0],"sum_hessian":[7.9333984E4,4.0269656E4,3.9064324E4,4.3139927E3,3.5955664E4,3.0498682E4,8.565644E3,3.2352227E3,1.07877E3,1.4226217E4,2.1729447E4,3.844466E3,2.6654215E4,3.4154792E3,5.1501646E3],"tree_param":{"num_deleted":"0","num_feature":"27","num_nodes":"15","size_leaf_vector":"1"}},{"base_weights":[-1.8469036E-3,2.3143576E-1,-2.4420382E-1,6.6522676E-1,5.8840394E-2,-9.685464E-1,-2.2078729E-1,-2.0128641E-2,9.354118E-3,-9.779412E-4,4.395237E-3,-1.6493738E-2,-4.965498E-3,7.545861E-3,-3.171651E-3],"categories":[],"categories_nodes":[],"categories_segments":[],"categories_sizes":[],"default_left":[0,0,0,0,0,0,0,0,0,0,0,0,0,0,0],"id":33,"left_children":[1,3,5,7,9,11,13,-1,-1,-1,-1,-1,-1,-1,-1],"loss_changes":[4.485867E3,3.025009E3,6.571682E2,1.9160049E3,1.135967E3,2.2949768E2,9.173209E2,0E0,0E0,0E0,0E0,0E0,0E0,0E0,0E0],"parents":[2147483647,0,0,1,1,2,2,3,3,4,4,5,5,6,6],"right_children":[2,4,6,8,10,12,14,-1,-1,-1,-1,-1,-1,-1,-1],"split_conditions":[2.09648E8,9.856806E0,-1.716288E1,1.86047E8,2.0209E8,-7.213781E-1,6.058145E3,-2.0128641E-2,9.354118E-3,-9.779412E-4,4.395237E-3,-1.6493738E-2,-4.965498E-3,7.545861E-3,-3.171651E-3],"split_indices":[4,6,15,4,4,21,2,0,0,0,0,0,0,0,0],"split_type":[0,0,0,0,0,0,0,0,0,0,0,0,0,0,0],"sum_hessian":[7.933699E4,4.0421184E4,3.891581E4,1.149953E4,2.8921652E4,1.2125167E3,3.7703293E4,3.616575E2,1.1137873E4,1.9645693E4,9.275957E3,7.6276105E2,4.497556E2,1.3222118E3,3.638108E4],"tree_param":{"num_deleted":"0","num_feature":"27","num_nodes":"15","size_leaf_vector":"1"}},{"base_weights":[-2.8476765E-4,2.2291422E-1,-2.3232035E-1,6.64971E-1,4.4703376E-2,-1.347058E-1,-5.122102E-1,-1.9925842E-2,9.326569E-3,2.6876354E-3,-3.3169615E-4,-7.926925E-3,-7.848144E-4,-1.3809862E-2,-2.2785843E-3],"categories":[],"categories_nodes":[],"categories_segments":[],"categories_sizes":[],"default_left":[0,0,0,0,0,0,0,0,0,0,0,0,0,0,0],"id":34,"left_children":[1,3,5,7,9,11,13,-1,-1,-1,-1,-1,-1,-1,-1],"loss_changes":[4.1215366E3,3.193688E3,1.0646726E3,1.8764087E3,3.4404922E2,1.0328029E3,1.9359526E3,0E0,0E0,0E0,0E0,0E0,0E0,0E0,0E0],"parents":[2147483647,0,0,1,1,2,2,3,3,4,4,5,5,6,6],"right_children":[2,4,6,8,10,12,14,-1,-1,-1,-1,-1,-1,-1,-1],"split_conditions":[4.334932E5,9.856806E0,2.266672E2,1.86047E8,3.627E1,2.14409E8,4.068582E3,-1.9925842E-2,9.326569E-3,2.6876354E-3,-3.3169615E-4,-7.926925E-3,-7.848144E-4,-1.3809862E-2,-2.2785843E-3],"split_indices":[24,6,9,4,25,4,0,0,0,0,0,0,0,0,0],"split_type":[0,0,0,0,0,0,0,0,0,0,0,0,0,0,0],"sum_hessian":[7.957564E4,4.055584E4,3.90198E4,1.1646839E4,2.8909E4,2.8938416E4,1.0081384E4,3.59546E2,1.1287293E4,8.600177E3,2.0308822E4,3.72231E3,2.5216105E4,3.6715295E3,6.409854E3],"tree_param":{"num_deleted":"0","num_feature":"27","num_nodes":"15","size_leaf_vector":"1"}}]},"name":"gbtree"},"learner_model_param":{"base_score":"4.4168246E-1","boost_from_average":"1","num_class":"0","num_feature":"27","num_target":"1"},"objective":{"name":"binary:logistic","reg_loss_param":{"scale_pos_weight":"7.20668745"}}},"version":[3,0,2]}