{"learner":{"attributes":{"best_iteration":"43","best_score":"0.2317357795834017"},"feature_names":["rTotalApparentEnergy_mean","rTotalApparentEnergy_std","rTotalApparentEnergy_change_point_score","rTotalApparentEnergy_ks_test_statistic","rTotalApparentEnergy_skew","rTotalApparentEnergy_trend_slope","rTotalApparentEnergy_dominant_frequency","rTotalApparentEnergy_spectral_peak","rTotalApparentEnergy_spectral_flatness","rTotalApparentEnergy_freq_energy_ratio_low_high","rTotalApparentEnergy_welch_peak_power","rTotalApparentEnergy_welch_total_power","airTotal_mean","airTotal_std","airTotal_change_point_score","airTotal_ks_test_statistic","airTotal_skew","airTotal_trend_slope","airTotal_dominant_frequency","airTotal_spectral_peak","airTotal_spectral_flatness","airTotal_freq_energy_ratio_low_high","airTotal_welch_peak_power","airTotal_welch_total_power","aPowerFactorPF_L2_mean","aPowerFactorPF_L2_std","aPowerFactorPF_L2_change_point_score","aPowerFactorPF_L2_ks_test_statistic","aPowerFactorPF_L2_skew","aPowerFactorPF_L2_trend_slope","aPowerFactorPF_L2_dominant_frequency","aPowerFactorPF_L2_spectral_peak","aPowerFactorPF_L2_spectral_flatness","aPowerFactorPF_L2_freq_energy_ratio_low_high","aPowerFactorPF_L2_welch_peak_power","aPowerFactorPF_L2_welch_total_power","aCosPhi_L3_mean","aCosPhi_L3_std","aCosPhi_L3_change_point_score","aCosPhi_L3_ks_test_statistic","aCosPhi_L3_skew","aCosPhi_L3_trend_slope","aCosPhi_L3_dominant_frequency","aCosPhi_L3_spectral_peak","aCosPhi_L3_spectral_flatness","aCosPhi_L3_freq_energy_ratio_low_high","aCosPhi_L3_welch_peak_power","aCosPhi_L3_welch_total_power","aCosPhi_L1_mean","aCosPhi_L1_std","aCosPhi_L1_change_point_score","aCosPhi_L1_ks_test_statistic","aCosPhi_L1_skew","aCosPhi_L1_trend_slope","aCosPhi_L1_dominant_frequency","aCosPhi_L1_spectral_peak","aCosPhi_L1_spectral_flatness","aCosPhi_L1_freq_energy_ratio_low_high","aCosPhi_L1_welch_peak_power","aCosPhi_L1_welch_total_power","aVoltage_L1_N_mean","aVoltage_L1_N_std","aVoltage_L1_N_change_point_score","aVoltage_L1_N_ks_test_statistic","aVoltage_L1_N_skew","aVoltage_L1_N_trend_slope","aVoltage_L1_N_dominant_frequency","aVoltage_L1_N_spectral_peak","aVoltage_L1_N_spectral_flatness","aVoltage_L1_N_freq_energy_ratio_low_high","aVoltage_L1_N_welch_peak_power","aVoltage_L1_N_welch_total_power","aVoltage_L3_N_mean","aVoltage_L3_N_std","aVoltage_L3_N_change_point_score","aVoltage_L3_N_ks_test_statistic","aVoltage_L3_N_skew","aVoltage_L3_N_trend_slope","aVoltage_L3_N_dominant_frequency","aVoltage_L3_N_spectral_peak","aVoltage_L3_N_spectral_flatness","aVoltage_L3_N_freq_energy_ratio_low_high","aVoltage_L3_N_welch_peak_power","aVoltage_L3_N_welch_total_power","aCosPhi_L2_mean","aCosPhi_L2_std","aCosPhi_L2_change_point_score","aCosPhi_L2_ks_test_statistic","aCosPhi_L2_skew","aCosPhi_L2_trend_slope","aCosPhi_L2_dominant_frequency","aCosPhi_L2_spectral_peak","aCosPhi_L2_spectral_flatness","aCosPhi_L2_freq_energy_ratio_low_high","aCosPhi_L2_welch_peak_power","aCosPhi_L2_welch_total_power","aVoltage_L2_N_mean","aVoltage_L2_N_std","aVoltage_L2_N_change_point_score","aVoltage_L2_N_ks_test_statistic","aVoltage_L2_N_skew","aVoltage_L2_N_trend_slope","aVoltage_L2_N_dominant_frequency","aVoltage_L2_N_spectral_peak","aVoltage_L2_N_spectral_flatness","aVoltage_L2_N_freq_energy_ratio_low_high","aVoltage_L2_N_welch_peak_power","aVoltage_L2_N_welch_total_power","rTotalReactiveEnergy_mean","rTotalReactiveEnergy_std","rTotalReactiveEnergy_change_point_score","rTotalReactiveEnergy_ks_test_statistic","rTotalReactiveEnergy_skew","rTotalReactiveEnergy_trend_slope","rTotalReactiveEnergy_dominant_frequency","rTotalReactiveEnergy_spectral_peak","rTotalReactiveEnergy_spectral_flatness","rTotalReactiveEnergy_freq_energy_ratio_low_high","rTotalReactiveEnergy_welch_peak_power","rTotalReactiveEnergy_welch_total_power"],"feature_types":[],"gradient_booster":{"model":{"gbtree_model_param":{"num_parallel_tree":"1","num_trees":"74"},"iteration_indptr":[0,1,2,3,4,5,6,7,8,9,10,11,12,13,14,15,16,17,18,19,20,21,22,23,24,25,26,27,28,29,30,31,32,33,34,35,36,37,38,39,40,41,42,43,44,45,46,47,48,49,50,51,52,53,54,55,56,57,58,59,60,61,62,63,64,65,66,67,68,69,70,71,72,73,74],"tree_info":[0,0,0,0,0,0,0,0,0,0,0,0,0,0,0,0,0,0,0,0,0,0,0,0,0,0,0,0,0,0,0,0,0,0,0,0,0,0,0,0,0,0,0,0,0,0,0,0,0,0,0,0,0,0,0,0,0,0,0,0,0,0,0,0,0,0,0,0,0,0,0,0,0,0],"trees":[{"base_weights":[5.2905735E-3,-2.2546116E-1,2.964831E-1,-1.9608442E0,-1.2970555E-1,1.5836279E-1,7.88368E-1,-1.20138355E-1,5.9076887E-2,-1.3187727E-2,1.5898326E-2,-1.3664323E-4,3.261341E-2,5.4774992E-2,-1.043119E-1],"categories":[],"categories_nodes":[],"categories_segments":[],"categories_sizes":[],"default_left":[0,0,0,0,0,0,0,0,0,0,0,0,0,0,0],"id":0,"left_children":[1,3,5,7,9,11,13,-1,-1,-1,-1,-1,-1,-1,-1],"loss_changes":[2.9229263E3,4.0291003E3,1.3051509E3,4.0008447E2,8.980883E2,9.7121375E2,1.667676E3,0E0,0E0,0E0,0E0,0E0,0E0,0E0,0E0],"parents":[2147483647,0,0,1,1,2,2,3,3,4,4,5,5,6,6],"right_children":[2,4,6,8,10,12,14,-1,-1,-1,-1,-1,-1,-1,-1],"split_conditions":[7.875E-1,8.5609235E-2,9.090627E-1,2.6330758E4,3.7028775E-2,2.7327284E-2,6.0375243E-1,-1.20138355E-1,5.9076887E-2,-1.3187727E-2,1.5898326E-2,-1.3664323E-4,3.261341E-2,5.4774992E-2,-1.043119E-1],"split_indices":[51,35,48,119,37,37,37,0,0,0,0,0,0,0,0],"split_type":[0,0,0,0,0,0,0,0,0,0,0,0,0,0,0],"sum_hessian":[4.3490887E4,2.4262043E4,1.9228842E4,1.2638975E3,2.2998146E4,1.5019171E4,4.209672E3,1.2230376E3,4.0859913E1,1.854309E4,4.4550576E3,1.0730835E4,4.2883364E3,3.977263E3,2.324088E2],"tree_param":{"num_deleted":"0","num_feature":"120","num_nodes":"15","size_leaf_vector":"1"}},{"base_weights":[4.415683E-3,-1.3866237E-1,4.1711825E-1,1.3233277E-1,-4.1490465E-1,7.6938325E-1,-4.427724E-2,1.29440995E-2,-1.174952E-2,-8.629787E-2,-1.8664747E-2,4.7452424E-2,-1.0504621E-1,-6.8120986E-2,5.307836E-3],"categories":[],"categories_nodes":[],"categories_segments":[],"categories_sizes":[],"default_left":[0,0,0,0,0,0,0,0,0,0,0,0,0,0,0],"id":1,"left_children":[1,3,5,7,9,11,13,-1,-1,-1,-1,-1,-1,-1,-1],"loss_changes":[2.5662964E3,2.4160322E3,1.8194933E3,4.9059747E2,1.6038098E3,7.5591504E2,7.410868E2,0E0,0E0,0E0,0E0,0E0,0E0,0E0,0E0],"parents":[2147483647,0,0,1,1,2,2,3,3,4,4,5,5,6,6],"right_children":[2,4,6,8,10,12,14,-1,-1,-1,-1,-1,-1,-1,-1],"split_conditions":[5.5838525E-2,2.0987179E8,2.094752E8,2.438302E-1,1.5016146E-2,1.0436073E1,4.218938E-2,1.29440995E-2,-1.174952E-2,-8.629787E-2,-1.8664747E-2,4.7452424E-2,-1.0504621E-1,-6.8120986E-2,5.307836E-3],"split_indices":[94,0,0,90,34,93,34,0,0,0,0,0,0,0,0],"split_type":[0,0,0,0,0,0,0,0,0,0,0,0,0,0,0],"sum_hessian":[4.344741E4,3.2262625E4,1.1184786E4,1.6285145E4,1.59774795E4,6.342184E3,4.842602E3,1.2831455E4,3.4536897E3,1.2892712E3,1.4688208E4,6.2341597E3,1.0802429E2,5.174098E2,4.325192E3],"tree_param":{"num_deleted":"0","num_feature":"120","num_nodes":"15","size_leaf_vector":"1"}},{"base_weights":[6.0499134E-3,-1.2924358E-1,3.9878795E-1,-1.163692E0,-7.1622685E-2,-1.2110327E0,4.510027E-1,-1.0429371E-1,2.216239E-2,-1.4175535E-2,6.327018E-3,-1.1324029E-1,-2.0436147E-2,9.384354E-3,4.120349E-2],"categories":[],"categories_nodes":[],"categories_segments":[],"categories_sizes":[],"default_left":[0,0,0,0,0,0,0,0,0,0,0,0,0,0,0],"id":2,"left_children":[1,3,5,7,9,11,13,-1,-1,-1,-1,-1,-1,-1,-1],"loss_changes":[2.3095515E3,1.9249814E3,9.3765564E2,1.6581516E3,9.49803E2,2.1606982E2,8.021011E2,0E0,0E0,0E0,0E0,0E0,0E0,0E0,0E0],"parents":[2147483647,0,0,1,1,2,2,3,3,4,4,5,5,6,6],"right_children":[2,4,6,8,10,12,14,-1,-1,-1,-1,-1,-1,-1,-1],"split_conditions":[5.5838525E-2,6.2723E-2,7.455806E0,8.02051E-1,7.8105146E-1,8.331996E0,7.8506815E-1,-1.0429371E-1,2.216239E-2,-1.4175535E-2,6.327018E-3,-1.1324029E-1,-2.0436147E-2,9.384354E-3,4.120349E-2],"split_indices":[94,26,71,51,51,21,51,0,0,0,0,0,0,0,0],"split_type":[0,0,0,0,0,0,0,0,0,0,0,0,0,0,0],"sum_hessian":[4.3452195E4,3.2318844E4,1.113335E4,1.7000363E3,3.0618809E4,3.4621463E2,1.0787135E4,1.2084491E3,4.9158722E2,1.5676285E4,1.4942522E4,1.8318806E2,1.6302657E2,5.075204E3,5.711931E3],"tree_param":{"num_deleted":"0","num_feature":"120","num_nodes":"15","size_leaf_vector":"1"}},{"base_weights":[-2.930522E-4,-2.0525458E-1,2.3463142E-1,-1.3440967E0,-1.3486913E-1,3.0049914E-1,-5.425851E-1,-9.486571E-2,-2.5661442E-2,2.8859017E-2,-1.09108575E-2,3.9868047E-3,4.0763523E-2,-8.6018825E-3,-1.1338005E-1],"categories":[],"categories_nodes":[],"categories_segments":[],"categories_sizes":[],"default_left":[0,0,0,0,0,0,0,0,0,0,0,0,0,0,0],"id":3,"left_children":[1,3,5,7,9,11,13,-1,-1,-1,-1,-1,-1,-1,-1],"loss_changes":[2.084866E3,1.8514767E3,1.0331359E3,3.4206274E2,7.2290906E2,1.7247101E3,8.7122076E2,0E0,0E0,0E0,0E0,0E0,0E0,0E0,0E0],"parents":[2147483647,0,0,1,1,2,2,3,3,4,4,5,5,6,6],"right_children":[2,4,6,8,10,12,14,-1,-1,-1,-1,-1,-1,-1,-1],"split_conditions":[7.8506815E-1,4.819293E-2,2.077569E8,5.3707254E-1,6.5172774E-1,1.5992917E0,2.266315E2,-9.486571E-2,-2.5661442E-2,2.8859017E-2,-1.09108575E-2,3.9868047E-3,4.0763523E-2,-8.6018825E-3,-1.1338005E-1],"split_indices":[51,47,0,24,44,33,60,0,0,0,0,0,0,0,0],"split_type":[0,0,0,0,0,0,0,0,0,0,0,0,0,0,0],"sum_hessian":[4.3291254E4,2.3122719E4,2.0168535E4,1.3406238E3,2.1782096E4,1.8596447E4,1.5720873E3,1.0148299E3,3.257939E2,1.6725474E3,2.0109549E4,1.177377E4,6.8226787E3,1.2315464E3,3.4054095E2],"tree_param":{"num_deleted":"0","num_feature":"120","num_nodes":"15","size_leaf_vector":"1"}},{"base_weights":[1.4630173E-3,2.6917762E-1,-2.8253263E-1,5.5337824E-2,6.370413E-1,-9.448765E-1,-2.066029E-1,7.739442E-2,1.3258023E-3,5.3329293E-2,2.3111077E-2,-9.830759E-2,-2.4121497E-2,-1.10629015E-1,-9.429766E-3],"categories":[],"categories_nodes":[],"categories_segments":[],"categories_sizes":[],"default_left":[0,0,0,0,0,0,0,0,0,0,0,0,0,0,0],"id":4,"left_children":[1,3,5,7,9,11,13,-1,-1,-1,-1,-1,-1,-1,-1],"loss_changes":[3.2912522E3,1.7521608E3,1.0542833E3,5.8347266E2,5.458987E2,8.466E2,1.4202434E3,0E0,0E0,0E0,0E0,0E0,0E0,0E0,0E0],"parents":[2147483647,0,0,1,1,2,2,3,3,4,4,5,5,6,6],"right_children":[2,4,6,8,10,12,14,-1,-1,-1,-1,-1,-1,-1,-1],"split_conditions":[1.9988E6,1.6575682E0,8.881408E-3,3.2568144E5,2.2411624E2,6.2723E-2,6.4571E-2,7.739442E-2,1.3258023E-3,5.3329293E-2,2.3111077E-2,-9.830759E-2,-2.4121497E-2,-1.10629015E-1,-9.429766E-3],"split_indices":[108,45,46,7,60,26,26,0,0,0,0,0,0,0,0],"split_type":[0,0,0,0,0,0,0,0,0,0,0,0,0,0,0],"sum_hessian":[4.3280816E4,2.2281055E4,2.099976E4,1.4095189E4,8.185866E3,2.15342E3,1.884634E4,3.461453E2,1.3749044E4,3.775367E3,4.410499E3,8.9143805E2,1.2619819E3,4.7809036E2,1.836825E4],"tree_param":{"num_deleted":"0","num_feature":"120","num_nodes":"15","size_leaf_vector":"1"}},{"base_weights":[3.3366412E-3,2.5775254E-1,-2.6857987E-1,5.8808234E-2,6.832499E-1,-1.1627269E0,-1.6910087E-1,5.5239882E-2,2.0889794E-3,-9.1248944E-2,4.2175077E-2,-2.977158E-2,-9.553697E-2,-1.4592908E-2,3.7587371E-3],"categories":[],"categories_nodes":[],"categories_segments":[],"categories_sizes":[],"default_left":[0,0,0,0,0,0,0,0,0,0,0,0,0,0,0],"id":5,"left_children":[1,3,5,7,9,11,13,-1,-1,-1,-1,-1,-1,-1,-1],"loss_changes":[2.9966208E3,1.8935508E3,1.8600099E3,3.1007178E2,6.6838306E2,6.471953E2,3.59802E2,0E0,0E0,0E0,0E0,0E0,0E0,0E0,0E0],"parents":[2147483647,0,0,1,1,2,2,3,3,4,4,5,5,6,6],"right_children":[2,4,6,8,10,12,14,-1,-1,-1,-1,-1,-1,-1,-1],"split_conditions":[4.336487E5,2.2129886E0,6.4521E-2,5.9974605E-1,6.3185725E0,2.2667937E2,1.37280245E1,5.5239882E-2,2.0889794E-3,-9.1248944E-2,4.2175077E-2,-2.977158E-2,-9.553697E-2,-1.4592908E-2,3.7587371E-3],"split_indices":[12,57,38,13,71,72,91,0,0,0,0,0,0,0,0],"split_type":[0,0,0,0,0,0,0,0,0,0,0,0,0,0,0],"sum_hessian":[4.3308168E4,2.2376217E4,2.0931953E4,1.5252195E4,7.1240205E3,2.090108E3,1.8841846E4,3.772996E2,1.48748955E4,1.2544584E2,6.9985747E3,8.9024286E2,1.1998651E3,1.3966761E4,4.875085E3],"tree_param":{"num_deleted":"0","num_feature":"120","num_nodes":"15","size_leaf_vector":"1"}},{"base_weights":[6.0588154E-3,-8.163077E-2,5.3580344E-1,-4.3859296E-2,-9.6398294E-1,-1.5080014E0,6.343872E-1,-3.210031E-3,8.756913E-2,-6.4186394E-2,8.8715434E-2,-1.0434921E-1,5.897796E-2,-1.1464545E-1,3.808916E-2],"categories":[],"categories_nodes":[],"categories_segments":[],"categories_sizes":[],"default_left":[0,0,0,0,0,0,0,0,0,0,0,0,0,0,0],"id":6,"left_children":[1,3,5,7,9,11,13,-1,-1,-1,-1,-1,-1,-1,-1],"loss_changes":[2.0125948E3,1.2372717E3,1.2428959E3,6.222627E2,5.333063E2,2.1239215E2,3.1100146E2,0E0,0E0,0E0,0E0,0E0,0E0,0E0,0E0],"parents":[2147483647,0,0,1,1,2,2,3,3,4,4,5,5,6,6],"right_children":[2,4,6,8,10,12,14,-1,-1,-1,-1,-1,-1,-1,-1],"split_conditions":[8.975544E-1,7.983587E-1,7.1326894E-1,8.0911374E-1,2.1976807E4,1.7355883E-1,4.7897708E-1,-3.210031E-3,8.756913E-2,-6.4186394E-2,8.8715434E-2,-1.0434921E-1,5.897796E-2,-1.1464545E-1,3.808916E-2],"split_indices":[48,39,36,51,118,118,92,0,0,0,0,0,0,0,0],"split_type":[0,0,0,0,0,0,0,0,0,0,0,0,0,0,0],"sum_hessian":[4.330683E4,3.7157598E4,6.149233E3,3.563762E4,1.5199753E3,2.7971732E2,5.8695156E3,3.5384207E4,2.5341272E2,1.4422311E3,7.774427E1,2.5277785E2,2.6939463E1,4.1380165E1,5.8281353E3],"tree_param":{"num_deleted":"0","num_feature":"120","num_nodes":"15","size_leaf_vector":"1"}},{"base_weights":[2.0066942E-3,2.3668888E-1,-2.465072E-1,1.1609216E0,1.6797064E-1,-1.4548032E0,-1.4722694E-1,6.9195315E-2,-1.37949E-2,1.1032496E-3,2.7224613E-2,-9.290834E-2,-4.7014166E-2,-1.720359E-2,3.8200137E-3],"categories":[],"categories_nodes":[],"categories_segments":[],"categories_sizes":[],"default_left":[0,0,0,0,0,0,0,0,0,0,0,0,0,0,0],"id":7,"left_children":[1,3,5,7,9,11,13,-1,-1,-1,-1,-1,-1,-1,-1],"loss_changes":[2.5199807E3,1.4093088E3,2.5145947E3,6.2345215E1,9.2391064E2,1.3787402E2,6.128932E2,0E0,0E0,0E0,0E0,0E0,0E0,0E0,0E0],"parents":[2147483647,0,0,1,1,2,2,3,3,4,4,5,5,6,6],"right_children":[2,4,6,8,10,12,14,-1,-1,-1,-1,-1,-1,-1,-1],"split_conditions":[2.0968752E8,3.2568144E5,6.7714E-2,2.267171E0,1.6575682E0,8.111048E-2,1.2936829E-7,6.9195315E-2,-1.37949E-2,1.1032496E-3,2.7224613E-2,-9.290834E-2,-4.7014166E-2,-1.720359E-2,3.8200137E-3],"split_indices":[0,7,26,5,45,35,115,0,0,0,0,0,0,0,0],"split_type":[0,0,0,0,0,0,0,0,0,0,0,0,0,0,0],"sum_hessian":[4.3200047E4,2.2220633E4,2.0979414E4,1.5321373E3,2.0688494E4,1.5877588E3,1.9391654E4,1.5033986E3,2.873879E1,1.3825028E4,6.863467E3,1.2963303E3,2.9142853E2,1.1428883E4,7.9627725E3],"tree_param":{"num_deleted":"0","num_feature":"120","num_nodes":"15","size_leaf_vector":"1"}},{"base_weights":[4.547079E-3,-1.00593954E-1,3.1692997E-1,-5.6147563E-1,-6.1770637E-2,6.68077E-1,1.721048E-1,3.3623553E-3,-8.5586384E-2,2.7165124E-3,-1.0760772E-2,-6.4027585E-2,4.597856E-2,-7.586848E-2,1.1358611E-2],"categories":[],"categories_nodes":[],"categories_segments":[],"categories_sizes":[],"default_left":[0,0,0,0,0,0,0,0,0,0,0,0,0,0,0],"id":8,"left_children":[1,3,5,7,9,11,13,-1,-1,-1,-1,-1,-1,-1,-1],"loss_changes":[1.4168809E3,5.765698E2,5.511227E2,1.4116975E3,3.976573E2,6.865311E2,2.6191895E2,0E0,0E0,0E0,0E0,0E0,0E0,0E0,0E0],"parents":[2147483647,0,0,1,1,2,2,3,3,4,4,5,5,6,6],"right_children":[2,4,6,8,10,12,14,-1,-1,-1,-1,-1,-1,-1,-1],"split_conditions":[5.5838525E-2,2.9304132E-2,6.3988185E-1,2.2746693E2,3.044771E0,3.7186883E-2,2.1806344E-1,3.3623553E-3,-8.5586384E-2,2.7165124E-3,-1.0760772E-2,-6.4027585E-2,4.597856E-2,-7.586848E-2,1.1358611E-2],"split_indices":[94,25,44,96,13,25,97,0,0,0,0,0,0,0,0],"split_type":[0,0,0,0,0,0,0,0,0,0,0,0,0,0,0],"sum_hessian":[4.312415E4,3.2264186E4,1.0859963E4,2.5001895E3,2.9763996E4,3.164588E3,7.6953745E3,1.4888029E3,1.01138666E3,1.5822038E4,1.3941959E4,2.0143109E2,2.963157E3,1.14132095E2,7.5812427E3],"tree_param":{"num_deleted":"0","num_feature":"120","num_nodes":"15","size_leaf_vector":"1"}},{"base_weights":[-9.2268264E-4,2.199992E-1,-2.341137E-1,6.9949426E-2,6.392212E-1,-1.3633502E0,-1.3708739E-1,-6.5734577E-3,1.1546027E-2,-1.10262804E-1,4.1057553E-2,-3.5322104E-2,-9.107701E-2,-4.225857E-2,-3.84928E-3],"categories":[],"categories_nodes":[],"categories_segments":[],"categories_sizes":[],"default_left":[0,0,0,0,0,0,0,0,0,0,0,0,0,0,0],"id":9,"left_children":[1,3,5,7,9,11,13,-1,-1,-1,-1,-1,-1,-1,-1],"loss_changes":[2.213987E3,1.3871042E3,2.2885957E3,3.8205795E2,9.8010547E2,2.4576831E2,8.038435E2,0E0,0E0,0E0,0E0,0E0,0E0,0E0,0E0],"parents":[2147483647,0,0,1,1,2,2,3,3,4,4,5,5,6,6],"right_children":[2,4,6,8,10,12,14,-1,-1,-1,-1,-1,-1,-1,-1],"split_conditions":[2.0968752E8,2.4011931E0,8.5609235E-2,1.1422095E0,1.8582413E8,1.7525685E0,2.1366533E8,-6.5734577E-3,1.1546027E-2,-1.10262804E-1,4.1057553E-2,-3.5322104E-2,-9.107701E-2,-4.225857E-2,-3.84928E-3],"split_indices":[0,57,35,33,0,33,0,0,0,0,0,0,0,0,0],"split_type":[0,0,0,0,0,0,0,0,0,0,0,0,0,0,0],"sum_hessian":[4.2967207E4,2.2061828E4,2.090538E4,1.6252184E4,5.809644E3,1.6489279E3,1.9256453E4,6.7014634E3,9.55072E3,1.4466415E2,5.66498E3,3.5156253E2,1.2973652E3,2.0643862E3,1.7192066E4],"tree_param":{"num_deleted":"0","num_feature":"120","num_nodes":"15","size_leaf_vector":"1"}},{"base_weights":[1.7388045E-3,2.1067104E-1,-2.1820481E-1,5.339266E-1,5.0438132E-2,-1.2774327E0,-1.2715384E-1,-4.9516413E-2,3.489923E-2,-4.656039E-3,1.8326914E-2,-4.459402E-2,-9.267406E-2,-3.342561E-2,-3.4768267E-3],"categories":[],"categories_nodes":[],"categories_segments":[],"categories_sizes":[],"default_left":[0,0,0,0,0,0,0,0,0,0,0,0,0,0,0],"id":10,"left_children":[1,3,5,7,9,11,13,-1,-1,-1,-1,-1,-1,-1,-1],"loss_changes":[1.9738491E3,1.1403701E3,2.015712E3,6.6607495E2,5.0869656E2,2.5879663E2,5.801625E2,0E0,0E0,0E0,0E0,0E0,0E0,0E0,0E0],"parents":[2147483647,0,0,1,1,2,2,3,3,4,4,5,5,6,6],"right_children":[2,4,6,8,10,12,14,-1,-1,-1,-1,-1,-1,-1,-1],"split_conditions":[2.0968752E8,1.9944018E0,8.5609235E-2,1.97621E6,1.9965E6,2.26903E2,1.99882E6,-4.9516413E-2,3.489923E-2,-4.656039E-3,1.8326914E-2,-4.459402E-2,-9.267406E-2,-3.342561E-2,-3.4768267E-3],"split_indices":[0,13,35,108,108,72,108,0,0,0,0,0,0,0,0],"split_type":[0,0,0,0,0,0,0,0,0,0,0,0,0,0,0],"sum_hessian":[4.2945176E4,2.2026463E4,2.0918715E4,7.2943643E3,1.4732099E4,1.6505999E3,1.9268115E4,3.2751892E2,6.966845E3,9.865192E3,4.866907E3,6.3595935E2,1.0146405E3,2.5180608E3,1.6750055E4],"tree_param":{"num_deleted":"0","num_feature":"120","num_nodes":"15","size_leaf_vector":"1"}},{"base_weights":[-2.487993E-4,1.9570147E-1,-2.0561297E-1,5.078137E-1,4.2353358E-2,-1.1801815E0,-1.7446691E-1,-9.875107E-2,3.2421518E-2,-5.1666996E-3,1.7486542E-2,-9.021017E-2,-3.0862853E-2,-3.7268978E-2,-5.8431285E-3],"categories":[],"categories_nodes":[],"categories_segments":[],"categories_sizes":[],"default_left":[0,0,0,0,0,0,0,0,0,0,0,0,0,0,0],"id":11,"left_children":[1,3,5,7,9,11,13,-1,-1,-1,-1,-1,-1,-1,-1],"loss_changes":[1.7246855E3,1.0489012E3,6.32986E2,7.8705383E2,4.982441E2,1.497138E2,6.990191E2,0E0,0E0,0E0,0E0,0E0,0E0,0E0,0E0],"parents":[2147483647,0,0,1,1,2,2,3,3,4,4,5,5,6,6],"right_children":[2,4,6,8,10,12,14,-1,-1,-1,-1,-1,-1,-1,-1],"split_conditions":[2.0968752E8,1.9944018E0,8.107295E0,1.8559794E8,2.020772E8,7.0160484E-1,2.1444208E8,-9.875107E-2,3.2421518E-2,-5.1666996E-3,1.7486542E-2,-9.021017E-2,-3.0862853E-2,-3.7268978E-2,-5.8431285E-3],"split_indices":[0,13,71,0,0,104,0,0,0,0,0,0,0,0,0],"split_type":[0,0,0,0,0,0,0,0,0,0,0,0,0,0,0],"sum_hessian":[4.2850117E4,2.1925098E4,2.0925021E4,7.2178633E3,1.4707234E4,6.4219934E2,2.0282822E4,1.5423178E2,7.063632E3,9.751606E3,4.9556274E3,4.0455658E2,2.3764276E2,2.7759026E3,1.750692E4],"tree_param":{"num_deleted":"0","num_feature":"120","num_nodes":"15","size_leaf_vector":"1"}},{"base_weights":[4.4773173E-4,-6.893611E-1,4.628168E-2,1.1722729E-1,-1.3985606E0,4.1201323E-1,-7.267597E-2,3.9245654E-2,-2.9321818E-2,-8.6783215E-2,-2.0531142E-2,4.0514927E-2,1.8868292E-2,-5.688447E-3,1.5846396E-2],"categories":[],"categories_nodes":[],"categories_segments":[],"categories_sizes":[],"default_left":[0,0,0,0,0,0,0,0,0,0,0,0,0,0,0],"id":12,"left_children":[1,3,5,7,9,11,13,-1,-1,-1,-1,-1,-1,-1,-1],"loss_changes":[1.3507283E3,1.5246135E3,1.7443116E3,4.335581E2,1.3305957E2,2.4348499E2,2.6143323E2,0E0,0E0,0E0,0E0,0E0,0E0,0E0,0E0],"parents":[2147483647,0,0,1,1,2,2,3,3,4,4,5,5,6,6],"right_children":[2,4,6,8,10,12,14,-1,-1,-1,-1,-1,-1,-1,-1],"split_conditions":[8.111048E-2,2.2706476E2,7.083584E-1,4.646659E-1,8.2262236E-1,4.0715244E-1,1.0805953E0,3.9245654E-2,-2.9321818E-2,-8.6783215E-2,-2.0531142E-2,4.0514927E-2,1.8868292E-2,-5.688447E-3,1.5846396E-2],"split_indices":[35,96,56,13,92,20,28,0,0,0,0,0,0,0,0],"split_type":[0,0,0,0,0,0,0,0,0,0,0,0,0,0,0],"sum_hessian":[4.273524E4,2.6575046E3,4.0077734E4,1.244312E3,1.4131925E3,9.835974E3,3.024176E4,6.566339E2,5.876781E2,1.2957052E3,1.1748739E2,2.3125537E3,7.5234194E3,2.819889E4,2.0428684E3],"tree_param":{"num_deleted":"0","num_feature":"120","num_nodes":"15","size_leaf_vector":"1"}},{"base_weights":[4.91745E-3,1.8459626E-1,-1.7964883E-1,3.632603E-2,4.761984E-1,-1.1715972E0,-9.865686E-2,8.707542E-4,6.525499E-2,-9.009072E-2,2.9404597E-2,-8.664614E-2,-4.5029085E-2,1.1522682E-2,-9.075347E-3],"categories":[],"categories_nodes":[],"categories_segments":[],"categories_sizes":[],"default_left":[0,0,0,0,0,0,0,0,0,0,0,0,0,0,0],"id":13,"left_children":[1,3,5,7,9,11,13,-1,-1,-1,-1,-1,-1,-1,-1],"loss_changes":[1.4205494E3,9.3795233E2,1.6955559E3,3.3244046E2,4.3210315E2,1.9388672E2,3.3206192E2,0E0,0E0,0E0,0E0,0E0,0E0,0E0,0E0],"parents":[2147483647,0,0,1,1,2,2,3,3,4,4,5,5,6,6],"right_children":[2,4,6,8,10,12,14,-1,-1,-1,-1,-1,-1,-1,-1],"split_conditions":[1.9988E6,1.616723E0,8.5609235E-2,8.0912054E-1,3.6129826E-1,6.659852E-1,6.9049805E2,8.707542E-4,6.525499E-2,-9.009072E-2,2.9404597E-2,-8.664614E-2,-4.5029085E-2,1.1522682E-2,-9.075347E-3],"split_indices":[108,33,35,39,92,104,1,0,0,0,0,0,0,0,0],"split_type":[0,0,0,0,0,0,0,0,0,0,0,0,0,0,0],"sum_hessian":[4.282731E4,2.1703898E4,2.1123408E4,1.4393573E4,7.310325E3,1.5892847E3,1.9534125E4,1.4120715E4,2.7285834E2,9.978337E1,7.210542E3,8.7648145E2,7.128033E2,3.1567175E3,1.6377407E4],"tree_param":{"num_deleted":"0","num_feature":"120","num_nodes":"15","size_leaf_vector":"1"}},{"base_weights":[4.124393E-3,1.7459269E-1,-1.7222022E-1,4.8508134E-1,4.9842242E-2,-1.1010458E0,-9.692575E-2,4.3189697E-2,1.4665392E-2,4.2694837E-2,1.2894679E-3,-3.4657888E-2,-8.313445E-2,-3.318367E-2,-2.2695367E-3],"categories":[],"categories_nodes":[],"categories_segments":[],"categories_sizes":[],"default_left":[0,0,0,0,0,0,0,0,0,0,0,0,0,0,0],"id":14,"left_children":[1,3,5,7,9,11,13,-1,-1,-1,-1,-1,-1,-1,-1],"loss_changes":[1.2826626E3,8.3979834E2,1.4648057E3,3.705879E2,2.9229507E2,2.543086E2,5.311918E2,0E0,0E0,0E0,0E0,0E0,0E0,0E0,0E0],"parents":[2147483647,0,0,1,1,2,2,3,3,4,4,5,5,6,6],"right_children":[2,4,6,8,10,12,14,-1,-1,-1,-1,-1,-1,-1,-1],"split_conditions":[4.336487E5,7.489148E-1,8.5609235E-2,2.2540596E2,4.9944824E-1,2.2715099E2,4.474809E5,4.3189697E-2,1.4665392E-2,4.2694837E-2,1.2894679E-3,-3.4657888E-2,-8.313445E-2,-3.318367E-2,-2.2695367E-3],"split_indices":[12,44,35,96,13,96,12,0,0,0,0,0,0,0,0],"split_type":[0,0,0,0,0,0,0,0,0,0,0,0,0,0,0],"sum_hessian":[4.265998E4,2.1694482E4,2.0965498E4,6.2122847E3,1.5482197E4,1.566783E3,1.9398715E4,2.9480513E3,3.2642334E3,5.968661E2,1.4885331E4,6.2173956E2,9.4504333E2,2.1095989E3,1.7289115E4],"tree_param":{"num_deleted":"0","num_feature":"120","num_nodes":"15","size_leaf_vector":"1"}},{"base_weights":[-5.2283343E-4,-5.2395433E-2,4.0858725E-1,-1.02782905E-1,1.9181827E-1,5.109437E-1,-2.6729318E-1,2.3107172E-3,-1.4979631E-2,1.250968E-2,-7.8213096E-2,2.0309579E-2,5.2653436E-2,-7.613863E-2,1.9261427E-2],"categories":[],"categories_nodes":[],"categories_segments":[],"categories_sizes":[],"default_left":[0,0,0,0,0,0,0,0,0,0,0,0,0,0,0],"id":15,"left_children":[1,3,5,7,9,11,13,-1,-1,-1,-1,-1,-1,-1,-1],"loss_changes":[9.001146E2,4.6340955E2,3.3099457E2,6.881216E2,2.2869371E2,2.618888E2,3.9459756E2,0E0,0E0,0E0,0E0,0E0,0E0,0E0,0E0],"parents":[2147483647,0,0,1,1,2,2,3,3,4,4,5,5,6,6],"right_children":[2,4,6,8,10,12,14,-1,-1,-1,-1,-1,-1,-1,-1],"split_conditions":[1.999044E0,3.955264E-2,3.6060233E0,4.336487E5,7.6796227E0,9.236632E-1,3.9838966E-2,2.3107172E-3,-1.4979631E-2,1.250968E-2,-7.8213096E-2,2.0309579E-2,5.2653436E-2,-7.613863E-2,1.9261427E-2],"split_indices":[86,58,81,12,33,48,25,0,0,0,0,0,0,0,0],"split_type":[0,0,0,0,0,0,0,0,0,0,0,0,0,0,0],"sum_hessian":[4.2424438E4,3.7656117E4,4.768322E3,3.1221166E4,6.43495E3,4.143425E3,6.2489703E2,1.6245198E4,1.4975968E4,6.3437046E3,9.124571E1,2.943253E3,1.200172E3,2.2690387E2,3.979932E2],"tree_param":{"num_deleted":"0","num_feature":"120","num_nodes":"15","size_leaf_vector":"1"}},{"base_weights":[-6.696392E-4,3.65794E-1,-5.9623733E-2,-7.911501E-1,4.7493234E-1,8.170115E-2,-1.9343622E-1,-7.849736E-2,2.201534E-2,4.4930007E-2,1.4356011E-2,4.495124E-2,2.869066E-3,-1.8138383E-2,-2.194584E-5],"categories":[],"categories_nodes":[],"categories_segments":[],"categories_sizes":[],"default_left":[0,0,0,0,0,0,0,0,0,0,0,0,0,0,0],"id":16,"left_children":[1,3,5,7,9,11,13,-1,-1,-1,-1,-1,-1,-1,-1],"loss_changes":[9.164821E2,7.434619E2,6.9152655E2,3.3405762E2,3.625973E2,3.9686353E2,4.2836835E2,0E0,0E0,0E0,0E0,0E0,0E0,0E0,0E0],"parents":[2147483647,0,0,1,1,2,2,3,3,4,4,5,5,6,6],"right_children":[2,4,6,8,10,12,14,-1,-1,-1,-1,-1,-1,-1,-1],"split_conditions":[6.6407096E-1,3.8587797E-1,1.9988E6,1.0650927E-1,2.0378144E8,3.3488728E5,1.3022505E-7,-7.849736E-2,2.201534E-2,4.4930007E-2,1.4356011E-2,4.495124E-2,2.869066E-3,-1.8138383E-2,-2.194584E-5],"split_indices":[56,24,108,35,0,7,115,0,0,0,0,0,0,0,0],"split_type":[0,0,0,0,0,0,0,0,0,0,0,0,0,0,0],"sum_hessian":[4.2427477E4,5.8740605E3,3.6553414E4,5.0326407E2,5.370797E3,1.7774611E4,1.8778805E4,3.409548E2,1.6230927E2,2.3273442E3,3.0434524E3,7.9082184E2,1.698379E4,1.1641763E4,7.137041E3],"tree_param":{"num_deleted":"0","num_feature":"120","num_nodes":"15","size_leaf_vector":"1"}},{"base_weights":[2.4808354E-3,-6.2386055E-2,2.4984698E-1,-8.32569E-1,-3.9711576E-2,-7.414663E-1,2.7628443E-1,-8.8262536E-2,-1.5597984E-2,-4.76163E-3,2.3844158E-2,-1.0316684E-1,3.5062092E-3,3.1753387E-2,6.3931365E-3],"categories":[],"categories_nodes":[],"categories_segments":[],"categories_sizes":[],"default_left":[0,0,0,0,0,0,0,0,0,0,0,0,0,0,0],"id":17,"left_children":[1,3,5,7,9,11,13,-1,-1,-1,-1,-1,-1,-1,-1],"loss_changes":[6.811409E2,5.860156E2,2.3150928E2,3.6705566E2,6.1781525E2,1.9174188E2,3.8429633E2,0E0,0E0,0E0,0E0,0E0,0E0,0E0,0E0],"parents":[2147483647,0,0,1,1,2,2,3,3,4,4,5,5,6,6],"right_children":[2,4,6,8,10,12,14,-1,-1,-1,-1,-1,-1,-1,-1],"split_conditions":[3.955264E-2,9.221602E0,4.2082247E-1,5.623E-2,8.037416E-1,7.217629E1,6.5991753E-1,-8.8262536E-2,-1.5597984E-2,-4.76163E-3,2.3844158E-2,-1.0316684E-1,3.5062092E-3,3.1753387E-2,6.3931365E-3],"split_indices":[58,107,92,50,51,91,56,0,0,0,0,0,0,0,0],"split_type":[0,0,0,0,0,0,0,0,0,0,0,0,0,0,0],"sum_hessian":[4.2428965E4,3.361336E4,8.815606E3,9.5568195E2,3.2657676E4,2.2501837E2,8.590588E3,4.2810013E2,5.275818E2,2.9865434E4,2.7922424E3,9.678958E1,1.282288E2,3.2751538E3,5.315434E3],"tree_param":{"num_deleted":"0","num_feature":"120","num_nodes":"15","size_leaf_vector":"1"}},{"base_weights":[9.149757E-4,1.4745362E-1,-1.4968868E-1,4.256604E-1,3.8074996E-2,-1.045407E0,-7.991585E-2,3.9863758E-2,1.2222656E-2,1.3968957E-3,7.161033E-2,-3.486699E-2,-7.865327E-2,-1.1666462E-2,5.0617885E-3],"categories":[],"categories_nodes":[],"categories_segments":[],"categories_sizes":[],"default_left":[0,0,0,0,0,0,0,0,0,0,0,0,0,0,0],"id":18,"left_children":[1,3,5,7,9,11,13,-1,-1,-1,-1,-1,-1,-1,-1],"loss_changes":[9.3504114E2,6.530028E2,1.3040725E3,3.371798E2,2.5736053E2,2.005564E2,3.90195E2,0E0,0E0,0E0,0E0,0E0,0E0,0E0,0E0],"parents":[2147483647,0,0,1,1,2,2,3,3,4,4,5,5,6,6],"right_children":[2,4,6,8,10,12,14,-1,-1,-1,-1,-1,-1,-1,-1],"split_conditions":[4.336487E5,7.489148E-1,8.5609235E-2,2.2411624E2,1E1,2.26738E2,1.1969992E-7,3.9863758E-2,1.2222656E-2,1.3968957E-3,7.161033E-2,-3.486699E-2,-7.865327E-2,-1.1666462E-2,5.0617885E-3],"split_indices":[12,44,35,60,110,60,115,0,0,0,0,0,0,0,0],"split_type":[0,0,0,0,0,0,0,0,0,0,0,0,0,0,0],"sum_hessian":[4.2360246E4,2.147349E4,2.0886754E4,6.053782E3,1.5419709E4,1.5040939E3,1.938266E4,2.7423894E3,3.3113928E3,1.5244928E4,1.7478075E2,6.182612E2,8.8583264E2,1.1257281E4,8.1253784E3],"tree_param":{"num_deleted":"0","num_feature":"120","num_nodes":"15","size_leaf_vector":"1"}},{"base_weights":[-1.0787139E-3,-7.185626E-2,2.2157136E-1,-7.879279E-1,-2.6681125E-2,4.6936864E-1,6.8743475E-2,2.171862E-3,-7.836093E-2,1.8643942E-2,-3.5094267E-3,1.48922615E-2,5.3233348E-2,-1.0758409E-3,2.3790672E-2],"categories":[],"categories_nodes":[],"categories_segments":[],"categories_sizes":[],"default_left":[0,0,0,0,0,0,0,0,0,0,0,0,0,0,0],"id":19,"left_children":[1,3,5,7,9,11,13,-1,-1,-1,-1,-1,-1,-1,-1],"loss_changes":[6.650245E2,1.0352609E3,3.8473904E2,8.7701355E2,3.514059E2,3.665645E2,1.8739545E2,0E0,0E0,0E0,0E0,0E0,0E0,0E0,0E0],"parents":[2147483647,0,0,1,1,2,2,3,3,4,4,5,5,6,6],"right_children":[2,4,6,8,10,12,14,-1,-1,-1,-1,-1,-1,-1,-1],"split_conditions":[1.4046802E-1,6.2723E-2,4.1873272E5,2.2661998E2,5.215175E-1,2.485871E0,2.6999588E0,2.171862E-3,-7.836093E-2,1.8643942E-2,-3.5094267E-3,1.48922615E-2,5.3233348E-2,-1.0758409E-3,2.3790672E-2],"split_indices":[34,26,12,72,24,33,33,0,0,0,0,0,0,0,0],"split_type":[0,0,0,0,0,0,0,0,0,0,0,0,0,0,0],"sum_hessian":[4.2202348E4,3.2028504E4,1.0173844E4,1.8952153E3,3.013329E4,3.8751006E3,6.2987437E3,7.65735E2,1.1294803E3,2.6554507E3,2.7477838E4,2.6253965E3,1.2497041E3,5.0134688E3,1.2852747E3],"tree_param":{"num_deleted":"0","num_feature":"120","num_nodes":"15","size_leaf_vector":"1"}},{"base_weights":[-1.7795211E-3,-6.092244E-1,3.203551E-2,6.377045E-2,-1.2871858E0,2.0694044E-1,-6.547491E-2,4.4867802E-2,-3.0771453E-2,4.248236E-2,-8.481072E-2,5.8239806E-3,3.293761E-2,-6.0899663E-3,2.0368008E-3],"categories":[],"categories_nodes":[],"categories_segments":[],"categories_sizes":[],"default_left":[0,0,0,0,0,0,0,0,0,0,0,0,0,0,0],"id":20,"left_children":[1,3,5,7,9,11,13,-1,-1,-1,-1,-1,-1,-1,-1],"loss_changes":[8.677573E2,1.0181011E3,6.822078E2,4.7172214E2,3.862373E2,5.484178E2,1.0111363E2,0E0,0E0,0E0,0E0,0E0,0E0,0E0,0E0],"parents":[2147483647,0,0,1,1,2,2,3,3,4,4,5,5,6,6],"right_children":[2,4,6,8,10,12,14,-1,-1,-1,-1,-1,-1,-1,-1],"split_conditions":[7.429241E-2,2.9247205E0,4.591641E1,4.646659E-1,2.244616E2,9.0611935E-1,2.2679613E2,4.4867802E-2,-3.0771453E-2,4.248236E-2,-8.481072E-2,5.8239806E-3,3.293761E-2,-6.0899663E-3,2.0368008E-3],"split_indices":[35,81,23,13,96,36,96,0,0,0,0,0,0,0,0],"split_type":[0,0,0,0,0,0,0,0,0,0,0,0,0,0,0],"sum_hessian":[4.2207637E4,2.2236067E3,3.998403E4,1.1170048E3,1.1066019E3,1.4314406E4,2.5669625E4,5.0946973E2,6.07535E2,8.4483406E1,1.0221185E3,1.1037079E4,3.2773274E3,1.8477416E4,7.1922095E3],"tree_param":{"num_deleted":"0","num_feature":"120","num_nodes":"15","size_leaf_vector":"1"}},{"base_weights":[1.9486301E-3,1.3584727E-1,-1.3500682E-1,4.7705314E-1,5.4340776E-2,-1.1351676E0,-7.977594E-2,4.3093935E-2,-1.3085872E-2,-1.2290344E-2,7.239729E-3,-6.979789E-2,4.6470862E-2,-6.47726E-2,-3.893914E-3],"categories":[],"categories_nodes":[],"categories_segments":[],"categories_sizes":[],"default_left":[0,0,0,0,0,0,0,0,0,0,0,0,0,0,0],"id":21,"left_children":[1,3,5,7,9,11,13,-1,-1,-1,-1,-1,-1,-1,-1],"loss_changes":[7.731811E2,5.923308E2,1.1494946E3,7.6079913E2,3.20296E2,1.3947278E2,2.610998E2,0E0,0E0,0E0,0E0,0E0,0E0,0E0,0E0],"parents":[2147483647,0,0,1,1,2,2,3,3,4,4,5,5,6,6],"right_children":[2,4,6,8,10,12,14,-1,-1,-1,-1,-1,-1,-1,-1],"split_conditions":[4.336487E5,1.2344867E0,6.2723E-2,2.2697278E2,1.2572247E0,1.1345273E2,4.7897708E-1,4.3093935E-2,-1.3085872E-2,-1.2290344E-2,7.239729E-3,-6.979789E-2,4.6470862E-2,-6.47726E-2,-3.893914E-3],"split_indices":[12,13,26,72,57,109,92,0,0,0,0,0,0,0,0],"split_type":[0,0,0,0,0,0,0,0,0,0,0,0,0,0,0],"sum_hessian":[4.2154035E4,2.1318826E4,2.083521E4,4.104229E3,1.7214598E4,1.085069E3,1.975014E4,2.9852507E3,1.118978E3,3.5888174E3,1.3625779E4,1.0523114E3,3.2757664E1,2.3758333E2,1.9512559E4],"tree_param":{"num_deleted":"0","num_feature":"120","num_nodes":"15","size_leaf_vector":"1"}},{"base_weights":[3.5716952E-3,3.2799423E-1,-4.323949E-2,-4.6424815E-1,4.7654524E-1,-6.043876E-2,6.9313264E-1,-5.413984E-2,6.370281E-2,-9.560247E-2,2.921734E-2,-3.779273E-2,-2.4718086E-3,-5.4577906E-2,4.978487E-2],"categories":[],"categories_nodes":[],"categories_segments":[],"categories_sizes":[],"default_left":[0,0,0,0,0,0,0,0,0,0,0,0,0,0,0],"id":22,"left_children":[1,3,5,7,9,11,13,-1,-1,-1,-1,-1,-1,-1,-1],"loss_changes":[6.4028235E2,6.266501E2,4.6589035E2,6.1461206E2,2.4411285E2,3.7997382E2,2.2542834E2,0E0,0E0,0E0,0E0,0E0,0E0,0E0,0E0],"parents":[2147483647,0,0,1,1,2,2,3,3,4,4,5,5,6,6],"right_children":[2,4,6,8,10,12,14,-1,-1,-1,-1,-1,-1,-1,-1],"split_conditions":[6.5991753E-1,1.0650927E-1,9.266731E-1,2.4880066E4,5.8551497E0,6.3723E-2,6.082889E-1,-5.413984E-2,6.370281E-2,-9.560247E-2,2.921734E-2,-3.779273E-2,-2.4718086E-3,-5.4577906E-2,4.978487E-2],"split_indices":[56,35,48,119,107,86,27,0,0,0,0,0,0,0,0],"split_type":[0,0,0,0,0,0,0,0,0,0,0,0,0,0,0],"sum_hessian":[4.213301E4,5.31251E3,3.6820504E4,8.363132E2,4.476197E3,3.598528E4,8.352224E2,6.4566205E2,1.9065111E2,4.9522404E1,4.4266743E3,1.0592736E3,3.4926008E4,7.318862E1,7.620338E2],"tree_param":{"num_deleted":"0","num_feature":"120","num_nodes":"15","size_leaf_vector":"1"}},{"base_weights":[2.0740544E-3,1.9612885E-1,-6.2338006E-2,3.5103834E-1,-2.707238E-1,-1.2580057E0,-5.3251896E-2,4.8298903E-2,1.3709137E-2,-5.4130662E-2,-3.0979472E-3,-9.40036E-2,1.3519661E-2,-4.3736506E-2,-1.0221242E-3],"categories":[],"categories_nodes":[],"categories_segments":[],"categories_sizes":[],"default_left":[0,0,0,0,0,0,0,0,0,0,0,0,0,0,0],"id":23,"left_children":[1,3,5,7,9,11,13,-1,-1,-1,-1,-1,-1,-1,-1],"loss_changes":[5.2553546E2,7.5833203E2,3.411321E2,4.333579E2,3.7325577E2,1.2914877E2,7.796547E2,0E0,0E0,0E0,0E0,0E0,0E0,0E0,0E0],"parents":[2147483647,0,0,1,1,2,2,3,3,4,4,5,5,6,6],"right_children":[2,4,6,8,10,12,14,-1,-1,-1,-1,-1,-1,-1,-1],"split_conditions":[9.891196E-4,2.00194E6,4.7897708E-1,2.1765807E0,4.6543166E5,1.3625626E-1,7.429241E-2,4.8298903E-2,1.3709137E-2,-5.4130662E-2,-3.0979472E-3,-9.40036E-2,1.3519661E-2,-4.3736506E-2,-1.0221242E-3],"split_indices":[114,108,92,5,12,35,35,0,0,0,0,0,0,0,0],"split_type":[0,0,0,0,0,0,0,0,0,0,0,0,0,0,0],"sum_hessian":[4.2024992E4,1.0474951E4,3.1550043E4,7.8676455E3,2.6073054E3,2.3273358E2,3.1317309E4,1.5219546E3,6.345691E3,6.421048E2,1.9652007E3,1.8802975E2,4.470383E1,1.5173751E3,2.9799934E4],"tree_param":{"num_deleted":"0","num_feature":"120","num_nodes":"15","size_leaf_vector":"1"}},{"base_weights":[7.360469E-5,1.2186674E-1,-1.24343015E-1,5.7544816E-1,6.6078946E-2,-5.257611E-1,-6.034583E-2,5.155349E-2,-2.7054138E-2,-8.622218E-3,8.2795955E-3,-6.37515E-2,-2.3588348E-2,2.2883281E-2,-7.6842913E-3],"categories":[],"categories_nodes":[],"categories_segments":[],"categories_sizes":[],"default_left":[0,0,0,0,0,0,0,0,0,0,0,0,0,0,0],"id":24,"left_children":[1,3,5,7,9,11,13,-1,-1,-1,-1,-1,-1,-1,-1],"loss_changes":[6.3436273E2,5.3457983E2,5.311371E2,7.4953467E2,3.077021E2,1.9171301E2,5.8076355E2,0E0,0E0,0E0,0E0,0E0,0E0,0E0,0E0],"parents":[2147483647,0,0,1,1,2,2,3,3,4,4,5,5,6,6],"right_children":[2,4,6,8,10,12,14,-1,-1,-1,-1,-1,-1,-1,-1],"split_conditions":[2.0968752E8,1.9391348E-3,2.1444208E8,3.3910625E0,1.3261434E0,3.5806927E-3,2.0018294E6,5.155349E-2,-2.7054138E-2,-8.622218E-3,8.2795955E-3,-6.37515E-2,-2.3588348E-2,2.2883281E-2,-7.6842913E-3],"split_indices":[0,17,0,81,57,17,108,0,0,0,0,0,0,0,0],"split_type":[0,0,0,0,0,0,0,0,0,0,0,0,0,0,0],"sum_hessian":[4.185541E4,2.1155055E4,2.0700355E4,2.310624E3,1.8844432E4,2.839987E3,1.786037E4,1.7809471E3,5.2967694E2,4.938742E3,1.3905688E4,4.882954E2,2.3516917E3,2.4331953E3,1.5427173E4],"tree_param":{"num_deleted":"0","num_feature":"120","num_nodes":"15","size_leaf_vector":"1"}},{"base_weights":[4.370226E-3,-6.923663E-1,3.4969717E-2,6.4788386E-2,-1.1566882E0,5.105433E-1,-4.2360714E-3,-2.0495212E-2,4.836248E-2,-7.131253E-2,3.5270814E-2,3.4532078E-2,-2.8493265E-2,4.024207E-2,-8.430301E-4],"categories":[],"categories_nodes":[],"categories_segments":[],"categories_sizes":[],"default_left":[0,0,0,0,0,0,0,0,0,0,0,0,0,0,0],"id":25,"left_children":[1,3,5,7,9,11,13,-1,-1,-1,-1,-1,-1,-1,-1],"loss_changes":[8.9367694E2,6.21428E2,7.498329E2,2.1685988E2,1.3611414E2,2.5493451E2,2.640507E2,0E0,0E0,0E0,0E0,0E0,0E0,0E0,0E0],"parents":[2147483647,0,0,1,1,2,2,3,3,4,4,5,5,6,6],"right_children":[2,4,6,8,10,12,14,-1,-1,-1,-1,-1,-1,-1,-1],"split_conditions":[6.2723E-2,2.5619724E0,6.3988185E-1,4.30807E-1,1.5786015E4,8.094944E0,-1.3983827E0,-2.0495212E-2,4.836248E-2,-7.131253E-2,3.5270814E-2,3.4532078E-2,-2.8493265E-2,4.024207E-2,-8.430301E-4],"split_indices":[26,105,44,116,119,93,52,0,0,0,0,0,0,0,0],"split_type":[0,0,0,0,0,0,0,0,0,0,0,0,0,0,0],"sum_hessian":[4.1941535E4,1.7592458E3,4.018229E4,6.692428E2,1.090003E3,3.0585344E3,3.7123754E4,4.3396265E2,2.3528014E2,1.0509657E3,3.9037453E1,2.8272405E3,2.312939E2,5.334439E2,3.6590312E4],"tree_param":{"num_deleted":"0","num_feature":"120","num_nodes":"15","size_leaf_vector":"1"}},{"base_weights":[2.7605304E-3,4.6306893E-2,-3.1993148E-1,6.8788007E-3,4.056638E-1,-7.335113E-1,-1.9175676E-1,-1.2987072E-3,1.9170685E-2,-4.8087005E-2,2.6896376E-2,-5.662329E-2,3.831267E-2,-2.0004706E-2,2.2262711E-2],"categories":[],"categories_nodes":[],"categories_segments":[],"categories_sizes":[],"default_left":[0,0,0,0,0,0,0,0,0,0,0,0,0,0,0],"id":26,"left_children":[1,3,5,7,9,11,13,-1,-1,-1,-1,-1,-1,-1,-1],"loss_changes":[5.884725E2,5.2265424E2,2.6236554E2,3.1366537E2,2.5498157E2,3.9437238E2,3.328938E2,0E0,0E0,0E0,0E0,0E0,0E0,0E0,0E0],"parents":[2147483647,0,0,1,1,2,2,3,3,4,4,5,5,6,6],"right_children":[2,4,6,8,10,12,14,-1,-1,-1,-1,-1,-1,-1,-1],"split_conditions":[5.1464306E5,9.0611935E-1,9.669842E-2,1.92595E-7,8.861912E0,2.3992736E8,2.3888034E8,-1.2987072E-3,1.9170685E-2,-4.8087005E-2,2.6896376E-2,-5.662329E-2,3.831267E-2,-2.0004706E-2,2.2262711E-2],"split_indices":[12,36,59,115,83,0,0,0,0,0,0,0,0,0,0],"split_type":[0,0,0,0,0,0,0,0,0,0,0,0,0,0,0],"sum_hessian":[4.18901E4,3.691535E4,4.9747524E3,3.3272008E4,3.6433418E3,1.1703573E3,3.8043953E3,3.0510834E4,2.761176E3,1.5638629E2,3.4869553E3,1.00031396E3,1.7004327E2,3.011106E3,7.9328937E2],"tree_param":{"num_deleted":"0","num_feature":"120","num_nodes":"15","size_leaf_vector":"1"}},{"base_weights":[1.730222E-3,4.3201435E-2,-3.0677134E-1,-4.7120634E-1,7.251085E-2,-1.2537426E-1,-6.9540095E-1,1.5847078E-2,-5.134536E-2,2.4289582E-2,5.620868E-4,7.2612884E-3,-1.5163031E-2,-8.243269E-2,-2.9544175E-2],"categories":[],"categories_nodes":[],"categories_segments":[],"categories_sizes":[],"default_left":[0,0,0,0,0,0,0,0,0,0,0,0,0,0,0],"id":27,"left_children":[1,3,5,7,9,11,13,-1,-1,-1,-1,-1,-1,-1,-1],"loss_changes":[5.340781E2,5.548563E2,3.4745538E2,6.0777026E2,7.54676E2,1.1452675E2,2.0765887E2,0E0,0E0,0E0,0E0,0E0,0E0,0E0,0E0],"parents":[2147483647,0,0,1,1,2,2,3,3,4,4,5,5,6,6],"right_children":[2,4,6,8,10,12,14,-1,-1,-1,-1,-1,-1,-1,-1],"split_conditions":[2.0583161E6,7.1673E-2,1.6399758E0,2.0378144E8,4.507947E-3,8.4044E-2,1.854216E1,1.5847078E-2,-5.134536E-2,2.4289582E-2,5.620868E-4,7.2612884E-3,-1.5163031E-2,-8.243269E-2,-2.9544175E-2],"split_indices":[108,26,45,0,17,50,107,0,0,0,0,0,0,0,0],"split_type":[0,0,0,0,0,0,0,0,0,0,0,0,0,0,0],"sum_hessian":[4.1758E4,3.6815945E4,4.942055E3,1.9792382E3,3.4836707E4,3.374997E3,1.5670581E3,7.0421625E2,1.2750219E3,5.3644585E3,2.947225E4,1.1812842E3,2.193713E3,3.1696896E2,1.2500891E3],"tree_param":{"num_deleted":"0","num_feature":"120","num_nodes":"15","size_leaf_vector":"1"}},{"base_weights":[1.8138592E-3,-4.552815E-2,1.6494666E-1,-1.3254414E-2,-3.1099075E-1,3.8958606E-1,4.8801724E-2,3.1706054E-2,-2.706688E-3,-5.9479795E-2,-5.2154753E-3,-6.671353E-2,2.5130577E-2,6.319185E-3,-6.626988E-2],"categories":[],"categories_nodes":[],"categories_segments":[],"categories_sizes":[],"default_left":[0,0,0,0,0,0,0,0,0,0,0,0,0,0,0],"id":28,"left_children":[1,3,5,7,9,11,13,-1,-1,-1,-1,-1,-1,-1,-1],"loss_changes":[3.224472E2,2.7673285E2,2.445112E2,5.3482306E2,5.496683E2,2.0861401E2,4.394594E2,0E0,0E0,0E0,0E0,0E0,0E0,0E0,0E0],"parents":[2147483647,0,0,1,1,2,2,3,3,4,4,5,5,6,6],"right_children":[2,4,6,8,10,12,14,-1,-1,-1,-1,-1,-1,-1,-1],"split_conditions":[3.8543817E-2,2.2783519E2,1.9569471E-3,1.3594452E-3,7.2243E-2,4.2129546E-1,1.1846025E0,3.1706054E-2,-2.706688E-3,-5.9479795E-2,-5.2154753E-3,-6.671353E-2,2.5130577E-2,6.319185E-3,-6.626988E-2],"split_indices":[46,60,114,17,38,32,46,0,0,0,0,0,0,0,0],"split_type":[0,0,0,0,0,0,0,0,0,0,0,0,0,0,0],"sum_hessian":[4.1726703E4,3.2338424E4,9.388278E3,2.8840512E4,3.497912E3,3.1932124E3,6.195066E3,1.6165078E3,2.7224004E4,8.257875E2,2.6721248E3,8.182243E1,3.11139E3,5.9026235E3,2.924425E2],"tree_param":{"num_deleted":"0","num_feature":"120","num_nodes":"15","size_leaf_vector":"1"}},{"base_weights":[-2.0094346E-3,-6.521537E-1,2.53575E-2,2.4000117E-1,-1.0989385E0,4.5717728E-1,-9.009301E-3,-4.5692965E-2,6.1853934E-2,-1.3290966E-1,-5.5930123E-2,2.9963039E-2,-9.321258E-2,-1.5120831E-3,2.57861E-2],"categories":[],"categories_nodes":[],"categories_segments":[],"categories_sizes":[],"default_left":[0,0,0,0,0,0,0,0,0,0,0,0,0,0,0],"id":29,"left_children":[1,3,5,7,9,11,13,-1,-1,-1,-1,-1,-1,-1,-1],"loss_changes":[7.418529E2,6.7335736E2,5.937096E2,4.800315E2,1.7102808E2,3.5235632E2,2.8370416E2,0E0,0E0,0E0,0E0,0E0,0E0,0E0,0E0],"parents":[2147483647,0,0,1,1,2,2,3,3,4,4,5,5,6,6],"right_children":[2,4,6,8,10,12,14,-1,-1,-1,-1,-1,-1,-1,-1],"split_conditions":[6.2723E-2,2.0378144E8,6.3988185E-1,1.9556638E8,2.0417888E8,8.069279E-1,9.2205024E-1,-4.5692965E-2,6.1853934E-2,-1.3290966E-1,-5.5930123E-2,2.9963039E-2,-9.321258E-2,-1.5120831E-3,2.57861E-2],"split_indices":[26,0,44,0,0,87,36,0,0,0,0,0,0,0,0],"split_type":[0,0,0,0,0,0,0,0,0,0,0,0,0,0,0],"sum_hessian":[4.1649348E4,1.6800693E3,3.9969277E4,5.6046735E2,1.119602E3,2.9449817E3,3.7024297E4,2.4906253E2,3.1140482E2,1.09173386E2,1.0104286E3,2.8683052E3,7.667646E1,3.5690684E4,1.3336118E3],"tree_param":{"num_deleted":"0","num_feature":"120","num_nodes":"15","size_leaf_vector":"1"}},{"base_weights":[3.2467607E-3,-6.241883E-1,2.75001E-2,2.3557577E-1,-1.0655466E0,-3.8646173E-2,3.048029E-1,-6.3439436E-2,3.65323E-2,-2.519509E-2,-7.664961E-2,-5.382476E-4,-1.4381207E-2,2.9471254E-2,7.4119065E-3],"categories":[],"categories_nodes":[],"categories_segments":[],"categories_sizes":[],"default_left":[0,0,0,0,0,0,0,0,0,0,0,0,0,0,0],"id":30,"left_children":[1,3,5,7,9,11,13,-1,-1,-1,-1,-1,-1,-1,-1],"loss_changes":[6.3284644E2,5.892004E2,7.355103E2,2.7661316E2,1.5870154E2,1.980364E2,2.7530542E2,0E0,0E0,0E0,0E0,0E0,0E0,0E0,0E0],"parents":[2147483647,0,0,1,1,2,2,3,3,4,4,5,5,6,6],"right_children":[2,4,6,8,10,12,14,-1,-1,-1,-1,-1,-1,-1,-1],"split_conditions":[6.148E-2,4.1488553E5,2.4011931E0,1.0741341E1,2.6048658E0,5.1464306E5,4.1873272E5,-6.3439436E-2,3.65323E-2,-2.519509E-2,-7.664961E-2,-5.382476E-4,-1.4381207E-2,2.9471254E-2,7.4119065E-3],"split_indices":[26,12,57,83,105,12,12,0,0,0,0,0,0,0,0],"split_type":[0,0,0,0,0,0,0,0,0,0,0,0,0,0,0],"sum_hessian":[4.1619777E4,1.5434525E3,4.0076324E4,5.2340497E2,1.02004755E3,3.2357674E4,7.718652E3,1.17168915E2,4.0623608E2,2.945684E2,7.254792E2,2.8366662E4,3.9910122E3,3.6072026E3,4.111449E3],"tree_param":{"num_deleted":"0","num_feature":"120","num_nodes":"15","size_leaf_vector":"1"}},{"base_weights":[1.5213427E-3,1.0483244E-1,-1.0244091E-1,-3.875138E-2,2.3962913E-1,-5.473358E-1,-6.295552E-2,-8.066158E-2,-9.5955015E-4,4.514219E-2,1.0451473E-2,-5.45796E-2,-1.401928E-2,-8.729458E-2,-3.1455124E-3],"categories":[],"categories_nodes":[],"categories_segments":[],"categories_sizes":[],"default_left":[0,0,0,0,0,0,0,0,0,0,0,0,0,0,0],"id":31,"left_children":[1,3,5,7,9,11,13,-1,-1,-1,-1,-1,-1,-1,-1],"loss_changes":[4.4645978E2,4.038791E2,3.630795E2,3.0129077E2,3.4476123E2,1.9952328E2,2.4164316E2,0E0,0E0,0E0,0E0,0E0,0E0,0E0,0E0],"parents":[2147483647,0,0,1,1,2,2,3,3,4,4,5,5,6,6],"right_children":[2,4,6,8,10,12,14,-1,-1,-1,-1,-1,-1,-1,-1],"split_conditions":[1.9988E6,6.117252E0,6.4521E-2,5.1095E-2,3.3756522E5,6.641126E-1,4.804692E-1,-8.066158E-2,-9.5955015E-4,4.514219E-2,1.0451473E-2,-5.45796E-2,-1.401928E-2,-8.729458E-2,-3.1455124E-3],"split_indices":[108,117,38,26,7,104,32,0,0,0,0,0,0,0,0],"split_type":[0,0,0,0,0,0,0,0,0,0,0,0,0,0,0],"sum_hessian":[4.155946E4,2.0850115E4,2.0709348E4,1.0093617E4,1.0756498E4,1.681598E3,1.9027748E4,1.5916176E2,9.934456E3,1.076842E3,9.679655E3,7.341338E2,9.4746423E2,1.1219326E2,1.8915555E4],"tree_param":{"num_deleted":"0","num_feature":"120","num_nodes":"15","size_leaf_vector":"1"}},{"base_weights":[3.6632388E-3,1.5374719E-1,-4.5391105E-2,2.842846E-1,-2.501384E-1,-7.3353577E-1,-3.1447772E-2,5.0325904E-2,1.1868638E-2,-5.8108028E-2,-6.0061268E-3,-7.225546E-2,-1.1467807E-2,-3.4984425E-3,1.6931629E-2],"categories":[],"categories_nodes":[],"categories_segments":[],"categories_sizes":[],"default_left":[0,0,0,0,0,0,0,0,0,0,0,0,0,0,0],"id":32,"left_children":[1,3,5,7,9,11,13,-1,-1,-1,-1,-1,-1,-1,-1],"loss_changes":[3.056534E2,5.395901E2,2.9915222E2,3.588368E2,2.7312686E2,1.6624405E2,2.8310934E2,0E0,0E0,0E0,0E0,0E0,0E0,0E0,0E0],"parents":[2147483647,0,0,1,1,2,2,3,3,4,4,5,5,6,6],"right_children":[2,4,6,8,10,12,14,-1,-1,-1,-1,-1,-1,-1,-1],"split_conditions":[9.891196E-4,2.1746096E8,3.7156853E-1,1.0670065E1,8.164668E-1,1.3450089E1,1.0625603E0,5.0325904E-2,1.1868638E-2,-5.8108028E-2,-6.0061268E-3,-7.225546E-2,-1.1467807E-2,-3.4984425E-3,1.6931629E-2],"split_indices":[114,0,24,23,36,71,28,0,0,0,0,0,0,0,0],"split_type":[0,0,0,0,0,0,0,0,0,0,0,0,0,0,0],"sum_hessian":[4.1492426E4,1.0224091E4,3.1268336E4,7.72969E3,2.4944006E3,6.151883E2,3.0653148E4,9.334039E2,6.796286E3,4.0426172E2,2.090139E3,3.1215527E2,3.0303302E2,2.8156346E4,2.4968037E3],"tree_param":{"num_deleted":"0","num_feature":"120","num_nodes":"15","size_leaf_vector":"1"}},{"base_weights":[2.33836E-3,-6.1249477E-1,1.7984942E-2,-1.1669804E0,-2.311695E-1,1.88855E-1,-5.253199E-2,-7.2990306E-2,9.262337E-3,-2.9458845E-2,3.7064303E-2,1.5036629E-2,-1.2296195E-2,1.272864E-3,-7.03599E-3],"categories":[],"categories_nodes":[],"categories_segments":[],"categories_sizes":[],"default_left":[0,0,0,0,0,0,0,0,0,0,0,0,0,0,0],"id":33,"left_children":[1,3,5,7,9,11,13,-1,-1,-1,-1,-1,-1,-1,-1],"loss_changes":[3.9814215E2,2.1454465E2,4.87273E2,5.0117126E1,1.4798424E2,3.2887277E2,1.456575E2,0E0,0E0,0E0,0E0,0E0,0E0,0E0,0E0],"parents":[2147483647,0,0,1,1,2,2,3,3,4,4,5,5,6,6],"right_children":[2,4,6,8,10,12,14,-1,-1,-1,-1,-1,-1,-1,-1],"split_conditions":[9.221602E0,3.843149E-2,7.2379124E-1,1.3625626E-1,7.8349596E-1,2.3047432E8,2.0987179E8,-7.2990306E-2,9.262337E-3,-2.9458845E-2,3.7064303E-2,1.5036629E-2,-1.2296195E-2,1.272864E-3,-7.03599E-3],"split_indices":[107,25,56,35,87,0,0,0,0,0,0,0,0,0,0],"split_type":[0,0,0,0,0,0,0,0,0,0,0,0,0,0,0],"sum_hessian":[4.14434E4,1.0228591E3,4.042054E4,4.1215317E2,6.107059E2,1.1810493E4,2.8610045E4,3.8769955E2,2.4453619E1,4.6602707E2,1.4467882E2,1.0066022E4,1.7444705E3,1.3693692E4,1.4916354E4],"tree_param":{"num_deleted":"0","num_feature":"120","num_nodes":"15","size_leaf_vector":"1"}},{"base_weights":[2.7202867E-4,-4.4086672E-2,1.7371969E-1,-1.9968654E-1,-1.4543287E-2,-8.6181474E-1,2.2118534E-1,-4.200836E-2,-8.624915E-3,1.1077778E-3,-8.703863E-3,-6.4022444E-2,7.962198E-3,2.1803027E-2,1.237914E-3],"categories":[],"categories_nodes":[],"categories_segments":[],"categories_sizes":[],"default_left":[0,0,0,0,0,0,0,0,0,0,0,0,0,0,0],"id":34,"left_children":[1,3,5,7,9,11,13,-1,-1,-1,-1,-1,-1,-1,-1],"loss_changes":[3.1846716E2,1.511978E2,4.1452896E2,1.3978894E2,1.2570561E2,8.953314E1,2.4696994E2,0E0,0E0,0E0,0E0,0E0,0E0,0E0,0E0],"parents":[2147483647,0,0,1,1,2,2,3,3,4,4,5,5,6,6],"right_children":[2,4,6,8,10,12,14,-1,-1,-1,-1,-1,-1,-1,-1],"split_conditions":[2.4011931E0,1.2451012E0,7.455806E0,2.2221521E2,3.025E0,2.1956335E1,2.2532124E2,-4.200836E-2,-8.624915E-3,1.1077778E-3,-8.703863E-3,-6.4022444E-2,7.962198E-3,2.1803027E-2,1.237914E-3],"split_indices":[57,57,71,72,74,23,72,0,0,0,0,0,0,0,0],"split_type":[0,0,0,0,0,0,0,0,0,0,0,0,0,0,0],"sum_hessian":[4.1365867E4,3.2938855E4,8.427014E3,5.2464927E3,2.7692361E4,3.6521613E2,8.061797E3,4.6423184E2,4.7822607E3,2.2173434E4,5.5189277E3,2.953863E2,6.982983E1,4.5559956E3,3.5058018E3],"tree_param":{"num_deleted":"0","num_feature":"120","num_nodes":"15","size_leaf_vector":"1"}},{"base_weights":[-1.9306272E-3,5.743884E-2,-1.0924013E-1,-4.9383068E-1,8.025385E-2,-1.6898085E-1,-1.2122799E-2,-5.1649205E-2,3.4366508E-3,6.2076026E-3,-1.51544735E-2,-3.185016E-2,-8.681867E-3,4.533753E-4,-3.8928773E-2],"categories":[],"categories_nodes":[],"categories_segments":[],"categories_sizes":[],"default_left":[0,0,0,0,0,0,0,0,0,0,0,0,0,0,0],"id":35,"left_children":[1,3,5,7,9,11,13,-1,-1,-1,-1,-1,-1,-1,-1],"loss_changes":[2.6298532E2,3.3382825E2,8.5124176E1,2.3056815E2,2.2945586E2,6.7088135E1,7.4121826E1,0E0,0E0,0E0,0E0,0E0,0E0,0E0,0E0],"parents":[2147483647,0,0,1,1,2,2,3,3,4,4,5,5,6,6],"right_children":[2,4,6,8,10,12,14,-1,-1,-1,-1,-1,-1,-1,-1],"split_conditions":[1.0241483E-2,9.236E0,8.014365E0,7.1780225E2,3.499E0,1.5540026E0,6.3710965E-2,-5.1649205E-2,3.4366508E-3,6.2076026E-3,-1.51544735E-2,-3.185016E-2,-8.681867E-3,4.533753E-4,-3.8928773E-2],"split_indices":[17,83,55,1,74,82,94,0,0,0,0,0,0,0,0],"split_type":[0,0,0,0,0,0,0,0,0,0,0,0,0,0,0],"sum_hessian":[4.126217E4,2.655986E4,1.47023125E4,1.0502523E3,2.5509605E4,9.09413E3,5.6081826E3,6.1312994E2,4.371223E2,2.3679912E4,1.829695E3,4.4427823E2,8.649852E3,5.445587E3,1.6259583E2],"tree_param":{"num_deleted":"0","num_feature":"120","num_nodes":"15","size_leaf_vector":"1"}},{"base_weights":[1.754989E-3,-2.3858903E-2,2.8847983E-1,-8.1883305E-1,-5.8722873E-3,-1.6896975E-1,5.178876E-1,-6.1839975E-2,-1.3613609E-2,1.4992792E-3,-1.165227E-2,-5.3470198E-2,2.2425175E-2,-3.2819495E-2,3.3009436E-2],"categories":[],"categories_nodes":[],"categories_segments":[],"categories_sizes":[],"default_left":[0,0,0,0,0,0,0,0,0,0,0,0,0,0,0],"id":36,"left_children":[1,3,5,7,9,11,13,-1,-1,-1,-1,-1,-1,-1,-1],"loss_changes":[3.0330917E2,5.4066644E2,3.561864E2,1.1685083E2,2.2792633E2,4.7285526E2,1.2175934E2,0E0,0E0,0E0,0E0,0E0,0E0,0E0,0E0],"parents":[2147483647,0,0,1,1,2,2,3,3,4,4,5,5,6,6],"right_children":[2,4,6,8,10,12,14,-1,-1,-1,-1,-1,-1,-1,-1],"split_conditions":[9.1161853E-1,4.6435168E-1,6.641126E-1,8.3761E-2,5.0936175E5,7.703E-2,5.2791E-2,-6.1839975E-2,-1.3613609E-2,1.4992792E-3,-1.165227E-2,-5.3470198E-2,2.2425175E-2,-3.2819495E-2,3.3009436E-2],"split_indices":[36,24,104,26,12,26,26,0,0,0,0,0,0,0,0],"split_type":[0,0,0,0,0,0,0,0,0,0,0,0,0,0,0],"sum_hessian":[4.1253137E4,3.787022E4,3.3829185E3,8.3244977E2,3.703777E4,1.1287041E3,2.2542144E3,5.839216E2,2.4852818E2,3.1851389E4,5.1863804E3,4.793991E2,6.49305E2,9.539114E1,2.1588232E3],"tree_param":{"num_deleted":"0","num_feature":"120","num_nodes":"15","size_leaf_vector":"1"}},{"base_weights":[-1.2700809E-3,-4.0101357E-2,1.7825207E-1,-8.57138E-1,-1.7965926E-2,1.4249419E-1,9.481353E-1,-1.4908473E-2,-6.747056E-2,-4.8558405E-3,4.5686467E-3,1.7332045E-3,1.6086185E-2,5.920056E-2,4.1933795E-3],"categories":[],"categories_nodes":[],"categories_segments":[],"categories_sizes":[],"default_left":[0,0,0,0,0,0,0,0,0,0,0,0,0,0,0],"id":37,"left_children":[1,3,5,7,9,11,13,-1,-1,-1,-1,-1,-1,-1,-1],"loss_changes":[2.8635156E2,6.1018896E2,1.9934976E2,1.5888214E2,2.0786285E2,1.05077545E2,1.802768E1,0E0,0E0,0E0,0E0,0E0,0E0,0E0,0E0],"parents":[2147483647,0,0,1,1,2,2,3,3,4,4,5,5,6,6],"right_children":[2,4,6,8,10,12,14,-1,-1,-1,-1,-1,-1,-1,-1],"split_conditions":[6.9279113E0,5.7109E-2,8.119787E-1,2.7496336E0,1.1969992E-7,2.7090447E-2,3.1391433E-1,-1.4908473E-2,-6.747056E-2,-4.8558405E-3,4.5686467E-3,1.7332045E-3,1.6086185E-2,5.920056E-2,4.1933795E-3],"split_indices":[117,26,51,69,115,37,47,0,0,0,0,0,0,0,0],"split_type":[0,0,0,0,0,0,0,0,0,0,0,0,0,0,0],"sum_hessian":[4.1089676E4,3.378995E4,7.2997275E3,8.8587836E2,3.290407E4,6.9817837E3,3.1794385E2,3.001436E2,5.857348E2,1.9608158E4,1.3295914E4,3.797902E3,3.1838816E3,2.92964E2,2.4979881E1],"tree_param":{"num_deleted":"0","num_feature":"120","num_nodes":"15","size_leaf_vector":"1"}},{"base_weights":[-1.9349525E-3,4.177792E-2,-1.2031772E-1,6.0598936E-2,-5.918786E-1,-2.391859E-1,-2.1484168E-2,1.6283961E-3,1.9928092E-2,1.0489175E-2,-4.505122E-2,-1.1776836E-2,-4.381057E-2,5.307925E-2,-1.8997459E-3],"categories":[],"categories_nodes":[],"categories_segments":[],"categories_sizes":[],"default_left":[0,0,0,0,0,0,0,0,0,0,0,0,0,0,0],"id":38,"left_children":[1,3,5,7,9,11,13,-1,-1,-1,-1,-1,-1,-1,-1],"loss_changes":[2.1289973E2,3.577059E2,1.300698E2,2.6768988E2,1.2289368E2,9.354901E1,6.239951E1,0E0,0E0,0E0,0E0,0E0,0E0,0E0,0E0],"parents":[2147483647,0,0,1,1,2,2,3,3,4,4,5,5,6,6],"right_children":[2,4,6,8,10,12,14,-1,-1,-1,-1,-1,-1,-1,-1],"split_conditions":[3.1687846E0,3.977E0,1.3299957E-1,9.090627E-1,6.8408257E-1,7.835838E-2,8.073856E0,1.6283961E-3,1.9928092E-2,1.0489175E-2,-4.505122E-2,-1.1776836E-2,-4.381057E-2,5.307925E-2,-1.8997459E-3],"split_indices":[13,62,47,48,44,34,83,0,0,0,0,0,0,0,0],"split_type":[0,0,0,0,0,0,0,0,0,0,0,0,0,0,0],"sum_hessian":[4.1116883E4,3.0024182E4,1.1092701E4,2.9163418E4,8.6076447E2,5.028362E3,6.0643394E3,2.6145457E4,3.0179607E3,1.6323909E2,6.975253E2,4.69923E3,3.2913147E2,6.651939E1,5.9978203E3],"tree_param":{"num_deleted":"0","num_feature":"120","num_nodes":"15","size_leaf_vector":"1"}},{"base_weights":[1.2139851E-3,-4.478666E-1,2.2490144E-2,1.0834155E-1,-1.04398E0,-5.457153E-3,2.852229E-1,4.629971E-2,-2.3452431E-2,-3.0994553E-2,-7.120597E-2,4.2260446E-2,-7.251226E-4,4.2072278E-2,1.8067422E-3],"categories":[],"categories_nodes":[],"categories_segments":[],"categories_sizes":[],"default_left":[0,0,0,0,0,0,0,0,0,0,0,0,0,0,0],"id":39,"left_children":[1,3,5,7,9,11,13,-1,-1,-1,-1,-1,-1,-1,-1],"loss_changes":[3.9253287E2,6.1758264E2,2.8866098E2,3.405257E2,7.78725E1,1.8111426E2,4.195622E2,0E0,0E0,0E0,0E0,0E0,0E0,0E0,0E0],"parents":[2147483647,0,0,1,1,2,2,3,3,4,4,5,5,6,6],"right_children":[2,4,6,8,10,12,14,-1,-1,-1,-1,-1,-1,-1,-1],"split_conditions":[7.429241E-2,2.2718065E2,2.5202565E0,1.9912157E8,2.0378144E8,6.2346997E0,2.0378144E8,4.629971E-2,-2.3452431E-2,-3.0994553E-2,-7.120597E-2,4.2260446E-2,-7.251226E-4,4.2072278E-2,1.8067422E-3],"split_indices":[35,96,33,0,0,21,0,0,0,0,0,0,0,0,0],"split_type":[0,0,0,0,0,0,0,0,0,0,0,0,0,0,0],"sum_hessian":[4.1121336E4,1.8540393E3,3.9267297E4,9.599703E2,8.9406903E2,3.5492008E4,3.7752893E3,4.094401E2,5.5053015E2,2.3811882E2,6.5595026E2,3.3097107E2,3.5161035E4,1.3826338E3,2.3926558E3],"tree_param":{"num_deleted":"0","num_feature":"120","num_nodes":"15","size_leaf_vector":"1"}},{"base_weights":[1.4278255E-3,-3.7326595E-1,2.881674E-2,9.873979E-3,-1.0011144E0,5.059612E-1,4.030128E-3,2.5843887E-2,-1.8689249E-2,-6.90734E-2,-1.4044853E-2,3.3432294E-2,-5.053042E-2,-1.0718874E-3,2.0401854E-2],"categories":[],"categories_nodes":[],"categories_segments":[],"categories_sizes":[],"default_left":[0,0,0,0,0,0,0,0,0,0,0,0,0,0,0],"id":40,"left_children":[1,3,5,7,9,11,13,-1,-1,-1,-1,-1,-1,-1,-1],"loss_changes":[4.2168912E2,6.74349E2,4.527371E2,2.5095903E2,1.471123E2,1.796831E2,2.8383505E2,0E0,0E0,0E0,0E0,0E0,0E0,0E0,0E0],"parents":[2147483647,0,0,1,1,2,2,3,3,4,4,5,5,6,6],"right_children":[2,4,6,8,10,12,14,-1,-1,-1,-1,-1,-1,-1,-1],"split_conditions":[8.8946E-2,2.9812448E0,6.3393044E0,1.6115737E0,5.1841434E1,9.534118E0,2.801778E0,2.5843887E-2,-1.8689249E-2,-6.90734E-2,-1.4044853E-2,3.3432294E-2,-5.053042E-2,-1.0718874E-3,2.0401854E-2],"split_indices":[26,105,22,22,71,45,45,0,0,0,0,0,0,0,0],"split_type":[0,0,0,0,0,0,0,0,0,0,0,0,0,0,0],"sum_hessian":[4.1117543E4,2.7945942E3,3.832295E4,1.7370154E3,1.0575789E3,1.8863622E3,3.6436586E4,7.5215894E2,9.8485645E2,8.46834E2,2.1074492E2,1.7998721E3,8.649012E1,3.422066E4,2.2159236E3],"tree_param":{"num_deleted":"0","num_feature":"120","num_nodes":"15","size_leaf_vector":"1"}},{"base_weights":[1.6918537E-4,-5.1200175E-1,1.9190539E-2,4.1562596E-1,-8.044944E-1,-6.2976005E-3,4.3856648E-1,4.73705E-2,-2.179075E-2,-2.377665E-2,-6.521734E-2,1.3132773E-3,-1.3097141E-2,3.2808702E-2,-1.2660192E-2],"categories":[],"categories_nodes":[],"categories_segments":[],"categories_sizes":[],"default_left":[0,0,0,0,0,0,0,0,0,0,0,0,0,0,0],"id":41,"left_children":[1,3,5,7,9,11,13,-1,-1,-1,-1,-1,-1,-1,-1],"loss_changes":[3.9931747E2,4.0002542E2,4.2348645E2,1.13048584E2,1.3640546E2,2.3578336E2,1.8727383E2,0E0,0E0,0E0,0E0,0E0,0E0,0E0,0E0],"parents":[2147483647,0,0,1,1,2,2,3,3,4,4,5,5,6,6],"right_children":[2,4,6,8,10,12,14,-1,-1,-1,-1,-1,-1,-1,-1],"split_conditions":[6.2723E-2,1.761868E0,9.1902715E-1,8.502504E0,3.1227217E0,2.3201771E8,3.2720442E0,4.73705E-2,-2.179075E-2,-2.377665E-2,-6.521734E-2,1.3132773E-3,-1.3097141E-2,3.2808702E-2,-1.2660192E-2],"split_indices":[26,33,36,23,81,0,81,0,0,0,0,0,0,0,0],"split_type":[0,0,0,0,0,0,0,0,0,0,0,0,0,0,0],"sum_hessian":[4.1033797E4,1.4634941E3,3.9570305E4,3.4954358E2,1.1139506E3,3.730465E4,2.2656558E3,2.3319398E2,1.1634959E2,5.0024176E2,6.1370886E2,3.295514E4,4.3495083E3,1.9045404E3,3.611154E2],"tree_param":{"num_deleted":"0","num_feature":"120","num_nodes":"15","size_leaf_vector":"1"}},{"base_weights":[-4.048952E-4,-3.8211054E-1,1.9048229E-2,1.3528165E-1,-9.9460673E-1,3.5962835E-1,-5.8131684E-3,-1.4529166E-2,2.7106369E-2,-6.503527E-2,-3.15627E-2,-6.9910474E-2,2.4075173E-2,1.6051735E-3,-9.204359E-3],"categories":[],"categories_nodes":[],"categories_segments":[],"categories_sizes":[],"default_left":[0,0,0,0,0,0,0,0,0,0,0,0,0,0,0],"id":42,"left_children":[1,3,5,7,9,11,13,-1,-1,-1,-1,-1,-1,-1,-1],"loss_changes":[3.0482114E2,6.323616E2,3.306826E2,1.3834167E2,4.6436707E1,2.2532428E2,1.8510544E2,0E0,0E0,0E0,0E0,0E0,0E0,0E0,0E0],"parents":[2147483647,0,0,1,1,2,2,3,3,4,4,5,5,6,6],"right_children":[2,4,6,8,10,12,14,-1,-1,-1,-1,-1,-1,-1,-1],"split_conditions":[8.111048E-2,2.26903E2,6.3988185E-1,1.1633916E-7,4.4235754E-1,4.2129546E-1,3.2904484E0,-1.4529166E-2,2.7106369E-2,-6.503527E-2,-3.15627E-2,-6.9910474E-2,2.4075173E-2,1.6051735E-3,-9.204359E-3],"split_indices":[35,72,44,115,116,32,13,0,0,0,0,0,0,0,0],"split_type":[0,0,0,0,0,0,0,0,0,0,0,0,0,0,0],"sum_hessian":[4.0991145E4,1.9866248E3,3.900452E4,1.077746E3,9.088787E2,2.6525981E3,3.6351918E4,4.9684E2,5.80906E2,7.0806805E2,2.0081067E2,8.513571E1,2.5674624E3,2.9813125E4,6.538794E3],"tree_param":{"num_deleted":"0","num_feature":"120","num_nodes":"15","size_leaf_vector":"1"}},{"base_weights":[-4.1812145E-5,-1.0990154E-1,4.9562898E-2,-2.8956544E-1,-6.913428E-2,8.243658E-2,-1.7963749E-1,-2.3701027E-2,3.763993E-3,6.324619E-3,-7.187879E-3,2.4076104E-3,2.3069328E-2,-3.827075E-2,1.8535402E-3],"categories":[],"categories_nodes":[],"categories_segments":[],"categories_sizes":[],"default_left":[0,0,0,0,0,0,0,0,0,0,0,0,0,0,0],"id":43,"left_children":[1,3,5,7,9,11,13,-1,-1,-1,-1,-1,-1,-1,-1],"loss_changes":[2.227584E2,9.269066E1,2.1203079E2,9.826697E1,1.00384476E2,3.1693228E2,3.5733557E2,0E0,0E0,0E0,0E0,0E0,0E0,0E0,0E0],"parents":[2147483647,0,0,1,1,2,2,3,3,4,4,5,5,6,6],"right_children":[2,4,6,8,10,12,14,-1,-1,-1,-1,-1,-1,-1,-1],"split_conditions":[1.4217576E0,2.234604E2,3.5693705E0,8.1507313E-1,9.424577E-3,9.050064E-1,4.1007034E-2,-2.3701027E-2,3.763993E-3,6.324619E-3,-7.187879E-3,2.4076104E-3,2.3069328E-2,-3.827075E-2,1.8535402E-3],"split_indices":[57,96,81,92,17,48,25,0,0,0,0,0,0,0,0],"split_type":[0,0,0,0,0,0,0,0,0,0,0,0,0,0,0],"sum_hessian":[4.0856297E4,1.2714272E4,2.8142023E4,2.341887E3,1.0372385E4,2.4618375E4,3.523649E3,1.7597145E3,5.8217255E2,2.423407E3,7.948978E3,2.1777674E4,2.8407E3,1.0797365E3,2.4439126E3],"tree_param":{"num_deleted":"0","num_feature":"120","num_nodes":"15","size_leaf_vector":"1"}},{"base_weights":[-2.199788E-3,-5.572206E-1,1.22218635E-2,9.996757E-2,-1.0230383E0,8.892417E-2,-6.678073E-2,3.338352E-2,-4.624032E-2,3.0288702E-2,-6.193445E-2,5.4193763E-3,-8.043788E-2,-5.60304E-2,-3.6375367E-3],"categories":[],"categories_nodes":[],"categories_segments":[],"categories_sizes":[],"default_left":[0,0,0,0,0,0,0,0,0,0,0,0,0,0,0],"id":44,"left_children":[1,3,5,7,9,11,13,-1,-1,-1,-1,-1,-1,-1,-1],"loss_changes":[3.2745276E2,3.1858978E2,2.4123431E2,1.8495853E2,4.147174E1,1.2378319E2,7.382263E1,0E0,0E0,0E0,0E0,0E0,0E0,0E0,0E0],"parents":[2147483647,0,0,1,1,2,2,3,3,4,4,5,5,6,6],"right_children":[2,4,6,8,10,12,14,-1,-1,-1,-1,-1,-1,-1,-1],"split_conditions":[5.7109E-2,2.2653001E2,3.2643032E1,1.9391348E-3,-5.9877896E0,7.8261054E-1,1.6023E-1,3.338352E-2,-4.624032E-2,3.0288702E-2,-6.193445E-2,5.4193763E-3,-8.043788E-2,-5.60304E-2,-3.6375367E-3],"split_indices":[26,72,22,17,88,27,26,0,0,0,0,0,0,0,0],"split_type":[0,0,0,0,0,0,0,0,0,0,0,0,0,0,0],"sum_hessian":[4.0829504E4,1.0319257E3,3.979758E4,4.2845407E2,6.0347156E2,2.0199312E4,1.9598266E4,2.81881E2,1.4657304E2,1.3731905E1,5.897397E2,2.0146525E4,5.27887E1,8.75412E1,1.9510725E4],"tree_param":{"num_deleted":"0","num_feature":"120","num_nodes":"15","size_leaf_vector":"1"}},{"base_weights":[-1.7429659E-3,2.8439302E-2,-2.2651164E-1,-4.0759716E-2,1.2323452E-1,-6.93146E-1,-9.131588E-2,-3.4384371E-3,4.0468752E-2,-5.154007E-2,8.0045955E-3,-9.1750175E-2,-3.3892706E-2,-9.292868E-2,-4.2047496E-3],"categories":[],"categories_nodes":[],"categories_segments":[],"categories_sizes":[],"default_left":[0,0,0,0,0,0,0,0,0,0,0,0,0,0,0],"id":45,"left_children":[1,3,5,7,9,11,13,-1,-1,-1,-1,-1,-1,-1,-1],"loss_changes":[2.768023E2,2.3586836E2,3.0366498E2,2.7961728E2,2.186375E2,9.9842224E1,1.0545809E2,0E0,0E0,0E0,0E0,0E0,0E0,0E0,0E0],"parents":[2147483647,0,0,1,1,2,2,3,3,4,4,5,5,6,6],"right_children":[2,4,6,8,10,12,14,-1,-1,-1,-1,-1,-1,-1,-1],"split_conditions":[2.3201771E8,2.5917144E-2,9.7043E-2,8.1443614E-1,3.8648638E-1,8.4596205E-1,7.357014E-1,-3.4384371E-3,4.0468752E-2,-5.154007E-2,8.0045955E-3,-9.1750175E-2,-3.3892706E-2,-9.292868E-2,-4.2047496E-3],"split_indices":[0,37,38,51,92,36,87,0,0,0,0,0,0,0,0],"split_type":[0,0,0,0,0,0,0,0,0,0,0,0,0,0,0],"sum_hessian":[4.0762914E4,3.5936266E4,4.8266475E3,2.07675E4,1.5168765E4,1.0786254E3,3.748022E3,2.026834E4,4.9915942E2,2.074542E2,1.4961311E4,1.129819E2,9.6564343E2,4.1861004E1,3.7061611E3],"tree_param":{"num_deleted":"0","num_feature":"120","num_nodes":"15","size_leaf_vector":"1"}},{"base_weights":[-1.2330606E-3,-2.283996E-2,2.6705053E-1,-4.2119452E-1,-1.4387815E-2,-8.845448E-1,3.524161E-1,-6.5512605E-2,-1.1013005E-2,-4.026206E-3,3.4526663E-3,4.1826464E-2,-7.6196305E-2,2.70817E-2,-1.6680507E-3],"categories":[],"categories_nodes":[],"categories_segments":[],"categories_sizes":[],"default_left":[0,0,0,0,0,0,0,0,0,0,0,0,0,0,0],"id":46,"left_children":[1,3,5,7,9,11,13,-1,-1,-1,-1,-1,-1,-1,-1],"loss_changes":[2.361516E2,1.2660401E2,2.9920627E2,1.2541992E2,1.4934058E2,1.4744313E2,1.22303314E2,0E0,0E0,0E0,0E0,0E0,0E0,0E0,0E0],"parents":[2147483647,0,0,1,1,2,2,3,3,4,4,5,5,6,6],"right_children":[2,4,6,8,10,12,14,-1,-1,-1,-1,-1,-1,-1,-1],"split_conditions":[9.090627E-1,9.221602E0,-4.2427203E-1,4.6837956E-1,2.617136E-2,2.2423735E2,3.3936841E0,-6.5512605E-2,-1.1013005E-2,-4.026206E-3,3.4526663E-3,4.1826464E-2,-7.6196305E-2,2.70817E-2,-1.6680507E-3],"split_indices":[48,107,84,24,37,96,69,0,0,0,0,0,0,0,0],"split_type":[0,0,0,0,0,0,0,0,0,0,0,0,0,0,0],"sum_hessian":[4.077458E4,3.7742656E4,3.0319207E3,7.7732275E2,3.6965332E4,2.0568196E2,2.8262385E3,1.8743243E2,5.898903E2,2.1212463E4,1.5752871E4,4.1944363E1,1.637376E2,2.1816912E3,6.445475E2],"tree_param":{"num_deleted":"0","num_feature":"120","num_nodes":"15","size_leaf_vector":"1"}},{"base_weights":[-1.241563E-4,4.2867294E-1,-1.2198728E-2,5.7677144E-1,1.4240329E-2,-4.86485E-1,6.8643405E-3,3.9522134E-2,-1.0563292E-2,2.9746259E-2,-2.7868576E-2,-1.0648495E-2,-6.046453E-2,3.5786785E-3,-4.4932193E-3],"categories":[],"categories_nodes":[],"categories_segments":[],"categories_sizes":[],"default_left":[0,0,0,0,0,0,0,0,0,0,0,0,0,0,0],"id":47,"left_children":[1,3,5,7,9,11,13,-1,-1,-1,-1,-1,-1,-1,-1],"loss_changes":[2.1044862E2,6.766014E1,3.587292E2,6.4509155E1,7.436855E1,2.5496603E2,1.7492075E2,0E0,0E0,0E0,0E0,0E0,0E0,0E0,0E0],"parents":[2147483647,0,0,1,1,2,2,3,3,4,4,5,5,6,6],"right_children":[2,4,6,8,10,12,14,-1,-1,-1,-1,-1,-1,-1,-1],"split_conditions":[-1.3983827E0,2.1240631E1,8.111048E-2,3.9899611E0,6.241921E-1,2.5202565E0,3.0264912E0,3.9522134E-2,-1.0563292E-2,2.9746259E-2,-2.7868576E-2,-1.0648495E-2,-6.046453E-2,3.5786785E-3,-4.4932193E-3],"split_indices":[52,43,35,105,87,33,13,0,0,0,0,0,0,0,0],"split_type":[0,0,0,0,0,0,0,0,0,0,0,0,0,0,0],"sum_hessian":[4.0723434E4,1.1089749E3,3.9614457E4,8.1392017E2,2.950547E2,1.5288993E3,3.808556E4,7.187774E2,9.5142746E1,1.4795999E2,1.4709471E2,9.9158325E2,5.3731604E2,2.3093613E4,1.4991946E4],"tree_param":{"num_deleted":"0","num_feature":"120","num_nodes":"15","size_leaf_vector":"1"}},{"base_weights":[-3.6831747E-3,2.490206E-2,-2.163909E-1,-1.6909013E-2,2.1057035E-1,-3.8228866E-1,3.7817448E-1,-2.678468E-3,1.9389138E-2,1.4778505E-2,-1.6673546E-2,-1.6579246E-2,-1.1189644E-1,3.2766663E-2,-3.1052845E-2],"categories":[],"categories_nodes":[],"categories_segments":[],"categories_sizes":[],"default_left":[0,0,0,0,0,0,0,0,0,0,0,0,0,0,0],"id":48,"left_children":[1,3,5,7,9,11,13,-1,-1,-1,-1,-1,-1,-1,-1],"loss_changes":[2.4728195E2,2.7827527E2,4.75882E2,2.9768915E2,1.4225812E2,5.6120355E2,1.785415E2,0E0,0E0,0E0,0E0,0E0,0E0,0E0,0E0],"parents":[2147483647,0,0,1,1,2,2,3,3,4,4,5,5,6,6],"right_children":[2,4,6,8,10,12,14,-1,-1,-1,-1,-1,-1,-1,-1],"split_conditions":[2.3201771E8,6.9279113E0,2.3888034E8,5.0195575E5,5.0936175E5,5.3454656E5,2.256558E2,-2.678468E-3,1.9389138E-2,1.4778505E-2,-1.6673546E-2,-1.6579246E-2,-1.1189644E-1,3.2766663E-2,-3.1052845E-2],"split_indices":[0,117,0,12,12,12,96,0,0,0,0,0,0,0,0],"split_type":[0,0,0,0,0,0,0,0,0,0,0,0,0,0,0],"sum_hessian":[4.0628055E4,3.5813824E4,4.814228E3,2.9229621E4,6.584205E3,3.766549E3,1.0476787E3,2.6991494E4,2.2381262E3,6.0597983E3,5.2440704E2,3.5478071E3,2.1874197E2,8.7338464E2,1.7429405E2],"tree_param":{"num_deleted":"0","num_feature":"120","num_nodes":"15","size_leaf_vector":"1"}},{"base_weights":[1.5474036E-3,-3.0999718E-2,1.3074525E-1,-2.4502931E-2,-1.0495828E0,-1.0305405E0,1.4431515E-1,-3.7411924E-2,-7.248669E-4,-7.810342E-2,4.185606E-2,-8.892263E-2,7.3792473E-3,4.5450875E-3,2.0980654E-2],"categories":[],"categories_nodes":[],"categories_segments":[],"categories_sizes":[],"default_left":[0,0,0,0,0,0,0,0,0,0,0,0,0,0,0],"id":49,"left_children":[1,3,5,7,9,11,13,-1,-1,-1,-1,-1,-1,-1,-1],"loss_changes":[1.7104585E2,2.1358969E2,1.2869006E2,2.3962692E2,1.1052568E2,5.649981E1,1.153242E2,0E0,0E0,0E0,0E0,0E0,0E0,0E0,0E0],"parents":[2147483647,0,0,1,1,2,2,3,3,4,4,5,5,6,6],"right_children":[2,4,6,8,10,12,14,-1,-1,-1,-1,-1,-1,-1,-1],"split_conditions":[3.955264E-2,3.7914303E-1,4.2129546E-1,5.2791E-2,2.085522E-7,1.99731E-1,2.6999588E0,-3.7411924E-2,-7.248669E-4,-7.810342E-2,4.185606E-2,-8.892263E-2,7.3792473E-3,4.5450875E-3,2.0980654E-2],"split_indices":[58,37,32,26,115,86,33,0,0,0,0,0,0,0,0],"split_type":[0,0,0,0,0,0,0,0,0,0,0,0,0,0,0],"sum_hessian":[4.064322E4,3.2460764E4,8.182456E3,3.226032E4,2.0044331E2,8.998892E1,8.0924673E3,6.107202E2,3.16496E4,1.733875E2,2.7055819E1,6.2646564E1,2.7342361E1,6.2029697E3,1.8894974E3],"tree_param":{"num_deleted":"0","num_feature":"120","num_nodes":"15","size_leaf_vector":"1"}},{"base_weights":[2.3461531E-3,-9.241691E-1,8.15754E-3,-2.4571979E-1,-1.1449356E0,-2.0247746E-2,2.1798848E-1,4.3829817E-2,-6.1912585E-2,-6.925033E-2,4.138627E-3,-1.5159482E-3,3.810233E-2,2.9994661E-2,1.2042137E-3],"categories":[],"categories_nodes":[],"categories_segments":[],"categories_sizes":[],"default_left":[0,0,0,0,0,0,0,0,0,0,0,0,0,0,0],"id":50,"left_children":[1,3,5,7,9,11,13,-1,-1,-1,-1,-1,-1,-1,-1],"loss_changes":[2.1795921E2,3.513864E1,2.4106557E2,5.9604927E1,1.1817841E1,1.3871051E2,2.8234558E2,0E0,0E0,0E0,0E0,0E0,0E0,0E0,0E0],"parents":[2147483647,0,0,1,1,2,2,3,3,4,4,5,5,6,6],"right_children":[2,4,6,8,10,12,14,-1,-1,-1,-1,-1,-1,-1,-1],"split_conditions":[5.8551497E0,1.3575042E0,2.8068388E0,3.8471027E1,2.695531E-1,8.1443614E-1,2.0378144E8,4.3829817E-2,-6.1912585E-2,-6.925033E-2,4.138627E-3,-1.5159482E-3,3.810233E-2,2.9994661E-2,1.2042137E-3],"split_indices":[107,33,57,23,112,51,0,0,0,0,0,0,0,0,0],"split_type":[0,0,0,0,0,0,0,0,0,0,0,0,0,0,0],"sum_hessian":[4.0650793E4,2.4813019E2,4.040266E4,6.426677E1,1.8386342E2,3.5584258E4,4.818405E3,2.850207E1,3.5764698E1,1.7823915E2,5.624277E0,3.528663E4,2.9762656E2,1.916913E3,2.9014917E3],"tree_param":{"num_deleted":"0","num_feature":"120","num_nodes":"15","size_leaf_vector":"1"}},{"base_weights":[4.640151E-4,-3.1698108E-1,2.2120338E-2,-6.8900955E-4,-8.891974E-1,4.3967563E-1,1.7621215E-3,-1.1961336E-2,3.3463016E-2,1.7033877E-2,-6.222172E-2,-4.1530263E-2,2.8431073E-2,-6.2027583E-3,2.0448777E-3],"categories":[],"categories_nodes":[],"categories_segments":[],"categories_sizes":[],"default_left":[0,0,0,0,0,0,0,0,0,0,0,0,0,0,0],"id":51,"left_children":[1,3,5,7,9,11,13,-1,-1,-1,-1,-1,-1,-1,-1],"loss_changes":[2.7884836E2,4.678458E2,3.2269702E2,1.974328E2,1.9793854E2,1.0061612E2,1.310297E2,0E0,0E0,0E0,0E0,0E0,0E0,0E0,0E0],"parents":[2147483647,0,0,1,1,2,2,3,3,4,4,5,5,6,6],"right_children":[2,4,6,8,10,12,14,-1,-1,-1,-1,-1,-1,-1,-1],"split_conditions":[8.8946E-2,3.0279071E0,3.3335995E2,8.065262E-1,2.2466815E2,3.8648638E-1,2.2366383E2,-1.1961336E-2,3.3463016E-2,1.7033877E-2,-6.222172E-2,-4.1530263E-2,2.8431073E-2,-6.2027583E-3,2.0448777E-3],"split_indices":[26,105,19,51,96,92,96,0,0,0,0,0,0,0,0],"split_type":[0,0,0,0,0,0,0,0,0,0,0,0,0,0,0],"sum_hessian":[4.059866E4,2.586017E3,3.8012645E4,1.6693335E3,9.166836E2,1.7607491E3,3.6251895E4,1.2345729E3,4.3476062E2,1.1998155E2,7.967021E2,6.833551E1,1.6924136E3,8.527692E3,2.7724203E4],"tree_param":{"num_deleted":"0","num_feature":"120","num_nodes":"15","size_leaf_vector":"1"}},{"base_weights":[2.6147605E-3,-2.848479E-1,2.2144921E-2,2.1397147E-2,-8.5299337E-1,1.6473089E-3,4.2000204E-1,-1.3393353E-2,3.406118E-2,-6.167902E-2,-5.0791563E-3,-1.5746568E-3,7.6667047E-3,-2.550979E-4,3.2401178E-2],"categories":[],"categories_nodes":[],"categories_segments":[],"categories_sizes":[],"default_left":[0,0,0,0,0,0,0,0,0,0,0,0,0,0,0],"id":52,"left_children":[1,3,5,7,9,11,13,-1,-1,-1,-1,-1,-1,-1,-1],"loss_changes":[2.2760402E2,4.4965216E2,3.0953522E2,2.389862E2,1.4162128E2,1.3512572E2,1.08510315E2,0E0,0E0,0E0,0E0,0E0,0E0,0E0,0E0],"parents":[2147483647,0,0,1,1,2,2,3,3,4,4,5,5,6,6],"right_children":[2,4,6,8,10,12,14,-1,-1,-1,-1,-1,-1,-1,-1],"split_conditions":[8.8946E-2,3.0279071E0,3.0482898E0,8.160298E-1,8.716198E-1,6.739184E0,7.8033084E-1,-1.3393353E-2,3.406118E-2,-6.167902E-2,-5.0791563E-3,-1.5746568E-3,7.6667047E-3,-2.550979E-4,3.2401178E-2],"split_indices":[26,105,33,39,61,117,39,0,0,0,0,0,0,0,0],"split_type":[0,0,0,0,0,0,0,0,0,0,0,0,0,0,0],"sum_hessian":[4.058164E4,2.5746392E3,3.8007E4,1.6743008E3,9.003383E2,3.6151344E4,1.8556543E3,1.158225E3,5.1607587E2,7.065388E2,1.937995E2,2.9612416E4,6.53893E3,4.5125433E2,1.4044E3],"tree_param":{"num_deleted":"0","num_feature":"120","num_nodes":"15","size_leaf_vector":"1"}},{"base_weights":[6.613842E-4,2.6628582E-2,-1.9152519E-1,7.1170196E-2,-8.595044E-2,-7.858774E-2,-1.6114086E-1,4.6607126E-3,-3.586371E-2,-1.3097993E-2,4.096553E-3,-1.7746715E-2,2.1546215E-2],"categories":[],"categories_nodes":[],"categories_segments":[],"categories_sizes":[],"default_left":[0,0,0,0,0,0,0,0,0,0,0,0,0],"id":53,"left_children":[1,3,5,7,9,-1,11,-1,-1,-1,-1,-1,-1],"loss_changes":[2.0235948E2,1.7931494E2,1.674006E2,1.5663509E2,2.2057108E2,0E0,3.6011914E2,0E0,0E0,0E0,0E0,0E0,0E0],"parents":[2147483647,0,0,1,1,2,2,3,3,4,4,6,6],"right_children":[2,4,6,8,10,-1,12,-1,-1,-1,-1,-1,-1],"split_conditions":[2.3201771E8,1.7853512E3,8.39E-1,8.094944E0,1.252537E0,-7.858774E-2,2.3888034E8,4.6607126E-3,-3.586371E-2,-1.3097993E-2,4.096553E-3,-1.7746715E-2,2.1546215E-2],"split_indices":[0,19,98,93,93,0,0,0,0,0,0,0,0],"split_type":[0,0,0,0,0,0,0,0,0,0,0,0,0],"sum_hessian":[4.0575184E4,3.5753492E4,4.8216924E3,2.5625709E4,1.0127782E4,1.1766723E2,4.704025E3,2.5302916E4,3.2279263E2,5.361936E3,4.7658457E3,3.7051624E3,9.988628E2],"tree_param":{"num_deleted":"0","num_feature":"120","num_nodes":"13","size_leaf_vector":"1"}},{"base_weights":[3.4382255E-3,-4.444913E-1,1.3586888E-2,-8.572322E-1,-8.2592115E-2,-2.2488672E-2,1.7162111E-1,3.339207E-2,-5.445636E-2,-2.266665E-2,1.9601768E-2,-4.3077624E-4,-1.488509E-2,1.3499099E-2,-8.595673E-3],"categories":[],"categories_nodes":[],"categories_segments":[],"categories_sizes":[],"default_left":[0,0,0,0,0,0,0,0,0,0,0,0,0,0,0],"id":54,"left_children":[1,3,5,7,9,11,13,-1,-1,-1,-1,-1,-1,-1,-1],"loss_changes":[1.8378012E2,1.3248056E2,2.2612029E2,4.939438E1,6.278919E1,1.1326141E2,1.4222462E2,0E0,0E0,0E0,0E0,0E0,0E0,0E0,0E0],"parents":[2147483647,0,0,1,1,2,2,3,3,4,4,5,5,6,6],"right_children":[2,4,6,8,10,12,14,-1,-1,-1,-1,-1,-1,-1,-1],"split_conditions":[9.221602E0,1.0816431E0,2.4011931E0,1.5808606E0,7.778516E-1,3.525E0,3.5141995E0,3.339207E-2,-5.445636E-2,-2.266665E-2,1.9601768E-2,-4.3077624E-4,-1.488509E-2,1.3499099E-2,-8.595673E-3],"split_indices":[107,13,57,105,87,98,105,0,0,0,0,0,0,0,0],"split_type":[0,0,0,0,0,0,0,0,0,0,0,0,0,0,0],"sum_hessian":[4.0518688E4,8.914067E2,3.962728E4,4.124082E2,4.7899847E2,3.225995E4,7.367334E3,1.9359924E1,3.9304828E2,2.7823944E2,2.0075903E2,3.030858E4,1.9513683E3,6.200434E3,1.1668994E3],"tree_param":{"num_deleted":"0","num_feature":"120","num_nodes":"15","size_leaf_vector":"1"}},{"base_weights":[3.8973081E-3,7.750373E-2,-5.9684105E-2,6.807524E-1,4.9703017E-2,-2.6754135E-1,-8.206204E-3,-7.100169E-2,4.132378E-2,-3.6718273E-3,9.79978E-3,-7.761245E-2,-1.3154588E-2,2.0128656E-2,-3.7296815E-3],"categories":[],"categories_nodes":[],"categories_segments":[],"categories_sizes":[],"default_left":[0,0,0,0,0,0,0,0,0,0,0,0,0,0,0],"id":55,"left_children":[1,3,5,7,9,11,13,-1,-1,-1,-1,-1,-1,-1,-1],"loss_changes":[1.8993486E2,3.1462646E2,2.3258774E2,4.9102356E1,2.4100653E2,1.881037E2,3.4509488E2,0E0,0E0,0E0,0E0,0E0,0E0,0E0,0E0],"parents":[2147483647,0,0,1,1,2,2,3,3,4,4,5,5,6,6],"right_children":[2,4,6,8,10,12,14,-1,-1,-1,-1,-1,-1,-1,-1],"split_conditions":[4.2651416E5,3.2568144E5,4.49953E5,1.97621E6,6.117252E0,5.693508E-1,2.0018294E6,-7.100169E-2,4.132378E-2,-3.6718273E-3,9.79978E-3,-7.761245E-2,-1.3154588E-2,2.0128656E-2,-3.7296815E-3],"split_indices":[12,7,12,108,117,84,108,0,0,0,0,0,0,0,0],"split_type":[0,0,0,0,0,0,0,0,0,0,0,0,0,0,0],"sum_hessian":[4.0572016E4,1.8810922E4,2.1761096E4,8.2270435E2,1.7988217E4,4.311992E3,1.7449104E4,9.354646E0,8.1334973E2,9.219232E3,8.768983E3,1.5580182E2,4.1561904E3,2.3729084E3,1.5076196E4],"tree_param":{"num_deleted":"0","num_feature":"120","num_nodes":"15","size_leaf_vector":"1"}},{"base_weights":[-2.2481768E-3,-1.3043027E-1,2.9472137E-2,-6.220209E-1,-9.86835E-2,-4.165308E-1,4.0547818E-2,-5.6076697E-3,-4.7527757E-2,-9.628488E-3,2.051097E-3,-5.4745022E-2,-4.828797E-3,-1.3654559E-2,3.1052104E-3],"categories":[],"categories_nodes":[],"categories_segments":[],"categories_sizes":[],"default_left":[0,0,0,0,0,0,0,0,0,0,0,0,0,0,0],"id":56,"left_children":[1,3,5,7,9,11,13,-1,-1,-1,-1,-1,-1,-1,-1],"loss_changes":[1.6401015E2,1.2387979E2,1.5926544E2,4.808069E1,6.743589E1,1.3510951E2,1.10973816E2,0E0,0E0,0E0,0E0,0E0,0E0,0E0,0E0],"parents":[2147483647,0,0,1,1,2,2,3,3,4,4,5,5,6,6],"right_children":[2,4,6,8,10,12,14,-1,-1,-1,-1,-1,-1,-1,-1],"split_conditions":[1.3116527E0,2.2098717E2,8.107295E0,1.9849766E8,2.4604678E-2,3.427433E5,1.0190018E0,-5.6076697E-3,-4.7527757E-2,-9.628488E-3,2.051097E-3,-5.4745022E-2,-4.828797E-3,-1.3654559E-2,3.1052104E-3],"split_indices":[57,60,71,0,88,7,33,0,0,0,0,0,0,0,0],"split_type":[0,0,0,0,0,0,0,0,0,0,0,0,0,0,0],"sum_hessian":[4.0302727E4,7.9990312E3,3.2303695E4,4.7849664E2,7.520534E3,7.767364E2,3.1526959E4,1.3244707E2,3.460496E2,5.023503E3,2.4970312E3,2.9788812E2,4.7884827E2,1.3951699E3,3.013179E4],"tree_param":{"num_deleted":"0","num_feature":"120","num_nodes":"15","size_leaf_vector":"1"}},{"base_weights":[-1.7709906E-3,-2.7477205E-1,1.6382096E-2,6.865623E-2,-7.662419E-1,-1.50636425E-2,2.7950558E-1,4.8850387E-2,-1.0759022E-2,-4.651352E-2,8.209549E-2,3.7247155E-2,-1.3698707E-3,2.5107197E-2,8.376225E-3],"categories":[],"categories_nodes":[],"categories_segments":[],"categories_sizes":[],"default_left":[0,0,0,0,0,0,0,0,0,0,0,0,0,0,0],"id":57,"left_children":[1,3,5,7,9,11,13,-1,-1,-1,-1,-1,-1,-1,-1],"loss_changes":[2.0039626E2,4.2652798E2,3.135586E2,2.9184515E2,7.8602844E1,1.8713148E2,8.2442474E1,0E0,0E0,0E0,0E0,0E0,0E0,0E0,0E0],"parents":[2147483647,0,0,1,1,2,2,3,3,4,4,5,5,6,6],"right_children":[2,4,6,8,10,12,14,-1,-1,-1,-1,-1,-1,-1,-1],"split_conditions":[8.8946E-2,2.2684232E2,2.778903E0,3.982613E5,5.3981856E5,1.4383743E-3,4.1873272E5,4.8850387E-2,-1.0759022E-2,-4.651352E-2,8.209549E-2,3.7247155E-2,-1.3698707E-3,2.5107197E-2,8.376225E-3],"split_indices":[26,72,57,12,12,17,12,0,0,0,0,0,0,0,0],"split_type":[0,0,0,0,0,0,0,0,0,0,0,0,0,0,0],"sum_hessian":[4.0373293E4,2.517186E3,3.7856105E4,1.4826077E3,1.0345784E3,3.381482E4,4.0412852E3,3.6562796E2,1.1169796E3,1.02223016E3,1.2348201E1,4.2626782E2,3.3388555E4,1.8980114E3,2.143274E3],"tree_param":{"num_deleted":"0","num_feature":"120","num_nodes":"15","size_leaf_vector":"1"}},{"base_weights":[-9.782558E-4,-1.7091252E-2,2.2437572E-1,-6.462321E-1,-3.9340593E-3,-7.370966E-1,3.0591124E-1,-6.4889486E-3,-5.0827138E-2,9.945091E-4,-1.1112469E-2,-7.36304E-4,-6.616136E-2,5.0471142E-2,1.5021982E-2],"categories":[],"categories_nodes":[],"categories_segments":[],"categories_sizes":[],"default_left":[0,0,0,0,0,0,0,0,0,0,0,0,0,0,0],"id":58,"left_children":[1,3,5,7,9,11,13,-1,-1,-1,-1,-1,-1,-1,-1],"loss_changes":[1.461344E2,3.107081E2,2.1098654E2,9.1925415E1,1.4508298E2,5.9562126E1,6.438759E1,0E0,0E0,0E0,0E0,0E0,0E0,0E0,0E0],"parents":[2147483647,0,0,1,1,2,2,3,3,4,4,5,5,6,6],"right_children":[2,4,6,8,10,12,14,-1,-1,-1,-1,-1,-1,-1,-1],"split_conditions":[9.162679E-1,4.6435168E-1,5.2791E-2,6.4811283E-1,3.0166504E-1,3.129049E0,3.4766316E0,-6.4889486E-3,-5.0827138E-2,9.945091E-4,-1.1112469E-2,-7.36304E-4,-6.616136E-2,5.0471142E-2,1.5021982E-2],"split_indices":[36,24,26,44,30,105,91,0,0,0,0,0,0,0,0],"split_type":[0,0,0,0,0,0,0,0,0,0,0,0,0,0,0],"sum_hessian":[4.029692E4,3.761592E4,2.680997E3,7.647741E2,3.685115E4,2.0593857E2,2.4750583E3,2.3122101E2,5.335531E2,3.312547E4,3.7256794E3,7.570103E1,1.3023753E2,1.8686937E2,2.2881892E3],"tree_param":{"num_deleted":"0","num_feature":"120","num_nodes":"15","size_leaf_vector":"1"}},{"base_weights":[1.361679E-3,2.5895802E-2,-1.8097986E-1,1.6733916E-2,6.933231E-1,-3.1774318E-1,3.2401985E-1,1.5663574E-3,-3.8060974E-2,4.380218E-2,-3.7882768E-2,-5.3235188E-2,-1.0837881E-2,1.0007506E-2,4.7977995E-2],"categories":[],"categories_nodes":[],"categories_segments":[],"categories_sizes":[],"default_left":[0,0,0,0,0,0,0,0,0,0,0,0,0,0,0],"id":59,"left_children":[1,3,5,7,9,11,13,-1,-1,-1,-1,-1,-1,-1,-1],"loss_changes":[1.8024127E2,2.1657787E2,3.303755E2,2.3887604E2,4.03925E1,2.93573E2,7.584519E1,0E0,0E0,0E0,0E0,0E0,0E0,0E0,0E0],"parents":[2147483647,0,0,1,1,2,2,3,3,4,4,5,5,6,6],"right_children":[2,4,6,8,10,12,14,-1,-1,-1,-1,-1,-1,-1,-1],"split_conditions":[5.1464306E5,2.3153107E8,2.3888034E8,2.3067674E8,3.9138943E-3,1.5750995E0,1.993009E0,1.5663574E-3,-3.8060974E-2,4.380218E-2,-3.7882768E-2,-5.3235188E-2,-1.0837881E-2,1.0007506E-2,4.7977995E-2],"split_indices":[12,0,0,0,66,13,38,0,0,0,0,0,0,0,0],"split_type":[0,0,0,0,0,0,0,0,0,0,0,0,0,0,0],"sum_hessian":[4.031832E4,3.5545117E4,4.773202E3,3.5069586E4,4.755321E2,3.7588792E3,1.0143229E3,3.4550785E4,5.187997E2,4.579593E2,1.7572802E1,6.7269855E2,3.0861807E3,7.838337E2,2.3048924E2],"tree_param":{"num_deleted":"0","num_feature":"120","num_nodes":"15","size_leaf_vector":"1"}},{"base_weights":[2.5280965E-3,2.5120245E-2,-1.6575472E-1,-7.0120364E-2,8.950635E-2,-2.302114E-1,6.308316E-1,2.5328489E-3,-9.457341E-3,3.4588953E-3,2.1444852E-2,-4.0468927E-2,-6.4842147E-3,7.163508E-2,2.4568558E-2],"categories":[],"categories_nodes":[],"categories_segments":[],"categories_sizes":[],"default_left":[0,0,0,0,0,0,0,0,0,0,0,0,0,0,0],"id":60,"left_children":[1,3,5,7,9,11,13,-1,-1,-1,-1,-1,-1,-1,-1],"loss_changes":[1.5310231E2,2.1800633E2,2.4486877E2,1.506153E2,1.774471E2,2.426741E2,4.0729706E1,0E0,0E0,0E0,0E0,0E0,0E0,0E0,0E0],"parents":[2147483647,0,0,1,1,2,2,3,3,4,4,5,5,6,6],"right_children":[2,4,6,8,10,12,14,-1,-1,-1,-1,-1,-1,-1,-1],"split_conditions":[2.0583161E6,1.5159765E0,2.06153E6,3.667299E1,2.0430164E6,1.7429369E1,9.315453E0,2.5328489E-3,-9.457341E-3,3.4588953E-3,2.1444852E-2,-4.0468927E-2,-6.4842147E-3,7.163508E-2,2.4568558E-2],"split_indices":[108,57,108,22,108,22,21,0,0,0,0,0,0,0,0],"split_type":[0,0,0,0,0,0,0,0,0,0,0,0,0,0,0],"sum_hessian":[4.0300773E4,3.553943E4,4.7613433E3,1.4328178E4,2.1211252E4,4.408896E3,3.5244708E2,6.420551E3,7.9076265E3,1.915505E4,2.056201E3,8.910203E2,3.5178757E3,8.4355095E1,2.68092E2],"tree_param":{"num_deleted":"0","num_feature":"120","num_nodes":"15","size_leaf_vector":"1"}},{"base_weights":[-6.836355E-4,-8.390792E-3,4.6877864E-1,-1.5849526E-1,1.0363541E-2,8.8006866E-1,-2.0440517E-1,-1.4912183E-2,1.2699424E-2,4.770264E-3,-2.686936E-3,-2.0535111E-2,5.3439043E-2,1.5407042E-2,-6.748539E-2],"categories":[],"categories_nodes":[],"categories_segments":[],"categories_sizes":[],"default_left":[0,0,0,0,0,0,0,0,0,0,0,0,0,0,0],"id":61,"left_children":[1,3,5,7,9,11,13,-1,-1,-1,-1,-1,-1,-1,-1],"loss_changes":[1.4508244E2,1.1159979E2,1.8077489E2,1.62371E2,1.4247443E2,2.0937744E1,1.13367966E2,0E0,0E0,0E0,0E0,0E0,0E0,0E0,0E0],"parents":[2147483647,0,0,1,1,2,2,3,3,4,4,5,5,6,6],"right_children":[2,4,6,8,10,12,14,-1,-1,-1,-1,-1,-1,-1,-1],"split_conditions":[8.1443614E-1,7.7011085E-1,2.2480962E2,9.52381E-2,8.603935E-1,1.17773E1,1.7241059E-1,-1.4912183E-2,1.2699424E-2,4.770264E-3,-2.686936E-3,-2.0535111E-2,5.3439043E-2,1.5407042E-2,-6.748539E-2],"split_indices":[51,48,72,114,36,71,88,0,0,0,0,0,0,0,0],"split_type":[0,0,0,0,0,0,0,0,0,0,0,0,0,0,0],"sum_hessian":[4.02241E4,3.958067E4,6.434302E2,4.398863E3,3.518181E4,3.9958902E2,2.4384116E2,3.4960222E3,9.028408E2,1.5529543E4,1.9652266E4,1.0118919E1,3.894701E2,1.6480437E2,7.903679E1],"tree_param":{"num_deleted":"0","num_feature":"120","num_nodes":"15","size_leaf_vector":"1"}},{"base_weights":[-3.6083525E-3,-3.368616E-2,1.3796732E-1,-9.327796E-3,-2.9770127E-1,-1.0054461E-1,1.8890563E-1,-2.9314373E-2,4.488637E-5,-9.908549E-3,-4.224725E-2,7.377E-3,-3.2730855E-2,9.6362885E-3,4.4613406E-2],"categories":[],"categories_nodes":[],"categories_segments":[],"categories_sizes":[],"default_left":[0,0,0,0,0,0,0,0,0,0,0,0,0,0,0],"id":62,"left_children":[1,3,5,7,9,11,13,-1,-1,-1,-1,-1,-1,-1,-1],"loss_changes":[1.7089227E2,2.1270067E2,8.558865E1,1.5199327E2,1.5103203E2,1.3054239E2,7.663019E1,0E0,0E0,0E0,0E0,0E0,0E0,0E0,0E0],"parents":[2147483647,0,0,1,1,2,2,3,3,4,4,5,5,6,6],"right_children":[2,4,6,8,10,12,14,-1,-1,-1,-1,-1,-1,-1,-1],"split_conditions":[6.9279113E0,6.6250668E0,1.4888762E1,9.221602E0,4.937141E5,2.0035042E6,7.8798386E1,-2.9314373E-2,4.488637E-5,-9.908549E-3,-4.224725E-2,7.377E-3,-3.2730855E-2,9.6362885E-3,4.4613406E-2],"split_indices":[117,117,71,107,12,108,109,0,0,0,0,0,0,0,0],"split_type":[0,0,0,0,0,0,0,0,0,0,0,0,0,0,0],"sum_hessian":[4.0148957E4,3.3122707E4,7.02625E3,3.0332537E4,2.790171E3,1.2321167E3,5.7941333E3,6.052605E2,2.9727275E4,2.1565996E3,6.335713E2,8.2622284E2,4.0589392E2,5.576118E3,2.1801524E2],"tree_param":{"num_deleted":"0","num_feature":"120","num_nodes":"15","size_leaf_vector":"1"}},{"base_weights":[5.414663E-3,-2.0414907E-2,1.2813564E-1,-1.0221006E0,-1.5795257E-2,6.211683E-1,9.508142E-2,-1.4183738E-2,-8.165384E-2,1.9021727E-2,-1.5871768E-3,5.7238758E-2,1.6075151E-2,-3.523956E-2,7.5030094E-3],"categories":[],"categories_nodes":[],"categories_segments":[],"categories_sizes":[],"default_left":[0,0,0,0,0,0,0,0,0,0,0,0,0,0,0],"id":63,"left_children":[1,3,5,7,9,11,13,-1,-1,-1,-1,-1,-1,-1,-1],"loss_changes":[1.2775983E2,1.527423E2,1.1321661E2,4.1761383E1,1.2992207E2,5.222232E1,1.5569714E2,0E0,0E0,0E0,0E0,0E0,0E0,0E0,0E0],"parents":[2147483647,0,0,1,1,2,2,3,3,4,4,5,5,6,6],"right_children":[2,4,6,8,10,12,14,-1,-1,-1,-1,-1,-1,-1,-1],"split_conditions":[6.9279113E0,6.961054E-1,2.9125493E-8,1.999871E0,-1.1052802E0,1.9471353E-2,7.4094E-2,-1.4183738E-2,-8.165384E-2,1.9021727E-2,-1.5871768E-3,5.7238758E-2,1.6075151E-2,-3.523956E-2,7.5030094E-3],"split_indices":[117,39,19,38,52,37,38,0,0,0,0,0,0,0,0],"split_type":[0,0,0,0,0,0,0,0,0,0,0,0,0,0,0],"sum_hessian":[4.0261242E4,3.3256457E4,7.004785E3,1.473906E2,3.3109066E4,4.3342377E2,6.5713613E3,5.159387E1,9.579673E1,1.0662894E3,3.2042777E4,2.0611887E2,2.2730492E2,2.9806934E2,6.273292E3],"tree_param":{"num_deleted":"0","num_feature":"120","num_nodes":"15","size_leaf_vector":"1"}},{"base_weights":[-6.535567E-4,-2.6310975E-2,1.205631E-1,-2.1731772E-2,-9.9262565E-1,8.7177753E-1,1.0631641E-1,1.2686252E-4,-1.5822105E-2,-6.941741E-2,7.6385983E-3,-4.2845816E-3,6.680117E-2,-8.727425E-4,1.258868E-2],"categories":[],"categories_nodes":[],"categories_segments":[],"categories_sizes":[],"default_left":[0,0,0,0,0,0,0,0,0,0,0,0,0,0,0],"id":64,"left_children":[1,3,5,7,9,11,13,-1,-1,-1,-1,-1,-1,-1,-1],"loss_changes":[1.2477794E2,1.4549924E2,7.356534E1,1.9762573E2,3.6674347E1,3.501087E1,9.206037E1,0E0,0E0,0E0,0E0,0E0,0E0,0E0,0E0],"parents":[2147483647,0,0,1,1,2,2,3,3,4,4,5,5,6,6],"right_children":[2,4,6,8,10,12,14,-1,-1,-1,-1,-1,-1,-1,-1],"split_conditions":[6.9279113E0,6.0375243E-1,7.655274E-3,6.6094275E0,9.601993E0,7.8019774E-1,1.3608621E-1,1.2686252E-4,-1.5822105E-2,-6.941741E-2,7.6385983E-3,-4.2845816E-3,6.680117E-2,-8.727425E-4,1.258868E-2],"split_indices":[117,37,37,117,70,92,47,0,0,0,0,0,0,0,0],"split_type":[0,0,0,0,0,0,0,0,0,0,0,0,0,0,0],"sum_hessian":[4.014388E4,3.314108E4,7.0028027E3,3.2990113E4,1.5096341E2,1.2426739E2,6.878535E3,3.0111438E4,2.8786768E3,1.287297E2,2.2233707E1,2.7905487E1,9.63619E1,3.2679744E3,3.610561E3],"tree_param":{"num_deleted":"0","num_feature":"120","num_nodes":"15","size_leaf_vector":"1"}},{"base_weights":[1.1892632E-3,4.9506631E-1,-5.0783516E-3,-3.516337E-1,6.613069E-1,-2.5045705E-1,8.116341E-3,-6.400824E-2,3.8991633E-3,4.3144085E-2,4.1967463E-3,3.685692E-4,-4.9310476E-2,1.3956084E-2,-4.023333E-4],"categories":[],"categories_nodes":[],"categories_segments":[],"categories_sizes":[],"default_left":[0,0,0,0,0,0,0,0,0,0,0,0,0,0,0],"id":65,"left_children":[1,3,5,7,9,11,13,-1,-1,-1,-1,-1,-1,-1,-1],"loss_changes":[1.2506045E2,7.25671E1,1.2889313E2,2.7956366E1,1.898114E1,3.1225314E2,1.3152829E2,0E0,0E0,0E0,0E0,0E0,0E0,0E0,0E0],"parents":[2147483647,0,0,1,1,2,2,3,3,4,4,5,5,6,6],"right_children":[2,4,6,8,10,12,14,-1,-1,-1,-1,-1,-1,-1,-1],"split_conditions":[2.0307802E-8,1.2156105E1,6.2163E-2,9.1420853E-1,8.0390394E-1,3.2467296E0,4.0715244E-1,-6.400824E-2,3.8991633E-3,4.3144085E-2,4.1967463E-3,3.685692E-4,-4.9310476E-2,1.3956084E-2,-4.023333E-4],"split_indices":[19,83,38,48,85,81,20,0,0,0,0,0,0,0,0],"split_type":[0,0,0,0,0,0,0,0,0,0,0,0,0,0,0],"sum_hessian":[4.022601E4,5.0213507E2,3.972388E4,8.0596E1,4.2153906E2,2.0273334E3,3.7696543E4,2.738687E1,5.3209133E1,3.6860626E2,5.2932796E1,1.4190929E3,6.082405E2,2.2969329E3,3.539961E4],"tree_param":{"num_deleted":"0","num_feature":"120","num_nodes":"15","size_leaf_vector":"1"}},{"base_weights":[-1.4147484E-3,5.7632945E-2,-6.057668E-2,3.932653E-1,2.6204208E-2,-3.578536E-1,-1.4339531E-2,3.6756698E-2,-1.0091591E-2,-5.9933583E-3,6.5592593E-3,-6.995508E-2,-1.810488E-2,1.5602755E-2,-3.4651395E-3],"categories":[],"categories_nodes":[],"categories_segments":[],"categories_sizes":[],"default_left":[0,0,0,0,0,0,0,0,0,0,0,0,0,0,0],"id":66,"left_children":[1,3,5,7,9,11,13,-1,-1,-1,-1,-1,-1,-1,-1],"loss_changes":[1.4015057E2,2.1121463E2,2.7515588E2,2.3255618E2,2.0520007E2,1.0324332E2,2.21425E2,0E0,0E0,0E0,0E0,0E0,0E0,0E0,0E0],"parents":[2147483647,0,0,1,1,2,2,3,3,4,4,5,5,6,6],"right_children":[2,4,6,8,10,12,14,-1,-1,-1,-1,-1,-1,-1,-1],"split_conditions":[2.0968752E8,3.3335995E2,1.99882E6,3.1441681E0,5.454665E-3,5.693508E-1,2.0018294E6,3.6756698E-2,-1.0091591E-2,-5.9933583E-3,6.5592593E-3,-6.995508E-2,-1.810488E-2,1.5602755E-2,-3.4651395E-3],"split_indices":[0,19,108,81,46,84,108,0,0,0,0,0,0,0,0],"split_type":[0,0,0,0,0,0,0,0,0,0,0,0,0,0,0],"sum_hessian":[4.0109703E4,2.0065307E4,2.0044398E4,1.7110331E3,1.8354273E4,2.691104E3,1.7353293E4,1.205486E3,5.0554712E2,7.3556797E3,1.0998595E4,1.3466837E2,2.5564355E3,2.3879575E3,1.4965336E4],"tree_param":{"num_deleted":"0","num_feature":"120","num_nodes":"15","size_leaf_vector":"1"}},{"base_weights":[-2.5998608E-3,1.8619213E-2,-1.6025437E-1,-1.2304783E-1,5.4557107E-2,-2.8889218E-1,3.1624758E-1,1.1473788E-3,-1.1517593E-2,1.7283281E-2,1.9241305E-3,-1.1513676E-2,-1.0344162E-1,-8.4605955E-2,2.3358265E-2],"categories":[],"categories_nodes":[],"categories_segments":[],"categories_sizes":[],"default_left":[0,0,0,0,0,0,0,0,0,0,0,0,0,0,0],"id":67,"left_children":[1,3,5,7,9,11,13,-1,-1,-1,-1,-1,-1,-1,-1],"loss_changes":[1.3407045E2,1.7956398E2,2.918055E2,7.643544E1,1.4628708E2,5.0444553E2,1.5360231E2,0E0,0E0,0E0,0E0,0E0,0E0,0E0,0E0],"parents":[2147483647,0,0,1,1,2,2,3,3,4,4,5,5,6,6],"right_children":[2,4,6,8,10,12,14,-1,-1,-1,-1,-1,-1,-1,-1],"split_conditions":[5.1464306E5,1.0938228E0,5.3602306E5,3.667299E1,2.653395E-1,5.3454656E5,3.3379915E-1,1.1473788E-3,-1.1517593E-2,1.7283281E-2,1.9241305E-3,-1.1513676E-2,-1.0344162E-1,-8.4605955E-2,2.3358265E-2],"split_indices":[12,33,12,22,116,12,116,0,0,0,0,0,0,0,0],"split_type":[0,0,0,0,0,0,0,0,0,0,0,0,0,0,0],"sum_hessian":[4.002462E4,3.527397E4,4.750651E3,7.129569E3,2.81444E4,3.7438293E3,1.0068215E3,2.4484773E3,4.6810913E3,2.2840999E3,2.58603E4,3.5331274E3,2.1070174E2,4.2532116E1,9.642893E2],"tree_param":{"num_deleted":"0","num_feature":"120","num_nodes":"15","size_leaf_vector":"1"}},{"base_weights":[-4.219604E-4,-1.5537266E-2,1.9263108E-1,-3.790339E-1,-2.3372323E-4,3.438405E-1,-3.604072E-1,-2.7041905E-2,4.858449E-2,1.0929591E-3,-1.02118E-2,-4.2010904E-3,2.3713904E-2,-5.197551E-2,1.4873246E-2],"categories":[],"categories_nodes":[],"categories_segments":[],"categories_sizes":[],"default_left":[0,0,0,0,0,0,0,0,0,0,0,0,0,0,0],"id":68,"left_children":[1,3,5,7,9,11,13,-1,-1,-1,-1,-1,-1,-1,-1],"loss_changes":[1.1674445E2,2.063511E2,2.4339381E2,1.569668E2,1.19029335E2,6.0943695E1,2.0641745E2,0E0,0E0,0E0,0E0,0E0,0E0,0E0,0E0],"parents":[2147483647,0,0,1,1,2,2,3,3,4,4,5,5,6,6],"right_children":[2,4,6,8,10,12,14,-1,-1,-1,-1,-1,-1,-1,-1],"split_conditions":[9.1161853E-1,1.06293E-1,3.6034648E0,1.5786015E4,3.0237153E-1,-5.7105164E-5,8.8946E-2,-2.7041905E-2,4.858449E-2,1.0929591E-3,-1.02118E-2,-4.2010904E-3,2.3713904E-2,-5.197551E-2,1.4873246E-2],"split_indices":[36,26,69,119,30,41,26,0,0,0,0,0,0,0,0],"split_type":[0,0,0,0,0,0,0,0,0,0,0,0,0,0,0],"sum_hessian":[4.0063574E4,3.7163184E4,2.9003918E3,1.4945791E3,3.56686E4,2.2803958E3,6.1999615E2,1.3993419E3,9.523724E1,3.2175098E4,3.4935059E3,3.0017447E2,1.9802212E3,3.3239972E2,2.8759647E2],"tree_param":{"num_deleted":"0","num_feature":"120","num_nodes":"15","size_leaf_vector":"1"}},{"base_weights":[-6.10257E-3,1.4689541E-2,-1.6129261E-1,-2.1921936E-1,2.9658653E-2,-8.074739E-3,-5.3087854E-1,-2.0641485E-2,3.987712E-3,6.7599857E-4,1.2317241E-2,-7.0805796E-3,4.853335E-2,-8.092235E-2,-2.4147734E-2],"categories":[],"categories_nodes":[],"categories_segments":[],"categories_sizes":[],"default_left":[0,0,0,0,0,0,0,0,0,0,0,0,0,0,0],"id":69,"left_children":[1,3,5,7,9,11,13,-1,-1,-1,-1,-1,-1,-1,-1],"loss_changes":[1.2898679E2,1.2308986E2,2.6687503E2,8.278074E1,1.08420296E2,3.1960373E2,1.3344351E2,0E0,0E0,0E0,0E0,0E0,0E0,0E0,0E0],"parents":[2147483647,0,0,1,1,2,2,3,3,4,4,5,5,6,6],"right_children":[2,4,6,8,10,12,14,-1,-1,-1,-1,-1,-1,-1,-1],"split_conditions":[2.3201771E8,1.0335637E0,1.6487101E0,9.823183E-4,9.046061E-1,5.39308E5,5.1696166E5,-2.0641485E-2,3.987712E-3,6.7599857E-4,1.2317241E-2,-7.0805796E-3,4.853335E-2,-8.092235E-2,-2.4147734E-2],"split_indices":[0,45,45,6,36,12,12,0,0,0,0,0,0,0,0],"split_type":[0,0,0,0,0,0,0,0,0,0,0,0,0,0,0],"sum_hessian":[3.9919E4,3.5199914E4,4.7190854E3,2.1094526E3,3.3090465E4,3.3411143E3,1.3779711E3,1.4361324E3,6.7332025E2,3.0114822E4,2.9756418E3,2.9482288E3,3.9288568E2,1.57261E2,1.22071E3],"tree_param":{"num_deleted":"0","num_feature":"120","num_nodes":"15","size_leaf_vector":"1"}},{"base_weights":[1.4912728E-3,-5.272125E-1,8.930272E-3,6.3491595E-1,-7.681742E-1,1.2636743E-4,4.2018354E-1,6.671676E-2,-3.1969033E-2,-6.7842E-2,-2.3116428E-2,-6.3120805E-2,1.7078439E-4,5.19173E-4,3.672973E-2],"categories":[],"categories_nodes":[],"categories_segments":[],"categories_sizes":[],"default_left":[0,0,0,0,0,0,0,0,0,0,0,0,0,0,0],"id":70,"left_children":[1,3,5,7,9,11,13,-1,-1,-1,-1,-1,-1,-1,-1],"loss_changes":[1.5702367E2,1.5729102E2,1.4260318E2,6.180537E1,6.445239E1,1.1670517E2,7.090645E1,0E0,0E0,0E0,0E0,0E0,0E0,0E0,0E0],"parents":[2147483647,0,0,1,1,2,2,3,3,4,4,5,5,6,6],"right_children":[2,4,6,8,10,12,14,-1,-1,-1,-1,-1,-1,-1,-1],"split_conditions":[5.1095E-2,-7.2729975E-1,9.38514E-1,2.2469023E2,6.079674E0,-8.924077E-1,6.0771837E0,6.671676E-2,-3.1969033E-2,-6.7842E-2,-2.3116428E-2,-6.3120805E-2,1.7078439E-4,5.19173E-4,3.672973E-2],"split_indices":[26,36,84,60,117,84,117,0,0,0,0,0,0,0,0],"split_type":[0,0,0,0,0,0,0,0,0,0,0,0,0,0,0],"sum_hessian":[4.005509E4,5.497346E2,3.9505355E4,9.247959E1,4.5725504E2,3.8683992E4,8.213663E2,6.530592E1,2.7173666E1,2.1503435E2,2.4222069E2,9.475599E1,3.8589234E4,2.8162238E2,5.397439E2],"tree_param":{"num_deleted":"0","num_feature":"120","num_nodes":"15","size_leaf_vector":"1"}},{"base_weights":[-4.2407532E-4,-6.913004E-1,3.518296E-3,6.285869E-2,-8.2914007E-1,-5.0629556E-1,1.0065138E-2,-6.2248714E-2,-1.3197314E-2,-4.3496072E-2,5.3663068E-2,-2.6898097E-5,2.0470338E-2],"categories":[],"categories_nodes":[],"categories_segments":[],"categories_sizes":[],"default_left":[0,0,0,0,0,0,0,0,0,0,0,0,0],"id":71,"left_children":[1,3,5,-1,7,9,11,-1,-1,-1,-1,-1,-1],"loss_changes":[1.0960164E2,5.9224846E1,1.3214746E2,0E0,2.8714966E1,1.7552266E2,1.415341E2,0E0,0E0,0E0,0E0,0E0,0E0],"parents":[2147483647,0,0,1,1,2,2,4,4,5,5,6,6],"right_children":[2,4,6,-1,8,10,12,-1,-1,-1,-1,-1,-1],"split_conditions":[5.523266E0,1.8919247E0,5.1095E-2,6.285869E-2,6.69554E-1,1.5786015E4,9.266731E-1,-6.2248714E-2,-1.3197314E-2,-4.3496072E-2,5.3663068E-2,-2.6898097E-5,2.0470338E-2],"split_indices":[83,69,26,0,27,119,48,0,0,0,0,0,0],"split_type":[0,0,0,0,0,0,0,0,0,0,0,0,0],"sum_hessian":[3.996414E4,2.2414885E2,3.9739992E4,1.3564793E1,2.1058406E2,4.977559E2,3.924224E4,1.4693388E2,6.365017E1,4.2821985E2,6.9536026E1,3.8070277E4,1.1719594E3],"tree_param":{"num_deleted":"0","num_feature":"120","num_nodes":"13","size_leaf_vector":"1"}},{"base_weights":[1.6160131E-3,-1.7840433E-1,1.233857E-2,-4.5889997E-1,-2.7071612E-2,-4.662784E-1,1.9444946E-2,-3.239462E-2,5.370601E-2,-6.631981E-3,3.918346E-2,-3.862458E-2,2.444634E-2,2.7186971E-2,5.606107E-4],"categories":[],"categories_nodes":[],"categories_segments":[],"categories_sizes":[],"default_left":[0,0,0,0,0,0,0,0,0,0,0,0,0,0,0],"id":72,"left_children":[1,3,5,7,9,11,13,-1,-1,-1,-1,-1,-1,-1,-1],"loss_changes":[7.698842E1,9.458711E1,1.27904594E2,1.07451355E2,8.874278E1,9.764903E1,1.6283727E2,0E0,0E0,0E0,0E0,0E0,0E0,0E0,0E0],"parents":[2147483647,0,0,1,1,2,2,3,3,4,4,5,5,6,6],"right_children":[2,4,6,8,10,12,14,-1,-1,-1,-1,-1,-1,-1,-1],"split_conditions":[1.0335637E0,6.188461E-1,5.4742855E-1,3.4349E0,3.0143723E-2,7.268165E-1,-1.3983827E0,-3.239462E-2,5.370601E-2,-6.631981E-3,3.918346E-2,-3.862458E-2,2.444634E-2,2.7186971E-2,5.606107E-4],"split_indices":[45,24,92,13,85,104,52,0,0,0,0,0,0,0,0],"split_type":[0,0,0,0,0,0,0,0,0,0,0,0,0,0,0],"sum_hessian":[3.9967004E4,2.2374946E3,3.772951E4,7.7868756E2,1.4588071E3,5.4586584E2,3.7183645E4,7.3030426E2,4.838327E1,1.3022668E3,1.565402E2,4.4828314E2,9.7582726E1,7.9101E2,3.6392633E4],"tree_param":{"num_deleted":"0","num_feature":"120","num_nodes":"15","size_leaf_vector":"1"}},{"base_weights":[2.4771524E-4,-2.4804077E-1,1.5599131E-2,6.307579E-2,-7.23451E-1,3.7063882E-1,2.5944796E-3,1.3329163E-2,-2.900947E-2,-5.0804168E-2,2.0591533E-3,-4.0370636E-2,2.4717871E-2,1.8279167E-2,-4.1939458E-4],"categories":[],"categories_nodes":[],"categories_segments":[],"categories_sizes":[],"default_left":[0,0,0,0,0,0,0,0,0,0,0,0,0,0,0],"id":73,"left_children":[1,3,5,7,9,11,13,-1,-1,-1,-1,-1,-1,-1,-1],"loss_changes":[1.5231485E2,3.4501837E2,1.7366296E2,1.3146988E2,1.0560022E2,7.743442E1,1.1137555E2,0E0,0E0,0E0,0E0,0E0,0E0,0E0,0E0],"parents":[2147483647,0,0,1,1,2,2,3,3,4,4,5,5,6,6],"right_children":[2,4,6,8,10,12,14,-1,-1,-1,-1,-1,-1,-1,-1],"split_conditions":[8.8946E-2,2.2684232E2,5.675315E-1,8.293367E-1,2.9325513E-3,3.8875812E-1,6.201674E-1,1.3329163E-2,-2.900947E-2,-5.0804168E-2,2.0591533E-3,-4.0370636E-2,2.4717871E-2,1.8279167E-2,-4.1939458E-4],"split_indices":[26,72,13,13,90,56,44,0,0,0,0,0,0,0,0],"split_type":[0,0,0,0,0,0,0,0,0,0,0,0,0,0,0],"sum_hessian":[4.00174E4,2.3224475E3,3.7694953E4,1.4046271E3,9.1782056E2,1.3249863E3,3.6369965E4,1.0875763E3,3.1705072E2,7.6742017E2,1.5040036E2,6.0720493E1,1.2642659E3,1.108798E3,3.5261168E4],"tree_param":{"num_deleted":"0","num_feature":"120","num_nodes":"15","size_leaf_vector":"1"}}]},"name":"gbtree"},"learner_model_param":{"base_score":"5.85561E-1","boost_from_average":"1","num_class":"0","num_feature":"120","num_target":"1"},"objective":{"name":"binary:logistic","reg_loss_param":{"scale_pos_weight":"9.69133282"}}},"version":[3,0,2]}