{"learner":{"attributes":{"best_iteration":"22","best_score":"0.13562252779151696"},"feature_names":["rTotalActivePower","rTotalReactivePower","rTotalApparentPower","rTotalReactiveEnergy","rTotalApparentEnergy","aCurrentL1","aCurrentL2","aCurrentL3","aVoltage_L1_N","aVoltage_L2_N","aVoltage_L3_N","aActivePower_L1","aActivePower_L2","aActivePower_L3","aReactivePower_L1","aReactivePower_L2","aReactivePower_L3","aApparentPower_L1","aApparentPower_L2","aApparentPower_L3","aCosPhi_L1","aCosPhi_L2","aCosPhi_L3","aPowerFactorPF_L2","airTotal","airDurchfluss","airTempeatur"],"feature_types":[],"gradient_booster":{"model":{"gbtree_model_param":{"num_parallel_tree":"1","num_trees":"53"},"iteration_indptr":[0,1,2,3,4,5,6,7,8,9,10,11,12,13,14,15,16,17,18,19,20,21,22,23,24,25,26,27,28,29,30,31,32,33,34,35,36,37,38,39,40,41,42,43,44,45,46,47,48,49,50,51,52,53],"tree_info":[0,0,0,0,0,0,0,0,0,0,0,0,0,0,0,0,0,0,0,0,0,0,0,0,0,0,0,0,0,0,0,0,0,0,0,0,0,0,0,0,0,0,0,0,0,0,0,0,0,0,0,0,0],"trees":[{"base_weights":[-1.7628671E-3,5.620229E-1,-8.989266E-2,1.1914327E0,-3.619231E-1,1.6752115E-1,-3.2921723E-1,2.56024E-1,1.2662928E-1,8.3111584E-2,-1.1167867E-1,5.5029355E-2,8.389625E-3,-1.1396392E-1,-3.132546E-2],"categories":[],"categories_nodes":[],"categories_segments":[],"categories_sizes":[],"default_left":[0,0,0,0,0,0,0,0,0,0,0,0,0,0,0],"id":0,"left_children":[1,3,5,7,9,11,13,-1,-1,-1,-1,-1,-1,-1,-1],"loss_changes":[4.935998E3,7.8121113E3,5.293441E3,9.491504E2,3.3516072E3,1.186661E3,1.8321162E3,0E0,0E0,0E0,0E0,0E0,0E0,0E0,0E0],"parents":[2147483647,0,0,1,1,2,2,3,3,4,4,5,5,6,6],"right_children":[2,4,6,8,10,12,14,-1,-1,-1,-1,-1,-1,-1,-1],"split_conditions":[3.4425348E2,2.2575224E2,1.9988E6,-7.312378E2,2.03788E8,5.34893E3,4.0219197E3,2.56024E-1,1.2662928E-1,8.3111584E-2,-1.1167867E-1,5.5029355E-2,8.389625E-3,-1.1396392E-1,-3.132546E-2],"split_indices":[15,8,3,1,4,0,0,0,0,0,0,0,0,0,0],"split_type":[0,0,0,0,0,0,0,0,0,0,0,0,0,0,0],"sum_hessian":[9.9341445E4,1.3425714E4,8.591573E4,7.9854434E3,5.4402705E3,4.139277E4,4.4522957E4,9.035373E2,7.0819062E3,1.9187523E3,3.521518E3,1.0193519E4,3.119925E4,4.1671895E3,4.035577E4],"tree_param":{"num_deleted":"0","num_feature":"27","num_nodes":"15","size_leaf_vector":"1"}},{"base_weights":[-6.386086E-3,5.6345594E-1,-9.635397E-2,1.5058869E-1,9.851162E-1,-2.7871138E-1,1.4721825E-2,2.229694E-1,-2.9753808E-2,-1.9677591E-1,1.4025958E-1,-1.0798316E-1,-2.2961976E-2,1.7379595E-2,-3.3437416E-2],"categories":[],"categories_nodes":[],"categories_segments":[],"categories_sizes":[],"default_left":[0,0,0,0,0,0,0,0,0,0,0,0,0,0,0],"id":1,"left_children":[1,3,5,7,9,11,13,-1,-1,-1,-1,-1,-1,-1,-1],"loss_changes":[5.0771025E3,2.3494507E3,1.732723E3,4.7382886E3,3.480249E3,1.7405044E3,2.0759233E3,0E0,0E0,0E0,0E0,0E0,0E0,0E0,0E0],"parents":[2147483647,0,0,1,1,2,2,3,3,4,4,5,5,6,6],"right_children":[2,4,6,8,10,12,14,-1,-1,-1,-1,-1,-1,-1,-1],"split_conditions":[8.7578094E2,2.6818774E3,1.414302E1,2.09648E8,1.86047E8,1.523832E3,2.0771293E8,2.229694E-1,-2.9753808E-2,-1.9677591E-1,1.4025958E-1,-1.0798316E-1,-2.2961976E-2,1.7379595E-2,-3.3437416E-2],"split_indices":[14,17,5,4,4,11,4,0,0,0,0,0,0,0,0],"split_type":[0,0,0,0,0,0,0,0,0,0,0,0,0,0,0],"sum_hessian":[9.902947E4,1.3499289E4,8.553018E4,6.82423E3,6.6750596E3,3.2376447E4,5.3153734E4,1.2836053E3,5.5406245E3,4.6014203E2,6.2149175E3,3.8465098E3,2.8529938E4,3.6805375E4,1.6348357E4],"tree_param":{"num_deleted":"0","num_feature":"27","num_nodes":"15","size_leaf_vector":"1"}},{"base_weights":[-7.6039955E-3,-1.1113211E-1,6.1086756E-1,8.674665E-1,-1.280992E-1,-1.1823895E0,7.236904E-1,2.1327332E-1,-1.5465555E-1,1.0229955E-2,-3.5426546E-2,-1.5299338E-1,6.366558E-2,1.06486805E-1,3.735503E-2],"categories":[],"categories_nodes":[],"categories_segments":[],"categories_sizes":[],"default_left":[0,0,0,0,0,0,0,0,0,0,0,0,0,0,0],"id":2,"left_children":[1,3,5,7,9,11,13,-1,-1,-1,-1,-1,-1,-1,-1],"loss_changes":[6.324052E3,1.4048314E3,2.868379E3,2.9188335E3,3.037544E3,1.572185E2,9.4405566E2,0E0,0E0,0E0,0E0,0E0,0E0,0E0,0E0],"parents":[2147483647,0,0,1,1,2,2,3,3,4,4,5,5,6,6],"right_children":[2,4,6,8,10,12,14,-1,-1,-1,-1,-1,-1,-1,-1],"split_conditions":[8.997485E-1,-7.365805E-1,8.327658E-1,2.0017834E6,4.334932E5,2.8616667E1,1.1766134E3,2.1327332E-1,-1.5465555E-1,1.0229955E-2,-3.5426546E-2,-1.5299338E-1,6.366558E-2,1.06486805E-1,3.735503E-2],"split_indices":[20,22,22,3,24,26,12,0,0,0,0,0,0,0,0],"split_type":[0,0,0,0,0,0,0,0,0,0,0,0,0,0,0],"sum_hessian":[9.876524E4,8.460687E4,1.4158372E4,1.4379233E3,8.3168945E4,8.3550665E2,1.3322865E4,1.00744543E3,4.3047794E2,3.68394E4,4.6329547E4,7.879321E2,4.757453E1,9.348519E3,3.974347E3],"tree_param":{"num_deleted":"0","num_feature":"27","num_nodes":"15","size_leaf_vector":"1"}},{"base_weights":[-1.1101896E-2,-8.5526295E-2,6.351217E-1,-5.933552E-1,-4.9321096E-2,-1.0986784E0,7.809173E-1,6.224874E-2,-9.561919E-2,1.4329421E-2,-2.4579242E-2,-1.5583877E-1,-5.7991643E-2,1.071812E-1,1.0570245E-2],"categories":[],"categories_nodes":[],"categories_segments":[],"categories_sizes":[],"default_left":[0,0,0,0,0,0,0,0,0,0,0,0,0,0,0],"id":3,"left_children":[1,3,5,7,9,11,13,-1,-1,-1,-1,-1,-1,-1,-1],"loss_changes":[4.726834E3,1.6199897E3,2.5688389E3,1.3937742E3,2.207962E3,9.9468445E1,7.9081396E2,0E0,0E0,0E0,0E0,0E0,0E0,0E0,0E0],"parents":[2147483647,0,0,1,1,2,2,3,3,4,4,5,5,6,6],"right_children":[2,4,6,8,10,12,14,-1,-1,-1,-1,-1,-1,-1,-1],"split_conditions":[9.112807E-1,4.6752462E-1,4.1770237E1,1.9968911E6,1.9988E6,3.5381028E-1,2.2780022E2,6.224874E-2,-9.561919E-2,1.4329421E-2,-2.4579242E-2,-1.5583877E-1,-5.7991643E-2,1.071812E-1,1.0570245E-2],"split_indices":[20,23,16,3,3,23,9,0,0,0,0,0,0,0,0],"split_type":[0,0,0,0,0,0,0,0,0,0,0,0,0,0,0],"sum_hessian":[9.8280664E4,8.813476E4,1.0145911E4,5.860113E3,8.227464E4,7.846591E2,9.361252E3,9.3403546E2,4.926077E3,3.9595383E4,4.267926E4,5.764481E2,2.0821101E2,7.954185E3,1.4070669E3],"tree_param":{"num_deleted":"0","num_feature":"27","num_nodes":"15","size_leaf_vector":"1"}},{"base_weights":[-3.2984554E-3,4.1933873E-1,-5.7760984E-2,-2.3820503E-1,6.124552E-1,4.563549E-2,-1.6356988E-1,-1.4567536E-1,1.1074751E-2,1.2849413E-1,6.92621E-5,2.5171801E-2,-2.7124032E-2,-3.7201572E-2,-1.1673846E-2],"categories":[],"categories_nodes":[],"categories_segments":[],"categories_sizes":[],"default_left":[0,0,0,0,0,0,0,0,0,0,0,0,0,0,0],"id":4,"left_children":[1,3,5,7,9,11,13,-1,-1,-1,-1,-1,-1,-1,-1],"loss_changes":[2.2679353E3,1.429019E3,9.5510364E2,8.3926605E2,2.501333E3,2.0152374E3,4.213197E2,0E0,0E0,0E0,0E0,0E0,0E0,0E0,0E0],"parents":[2147483647,0,0,1,1,2,2,3,3,4,4,5,5,6,6],"right_children":[2,4,6,8,10,12,14,-1,-1,-1,-1,-1,-1,-1,-1],"split_conditions":[5.2033334E0,1.335839E3,1.1067148E1,-7.213781E-1,2.03788E8,2.09648E8,1.110287E3,-1.4567536E-1,1.1074751E-2,1.2849413E-1,6.92621E-5,2.5171801E-2,-2.7124032E-2,-3.7201572E-2,-1.1673846E-2],"split_indices":[25,11,6,21,4,4,16,0,0,0,0,0,0,0,0],"split_type":[0,0,0,0,0,0,0,0,0,0,0,0,0,0,0],"sum_hessian":[9.85314E4,1.1243327E4,8.728807E4,2.551483E3,8.691844E3,4.4145336E4,4.3142734E4,6.382599E2,1.913223E3,4.9123975E3,3.7794465E3,2.747056E4,1.6674777E4,1.3070761E4,3.0071973E4],"tree_param":{"num_deleted":"0","num_feature":"27","num_nodes":"15","size_leaf_vector":"1"}},{"base_weights":[-5.6656315E-3,1.9106194E-1,-2.0928714E-1,1.1753175E0,1.1388635E-1,-7.5344646E-1,-1.3292564E-1,-2.9794408E-2,1.5183665E-1,4.3763112E-2,2.0116665E-3,-1.3082588E-1,-7.754733E-2,2.8381642E-2,-2.37971E-2],"categories":[],"categories_nodes":[],"categories_segments":[],"categories_sizes":[],"default_left":[0,0,0,0,0,0,0,0,0,0,0,0,0,0,0],"id":5,"left_children":[1,3,5,7,9,11,13,-1,-1,-1,-1,-1,-1,-1,-1],"loss_changes":[3.932617E3,3.791356E3,2.0036533E3,5.406763E2,1.1437101E3,2.0315869E2,1.064244E3,0E0,0E0,0E0,0E0,0E0,0E0,0E0,0E0],"parents":[2147483647,0,0,1,1,2,2,3,3,4,4,5,5,6,6],"right_children":[2,4,6,8,10,12,14,-1,-1,-1,-1,-1,-1,-1,-1],"split_conditions":[2.09648E8,9.654785E0,4.47334E5,2.621356E1,2.27091E3,4.068582E3,4.59012E5,-2.9794408E-2,1.5183665E-1,4.3763112E-2,2.0116665E-3,-1.3082588E-1,-7.754733E-2,2.8381642E-2,-2.37971E-2],"split_indices":[4,7,24,26,18,0,24,0,0,0,0,0,0,0,0],"split_type":[0,0,0,0,0,0,0,0,0,0,0,0,0,0,0],"sum_hessian":[9.816502E4,4.9926207E4,4.823882E4,3.6254136E3,4.6300793E4,5.9309585E3,4.2307863E4,2.4572858E2,3.379685E3,1.2752924E4,3.3547867E4,1.3112769E3,4.6196816E3,6.5011133E3,3.580675E4],"tree_param":{"num_deleted":"0","num_feature":"27","num_nodes":"15","size_leaf_vector":"1"}},{"base_weights":[-4.7840658E-3,5.005363E-1,-5.592565E-2,1.0236502E0,-4.229936E-2,8.2075976E-2,-1.9926584E-1,1.3875356E-1,6.7712605E-2,-1.4107825E-1,1.1995182E-2,2.8168242E-2,-3.0746644E-3,-7.7195644E-2,-1.6422234E-2],"categories":[],"categories_nodes":[],"categories_segments":[],"categories_sizes":[],"default_left":[0,0,0,0,0,0,0,0,0,0,0,0,0,0,0],"id":6,"left_children":[1,3,5,7,9,11,13,-1,-1,-1,-1,-1,-1,-1,-1],"loss_changes":[2.525369E3,2.551044E3,1.7557222E3,2.978125E2,7.2611505E2,7.5831433E2,1.1952281E3,0E0,0E0,0E0,0E0,0E0,0E0,0E0,0E0],"parents":[2147483647,0,0,1,1,2,2,3,3,4,4,5,5,6,6],"right_children":[2,4,6,8,10,12,14,-1,-1,-1,-1,-1,-1,-1,-1],"split_conditions":[1.8710328E3,1.9988E6,1.9988E6,7.333333E-2,1.0382827E3,1.0560091E1,4.4646897E5,1.3875356E-1,6.7712605E-2,-1.4107825E-1,1.1995182E-2,2.8168242E-2,-3.0746644E-3,-7.7195644E-2,-1.6422234E-2],"split_indices":[18,3,3,25,19,6,24,0,0,0,0,0,0,0,0],"split_type":[0,0,0,0,0,0,0,0,0,0,0,0,0,0,0],"sum_hessian":[9.7723086E4,8.976896E3,8.874619E4,4.5703315E3,4.406565E3,4.5213637E4,4.353255E4,3.4536614E3,1.11667E3,4.8714597E2,3.919419E3,1.8546492E4,2.6667146E4,5.1705967E3,3.8361957E4],"tree_param":{"num_deleted":"0","num_feature":"27","num_nodes":"15","size_leaf_vector":"1"}},{"base_weights":[-3.150222E-3,-5.413089E-2,3.9347097E-1,-5.564395E-1,-2.1770436E-2,-9.1850513E-1,5.067279E-1,3.5291098E-2,-8.4728904E-2,8.3614685E-2,-3.8495825E-3,1.693252E-2,-1.694281E-1,-1.2621805E-1,6.3276716E-2],"categories":[],"categories_nodes":[],"categories_segments":[],"categories_sizes":[],"default_left":[0,0,0,0,0,0,0,0,0,0,0,0,0,0,0],"id":7,"left_children":[1,3,5,7,9,11,13,-1,-1,-1,-1,-1,-1,-1,-1],"loss_changes":[1.9721156E3,1.4045728E3,1.6521782E3,7.043788E2,6.287951E2,4.7904987E2,4.266626E2,0E0,0E0,0E0,0E0,0E0,0E0,0E0,0E0],"parents":[2147483647,0,0,1,1,2,2,3,3,4,4,5,5,6,6],"right_children":[2,4,6,8,10,12,14,-1,-1,-1,-1,-1,-1,-1,-1],"split_conditions":[9.082411E-1,4.634306E-1,-8.878418E-1,1.9968911E6,-3.7082405E1,2.2631229E2,1.9762281E6,3.5291098E-2,-8.4728904E-2,8.3614685E-2,-3.8495825E-3,1.693252E-2,-1.694281E-1,-1.2621805E-1,6.3276716E-2],"split_indices":[20,23,21,3,14,9,3,0,0,0,0,0,0,0,0],"split_type":[0,0,0,0,0,0,0,0,0,0,0,0,0,0,0],"sum_hessian":[9.75357E4,8.643109E4,1.1104606E4,5.226119E3,8.120498E4,8.797613E2,1.0224845E4,8.126977E2,4.4134214E3,1.1707196E3,8.003426E4,2.857328E2,5.940285E2,1.6640434E2,1.005844E4],"tree_param":{"num_deleted":"0","num_feature":"27","num_nodes":"15","size_leaf_vector":"1"}},{"base_weights":[-5.4993434E-3,1.4229563E-1,-1.6072057E-1,8.905016E-1,8.231786E-2,-5.824553E-1,-8.856111E-2,1.2554885E-1,5.7792272E-2,3.771603E-2,2.2409246E-3,1.15732536E-1,-7.340646E-2,2.736832E-3,-4.717516E-2],"categories":[],"categories_nodes":[],"categories_segments":[],"categories_sizes":[],"default_left":[0,0,0,0,0,0,0,0,0,0,0,0,0,0,0],"id":8,"left_children":[1,3,5,7,9,11,13,-1,-1,-1,-1,-1,-1,-1,-1],"loss_changes":[2.2247703E3,2.22829E3,1.4388816E3,2.4590479E2,6.868059E2,3.9034692E2,1.3933677E3,0E0,0E0,0E0,0E0,0E0,0E0,0E0,0E0],"parents":[2147483647,0,0,1,1,2,2,3,3,4,4,5,5,6,6],"right_children":[2,4,6,8,10,12,14,-1,-1,-1,-1,-1,-1,-1,-1],"split_conditions":[2.09648E8,9.697556E0,2.14409E8,2.2439195E2,1.2738567E3,2.471E1,2.259462E2,1.2554885E-1,5.7792272E-2,3.771603E-2,2.2409246E-3,1.15732536E-1,-7.340646E-2,2.736832E-3,-4.717516E-2],"split_indices":[4,7,4,8,12,26,8,0,0,0,0,0,0,0,0],"split_type":[0,0,0,0,0,0,0,0,0,0,0,0,0,0,0],"sum_hessian":[9.696992E4,4.9671242E4,4.7298676E4,3.681419E3,4.598982E4,6.9051143E3,4.0393562E4,2.5964663E3,1.0849526E3,9.754398E3,3.623542E4,1.5357864E2,6.7515356E3,2.9673793E4,1.071977E4],"tree_param":{"num_deleted":"0","num_feature":"27","num_nodes":"15","size_leaf_vector":"1"}},{"base_weights":[5.845357E-4,1.2744015E-1,-1.3222699E-1,8.431086E-1,6.404368E-2,-5.7418294E-2,-4.1166294E-1,1.14172086E-1,5.8829833E-2,-1.094566E-1,9.926881E-3,-3.039161E-2,5.8623124E-3,-1.1231133E-1,-4.2785443E-3],"categories":[],"categories_nodes":[],"categories_segments":[],"categories_sizes":[],"default_left":[0,0,0,0,0,0,0,0,0,0,0,0,0,0,0],"id":9,"left_children":[1,3,5,7,9,11,13,-1,-1,-1,-1,-1,-1,-1,-1],"loss_changes":[1.6308157E3,2.2455513E3,9.880749E2,1.635769E2,8.791661E2,7.9183356E2,2.004187E3,0E0,0E0,0E0,0E0,0E0,0E0,0E0,0E0],"parents":[2147483647,0,0,1,1,2,2,3,3,4,4,5,5,6,6],"right_children":[2,4,6,8,10,12,14,-1,-1,-1,-1,-1,-1,-1,-1],"split_conditions":[1.9988E6,2.2041992E3,2.2683815E2,2.2439195E2,1.1753339E3,2.2331366E2,1.5358412E3,1.14172086E-1,5.8829833E-2,-1.094566E-1,9.926881E-3,-3.039161E-2,5.8623124E-3,-1.1231133E-1,-4.2785443E-3],"split_indices":[3,19,10,8,13,8,13,0,0,0,0,0,0,0,0],"split_type":[0,0,0,0,0,0,0,0,0,0,0,0,0,0,0],"sum_hessian":[9.678879E4,4.950698E4,4.7281805E4,4.0238755E3,4.5483105E4,3.730249E4,9.979315E3,2.9911936E3,1.0326819E3,8.8209E2,4.4601016E4,1.304352E4,2.425897E4,4.114563E3,5.8647524E3],"tree_param":{"num_deleted":"0","num_feature":"27","num_nodes":"15","size_leaf_vector":"1"}},{"base_weights":[-6.622556E-3,1.0928719E-1,-1.296749E-1,6.823045E-1,4.2293135E-2,-5.1597315E-1,-6.5582E-2,1.0305953E-1,2.6001463E-2,-1.17283175E-2,4.0595338E-2,-1.23685785E-1,-5.240768E-2,-1.1713845E-2,2.9309476E-2],"categories":[],"categories_nodes":[],"categories_segments":[],"categories_sizes":[],"default_left":[0,0,0,0,0,0,0,0,0,0,0,0,0,0,0],"id":10,"left_children":[1,3,5,7,9,11,13,-1,-1,-1,-1,-1,-1,-1,-1],"loss_changes":[1.3735001E3,1.9029338E3,1.1560349E3,4.4583228E2,1.8785074E3,2.573352E2,4.1479007E2,0E0,0E0,0E0,0E0,0E0,0E0,0E0,0E0],"parents":[2147483647,0,0,1,1,2,2,3,3,4,4,5,5,6,6],"right_children":[2,4,6,8,10,12,14,-1,-1,-1,-1,-1,-1,-1,-1],"split_conditions":[2.09648E8,1.9040063E3,4.4984388E5,2.245781E2,2.0209E8,1.3107175E3,8.6808103E-1,1.0305953E-1,2.6001463E-2,-1.17283175E-2,4.0595338E-2,-1.23685785E-1,-5.240768E-2,-1.1713845E-2,2.9309476E-2],"split_indices":[4,18,24,8,4,11,20,0,0,0,0,0,0,0,0],"split_type":[0,0,0,0,0,0,0,0,0,0,0,0,0,0,0],"sum_hessian":[9.62896E4,4.958136E4,4.670824E4,5.18521E3,4.4396152E4,6.641437E3,4.00668E4,3.6957224E3,1.4894877E3,3.0186252E4,1.4209898E4,8.1511847E2,5.8263184E3,3.6232125E4,3.8346763E3],"tree_param":{"num_deleted":"0","num_feature":"27","num_nodes":"15","size_leaf_vector":"1"}},{"base_weights":[-3.1036623E-3,4.2830124E-1,-2.8871464E-2,5.8756053E-1,-5.78801E-1,-6.388176E-1,-4.3194112E-3,7.7251986E-2,-2.671071E-2,-1.4790675E-1,4.42353E-4,8.070865E-2,-8.635187E-2,-1.6032581E-1,9.6670294E-5],"categories":[],"categories_nodes":[],"categories_segments":[],"categories_sizes":[],"default_left":[0,0,0,0,0,0,0,0,0,0,0,0,0,0,0],"id":11,"left_children":[1,3,5,7,9,11,13,-1,-1,-1,-1,-1,-1,-1,-1],"loss_changes":[1.0667792E3,8.688595E2,1.3560298E3,2.4148462E2,2.8853662E2,4.1229297E2,6.0289136E2,0E0,0E0,0E0,0E0,0E0,0E0,0E0,0E0],"parents":[2147483647,0,0,1,1,2,2,3,3,4,4,5,5,6,6],"right_children":[2,4,6,8,10,12,14,-1,-1,-1,-1,-1,-1,-1,-1],"split_conditions":[1.8048312E3,2.2643738E2,1.4130017E3,5.0926778E5,4.599904E0,2.09648E8,6.330812E2,7.7251986E-2,-2.671071E-2,-1.4790675E-1,4.42353E-4,8.070865E-2,-8.635187E-2,-1.6032581E-1,9.6670294E-5],"split_indices":[18,8,11,24,7,4,1,0,0,0,0,0,0,0,0],"split_type":[0,0,0,0,0,0,0,0,0,0,0,0,0,0,0],"sum_hessian":[9.5979875E4,5.4048765E3,9.0575E4,4.6688423E3,7.360341E2,3.4999993E3,8.7075E4,4.3325566E3,3.3628546E2,3.4144446E2,3.9458963E2,2.1865799E2,3.281341E3,3.272908E2,8.674771E4],"tree_param":{"num_deleted":"0","num_feature":"27","num_nodes":"15","size_leaf_vector":"1"}},{"base_weights":[4.6459115E-3,-9.190846E-1,1.429668E-2,3.7568476E-2,-1.294552E0,6.112361E-2,-2.5494605E-1,1.17478445E-1,-7.023234E-2,9.181417E-2,-1.5790465E-1,5.016704E-2,1.5559187E-3,-4.344394E-2,9.581107E-2],"categories":[],"categories_nodes":[],"categories_segments":[],"categories_sizes":[],"default_left":[0,0,0,0,0,0,0,0,0,0,0,0,0,0,0],"id":12,"left_children":[1,3,5,7,9,11,13,-1,-1,-1,-1,-1,-1,-1,-1],"loss_changes":[8.5489996E2,3.5715576E2,1.1973015E3,1.7204637E2,5.74093E1,1.4042935E3,1.6614814E3,0E0,0E0,0E0,0E0,0E0,0E0,0E0,0E0],"parents":[2147483647,0,0,1,1,2,2,3,3,4,4,5,5,6,6],"right_children":[2,4,6,8,10,12,14,-1,-1,-1,-1,-1,-1,-1,-1],"split_conditions":[-9.214364E-1,1.7654653E3,5.0926778E5,2.01673E8,2.2478201E2,8.591727E2,5.39286E5,1.17478445E-1,-7.023234E-2,9.181417E-2,-1.5790465E-1,5.016704E-2,1.5559187E-3,-4.344394E-2,9.581107E-2],"split_indices":[21,18,24,4,14,14,24,0,0,0,0,0,0,0,0],"split_type":[0,0,0,0,0,0,0,0,0,0,0,0,0,0,0],"sum_hessian":[9.5953875E4,9.876046E2,9.4966266E4,2.7887085E2,7.0873376E2,8.090129E4,1.4064978E4,1.1048023E2,1.6839062E2,1.0430252E1,6.9830347E2,9.478046E3,7.142324E4,1.2735934E4,1.3290438E3],"tree_param":{"num_deleted":"0","num_feature":"27","num_nodes":"15","size_leaf_vector":"1"}},{"base_weights":[-4.2430502E-3,9.415994E-2,-1.0971927E-1,-1.1056736E-1,2.4134584E-1,-1.2749715E-1,9.833775E-1,-1.1574387E-1,-1.0570391E-2,6.431305E-2,1.2925901E-2,-6.126071E-2,-9.479279E-3,2.4826032E-1,-4.414469E-2],"categories":[],"categories_nodes":[],"categories_segments":[],"categories_sizes":[],"default_left":[0,0,0,0,0,0,0,0,0,0,0,0,0,0,0],"id":13,"left_children":[1,3,5,7,9,11,13,-1,-1,-1,-1,-1,-1,-1,-1],"loss_changes":[9.9163E2,1.4894778E3,8.9609607E2,3.8329163E2,1.1439264E3,8.395087E2,1.1127361E3,0E0,0E0,0E0,0E0,0E0,0E0,0E0,0E0],"parents":[2147483647,0,0,1,1,2,2,3,3,4,4,5,5,6,6],"right_children":[2,4,6,8,10,12,14,-1,-1,-1,-1,-1,-1,-1,-1],"split_conditions":[2.09648E8,3.886227E5,2.06153E6,1.85596E8,1.2911307E3,4.4646897E5,2.40298E8,-1.1574387E-1,-1.0570391E-2,6.431305E-2,1.2925901E-2,-6.126071E-2,-9.479279E-3,2.4826032E-1,-4.414469E-2],"split_indices":[4,24,3,4,12,24,4,0,0,0,0,0,0,0,0],"split_type":[0,0,0,0,0,0,0,0,0,0,0,0,0,0,0],"sum_hessian":[9.553155E4,4.9419953E4,4.611159E4,2.0668207E4,2.8751748E4,4.537764E4,7.339522E2,4.9648325E2,2.0171723E4,8.788543E3,1.9963203E4,4.9472935E3,4.0430348E4,4.0283566E2,3.3111658E2],"tree_param":{"num_deleted":"0","num_feature":"27","num_nodes":"15","size_leaf_vector":"1"}},{"base_weights":[-2.7310401E-3,3.165769E-1,-2.214188E-2,9.488471E-1,1.601169E-1,1.6602272E-2,-3.0902782E-1,5.9443846E-2,1.4807072E-1,-1.15548275E-1,3.3960916E-2,-7.744697E-4,3.8135536E-2,-2.0740405E-2,-9.276274E-2],"categories":[],"categories_nodes":[],"categories_segments":[],"categories_sizes":[],"default_left":[0,0,0,0,0,0,0,0,0,0,0,0,0,0,0],"id":14,"left_children":[1,3,5,7,9,11,13,-1,-1,-1,-1,-1,-1,-1,-1],"loss_changes":[5.893282E2,5.3770105E2,9.968463E2,1.4087762E2,6.2559424E2,5.5697565E2,6.759473E2,0E0,0E0,0E0,0E0,0E0,0E0,0E0,0E0],"parents":[2147483647,0,0,1,1,2,2,3,3,4,4,5,5,6,6],"right_children":[2,4,6,8,10,12,14,-1,-1,-1,-1,-1,-1,-1,-1],"split_conditions":[2.0973433E3,1.99441E6,2.05835E6,1.9645E8,1.0382827E3,2.00886E6,2.266672E2,5.9443846E-2,1.4807072E-1,-1.15548275E-1,3.3960916E-2,-7.744697E-4,3.8135536E-2,-2.0740405E-2,-9.276274E-2],"split_indices":[19,3,3,4,19,3,9,0,0,0,0,0,0,0,0],"split_type":[0,0,0,0,0,0,0,0,0,0,0,0,0,0,0],"sum_hessian":[9.510556E4,5.4448228E3,8.966074E4,1.0753224E3,4.3695E3,7.899398E4,1.0666761E4,4.3534033E2,6.3998206E2,4.3401334E2,3.9354868E3,7.3423125E4,5.5708525E3,8.312023E3,2.3547373E3],"tree_param":{"num_deleted":"0","num_feature":"27","num_nodes":"15","size_leaf_vector":"1"}},{"base_weights":[-4.375928E-3,-4.9735802E-1,6.335987E-3,-7.2066504E-1,-3.0878553E-2,-4.373206E-2,2.113645E-1,-1.03020206E-1,1.7839974E-1,6.798674E-2,-1.3190734E-1,-1.0390857E-3,-2.6614098E-2,-1.0461202E-2,3.131949E-2],"categories":[],"categories_nodes":[],"categories_segments":[],"categories_sizes":[],"default_left":[0,0,0,0,0,0,0,0,0,0,0,0,0,0,0],"id":15,"left_children":[1,3,5,7,9,11,13,-1,-1,-1,-1,-1,-1,-1,-1],"loss_changes":[5.0145386E2,2.0978763E2,9.535934E2,4.5198688E2,4.3264648E2,4.711878E2,2.8710242E2,0E0,0E0,0E0,0E0,0E0,0E0,0E0,0E0],"parents":[2147483647,0,0,1,1,2,2,3,3,4,4,5,5,6,6],"right_children":[2,4,6,8,10,12,14,-1,-1,-1,-1,-1,-1,-1,-1],"split_conditions":[3.5381028E-1,3.0302097E3,8.877905E-1,5.39286E5,1.9968911E6,5.0926778E5,1.97817E6,-1.03020206E-1,1.7839974E-1,6.798674E-2,-1.3190734E-1,-1.0390857E-3,-2.6614098E-2,-1.0461202E-2,3.131949E-2],"split_indices":[23,17,20,24,3,24,3,0,0,0,0,0,0,0,0],"split_type":[0,0,0,0,0,0,0,0,0,0,0,0,0,0,0],"sum_hessian":[9.489162E4,2.0155314E3,9.2876086E4,1.3606494E3,6.54882E2,7.464714E4,1.8228943E4,1.2785919E3,8.2057495E1,4.209387E2,2.3394331E2,6.2537863E4,1.2109276E4,2.718066E3,1.5510878E4],"tree_param":{"num_deleted":"0","num_feature":"27","num_nodes":"15","size_leaf_vector":"1"}},{"base_weights":[-9.4490446E-4,8.455368E-2,-8.226433E-2,1.3962202E-1,-3.398788E-1,-2.6758194E-1,8.263225E-3,-9.708497E-2,1.8964242E-2,-6.485203E-2,7.363122E-2,-2.078124E-2,-6.1068274E-2,4.672138E-2,-6.1153425E-3],"categories":[],"categories_nodes":[],"categories_segments":[],"categories_sizes":[],"default_left":[0,0,0,0,0,0,0,0,0,0,0,0,0,0,0],"id":16,"left_children":[1,3,5,7,9,11,13,-1,-1,-1,-1,-1,-1,-1,-1],"loss_changes":[6.5955725E2,1.0808079E3,8.1591064E2,7.9085E2,1.054661E3,3.6373352E2,7.5312E2,0E0,0E0,0E0,0E0,0E0,0E0,0E0,0E0],"parents":[2147483647,0,0,1,1,2,2,3,3,4,4,5,5,6,6],"right_children":[2,4,6,8,10,12,14,-1,-1,-1,-1,-1,-1,-1,-1],"split_conditions":[3.713E1,2.32201E8,2.0209E8,-9.214364E-1,5.39286E5,3.93706E5,1.9984891E6,-9.708497E-2,1.8964242E-2,-6.485203E-2,7.363122E-2,-2.078124E-2,-6.1068274E-2,4.672138E-2,-6.1153425E-3],"split_indices":[25,4,4,21,24,24,3,0,0,0,0,0,0,0,0],"split_type":[0,0,0,0,0,0,0,0,0,0,0,0,0,0,0],"sum_hessian":[9.48559E4,4.6235805E4,4.8620094E4,4.092953E4,5.3062734E3,1.5956099E4,3.2663994E4,8.404857E2,4.0089047E4,4.3688584E3,9.3741473E2,1.1616065E4,4.3400327E3,4.3853174E3,2.8278676E4],"tree_param":{"num_deleted":"0","num_feature":"27","num_nodes":"15","size_leaf_vector":"1"}},{"base_weights":[-6.693713E-3,2.8880447E-2,-2.0961723E-1,2.8341234E-1,-5.8472347E-3,-6.383161E-1,-4.8301827E-2,5.1116295E-2,5.706522E-3,1.1647206E-2,-8.25211E-3,-8.951186E-2,-2.37834E-2,-1.3915256E-1,-3.8985733E-3],"categories":[],"categories_nodes":[],"categories_segments":[],"categories_sizes":[],"default_left":[0,0,0,0,0,0,0,0,0,0,0,0,0,0,0],"id":17,"left_children":[1,3,5,7,9,11,13,-1,-1,-1,-1,-1,-1,-1,-1],"loss_changes":[6.825463E2,7.111471E2,9.7476514E2,3.3441235E2,4.6872992E2,1.9445471E2,1.771712E2,0E0,0E0,0E0,0E0,0E0,0E0,0E0,0E0],"parents":[2147483647,0,0,1,1,2,2,3,3,4,4,5,5,6,6],"right_children":[2,4,6,8,10,12,14,-1,-1,-1,-1,-1,-1,-1,-1],"split_conditions":[2.2742847E2,5.348688E2,1.0858352E1,2.255559E2,3.6488335E1,3.145266E3,1.3292953E3,5.1116295E-2,5.706522E-3,1.1647206E-2,-8.25211E-3,-8.951186E-2,-2.37834E-2,-1.3915256E-1,-3.8985733E-3],"split_indices":[8,16,7,9,25,17,13,0,0,0,0,0,0,0,0],"split_type":[0,0,0,0,0,0,0,0,0,0,0,0,0,0,0],"sum_hessian":[9.4527305E4,8.042781E4,1.4099492E4,9.654807E3,7.077301E4,3.8506604E3,1.0248831E4,5.934345E3,3.7204612E3,2.687635E4,4.3896656E4,3.0412988E3,8.0936163E2,1.3440659E2,1.0114425E4],"tree_param":{"num_deleted":"0","num_feature":"27","num_nodes":"15","size_leaf_vector":"1"}},{"base_weights":[1.0977386E-3,2.7551066E-2,-1.991296E-1,9.263478E-2,-5.7067394E-2,-1.4037445E-1,-1.116067E0,-7.503755E-2,1.3079435E-2,-2.38542E-2,1.6897339E-4,-3.650084E-2,5.7605766E-2,-1.4396694E-1,-4.5658514E-2],"categories":[],"categories_nodes":[],"categories_segments":[],"categories_sizes":[],"default_left":[0,0,0,0,0,0,0,0,0,0,0,0,0,0,0],"id":18,"left_children":[1,3,5,7,9,11,13,-1,-1,-1,-1,-1,-1,-1,-1],"loss_changes":[5.009885E2,4.6028046E2,5.932169E2,6.0176953E2,3.0597955E2,1.0862057E3,4.4201355E1,0E0,0E0,0E0,0E0,0E0,0E0,0E0,0E0],"parents":[2147483647,0,0,1,1,2,2,3,3,4,4,5,5,6,6],"right_children":[2,4,6,8,10,12,14,-1,-1,-1,-1,-1,-1,-1,-1],"split_conditions":[2.31996E8,1.1006412E1,2.2844109E2,3.55588E5,4.06568E5,5.359369E5,2.082279E3,-7.503755E-2,1.3079435E-2,-2.38542E-2,1.6897339E-4,-3.650084E-2,5.7605766E-2,-1.4396694E-1,-4.5658514E-2],"split_indices":[4,6,8,24,24,24,11,0,0,0,0,0,0,0,0],"split_type":[0,0,0,0,0,0,0,0,0,0,0,0,0,0,0],"sum_hessian":[9.4598445E4,8.356478E4,1.1033658E4,4.7238734E4,3.632605E4,1.0374141E4,6.5951825E2,1.11396E3,4.6124773E4,1.049714E4,2.5828912E4,8.189262E3,2.1848782E3,5.7921564E2,8.030259E1],"tree_param":{"num_deleted":"0","num_feature":"27","num_nodes":"15","size_leaf_vector":"1"}},{"base_weights":[6.976732E-4,3.2884143E-2,-1.865938E-1,1.7554021E-1,-1.9773262E-2,-6.385183E-1,-4.232889E-2,5.6763787E-2,8.256764E-3,-4.3905242E-3,9.184051E-3,-1.4609575E-2,-1.0803903E-1,-8.1033535E-2,-1.7889745E-3],"categories":[],"categories_nodes":[],"categories_segments":[],"categories_sizes":[],"default_left":[0,0,0,0,0,0,0,0,0,0,0,0,0,0,0],"id":19,"left_children":[1,3,5,7,9,11,13,-1,-1,-1,-1,-1,-1,-1,-1],"loss_changes":[5.6906665E2,6.053724E2,9.019874E2,6.965575E2,9.8455765E1,4.680144E2,1.827709E2,0E0,0E0,0E0,0E0,0E0,0E0,0E0,0E0],"parents":[2147483647,0,0,1,1,2,2,3,3,4,4,5,5,6,6],"right_children":[2,4,6,8,10,12,14,-1,-1,-1,-1,-1,-1,-1,-1],"split_conditions":[2.2742847E2,2.2608242E3,1.3488555E3,1.97229E8,1.6572887E1,2.03788E8,7.3871533E3,5.6763787E-2,8.256764E-3,-4.3905242E-3,9.184051E-3,-1.4609575E-2,-1.0803903E-1,-8.1033535E-2,-1.7889745E-3],"split_indices":[8,18,13,4,5,4,2,0,0,0,0,0,0,0,0],"split_type":[0,0,0,0,0,0,0,0,0,0,0,0,0,0,0],"sum_hessian":[9.440859E4,8.056928E4,1.3839314E4,2.1722701E4,5.884658E4,3.344473E3,1.0494842E4,5.626784E3,1.6095918E4,4.9994105E4,8.852473E3,1.157605E3,2.186868E3,4.2355164E2,1.007129E4],"tree_param":{"num_deleted":"0","num_feature":"27","num_nodes":"15","size_leaf_vector":"1"}},{"base_weights":[-1.8925001E-3,4.6761345E-2,-7.8345835E-2,8.471449E-2,-2.4624978E-1,-6.24654E-1,-7.515917E-2,-1.3553281E-1,1.0553025E-2,-4.0011007E-2,8.938939E-2,-3.251985E-2,-1.4054637E-1,-2.1569777E-2,-5.133628E-3],"categories":[],"categories_nodes":[],"categories_segments":[],"categories_sizes":[],"default_left":[0,0,0,0,0,0,0,0,0,0,0,0,0,0,0],"id":20,"left_children":[1,3,5,7,9,11,13,-1,-1,-1,-1,-1,-1,-1,-1],"loss_changes":[3.5035526E2,6.39973E2,6.3134827E1,2.6263406E2,6.001153E2,3.912773E1,1.236886E2,0E0,0E0,0E0,0E0,0E0,0E0,0E0,0E0],"parents":[2147483647,0,0,1,1,2,2,3,3,4,4,5,5,6,6],"right_children":[2,4,6,8,10,12,14,-1,-1,-1,-1,-1,-1,-1,-1],"split_conditions":[3.9531666E1,2.05835E6,9.059482E2,9.981354E2,2.06153E6,2.5172747E3,2.2308247E2,-1.3553281E-1,1.0553025E-2,-4.0011007E-2,8.938939E-2,-3.251985E-2,-1.4054637E-1,-2.1569777E-2,-5.133628E-3],"split_indices":[25,3,14,19,3,19,10,0,0,0,0,0,0,0,0],"split_type":[0,0,0,0,0,0,0,0,0,0,0,0,0,0,0],"sum_hessian":[9.417459E4,5.754609E4,3.6628508E4,5.0951457E4,6.5946353E3,2.0679979E2,3.6421707E4,1.6995026E2,5.0781504E4,6.0479116E3,5.467238E2,1.3144319E2,7.535658E1,8.381094E3,2.8040613E4],"tree_param":{"num_deleted":"0","num_feature":"27","num_nodes":"15","size_leaf_vector":"1"}},{"base_weights":[4.4208046E-4,-5.6757797E-3,7.35246E-1,1.9203408E-2,-2.1367624E-1,-9.0729845E-1,8.148991E-1,1.2039962E-3,9.782739E-2,-1.02015175E-1,-1.5824407E-2,-1.4772047E-1,9.625895E-3,1.9086494E-1,-2.1102648E-2],"categories":[],"categories_nodes":[],"categories_segments":[],"categories_sizes":[],"default_left":[0,0,0,0,0,0,0,0,0,0,0,0,0,0,0],"id":21,"left_children":[1,3,5,7,9,11,13,-1,-1,-1,-1,-1,-1,-1,-1],"loss_changes":[4.232579E2,4.8280597E2,1.0455536E2,6.069769E2,5.161328E2,1.36363735E1,5.8793604E2,0E0,0E0,0E0,0E0,0E0,0E0,0E0,0E0],"parents":[2147483647,0,0,1,1,2,2,3,3,4,4,5,5,6,6],"right_children":[2,4,6,8,10,12,14,-1,-1,-1,-1,-1,-1,-1,-1],"split_conditions":[2.06153E6,2.05835E6,8.2583684E-1,5.1281E5,1.5099196E3,6.025281E3,5.40215E5,1.2039962E-3,9.782739E-2,-1.02015175E-1,-1.5824407E-2,-1.4772047E-1,9.625895E-3,1.9086494E-1,-2.1102648E-2],"split_indices":[3,3,22,24,11,0,24,0,0,0,0,0,0,0,0],"split_type":[0,0,0,0,0,0,0,0,0,0,0,0,0,0,0],"sum_hessian":[9.404004E4,9.326652E4,7.7351324E2,8.330299E4,9.963532E3,3.3513386E1,7.399999E2,8.2380875E4,9.221169E2,1.0970721E3,8.86646E3,2.471595E1,8.797437E0,4.1031253E2,3.2968735E2],"tree_param":{"num_deleted":"0","num_feature":"27","num_nodes":"15","size_leaf_vector":"1"}},{"base_weights":[2.004115E-3,-1.5719458E-1,2.5930533E-2,1.5126182E-1,-5.51285E-1,1.5843748E-1,-5.135571E-2,4.1881736E-2,-1.7219787E-2,-3.5638202E-2,-1.2843758E-1,2.2224048E-2,-1.5734954E-2,-2.2675602E-2,2.6437566E-3],"categories":[],"categories_nodes":[],"categories_segments":[],"categories_sizes":[],"default_left":[0,0,0,0,0,0,0,0,0,0,0,0,0,0,0],"id":22,"left_children":[1,3,5,7,9,11,13,-1,-1,-1,-1,-1,-1,-1,-1],"loss_changes":[3.585099E2,1.4953821E3,8.382807E2,4.1265546E2,7.175465E2,2.5309009E2,5.3191614E2,0E0,0E0,0E0,0E0,0E0,0E0,0E0,0E0],"parents":[2147483647,0,0,1,1,2,2,3,3,4,4,5,5,6,6],"right_children":[2,4,6,8,10,12,14,-1,-1,-1,-1,-1,-1,-1,-1],"split_conditions":[4.0219197E3,2.2663931E2,3.5172882E1,2.3583333E0,1.9246414E3,2.31996E8,2.0209E8,4.1881736E-2,-1.7219787E-2,-3.5638202E-2,-1.2843758E-1,2.2224048E-2,-1.5734954E-2,-2.2675602E-2,2.6437566E-3],"split_indices":[0,9,25,25,1,4,4,0,0,0,0,0,0,0,0],"split_type":[0,0,0,0,0,0,0,0,0,0,0,0,0,0,0],"sum_hessian":[9.4134695E4,1.2292874E4,8.184182E4,6.896063E3,5.396811E3,3.0151492E4,5.169033E4,4.1047163E3,2.7913467E3,3.6694805E3,1.7273304E3,2.7437574E4,2.7139192E3,1.7841047E4,3.3849285E4],"tree_param":{"num_deleted":"0","num_feature":"27","num_nodes":"15","size_leaf_vector":"1"}},{"base_weights":[-3.2308016E-3,5.447754E-2,-6.587146E-2,-8.505928E-2,1.5579264E-1,-7.477421E-1,-4.6968903E-2,-4.484647E-3,-4.5719624E-2,4.1935388E-2,8.701417E-3,-3.147801E-3,-1.2067146E-1,-2.1377426E-2,7.265961E-4],"categories":[],"categories_nodes":[],"categories_segments":[],"categories_sizes":[],"default_left":[0,0,0,0,0,0,0,0,0,0,0,0,0,0,0],"id":23,"left_children":[1,3,5,7,9,11,13,-1,-1,-1,-1,-1,-1,-1,-1],"loss_changes":[3.3887732E2,6.898103E2,5.7878564E2,2.908753E2,4.6021484E2,2.3428552E2,3.093991E2,0E0,0E0,0E0,0E0,0E0,0E0,0E0,0E0],"parents":[2147483647,0,0,1,1,2,2,3,3,4,4,5,5,6,6],"right_children":[2,4,6,8,10,12,14,-1,-1,-1,-1,-1,-1,-1,-1],"split_conditions":[2.09648E8,1.9624088E8,-1.716288E1,2.2859848E2,1.6628055E3,2.245264E2,2.2331366E2,-4.484647E-3,-4.5719624E-2,4.1935388E-2,8.701417E-3,-3.147801E-3,-1.2067146E-1,-2.1377426E-2,7.265961E-4],"split_indices":[4,4,15,8,13,8,8,0,0,0,0,0,0,0,0],"split_type":[0,0,0,0,0,0,0,0,0,0,0,0,0,0,0],"sum_hessian":[9.373502E4,4.8783176E4,4.4951848E4,2.0518363E4,2.8264814E4,1.2075183E3,4.3744332E4,1.7732477E4,2.7858862E3,8.318312E3,1.9946502E4,3.2989798E2,8.776203E2,1.2470276E4,3.1274055E4],"tree_param":{"num_deleted":"0","num_feature":"27","num_nodes":"15","size_leaf_vector":"1"}},{"base_weights":[-1.6912065E-3,-9.2861336E-1,1.741814E-3,-6.9622934E-1,-1.0584588E0,7.7537084E-1,-3.6844986E-3,-3.2099284E-2,-1.3710953E-1,-0E0,-1.3038132E-1,1.0198148E-1,-7.163452E-2,-1.0748417E-3,7.7219784E-2],"categories":[],"categories_nodes":[],"categories_segments":[],"categories_sizes":[],"default_left":[0,0,0,0,0,0,0,0,0,0,0,0,0,0,0],"id":24,"left_children":[1,3,5,7,9,11,13,-1,-1,-1,-1,-1,-1,-1,-1],"loss_changes":[2.9877942E2,6.424011E0,3.924284E2,2.4713188E1,8.897461E0,7.756238E1,3.2551346E2,0E0,0E0,0E0,0E0,0E0,0E0,0E0,0E0],"parents":[2147483647,0,0,1,1,2,2,3,3,4,4,5,5,6,6],"right_children":[2,4,6,8,10,12,14,-1,-1,-1,-1,-1,-1,-1,-1],"split_conditions":[4.599904E0,-1.6682029E3,4.9863716E3,4.919729E2,2.6803333E1,2.88E1,2.06153E6,-3.2099284E-2,-1.3710953E-1,-0E0,-1.3038132E-1,1.0198148E-1,-7.163452E-2,-1.0748417E-3,7.7219784E-2],"split_indices":[7,1,2,12,26,26,3,0,0,0,0,0,0,0,0],"split_type":[0,0,0,0,0,0,0,0,0,0,0,0,0,0,0],"sum_hessian":[9.3697484E4,3.4254153E2,9.3354945E4,1.3352689E2,2.0901463E2,6.471966E2,9.270774E4,7.324496E1,6.0281937E1,7.90585E0,2.0110878E2,6.119013E2,3.5295277E1,9.195763E4,7.501162E2],"tree_param":{"num_deleted":"0","num_feature":"27","num_nodes":"15","size_leaf_vector":"1"}},{"base_weights":[1.3957932E-3,-8.038987E-3,3.755522E-1,1.6980793E-2,-2.609171E-1,5.8959585E-1,-4.3612355E-1,3.0736271E-3,-2.846294E-2,-8.405021E-2,-2.1455612E-2,1.09486714E-1,2.87551E-2,2.1687886E-1,-8.491013E-2],"categories":[],"categories_nodes":[],"categories_segments":[],"categories_sizes":[],"default_left":[0,0,0,0,0,0,0,0,0,0,0,0,0,0,0],"id":25,"left_children":[1,3,5,7,9,11,13,-1,-1,-1,-1,-1,-1,-1,-1],"loss_changes":[3.304445E2,5.774388E2,4.0111502E2,1.9003125E2,2.9343475E2,2.0931189E2,3.0922415E2,0E0,0E0,0E0,0E0,0E0,0E0,0E0,0E0],"parents":[2147483647,0,0,1,1,2,2,3,3,4,4,5,5,6,6],"right_children":[2,4,6,8,10,12,14,-1,-1,-1,-1,-1,-1,-1,-1],"split_conditions":[2.3885926E8,2.05835E6,2.2576125E2,2.2995918E2,9.6624426E2,2.059302E6,2.5023333E1,3.0736271E-3,-2.846294E-2,-8.405021E-2,-2.1455612E-2,1.09486714E-1,2.87551E-2,2.1687886E-1,-8.491013E-2],"split_indices":[4,3,9,8,12,3,26,0,0,0,0,0,0,0,0],"split_type":[0,0,0,0,0,0,0,0,0,0,0,0,0,0,0],"sum_hessian":[9.353324E4,9.123476E4,2.298485E3,8.302168E4,8.213079E3,1.8203275E3,4.781577E2,8.0241336E4,2.7803396E3,1.2418849E3,6.9711943E3,9.250986E2,8.952289E2,4.9881813E1,4.282759E2],"tree_param":{"num_deleted":"0","num_feature":"27","num_nodes":"15","size_leaf_vector":"1"}},{"base_weights":[-5.1712883E-3,-7.254728E-1,7.175112E-4,5.5650663E-1,-9.9579686E-1,2.2016087E-1,-1.7760115E-2,9.392469E-2,-9.111398E-2,-5.643116E-2,-1.3526356E-1,7.506941E-2,1.1719935E-2,-1.20862955E-2,1.8949881E-3],"categories":[],"categories_nodes":[],"categories_segments":[],"categories_sizes":[],"default_left":[0,0,0,0,0,0,0,0,0,0,0,0,0,0,0],"id":26,"left_children":[1,3,5,7,9,11,13,-1,-1,-1,-1,-1,-1,-1,-1],"loss_changes":[3.9645782E2,2.6511975E2,3.7562476E2,4.4110428E1,4.3841858E1,3.594902E2,2.4226888E2,0E0,0E0,0E0,0E0,0E0,0E0,0E0,0E0],"parents":[2147483647,0,0,1,1,2,2,3,3,4,4,5,5,6,6],"right_children":[2,4,6,8,10,12,14,-1,-1,-1,-1,-1,-1,-1,-1],"split_conditions":[-9.214364E-1,2.2389885E2,1.8710328E3,2.0501313E3,2.2631229E2,3.9137878E5,7.962369E-1,9.392469E-2,-9.111398E-2,-5.643116E-2,-1.3526356E-1,7.506941E-2,1.1719935E-2,-1.20862955E-2,1.8949881E-3],"split_indices":[21,10,18,19,9,24,20,0,0,0,0,0,0,0,0],"split_type":[0,0,0,0,0,0,0,0,0,0,0,0,0,0,0],"sum_hessian":[9.335113E4,7.5400696E2,9.2597125E4,1.3016414E2,6.238428E2,7.190762E3,8.540636E4,1.1230994E2,1.78542E1,1.3982469E2,4.840181E2,1.630535E3,5.560227E3,2.4454484E4,6.095188E4],"tree_param":{"num_deleted":"0","num_feature":"27","num_nodes":"15","size_leaf_vector":"1"}},{"base_weights":[4.034782E-3,-1.3385078E-1,2.4075707E-2,-6.0428536E-1,1.088533E-1,2.288204E-1,-7.891213E-3,-2.3384739E-2,-1.062895E-1,3.7527803E-2,-1.6391275E-2,7.826757E-2,2.4291001E-2,-1.2596369E-2,5.2817487E-3],"categories":[],"categories_nodes":[],"categories_segments":[],"categories_sizes":[],"default_left":[0,0,0,0,0,0,0,0,0,0,0,0,0,0,0],"id":27,"left_children":[1,3,5,7,9,11,13,-1,-1,-1,-1,-1,-1,-1,-1],"loss_changes":[2.579526E2,1.353002E3,5.337544E2,4.7703467E2,4.005617E2,1.1341443E2,3.630688E2,0E0,0E0,0E0,0E0,0E0,0E0,0E0,0E0],"parents":[2147483647,0,0,1,1,2,2,3,3,4,4,5,5,6,6],"right_children":[2,4,6,8,10,12,14,-1,-1,-1,-1,-1,-1,-1,-1],"split_conditions":[4.0219197E3,2.6603333E1,9.856806E0,1.8213944E3,2.2535406E2,2.4650063E3,2.0209E8,-2.3384739E-2,-1.062895E-1,3.7527803E-2,-1.6391275E-2,7.826757E-2,2.4291001E-2,-1.2596369E-2,5.2817487E-3],"split_indices":[0,26,6,1,10,17,4,0,0,0,0,0,0,0,0],"split_type":[0,0,0,0,0,0,0,0,0,0,0,0,0,0,0],"sum_hessian":[9.336494E4,1.1841104E4,8.1523836E4,4.0288308E3,7.812273E3,1.1008936E4,7.05149E4,1.6837991E3,2.345032E3,4.2475073E3,3.5647659E3,5.7747284E2,1.0431463E4,2.4529025E4,4.5985875E4],"tree_param":{"num_deleted":"0","num_feature":"27","num_nodes":"15","size_leaf_vector":"1"}},{"base_weights":[1.0013775E-3,-6.8868995E-1,6.2611015E-3,-9.455929E-1,4.0577505E-2,2.2111174E-1,-6.680382E-3,1.1417666E-1,-1.2744552E-1,9.791946E-2,-1.2007426E-1,-8.886079E-2,3.364999E-2,-7.932351E-3,3.4355505E-3],"categories":[],"categories_nodes":[],"categories_segments":[],"categories_sizes":[],"default_left":[0,0,0,0,0,0,0,0,0,0,0,0,0,0,0],"id":28,"left_children":[1,3,5,7,9,11,13,-1,-1,-1,-1,-1,-1,-1,-1],"loss_changes":[3.3745758E2,1.3264282E2,2.5718082E2,1.3172781E2,1.5712979E2,3.186841E2,1.8691513E2,0E0,0E0,0E0,0E0,0E0,0E0,0E0,0E0],"parents":[2147483647,0,0,1,1,2,2,3,3,4,4,5,5,6,6],"right_children":[2,4,6,8,10,12,14,-1,-1,-1,-1,-1,-1,-1,-1],"split_conditions":[-9.214364E-1,9.682059E-1,1.8249551E3,2.2190302E2,2.2911905E2,4.599904E0,8.133842E-1,1.1417666E-1,-1.2744552E-1,9.791946E-2,-1.2007426E-1,-8.886079E-2,3.364999E-2,-7.932351E-3,3.4355505E-3],"split_indices":[21,20,18,9,9,7,20,0,0,0,0,0,0,0,0],"split_type":[0,0,0,0,0,0,0,0,0,0,0,0,0,0,0],"sum_hessian":[9.313896E4,7.0012823E2,9.243883E4,5.1753876E2,1.825895E2,5.250964E3,8.718787E4,3.0681973E1,4.8685678E2,1.05445496E2,7.7144E1,3.1430634E2,4.9366577E3,3.2435652E4,5.475221E4],"tree_param":{"num_deleted":"0","num_feature":"27","num_nodes":"15","size_leaf_vector":"1"}},{"base_weights":[-3.8527816E-3,-9.848333E-3,4.0230393E-1,9.130441E-3,-1.8889958E-1,-1.114327E0,4.658051E-1,7.7779696E-5,6.7810684E-2,-9.955338E-2,-1.5444388E-2,-5.581244E-2,-1.5005273E-1,9.110665E-2,-4.1989427E-2],"categories":[],"categories_nodes":[],"categories_segments":[],"categories_sizes":[],"default_left":[0,0,0,0,0,0,0,0,0,0,0,0,0,0,0],"id":29,"left_children":[1,3,5,7,9,11,13,-1,-1,-1,-1,-1,-1,-1,-1],"loss_changes":[2.2561565E2,3.1073242E2,1.3141154E2,3.9343814E2,3.336494E2,1.8465576E0,3.2216537E2,0E0,0E0,0E0,0E0,0E0,0E0,0E0,0E0],"parents":[2147483647,0,0,1,1,2,2,3,3,4,4,5,5,6,6],"right_children":[2,4,6,8,10,12,14,-1,-1,-1,-1,-1,-1,-1,-1],"split_conditions":[2.39907E8,5.1537E5,1.4130017E3,5.1281E5,5.16961E5,4.0829492E-1,2.40298E8,7.7779696E-5,6.7810684E-2,-9.955338E-2,-1.5444388E-2,-5.581244E-2,-1.5005273E-1,9.110665E-2,-4.1989427E-2],"split_indices":[4,24,11,24,24,23,4,0,0,0,0,0,0,0,0],"split_type":[0,0,0,0,0,0,0,0,0,0,0,0,0,0,0],"sum_hessian":[9.2744555E4,9.140075E4,1.3438014E3,8.264119E4,8.759565E3,5.0983963E1,1.2928175E3,8.1419E4,1.2221897E3,7.210811E2,8.0384844E3,1.3514847E1,3.746912E1,9.4559204E2,3.472254E2],"tree_param":{"num_deleted":"0","num_feature":"27","num_nodes":"15","size_leaf_vector":"1"}},{"base_weights":[-3.2193556E-3,-2.7849653E-1,6.844411E-3,-1.1791834E-1,-9.734518E-1,-1.6545199E-3,3.4040487E-1,-5.7748505E-3,-1.2703903E-1,-2.2211572E-2,-1.3240853E-1,7.420491E-4,-1.4686586E-1,5.8069896E-2,-6.1880015E-2],"categories":[],"categories_nodes":[],"categories_segments":[],"categories_sizes":[],"default_left":[0,0,0,0,0,0,0,0,0,0,0,0,0,0,0],"id":30,"left_children":[1,3,5,7,9,11,13,-1,-1,-1,-1,-1,-1,-1,-1],"loss_changes":[2.5728943E2,3.643811E2,2.5404648E2,1.749482E2,6.6948364E1,8.5404645E2,2.8669214E2,0E0,0E0,0E0,0E0,0E0,0E0,0E0,0E0],"parents":[2147483647,0,0,1,1,2,2,3,3,4,4,5,5,6,6],"right_children":[2,4,6,8,10,12,14,-1,-1,-1,-1,-1,-1,-1,-1],"split_conditions":[1.3233434E3,9.3117706E2,5.359369E5,5.1908612E5,2.2551056E2,5.344889E5,2.257986E2,-5.7748505E-3,-1.2703903E-1,-2.2211572E-2,-1.3240853E-1,7.420491E-4,-1.4686586E-1,5.8069896E-2,-6.1880015E-2],"split_indices":[11,14,24,24,8,24,10,0,0,0,0,0,0,0,0],"split_type":[0,0,0,0,0,0,0,0,0,0,0,0,0,0,0],"sum_hessian":[9.280307E4,3.2716816E3,8.953139E4,2.6620938E3,6.0958765E2,8.7308766E4,2.222621E3,2.4861296E3,1.7596422E2,9.5468414E1,5.1411926E2,8.675707E4,5.517027E2,1.8972742E3,3.2534683E2],"tree_param":{"num_deleted":"0","num_feature":"27","num_nodes":"15","size_leaf_vector":"1"}},{"base_weights":[-1.3261469E-3,-9.7700335E-2,2.5506752E-2,-5.832948E-2,-4.3488696E-1,8.978638E-1,-1.4426262E-2,-1.7130168E-2,9.097338E-3,-6.020649E-2,7.138978E-2,1.3879283E-1,4.3027434E-2,-1.5712433E-4,-2.8688299E-2],"categories":[],"categories_nodes":[],"categories_segments":[],"categories_sizes":[],"default_left":[0,0,0,0,0,0,0,0,0,0,0,0,0,0,0],"id":31,"left_children":[1,3,5,7,9,11,13,-1,-1,-1,-1,-1,-1,-1,-1],"loss_changes":[2.4015337E2,2.6809338E2,2.530484E3,2.104388E2,1.5968625E2,4.5965552E2,2.066672E2,0E0,0E0,0E0,0E0,0E0,0E0,0E0,0E0],"parents":[2147483647,0,0,1,1,2,2,3,3,4,4,5,5,6,6],"right_children":[2,4,6,8,10,12,14,-1,-1,-1,-1,-1,-1,-1,-1],"split_conditions":[3.886227E5,2.2960814E2,1.99445E6,2.264923E2,2.3280937E2,2.9526667E1,2.8616667E1,-1.7130168E-2,9.097338E-3,-6.020649E-2,7.138978E-2,1.3879283E-1,4.3027434E-2,-1.5712433E-4,-2.8688299E-2],"split_indices":[24,9,3,10,10,25,26,0,0,0,0,0,0,0,0],"split_type":[0,0,0,0,0,0,0,0,0,0,0,0,0,0,0],"sum_hessian":[9.284094E4,2.022256E4,7.261838E4,1.8114041E4,2.108519E3,3.1756943E3,6.944269E4,1.1066876E4,7.0471655E3,1.9732704E3,1.3524875E2,2.102851E3,1.0728434E3,6.566444E4,3.7782502E3],"tree_param":{"num_deleted":"0","num_feature":"27","num_nodes":"15","size_leaf_vector":"1"}},{"base_weights":[-5.527023E-3,2.9535173E-2,-5.973772E-2,6.392209E-2,-1.1829371E-1,-2.4432139E-1,6.489912E-5,2.9239487E-2,5.860551E-3,-4.633537E-2,4.8146006E-3,-3.3827845E-2,2.1711921E-2,3.4981478E-2,-4.483636E-3],"categories":[],"categories_nodes":[],"categories_segments":[],"categories_sizes":[],"default_left":[0,0,0,0,0,0,0,0,0,0,0,0,0,0,0],"id":32,"left_children":[1,3,5,7,9,11,13,-1,-1,-1,-1,-1,-1,-1,-1],"loss_changes":[1.7561617E2,2.8513342E2,4.0075806E2,1.2050479E2,4.5782074E2,1.5480432E2,3.0591577E2,0E0,0E0,0E0,0E0,0E0,0E0,0E0,0E0],"parents":[2147483647,0,0,1,1,2,2,3,3,4,4,5,5,6,6],"right_children":[2,4,6,8,10,12,14,-1,-1,-1,-1,-1,-1,-1,-1],"split_conditions":[3.9531666E1,2.2748491E2,4.08921E5,2.0501313E3,9.308444E0,1.1714058E1,1.9979745E6,2.9239487E-2,5.860551E-3,-4.633537E-2,4.8146006E-3,-3.3827845E-2,2.1711921E-2,3.4981478E-2,-4.483636E-3],"split_indices":[25,10,24,19,6,6,3,0,0,0,0,0,0,0,0],"split_type":[0,0,0,0,0,0,0,0,0,0,0,0,0,0,0],"sum_hessian":[9.237541E4,5.60885E4,3.6286906E4,4.550911E4,1.0579391E4,8.879293E3,2.7407613E4,3.3512466E3,4.2157863E4,3.8989033E3,6.680487E3,8.109368E3,7.699242E2,3.1180527E3,2.428956E4],"tree_param":{"num_deleted":"0","num_feature":"27","num_nodes":"15","size_leaf_vector":"1"}},{"base_weights":[-6.24842E-3,1.5176998E-1,-1.6110916E-2,1.8183708E-1,-4.2668888E-1,-2.2539431E-1,-4.8940685E-3,3.9364908E-2,-1.210357E-2,1.2706192E-1,-6.1261736E-2,3.9582413E-2,-7.240383E-2,3.433449E-2,-1.6725889E-3],"categories":[],"categories_nodes":[],"categories_segments":[],"categories_sizes":[],"default_left":[0,0,0,0,0,0,0,0,0,0,0,0,0,0,0],"id":33,"left_children":[1,3,5,7,9,11,13,-1,-1,-1,-1,-1,-1,-1,-1],"loss_changes":[1.436797E2,9.433601E1,2.0368507E2,2.1939938E2,3.7683823E1,9.500532E2,2.2290689E2,0E0,0E0,0E0,0E0,0E0,0E0,0E0,0E0],"parents":[2147483647,0,0,1,1,2,2,3,3,4,4,5,5,6,6],"right_children":[2,4,6,8,10,12,14,-1,-1,-1,-1,-1,-1,-1,-1],"split_conditions":[1.8249551E3,1.8213944E3,4.2742512E-1,2.24286E8,1.1129822E3,2.03788E8,5.8316665E0,3.9364908E-2,-1.210357E-2,1.2706192E-1,-6.1261736E-2,3.9582413E-2,-7.240383E-2,3.433449E-2,-1.6725889E-3],"split_indices":[18,1,23,4,13,4,25,0,0,0,0,0,0,0,0],"split_type":[0,0,0,0,0,0,0,0,0,0,0,0,0,0,0],"sum_hessian":[9.224007E4,5.411642E3,8.682843E4,5.1478784E3,2.6376385E2,4.410207E3,8.241822E4,3.370122E3,1.7777561E3,1.2043295E1,2.5172055E2,1.7974653E3,2.612742E3,2.4932288E3,7.992499E4],"tree_param":{"num_deleted":"0","num_feature":"27","num_nodes":"15","size_leaf_vector":"1"}},{"base_weights":[1.5617186E-3,-1.2343626E-1,1.885985E-2,2.8862229E-2,-4.5736128E-1,1.9198202E-1,-8.351043E-3,8.735999E-3,-1.1001412E-1,-3.4396373E-2,-1.0208274E-1,4.2061828E-2,1.6964493E-2,-1.332622E-3,6.873229E-2],"categories":[],"categories_nodes":[],"categories_segments":[],"categories_sizes":[],"default_left":[0,0,0,0,0,0,0,0,0,0,0,0,0,0,0],"id":34,"left_children":[1,3,5,7,9,11,13,-1,-1,-1,-1,-1,-1,-1,-1],"loss_changes":[1.9993558E2,5.7195355E2,3.8291818E2,3.2998776E2,2.3596405E2,8.7421295E1,1.1837759E2,0E0,0E0,0E0,0E0,0E0,0E0,0E0,0E0],"parents":[2147483647,0,0,1,1,2,2,3,3,4,4,5,5,6,6],"right_children":[2,4,6,8,10,12,14,-1,-1,-1,-1,-1,-1,-1,-1],"split_conditions":[4.0219197E3,2.2681721E2,9.856806E0,7.1379474E2,5.615155E2,2.310861E3,2.32521E2,8.735999E-3,-1.1001412E-1,-3.4396373E-2,-1.0208274E-1,4.2061828E-2,1.6964493E-2,-1.332622E-3,6.873229E-2],"split_indices":[0,8,6,16,16,19,9,0,0,0,0,0,0,0,0],"split_type":[0,0,0,0,0,0,0,0,0,0,0,0,0,0,0],"sum_hessian":[9.24905E4,1.1236058E4,8.1254445E4,7.717743E3,3.5183142E3,1.1036665E4,7.021778E4,7.3767036E3,3.4103946E2,2.490712E3,1.0276022E3,2.5505325E3,8.486133E3,6.988044E4,3.373437E2],"tree_param":{"num_deleted":"0","num_feature":"27","num_nodes":"15","size_leaf_vector":"1"}},{"base_weights":[-1.1977387E-3,-6.677978E-1,3.3920172E-3,-7.793853E-1,1.4915252E-1,4.1666638E-2,-5.5213876E-2,-3.331222E-2,-1.3440198E-1,1.5905453E-1,-8.624508E-2,-1.23668924E-1,5.2463147E-3,-1.7035197E-2,-1.7686725E-3],"categories":[],"categories_nodes":[],"categories_segments":[],"categories_sizes":[],"default_left":[0,0,0,0,0,0,0,0,0,0,0,0,0,0,0],"id":35,"left_children":[1,3,5,7,9,11,13,-1,-1,-1,-1,-1,-1,-1,-1],"loss_changes":[2.824972E2,5.8424744E1,2.0538489E2,9.588986E1,8.608132E1,1.5197562E2,1.2866667E2,0E0,0E0,0E0,0E0,0E0,0E0,0E0,0E0],"parents":[2147483647,0,0,1,1,2,2,3,3,4,4,5,5,6,6],"right_children":[2,4,6,8,10,12,14,-1,-1,-1,-1,-1,-1,-1,-1],"split_conditions":[-9.214364E-1,2.00794E6,3.9531666E1,4.07185E5,2.2468517E2,9.981354E2,2.2331366E2,-3.331222E-2,-1.3440198E-1,1.5905453E-1,-8.624508E-2,-1.23668924E-1,5.2463147E-3,-1.7035197E-2,-1.7686725E-3],"split_indices":[21,3,25,24,8,19,8,0,0,0,0,0,0,0,0],"split_type":[0,0,0,0,0,0,0,0,0,0,0,0,0,0,0],"sum_hessian":[9.218566E4,6.2747864E2,9.155818E4,5.52929E2,7.4549614E1,5.5393645E4,3.616454E4,2.3288942E2,3.200396E2,3.1023434E1,4.352618E1,1.2513715E2,5.5268508E4,1.1324665E4,2.4839871E4],"tree_param":{"num_deleted":"0","num_feature":"27","num_nodes":"15","size_leaf_vector":"1"}},{"base_weights":[2.4232888E-3,-7.920819E-2,2.4615338E-2,-4.9186325E-1,-4.633126E-2,-7.1418636E-2,5.827201E-2,1.04886875E-1,-8.6724505E-2,8.685281E-2,-6.764482E-3,1.0463713E-2,-1.6673096E-2,-6.5865987E-3,1.2522123E-2],"categories":[],"categories_nodes":[],"categories_segments":[],"categories_sizes":[],"default_left":[0,0,0,0,0,0,0,0,0,0,0,0,0,0,0],"id":36,"left_children":[1,3,5,7,9,11,13,-1,-1,-1,-1,-1,-1,-1,-1],"loss_changes":[1.6689612E2,2.666933E2,2.3420241E2,4.7930157E2,1.5115045E2,2.0731421E2,2.8845938E2,0E0,0E0,0E0,0E0,0E0,0E0,0E0,0E0],"parents":[2147483647,0,0,1,1,2,2,3,3,4,4,5,5,6,6],"right_children":[2,4,6,8,10,12,14,-1,-1,-1,-1,-1,-1,-1,-1],"split_conditions":[7.8590405E-1,1.4547095E3,1.9782E6,1.99476E6,1.093062E1,1.9773E6,2.2338765E2,1.04886875E-1,-8.6724505E-2,8.685281E-2,-6.764482E-3,1.0463713E-2,-1.6673096E-2,-6.5865987E-3,1.2522123E-2],"split_indices":[20,11,3,3,5,3,9,0,0,0,0,0,0,0,0],"split_type":[0,0,0,0,0,0,0,0,0,0,0,0,0,0,0],"sum_hessian":[9.213932E4,1.9686168E4,7.245315E4,1.4471932E3,1.8238975E4,1.8796533E4,5.3656617E4,2.12156E2,1.2350372E3,2.4222478E2,1.799675E4,5.6746875E3,1.3121847E4,1.5738483E4,3.7918133E4],"tree_param":{"num_deleted":"0","num_feature":"27","num_nodes":"15","size_leaf_vector":"1"}},{"base_weights":[-3.013361E-3,-6.60502E-3,4.4854936E-1,-3.7203368E-2,4.053869E-2,1.2434969E0,-3.7694475E-1,-7.305553E-4,-1.6615495E-2,-8.671304E-4,1.8218648E-2,1.613836E-2,1.497102E-1,-1.5739071E-1,2.4268122E-2],"categories":[],"categories_nodes":[],"categories_segments":[],"categories_sizes":[],"default_left":[0,0,0,0,0,0,0,0,0,0,0,0,0,0,0],"id":37,"left_children":[1,3,5,7,9,11,13,-1,-1,-1,-1,-1,-1,-1,-1],"loss_changes":[1.4908716E2,1.318096E2,4.7839154E2,1.7678412E2,1.9445187E2,5.8012085E0,1.9962505E2,0E0,0E0,0E0,0E0,0E0,0E0,0E0,0E0],"parents":[2147483647,0,0,1,1,2,2,3,3,4,4,5,5,6,6],"right_children":[2,4,6,8,10,12,14,-1,-1,-1,-1,-1,-1,-1,-1],"split_conditions":[2.06153E6,1.0967551E3,2.40298E8,5.721781E3,8.20477E-1,8.0688715E-1,1.1365944E3,-7.305553E-4,-1.6615495E-2,-8.671304E-4,1.8218648E-2,1.613836E-2,1.497102E-1,-1.5739071E-1,2.4268122E-2],"split_indices":[3,16,4,0,20,20,15,0,0,0,0,0,0,0,0],"split_type":[0,0,0,0,0,0,0,0,0,0,0,0,0,0,0],"sum_hessian":[9.208945E4,9.136803E4,7.214235E2,5.5415516E4,3.5952516E4,3.669002E2,3.5452335E2,4.2569246E4,1.2846269E4,2.5254793E4,1.0697725E4,6.9726944E0,3.5992752E2,1.3318211E2,2.2134122E2],"tree_param":{"num_deleted":"0","num_feature":"27","num_nodes":"15","size_leaf_vector":"1"}},{"base_weights":[-1.7513853E-3,-2.4509332E-1,6.01449E-3,-3.8642533E-2,-5.525763E-1,2.6191059E-3,4.4530258E-1,-8.831429E-2,1.2978057E-2,-3.9287336E-2,-1.07089736E-1,5.315576E-3,-3.873862E-3,-5.1242247E-2,7.5613014E-2],"categories":[],"categories_nodes":[],"categories_segments":[],"categories_sizes":[],"default_left":[0,0,0,0,0,0,0,0,0,0,0,0,0,0,0],"id":38,"left_children":[1,3,5,7,9,11,13,-1,-1,-1,-1,-1,-1,-1,-1],"loss_changes":[1.737414E2,1.8002956E2,1.3247289E2,1.7892558E2,8.641281E1,1.3136533E2,1.15824585E2,0E0,0E0,0E0,0E0,0E0,0E0,0E0,0E0],"parents":[2147483647,0,0,1,1,2,2,3,3,4,4,5,5,6,6],"right_children":[2,4,6,8,10,12,14,-1,-1,-1,-1,-1,-1,-1,-1],"split_conditions":[1.3107175E3,2.1601582E3,2.3224187E2,-7.213781E-1,1.8601062E3,1.0853463E1,3.2185442E3,-8.831429E-2,1.2978057E-2,-3.9287336E-2,-1.07089736E-1,5.315576E-3,-3.873862E-3,-5.1242247E-2,7.5613014E-2],"split_indices":[11,17,10,21,1,6,17,0,0,0,0,0,0,0,0],"split_type":[0,0,0,0,0,0,0,0,0,0,0,0,0,0,0],"sum_hessian":[9.1849055E4,2.8394443E3,8.900961E4,1.7027251E3,1.1367192E3,8.833229E4,6.773214E2,2.9327368E2,1.4094514E3,7.017416E2,4.3497763E2,4.0232746E4,4.8099543E4,1.2006108E2,5.572603E2],"tree_param":{"num_deleted":"0","num_feature":"27","num_nodes":"15","size_leaf_vector":"1"}},{"base_weights":[6.309807E-3,-1.132431E-1,2.2550242E-2,-5.2354497E-1,8.571639E-2,-5.5624027E-2,5.998851E-2,-3.7458364E-2,-1.04763955E-1,1.3926856E-2,-5.4280583E-2,4.4396833E-2,-9.165633E-3,1.9793177E-2,-3.46618E-3],"categories":[],"categories_nodes":[],"categories_segments":[],"categories_sizes":[],"default_left":[0,0,0,0,0,0,0,0,0,0,0,0,0,0,0],"id":39,"left_children":[1,3,5,7,9,11,13,-1,-1,-1,-1,-1,-1,-1,-1],"loss_changes":[1.7885704E2,8.99733E2,2.3746542E2,2.6691888E2,1.2747554E2,2.4381697E2,5.227234E2,0E0,0E0,0E0,0E0,0E0,0E0,0E0,0E0],"parents":[2147483647,0,0,1,1,2,2,3,3,4,4,5,5,6,6],"right_children":[2,4,6,8,10,12,14,-1,-1,-1,-1,-1,-1,-1,-1],"split_conditions":[4.0219197E3,2.6603333E1,4.020864E5,2.2768875E2,2.2995918E2,3.697676E2,2.6633333E1,-3.7458364E-2,-1.04763955E-1,1.3926856E-2,-5.4280583E-2,4.4396833E-2,-9.165633E-3,1.9793177E-2,-3.46618E-3],"split_indices":[0,26,24,10,8,15,26,0,0,0,0,0,0,0,0],"split_type":[0,0,0,0,0,0,0,0,0,0,0,0,0,0,0],"sum_hessian":[9.214004E4,1.101206E4,8.112798E4,3.5950579E3,7.417002E3,2.6265062E4,5.4862918E4,2.282855E3,1.312203E3,7.012809E3,4.04193E2,1.2528976E3,2.5012164E4,2.4970418E4,2.98925E4],"tree_param":{"num_deleted":"0","num_feature":"27","num_nodes":"15","size_leaf_vector":"1"}},{"base_weights":[-2.3331388E-3,-2.9712912E-2,4.351988E-2,-8.958874E-1,-2.552996E-2,1.4513057E-1,-3.6904678E-2,7.7087164E-2,-1.4574745E-1,-9.121922E-5,-2.1171002E-2,-1.8703692E-2,2.0694606E-2,-2.7836867E-2,1.0327765E-2],"categories":[],"categories_nodes":[],"categories_segments":[],"categories_sizes":[],"default_left":[0,0,0,0,0,0,0,0,0,0,0,0,0,0,0],"id":40,"left_children":[1,3,5,7,9,11,13,-1,-1,-1,-1,-1,-1,-1,-1],"loss_changes":[1.15148605E2,2.0743056E2,2.8027036E2,1.4478804E2,2.162699E2,1.3425772E2,4.6893262E2,0E0,0E0,0E0,0E0,0E0,0E0,0E0,0E0],"parents":[2147483647,0,0,1,1,2,2,3,3,4,4,5,5,6,6],"right_children":[2,4,6,8,10,12,14,-1,-1,-1,-1,-1,-1,-1,-1],"split_conditions":[1.1079037E3,3.5178E5,2.6633333E1,2.465E1,2.829218E3,2.4866667E1,4.7707612E5,7.7087164E-2,-1.4574745E-1,-9.121922E-5,-2.1171002E-2,-1.8703692E-2,2.0694606E-2,-2.7836867E-2,1.0327765E-2],"split_indices":[16,24,26,26,19,26,24,0,0,0,0,0,0,0,0],"split_type":[0,0,0,0,0,0,0,0,0,0,0,0,0,0,0],"sum_hessian":[9.17185E4,5.743715E4,3.428135E4,2.7127875E2,5.716587E4,1.5147934E4,1.9133416E4,4.69863E1,2.2429245E2,4.9203637E4,7.9622334E3,1.3309241E3,1.381701E4,7.3741523E3,1.1759265E4],"tree_param":{"num_deleted":"0","num_feature":"27","num_nodes":"15","size_leaf_vector":"1"}},{"base_weights":[-1.8850298E-3,-1.0049652E-1,1.1312394E-2,2.1889364E-2,-6.5760887E-1,7.762133E-2,-3.1667627E-2,3.9282538E-2,-1.2444989E-2,-8.4920645E-2,1.4584345E-2,5.037862E-3,1.692446E-2,-1.6385527E-2,2.700589E-3],"categories":[],"categories_nodes":[],"categories_segments":[],"categories_sizes":[],"default_left":[0,0,0,0,0,0,0,0,0,0,0,0,0,0,0],"id":41,"left_children":[1,3,5,7,9,11,13,-1,-1,-1,-1,-1,-1,-1,-1],"loss_changes":[1.1959611E2,7.400901E2,2.3090092E2,3.488557E2,8.913226E1,7.26864E1,2.8466254E2,0E0,0E0,0E0,0E0,0E0,0E0,0E0,0E0],"parents":[2147483647,0,0,1,1,2,2,3,3,4,4,5,5,6,6],"right_children":[2,4,6,8,10,12,14,-1,-1,-1,-1,-1,-1,-1,-1],"split_conditions":[4.0219197E3,1.9246414E3,3.6488335E1,1.9978026E6,5.478528E-1,6.2521756E-1,1.9965E6,3.9282538E-2,-1.2444989E-2,-8.4920645E-2,1.4584345E-2,5.037862E-3,1.692446E-2,-1.6385527E-2,2.700589E-3],"split_indices":[0,1,25,3,23,23,3,0,0,0,0,0,0,0,0],"split_type":[0,0,0,0,0,0,0,0,0,0,0,0,0,0,0],"sum_hessian":[9.1844945E4,1.084371E4,8.1001234E4,8.892761E3,1.9509497E3,3.1860018E4,4.914122E4,2.585741E3,6.3070195E3,1.8172095E3,1.3374023E2,2.0682549E4,1.1177469E4,1.6631729E4,3.2509488E4],"tree_param":{"num_deleted":"0","num_feature":"27","num_nodes":"15","size_leaf_vector":"1"}},{"base_weights":[-1.4166769E-3,-5.7135606E-1,2.1709031E-3,3.3284165E-2,-9.8762894E-1,1.2653321E-1,-1.0078919E-2,-7.18113E-2,5.2916817E-2,-1.2124748E-1,4.7697123E-2,2.3086242E-2,-1.8790375E-2,-3.761292E-2,6.701299E-4],"categories":[],"categories_nodes":[],"categories_segments":[],"categories_sizes":[],"default_left":[0,0,0,0,0,0,0,0,0,0,0,0,0,0,0],"id":42,"left_children":[1,3,5,7,9,11,13,-1,-1,-1,-1,-1,-1,-1,-1],"loss_changes":[1.877366E2,1.4530678E2,1.3880673E2,6.346887E1,1.8125244E1,1.5839656E2,4.002132E2,0E0,0E0,0E0,0E0,0E0,0E0,0E0,0E0],"parents":[2147483647,0,0,1,1,2,2,3,3,4,4,5,5,6,6],"right_children":[2,4,6,8,10,12,14,-1,-1,-1,-1,-1,-1,-1,-1],"split_conditions":[-9.214364E-1,2.2628601E2,5.2033334E0,1.2144093E3,4.197003E3,2.310861E3,4.0219197E3,-7.18113E-2,5.2916817E-2,-1.2124748E-1,4.7697123E-2,2.3086242E-2,-1.8790375E-2,-3.761292E-2,6.701299E-4],"split_indices":[21,9,25,11,0,19,0,0,0,0,0,0,0,0,0],"split_type":[0,0,0,0,0,0,0,0,0,0,0,0,0,0,0],"sum_hessian":[9.1629016E4,5.704151E2,9.10586E4,2.334199E2,3.3699518E2,8.166571E3,8.289203E4,9.030139E1,1.4311852E2,3.3041336E2,6.5818114E0,6.595763E3,1.570808E3,4.0393118E3,7.885272E4],"tree_param":{"num_deleted":"0","num_feature":"27","num_nodes":"15","size_leaf_vector":"1"}},{"base_weights":[-4.9321856E-3,1.7741875E-1,-1.284048E-2,6.5462345E-1,9.0355694E-2,-2.4147911E-1,-3.296162E-3,1.0302871E-1,2.3357638E-3,1.6157791E-1,5.312292E-3,-1.0844182E-2,-9.2573375E-2,-6.9294214E-2,-4.91923E-5],"categories":[],"categories_nodes":[],"categories_segments":[],"categories_sizes":[],"default_left":[0,0,0,0,0,0,0,0,0,0,0,0,0,0,0],"id":43,"left_children":[1,3,5,7,9,11,13,-1,-1,-1,-1,-1,-1,-1,-1],"loss_changes":[1.31888E2,1.5721002E2,1.9127614E2,7.862233E1,1.8548334E2,2.831084E2,1.4052095E2,0E0,0E0,0E0,0E0,0E0,0E0,0E0,0E0],"parents":[2147483647,0,0,1,1,2,2,3,3,4,4,5,5,6,6],"right_children":[2,4,6,8,10,12,14,-1,-1,-1,-1,-1,-1,-1,-1],"split_conditions":[9.189391E0,1.97229E8,1.4819554E3,-1.716288E1,2.5203333E1,2.29679E8,-1.716288E1,1.0302871E-1,2.3357638E-3,1.6157791E-1,5.312292E-3,-1.0844182E-2,-9.2573375E-2,-6.9294214E-2,-4.91923E-5],"split_indices":[7,4,11,15,26,4,15,0,0,0,0,0,0,0,0],"split_type":[0,0,0,0,0,0,0,0,0,0,0,0,0,0,0],"sum_hessian":[9.152047E4,3.7972214E3,8.772325E4,5.8079156E2,3.21643E3,3.5086445E3,8.42146E4,4.327966E2,1.4799498E2,1.0696245E2,3.1094673E3,2.7484036E3,7.60241E2,4.1090723E2,8.3803695E4],"tree_param":{"num_deleted":"0","num_feature":"27","num_nodes":"15","size_leaf_vector":"1"}},{"base_weights":[2.1255165E-3,-4.3050125E-3,2.607157E-1,-3.6866643E-2,4.946072E-2,3.8909444E-1,-4.342801E-1,-3.152117E-3,-1.4308746E-1,1.2000597E-2,-1.3252661E-2,-1.0244513E-1,5.0442383E-2,1.499088E-1,-9.9763E-2],"categories":[],"categories_nodes":[],"categories_segments":[],"categories_sizes":[],"default_left":[0,0,0,0,0,0,0,0,0,0,0,0,0,0,0],"id":44,"left_children":[1,3,5,7,9,11,13,-1,-1,-1,-1,-1,-1,-1,-1],"loss_changes":[1.5188033E2,1.558482E2,1.9837099E2,6.670861E2,2.7947162E2,8.547183E1,2.4295624E2,0E0,0E0,0E0,0E0,0E0,0E0,0E0,0E0],"parents":[2147483647,0,0,1,1,2,2,3,3,4,4,5,5,6,6],"right_children":[2,4,6,8,10,12,14,-1,-1,-1,-1,-1,-1,-1,-1],"split_conditions":[5.359369E5,6.510813E-1,2.40298E8,2.3824894E8,2.7706667E1,7.175479E-1,7.493806E-1,-3.152117E-3,-1.4308746E-1,1.2000597E-2,-1.3252661E-2,-1.0244513E-1,5.0442383E-2,1.499088E-1,-9.9763E-2],"split_indices":[24,23,4,4,26,21,21,0,0,0,0,0,0,0,0],"split_type":[0,0,0,0,0,0,0,0,0,0,0,0,0,0,0],"sum_hessian":[9.122948E4,8.901718E4,2.212301E3,5.5449273E4,3.3567906E4,1.8696099E3,3.4269107E2,5.4969113E4,4.8015802E2,2.5422904E4,8.1450005E3,4.9131966E1,1.8204779E3,6.428293E1,2.7840814E2],"tree_param":{"num_deleted":"0","num_feature":"27","num_nodes":"15","size_leaf_vector":"1"}},{"base_weights":[1.0259605E-3,2.9965786E-2,-3.4031257E-2,4.552359E-2,-2.1850881E-1,-4.6339184E-2,1.8638946E-1,2.7824694E-3,3.686326E-2,-6.951462E-2,-4.308635E-3,-1.4441759E-2,-2.4212832E-3,-4.7166802E-2,2.5383309E-2],"categories":[],"categories_nodes":[],"categories_segments":[],"categories_sizes":[],"default_left":[0,0,0,0,0,0,0,0,0,0,0,0,0,0,0],"id":45,"left_children":[1,3,5,7,9,11,13,-1,-1,-1,-1,-1,-1,-1,-1],"loss_changes":[9.300557E1,1.9409705E2,1.12381584E2,2.7644043E2,1.9742567E2,7.66242E1,3.536277E1,0E0,0E0,0E0,0E0,0E0,0E0,0E0,0E0],"parents":[2147483647,0,0,1,1,2,2,3,3,4,4,5,5,6,6],"right_children":[2,4,6,8,10,12,14,-1,-1,-1,-1,-1,-1,-1,-1],"split_conditions":[1.1056806E1,2.05835E6,2.05925E6,2.00886E6,8.3929753E-1,2.232818E2,7.699088E-1,2.7824694E-3,3.686326E-2,-6.951462E-2,-4.308635E-3,-1.4441759E-2,-2.4212832E-3,-4.7166802E-2,2.5383309E-2],"split_indices":[6,3,3,3,20,8,20,0,0,0,0,0,0,0,0],"split_type":[0,0,0,0,0,0,0,0,0,0,0,0,0,0,0],"sum_hessian":[9.16665E4,5.0224848E4,4.1441656E4,4.727088E4,2.953967E3,3.9255723E4,2.1859307E3,4.3642758E4,3.628121E3,9.7554034E2,1.9784266E3,1.004251E4,2.9213213E4,9.4870964E1,2.0910596E3],"tree_param":{"num_deleted":"0","num_feature":"27","num_nodes":"15","size_leaf_vector":"1"}},{"base_weights":[8.484023E-4,-5.40467E-1,4.038292E-3,-6.758461E-2,-9.4564605E-1,1.8129304E-2,-8.502878E-2,2.1802986E-2,-9.165604E-2,-1.1655387E-1,-2.7562793E-2,-4.98113E-4,5.219686E-2,-5.6069933E-2,-4.5586247E-3],"categories":[],"categories_nodes":[],"categories_segments":[],"categories_sizes":[],"default_left":[0,0,0,0,0,0,0,0,0,0,0,0,0,0,0],"id":46,"left_children":[1,3,5,7,9,11,13,-1,-1,-1,-1,-1,-1,-1,-1],"loss_changes":[1.5746997E2,1.01452866E2,1.1399799E2,4.5475796E1,5.770569E0,7.389683E2,2.2365208E2,0E0,0E0,0E0,0E0,0E0,0E0,0E0,0E0],"parents":[2147483647,0,0,1,1,2,2,3,3,4,4,5,5,6,6],"right_children":[2,4,6,8,10,12,14,-1,-1,-1,-1,-1,-1,-1,-1],"split_conditions":[-9.214364E-1,2.2634975E2,5.0926778E5,9.117187E0,1.9275981E3,2.00886E6,2.0582369E6,2.1802986E-2,-9.165604E-2,-1.1655387E-1,-2.7562793E-2,-4.98113E-4,5.219686E-2,-5.6069933E-2,-4.5586247E-3],"split_indices":[21,10,24,7,11,3,3,0,0,0,0,0,0,0,0],"split_type":[0,0,0,0,0,0,0,0,0,0,0,0,0,0,0],"sum_hessian":[9.138797E4,5.303172E2,9.085765E4,2.4756505E2,2.8275217E2,7.845582E4,1.2401826E4,1.8394873E2,6.361631E1,2.6673734E2,1.601482E1,7.451302E4,3.9428E3,1.3266602E3,1.1075166E4],"tree_param":{"num_deleted":"0","num_feature":"27","num_nodes":"15","size_leaf_vector":"1"}},{"base_weights":[4.5335563E-3,1.6470797E-3,3.8576946E-1,3.7690545E-3,-9.509929E-1,1.3330325E-1,-3.8541588E-1,-2.8227933E-2,9.1873645E-4,-1.7508732E-1,2.216428E-2,-1.4112672E-1,1.6905423E-2],"categories":[],"categories_nodes":[],"categories_segments":[],"categories_sizes":[],"default_left":[0,0,0,0,0,0,0,0,0,0,0,0,0],"id":47,"left_children":[1,3,5,7,9,-1,11,-1,-1,-1,-1,-1,-1],"loss_changes":[1.0034168E2,1.828153E2,3.9187653E2,8.675358E1,1.2181587E2,0E0,1.4450774E2,0E0,0E0,0E0,0E0,0E0,0E0],"parents":[2147483647,0,0,1,1,2,2,3,3,4,4,6,6],"right_children":[2,4,6,8,10,-1,12,-1,-1,-1,-1,-1,-1],"split_conditions":[2.06153E6,2.40103E8,2.40298E8,3.5381028E-1,5.999619E-1,1.3330325E-1,1.15283E3,-2.8227933E-2,9.1873645E-4,-1.7508732E-1,2.216428E-2,-1.4112672E-1,1.6905423E-2],"split_indices":[3,4,4,23,23,0,15,0,0,0,0,0,0],"split_type":[0,0,0,0,0,0,0,0,0,0,0,0,0],"sum_hessian":[9.141113E4,9.072983E4,6.813057E2,9.053276E4,1.9706984E2,3.4778427E2,3.3352145E2,1.4579285E3,8.907483E4,1.3449681E2,6.2573017E1,1.3075221E2,2.0276924E2],"tree_param":{"num_deleted":"0","num_feature":"27","num_nodes":"13","size_leaf_vector":"1"}},{"base_weights":[-2.1402615E-3,2.3561416E-2,-3.8763013E-2,-1.886877E-1,3.1608425E-2,-1.206092E-1,4.5659905E-3,-7.5242035E-3,-1.3410237E-1,4.9662896E-2,3.008808E-3,-3.231719E-2,-7.1269455E-3,-1.01230696E-1,8.2516967E-4],"categories":[],"categories_nodes":[],"categories_segments":[],"categories_sizes":[],"default_left":[0,0,0,0,0,0,0,0,0,0,0,0,0,0,0],"id":48,"left_children":[1,3,5,7,9,11,13,-1,-1,-1,-1,-1,-1,-1,-1],"loss_changes":[8.5942825E1,9.1530304E1,1.3362842E2,2.2971451E2,1.2475139E2,1.1951871E2,4.9873417E1,0E0,0E0,0E0,0E0,0E0,0E0,0E0,0E0],"parents":[2147483647,0,0,1,1,2,2,3,3,4,4,5,5,6,6],"right_children":[2,4,6,8,10,12,14,-1,-1,-1,-1,-1,-1,-1,-1],"split_conditions":[1.1157877E1,-1.716288E1,1.6991869E3,7.0297134E3,3.0650156E3,8.9207166E2,7.857622E3,-7.5242035E-3,-1.3410237E-1,4.9662896E-2,3.008808E-3,-3.231719E-2,-7.1269455E-3,-1.01230696E-1,8.2516967E-4],"split_indices":[6,15,12,2,0,15,2,0,0,0,0,0,0,0,0],"split_type":[0,0,0,0,0,0,0,0,0,0,0,0,0,0,0],"sum_hessian":[9.128734E4,5.363219E4,3.7655156E4,1.9529202E3,5.167927E4,1.30369795E4,2.4618176E4,1.7278156E3,2.2510472E2,8.166579E2,5.0862613E4,3.7125151E3,9.324465E3,6.3698624E1,2.4554477E4],"tree_param":{"num_deleted":"0","num_feature":"27","num_nodes":"15","size_leaf_vector":"1"}},{"base_weights":[1.3006529E-3,2.3533845E-2,-3.3703163E-2,1.2932605E-3,1.4573844E-1,-1.122315E-1,3.5178184E-3,2.0645428E-3,-2.7470432E-2,-4.2662095E-2,1.9065743E-2,-1.8111972E-2,2.993023E-2,1.7203916E-2,-4.182521E-3],"categories":[],"categories_nodes":[],"categories_segments":[],"categories_sizes":[],"default_left":[0,0,0,0,0,0,0,0,0,0,0,0,0,0,0],"id":49,"left_children":[1,3,5,7,9,11,13,-1,-1,-1,-1,-1,-1,-1,-1],"loss_changes":[7.1251045E1,1.5212437E2,1.0399608E2,1.7750522E2,6.502634E1,1.6842331E2,1.3232591E2,0E0,0E0,0E0,0E0,0E0,0E0,0E0,0E0],"parents":[2147483647,0,0,1,1,2,2,3,3,4,4,5,5,6,6],"right_children":[2,4,6,8,10,12,14,-1,-1,-1,-1,-1,-1,-1,-1],"split_conditions":[1.121752E1,1.0946842E3,1.6991869E3,5.1455994E5,1.314276E3,5.322781E5,4.34112E5,2.0645428E-3,-2.7470432E-2,-4.2662095E-2,1.9065743E-2,-1.8111972E-2,2.993023E-2,1.7203916E-2,-4.182521E-3],"split_indices":[6,16,12,24,12,24,24,0,0,0,0,0,0,0,0],"split_type":[0,0,0,0,0,0,0,0,0,0,0,0,0,0,0],"sum_hessian":[9.155386E4,5.600273E4,3.555113E4,4.73877E4,8.615031E3,1.1435082E4,2.4116049E4,4.4327484E4,3.0602163E3,2.4313144E2,8.3719E3,1.0298035E4,1.1370466E3,5.188416E3,1.8927633E4],"tree_param":{"num_deleted":"0","num_feature":"27","num_nodes":"15","size_leaf_vector":"1"}},{"base_weights":[-1.0934061E-3,-6.544276E-1,9.3435537E-4,8.4124756E-1,-8.3583117E-1,2.072027E-1,-7.1860934E-3,1.6790317E-1,2.0686496E-2,-7.505815E-2,-1.3080092E-1,7.4580185E-2,1.4983403E-2,-4.134709E-2,2.6629923E-4],"categories":[],"categories_nodes":[],"categories_segments":[],"categories_sizes":[],"default_left":[0,0,0,0,0,0,0,0,0,0,0,0,0,0,0],"id":50,"left_children":[1,3,5,7,9,11,13,-1,-1,-1,-1,-1,-1,-1,-1],"loss_changes":[1.21383644E2,7.967253E1,1.5259686E2,1.0329823E1,9.960861E0,1.1686487E2,2.8200735E2,0E0,0E0,0E0,0E0,0E0,0E0,0E0,0E0],"parents":[2147483647,0,0,1,1,2,2,3,3,4,4,5,5,6,6],"right_children":[2,4,6,8,10,12,14,-1,-1,-1,-1,-1,-1,-1,-1],"split_conditions":[4.599904E0,2.0088831E6,9.189391E0,-1.6682029E3,5.0386756E5,3.9137878E5,3.498843E3,1.6790317E-1,2.0686496E-2,-7.505815E-2,-1.3080092E-1,7.4580185E-2,1.4983403E-2,-4.134709E-2,2.6629923E-4],"split_indices":[7,3,7,1,24,24,0,0,0,0,0,0,0,0,0],"split_type":[0,0,0,0,0,0,0,0,0,0,0,0,0,0,0],"sum_hessian":[9.12977E4,2.7957062E2,9.101813E4,2.8309526E1,2.5126111E2,3.4468984E3,8.7571234E4,1.2332408E1,1.5977119E1,1.5134962E2,9.9911476E1,5.500837E2,2.8968147E3,2.353175E3,8.5218055E4],"tree_param":{"num_deleted":"0","num_feature":"27","num_nodes":"15","size_leaf_vector":"1"}},{"base_weights":[-1.7759628E-3,-5.049255E-1,8.3609653E-4,4.4282654E-1,-7.341077E-1,-1.4919612E-3,5.7368505E-1,-8.119001E-2,7.7113464E-2,-1.07833885E-1,9.073272E-3,2.3409795E-2,-6.463063E-4,1.0673975E-1,-1.2127554E-1],"categories":[],"categories_nodes":[],"categories_segments":[],"categories_sizes":[],"default_left":[0,0,0,0,0,0,0,0,0,0,0,0,0,0,0],"id":51,"left_children":[1,3,5,7,9,11,13,-1,-1,-1,-1,-1,-1,-1,-1],"loss_changes":[1.2013878E2,1.0400918E2,1.2132604E2,2.3602594E1,5.4875153E1,7.086133E1,1.9489091E2,0E0,0E0,0E0,0E0,0E0,0E0,0E0,0E0],"parents":[2147483647,0,0,1,1,2,2,3,3,4,4,5,5,6,6],"right_children":[2,4,6,8,10,12,14,-1,-1,-1,-1,-1,-1,-1,-1],"split_conditions":[-9.214364E-1,2.2421402E2,2.3280937E2,1.166945E3,4.5973614E-1,4.5293814E2,1.9968911E6,-8.119001E-2,7.7113464E-2,-1.07833885E-1,9.073272E-3,2.3409795E-2,-6.463063E-4,1.0673975E-1,-1.2127554E-1],"split_indices":[21,9,10,11,23,14,3,0,0,0,0,0,0,0,0],"split_type":[0,0,0,0,0,0,0,0,0,0,0,0,0,0,0],"sum_hessian":[9.115775E4,4.6818152E2,9.068957E4,8.99043E1,3.7827722E2,9.0325266E4,3.6430258E2,1.205761E1,7.784669E1,3.1153235E2,6.674486E1,1.754953E3,8.857031E4,3.0430194E2,6.0000626E1],"tree_param":{"num_deleted":"0","num_feature":"27","num_nodes":"15","size_leaf_vector":"1"}},{"base_weights":[-2.682108E-3,2.5462415E-2,-5.379922E-2,-9.099134E-3,3.780551E-1,-6.5184236E-1,1.2743492E-2,3.5663813E-3,-4.53736E-2,7.071132E-4,5.2527487E-2,-2.3918625E-2,-1.002017E-1,2.6005986E-1,-2.0723187E-3],"categories":[],"categories_nodes":[],"categories_segments":[],"categories_sizes":[],"default_left":[0,0,0,0,0,0,0,0,0,0,0,0,0,0,0],"id":52,"left_children":[1,3,5,7,9,11,13,-1,-1,-1,-1,-1,-1,-1,-1],"loss_changes":[1.3117624E2,7.1663605E2,1.2890144E3,7.825901E2,1.2578192E2,2.7972742E2,1.9190961E3,0E0,0E0,0E0,0E0,0E0,0E0,0E0,0E0],"parents":[2147483647,0,0,1,1,2,2,3,3,4,4,5,5,6,6],"right_children":[2,4,6,8,10,12,14,-1,-1,-1,-1,-1,-1,-1,-1],"split_conditions":[2.17025E8,1.99882E6,2.20841E8,4.3534728E5,2.588421E1,4.6137338E5,2.0034955E6,3.5663813E-3,-4.53736E-2,7.071132E-4,5.2527487E-2,-2.3918625E-2,-1.002017E-1,2.6005986E-1,-2.0723187E-3],"split_indices":[4,3,4,24,26,24,3,0,0,0,0,0,0,0,0],"split_type":[0,0,0,0,0,0,0,0,0,0,0,0,0,0,0],"sum_hessian":[9.115859E4,5.878273E4,3.2375861E4,5.3536953E4,5.245775E3,3.2392065E3,2.9136654E4,4.8455957E4,5.080995E3,7.775659E2,4.468209E3,9.733378E2,2.2658687E3,3.9490475E2,2.874175E4],"tree_param":{"num_deleted":"0","num_feature":"27","num_nodes":"15","size_leaf_vector":"1"}}]},"name":"gbtree"},"learner_model_param":{"base_score":"3.870709E-1","boost_from_average":"1","num_class":"0","num_feature":"27","num_target":"1"},"objective":{"name":"binary:logistic","reg_loss_param":{"scale_pos_weight":"5.71118879"}}},"version":[3,0,2]}