{"learner":{"attributes":{"best_iteration":"109","best_score":"0.21151850821900475"},"feature_names":["aReactivePower_L2_mean","aReactivePower_L2_std","aReactivePower_L2_change_point_score","aReactivePower_L2_ks_test_statistic","aReactivePower_L2_skew","aReactivePower_L2_trend_slope","aReactivePower_L2_dominant_frequency","aReactivePower_L2_spectral_peak","aReactivePower_L2_spectral_flatness","aReactivePower_L2_freq_energy_ratio_low_high","aReactivePower_L2_welch_peak_power","aReactivePower_L2_welch_total_power","airDurchfluss_mean","airDurchfluss_std","airDurchfluss_change_point_score","airDurchfluss_ks_test_statistic","airDurchfluss_skew","airDurchfluss_trend_slope","airDurchfluss_dominant_frequency","airDurchfluss_spectral_peak","airDurchfluss_spectral_flatness","airDurchfluss_freq_energy_ratio_low_high","airDurchfluss_welch_peak_power","airDurchfluss_welch_total_power","aReactivePower_L1_mean","aReactivePower_L1_std","aReactivePower_L1_change_point_score","aReactivePower_L1_ks_test_statistic","aReactivePower_L1_skew","aReactivePower_L1_trend_slope","aReactivePower_L1_dominant_frequency","aReactivePower_L1_spectral_peak","aReactivePower_L1_spectral_flatness","aReactivePower_L1_freq_energy_ratio_low_high","aReactivePower_L1_welch_peak_power","aReactivePower_L1_welch_total_power","airTotal_mean","airTotal_std","airTotal_change_point_score","airTotal_ks_test_statistic","airTotal_skew","airTotal_trend_slope","airTotal_dominant_frequency","airTotal_spectral_peak","airTotal_spectral_flatness","airTotal_freq_energy_ratio_low_high","airTotal_welch_peak_power","airTotal_welch_total_power","rTotalApparentEnergy_mean","rTotalApparentEnergy_std","rTotalApparentEnergy_change_point_score","rTotalApparentEnergy_ks_test_statistic","rTotalApparentEnergy_skew","rTotalApparentEnergy_trend_slope","rTotalApparentEnergy_dominant_frequency","rTotalApparentEnergy_spectral_peak","rTotalApparentEnergy_spectral_flatness","rTotalApparentEnergy_freq_energy_ratio_low_high","rTotalApparentEnergy_welch_peak_power","rTotalApparentEnergy_welch_total_power","rTotalReactiveEnergy_mean","rTotalReactiveEnergy_std","rTotalReactiveEnergy_change_point_score","rTotalReactiveEnergy_ks_test_statistic","rTotalReactiveEnergy_skew","rTotalReactiveEnergy_trend_slope","rTotalReactiveEnergy_dominant_frequency","rTotalReactiveEnergy_spectral_peak","rTotalReactiveEnergy_spectral_flatness","rTotalReactiveEnergy_freq_energy_ratio_low_high","rTotalReactiveEnergy_welch_peak_power","rTotalReactiveEnergy_welch_total_power","aVoltage_L1_N_mean","aVoltage_L1_N_std","aVoltage_L1_N_change_point_score","aVoltage_L1_N_ks_test_statistic","aVoltage_L1_N_skew","aVoltage_L1_N_trend_slope","aVoltage_L1_N_dominant_frequency","aVoltage_L1_N_spectral_peak","aVoltage_L1_N_spectral_flatness","aVoltage_L1_N_freq_energy_ratio_low_high","aVoltage_L1_N_welch_peak_power","aVoltage_L1_N_welch_total_power","aVoltage_L3_N_mean","aVoltage_L3_N_std","aVoltage_L3_N_change_point_score","aVoltage_L3_N_ks_test_statistic","aVoltage_L3_N_skew","aVoltage_L3_N_trend_slope","aVoltage_L3_N_dominant_frequency","aVoltage_L3_N_spectral_peak","aVoltage_L3_N_spectral_flatness","aVoltage_L3_N_freq_energy_ratio_low_high","aVoltage_L3_N_welch_peak_power","aVoltage_L3_N_welch_total_power","aVoltage_L2_N_mean","aVoltage_L2_N_std","aVoltage_L2_N_change_point_score","aVoltage_L2_N_ks_test_statistic","aVoltage_L2_N_skew","aVoltage_L2_N_trend_slope","aVoltage_L2_N_dominant_frequency","aVoltage_L2_N_spectral_peak","aVoltage_L2_N_spectral_flatness","aVoltage_L2_N_freq_energy_ratio_low_high","aVoltage_L2_N_welch_peak_power","aVoltage_L2_N_welch_total_power","airTempeatur_mean","airTempeatur_std","airTempeatur_change_point_score","airTempeatur_ks_test_statistic","airTempeatur_skew","airTempeatur_trend_slope","airTempeatur_dominant_frequency","airTempeatur_spectral_peak","airTempeatur_spectral_flatness","airTempeatur_freq_energy_ratio_low_high","airTempeatur_welch_peak_power","airTempeatur_welch_total_power"],"feature_types":[],"gradient_booster":{"model":{"gbtree_model_param":{"num_parallel_tree":"1","num_trees":"140"},"iteration_indptr":[0,1,2,3,4,5,6,7,8,9,10,11,12,13,14,15,16,17,18,19,20,21,22,23,24,25,26,27,28,29,30,31,32,33,34,35,36,37,38,39,40,41,42,43,44,45,46,47,48,49,50,51,52,53,54,55,56,57,58,59,60,61,62,63,64,65,66,67,68,69,70,71,72,73,74,75,76,77,78,79,80,81,82,83,84,85,86,87,88,89,90,91,92,93,94,95,96,97,98,99,100,101,102,103,104,105,106,107,108,109,110,111,112,113,114,115,116,117,118,119,120,121,122,123,124,125,126,127,128,129,130,131,132,133,134,135,136,137,138,139,140],"tree_info":[0,0,0,0,0,0,0,0,0,0,0,0,0,0,0,0,0,0,0,0,0,0,0,0,0,0,0,0,0,0,0,0,0,0,0,0,0,0,0,0,0,0,0,0,0,0,0,0,0,0,0,0,0,0,0,0,0,0,0,0,0,0,0,0,0,0,0,0,0,0,0,0,0,0,0,0,0,0,0,0,0,0,0,0,0,0,0,0,0,0,0,0,0,0,0,0,0,0,0,0,0,0,0,0,0,0,0,0,0,0,0,0,0,0,0,0,0,0,0,0,0,0,0,0,0,0,0,0,0,0,0,0,0,0,0,0,0,0,0,0],"trees":[{"base_weights":[-1.3719661E-2,7.2444034E-1,-3.7150127E-1,5.8543812E-2,9.305376E-3,-4.6665043E-2,-8.721006E-3],"categories":[],"categories_nodes":[],"categories_segments":[],"categories_sizes":[],"default_left":[0,0,0,0,0,0,0],"id":0,"left_children":[1,3,5,-1,-1,-1,-1],"loss_changes":[6.160735E3,1.389282E3,1.5755854E3,0E0,0E0,0E0,0E0],"parents":[2147483647,0,0,1,1,2,2],"right_children":[2,4,6,-1,-1,-1,-1],"split_conditions":[1E0,1.8452253E5,5.2E0,5.8543812E-2,9.305376E-3,-4.6665043E-2,-8.721006E-3],"split_indices":[27,36,14,0,0,0,0],"split_type":[0,0,0,0,0,0,0],"sum_hessian":[2.331929E4,7.611427E3,1.5707862E4,4.791175E3,2.820252E3,4.9443716E3,1.076349E4],"tree_param":{"num_deleted":"0","num_feature":"120","num_nodes":"7","size_leaf_vector":"1"}},{"base_weights":[-1.195591E-2,-3.106914E-1,7.51636E-1,-5.88291E-2,-1.1020756E-2,5.010691E-2,-1.0170434E-2],"categories":[],"categories_nodes":[],"categories_segments":[],"categories_sizes":[],"default_left":[0,0,0,0,0,0,0],"id":1,"left_children":[1,3,5,-1,-1,-1,-1],"loss_changes":[5.3139175E3,1.4070989E3,9.1133813E2,0E0,0E0,0E0,0E0],"parents":[2147483647,0,0,1,1,2,2],"right_children":[2,4,6,-1,-1,-1,-1],"split_conditions":[1.8E0,1.25525E6,2.0543398E5,-5.88291E-2,-1.1020756E-2,5.010691E-2,-1.0170434E-2],"split_indices":[110,60,36,0,0,0,0],"split_type":[0,0,0,0,0,0,0],"sum_hessian":[2.328725E4,1.6740445E4,6.5468037E3,2.1906506E3,1.4549796E4,5.6478013E3,8.9900244E2],"tree_param":{"num_deleted":"0","num_feature":"120","num_nodes":"7","size_leaf_vector":"1"}},{"base_weights":[-1.3954421E-2,6.272084E-1,-3.2968098E-1,5.068883E-2,7.7332375E-3,-3.6717562E-3,-3.9410338E-2],"categories":[],"categories_nodes":[],"categories_segments":[],"categories_sizes":[],"default_left":[0,0,0,0,0,0,0],"id":2,"left_children":[1,3,5,-1,-1,-1,-1],"loss_changes":[4.7201704E3,1.0649272E3,1.5592261E3,0E0,0E0,0E0,0E0],"parents":[2147483647,0,0,1,1,2,2],"right_children":[2,4,6,-1,-1,-1,-1],"split_conditions":[9.9902153E-1,1.3088E6,1.3094E6,5.068883E-2,7.7332375E-3,-3.6717562E-3,-3.9410338E-2],"split_indices":[27,60,60,0,0,0,0],"split_type":[0,0,0,0,0,0,0],"sum_hessian":[2.3309312E4,7.6895576E3,1.5619756E4,4.861546E3,2.8280115E3,9.208955E3,6.4108003E3],"tree_param":{"num_deleted":"0","num_feature":"120","num_nodes":"7","size_leaf_vector":"1"}},{"base_weights":[-1.5453574E-2,-2.789565E-1,6.488173E-1,-1.8355068E-3,-3.4094997E-2,7.160748E-2,2.657072E-2],"categories":[],"categories_nodes":[],"categories_segments":[],"categories_sizes":[],"default_left":[0,0,0,0,0,0,0],"id":3,"left_children":[1,3,5,-1,-1,-1,-1],"loss_changes":[4.0745425E3,1.3679896E3,7.2012524E2,0E0,0E0,0E0,0E0],"parents":[2147483647,0,0,1,1,2,2],"right_children":[2,4,6,-1,-1,-1,-1],"split_conditions":[9.6E0,1.3094E6,8.9461267E-1,-1.8355068E-3,-3.4094997E-2,7.160748E-2,2.657072E-2],"split_indices":[14,60,15,0,0,0,0],"split_type":[0,0,0,0,0,0,0],"sum_hessian":[2.3270145E4,1.6662775E4,6.6073677E3,9.59515E3,7.0676255E3,1.3933549E3,5.214013E3],"tree_param":{"num_deleted":"0","num_feature":"120","num_nodes":"7","size_leaf_vector":"1"}},{"base_weights":[-1.842608E-2,-3.2131416E-1,5.2002317E-1,-4.850556E-3,-3.822312E-2,4.437455E-2,5.0150906E-3],"categories":[],"categories_nodes":[],"categories_segments":[],"categories_sizes":[],"default_left":[0,0,0,0,0,0,0],"id":4,"left_children":[1,3,5,-1,-1,-1,-1],"loss_changes":[3.780008E3,1.2693352E3,9.946362E2,0E0,0E0,0E0,0E0],"parents":[2147483647,0,0,1,1,2,2],"right_children":[2,4,6,-1,-1,-1,-1],"split_conditions":[6.65307E1,1.8599742E5,1.3088E6,-4.850556E-3,-3.822312E-2,4.437455E-2,5.0150906E-3],"split_indices":[2,36,60,0,0,0,0],"split_type":[0,0,0,0,0,0,0],"sum_hessian":[2.3169443E4,1.4829373E4,8.34007E3,9.042376E3,5.7869966E3,5.0671543E3,3.272916E3],"tree_param":{"num_deleted":"0","num_feature":"120","num_nodes":"7","size_leaf_vector":"1"}},{"base_weights":[-4.147522E-3,-2.8341055E-1,5.4555184E-1,-1.799585E-2,1.2154232E-1,5.1135685E-2,1.9906526E-2],"categories":[],"categories_nodes":[],"categories_segments":[],"categories_sizes":[],"default_left":[0,0,0,0,0,0,0],"id":5,"left_children":[1,3,5,-1,-1,-1,-1],"loss_changes":[3.57801E3,1.527042E3,5.4923975E2,0E0,0E0,0E0,0E0],"parents":[2147483647,0,0,1,1,2,2],"right_children":[2,4,6,-1,-1,-1,-1],"split_conditions":[1.5491401E1,3.2140423E1,9.481409E-1,-1.799585E-2,1.2154232E-1,5.1135685E-2,1.9906526E-2],"split_indices":[1,108,15,0,0,0,0],"split_type":[0,0,0,0,0,0,0],"sum_hessian":[2.3299973E4,1.5451982E4,7.8479907E3,1.520912E4,2.4286288E2,2.6215417E3,5.2264487E3],"tree_param":{"num_deleted":"0","num_feature":"120","num_nodes":"7","size_leaf_vector":"1"}},{"base_weights":[-1.0295651E-2,5.108668E-1,-2.7990738E-1,4.103544E-2,6.968108E-3,-6.591697E-2,-1.0398754E-2],"categories":[],"categories_nodes":[],"categories_segments":[],"categories_sizes":[],"default_left":[0,0,0,0,0,0,0],"id":6,"left_children":[1,3,5,-1,-1,-1,-1],"loss_changes":[3.2586155E3,6.903281E2,1.2854718E3,0E0,0E0,0E0,0E0],"parents":[2147483647,0,0,1,1,2,2],"right_children":[2,4,6,-1,-1,-1,-1],"split_conditions":[1E0,1.3088E6,1.5353375E5,4.103544E-2,6.968108E-3,-6.591697E-2,-1.0398754E-2],"split_indices":[27,60,36,0,0,0,0],"split_type":[0,0,0,0,0,0,0],"sum_hessian":[2.3183133E4,7.902904E3,1.52802295E4,4.9761426E3,2.9267612E3,1.4206566E3,1.3859572E4],"tree_param":{"num_deleted":"0","num_feature":"120","num_nodes":"7","size_leaf_vector":"1"}},{"base_weights":[-1.4305829E-2,4.614013E-1,-2.5989944E-1,-4.346153E-2,3.00731E-2,-1.4158344E-3,-3.3949707E-2],"categories":[],"categories_nodes":[],"categories_segments":[],"categories_sizes":[],"default_left":[0,0,0,0,0,0,0],"id":7,"left_children":[1,3,5,-1,-1,-1,-1],"loss_changes":[2.7056514E3,7.756366E2,1.2538386E3,0E0,0E0,0E0,0E0],"parents":[2147483647,0,0,1,1,2,2],"right_children":[2,4,6,-1,-1,-1,-1],"split_conditions":[9.9902153E-1,3.046272E7,3.3872104E7,-4.346153E-2,3.00731E-2,-1.4158344E-3,-3.3949707E-2],"split_indices":[27,48,48,0,0,0,0],"split_type":[0,0,0,0,0,0,0],"sum_hessian":[2.315076E4,7.881245E3,1.5269514E4,4.6902856E2,7.412217E3,9.148524E3,6.1209897E3],"tree_param":{"num_deleted":"0","num_feature":"120","num_nodes":"7","size_leaf_vector":"1"}},{"base_weights":[-2.0812736E-3,-2.615728E-1,4.3562967E-1,-1.6731389E-2,1.0987397E-1,4.642807E-2,1.4213983E-2],"categories":[],"categories_nodes":[],"categories_segments":[],"categories_sizes":[],"default_left":[0,0,0,0,0,0,0],"id":8,"left_children":[1,3,5,-1,-1,-1,-1],"loss_changes":[2.625141E3,1.2703716E3,6.170792E2,0E0,0E0,0E0,0E0],"parents":[2147483647,0,0,1,1,2,2],"right_children":[2,4,6,-1,-1,-1,-1],"split_conditions":[6.65307E1,3.2140423E1,9.471053E-1,-1.6731389E-2,1.0987397E-1,4.642807E-2,1.4213983E-2],"split_indices":[2,108,15,0,0,0,0],"split_type":[0,0,0,0,0,0,0],"sum_hessian":[2.3104334E4,1.4506247E4,8.598087E3,1.4260462E4,2.4578523E2,2.6720051E3,5.9260815E3],"tree_param":{"num_deleted":"0","num_feature":"120","num_nodes":"7","size_leaf_vector":"1"}},{"base_weights":[8.370764E-3,-8.6415756E-1,1.23716906E-1,-6.0308617E-2,-2.9217081E-2,2.7913151E-2,-1.846249E-2],"categories":[],"categories_nodes":[],"categories_segments":[],"categories_sizes":[],"default_left":[0,0,0,0,0,0,0],"id":9,"left_children":[1,3,5,-1,-1,-1,-1],"loss_changes":[2.325121E3,1.984845E2,3.512765E3,0E0,0E0,0E0,0E0],"parents":[2147483647,0,0,1,1,2,2],"right_children":[2,4,6,-1,-1,-1,-1],"split_conditions":[1.569815E5,1.5353375E5,1.8452253E5,-6.0308617E-2,-2.9217081E-2,2.7913151E-2,-1.846249E-2],"split_indices":[36,36,36,0,0,0,0],"split_type":[0,0,0,0,0,0,0],"sum_hessian":[2.309496E4,2.6935132E3,2.040145E4,1.6295144E3,1.0639987E3,1.1150548E4,9.2509E3],"tree_param":{"num_deleted":"0","num_feature":"120","num_nodes":"7","size_leaf_vector":"1"}},{"base_weights":[-1.2483201E-2,-5.684823E-1,1.5213154E-1,-1.7979803E-2,-6.1098106E-2,-4.2264428E-2,1.5439581E-2],"categories":[],"categories_nodes":[],"categories_segments":[],"categories_sizes":[],"default_left":[0,0,0,0,0,0,0],"id":10,"left_children":[1,3,5,-1,-1,-1,-1],"loss_changes":[2.099423E3,6.7924316E2,2.0225872E3,0E0,0E0,0E0,0E0],"parents":[2147483647,0,0,1,1,2,2],"right_children":[2,4,6,-1,-1,-1,-1],"split_conditions":[1.619755E0,2.2766774E2,1.25525E6,-1.7979803E-2,-6.1098106E-2,-4.2264428E-2,1.5439581E-2],"split_indices":[13,84,60,0,0,0,0],"split_type":[0,0,0,0,0,0,0],"sum_hessian":[2.2930002E4,5.2359097E3,1.7694092E4,3.5821587E3,1.653751E3,2.1358372E3,1.5558255E4],"tree_param":{"num_deleted":"0","num_feature":"120","num_nodes":"7","size_leaf_vector":"1"}},{"base_weights":[-8.294572E-3,-2.4018572E-1,3.7971038E-1,-1.394296E-3,-3.2793336E-2,3.3846177E-2,8.499075E-4],"categories":[],"categories_nodes":[],"categories_segments":[],"categories_sizes":[],"default_left":[0,0,0,0,0,0,0],"id":11,"left_children":[1,3,5,-1,-1,-1,-1],"loss_changes":[2.0674724E3,1.080071E3,7.1570654E2,0E0,0E0,0E0,0E0],"parents":[2147483647,0,0,1,1,2,2],"right_children":[2,4,6,-1,-1,-1,-1],"split_conditions":[6.65307E1,1.8599742E5,1.8452253E5,-1.394296E-3,-3.2793336E-2,3.3846177E-2,8.499075E-4],"split_indices":[2,36,36,0,0,0,0],"split_type":[0,0,0,0,0,0,0],"sum_hessian":[2.2970371E4,1.4378661E4,8.591709E3,8.899128E3,5.4795337E3,5.2790093E3,3.3127002E3],"tree_param":{"num_deleted":"0","num_feature":"120","num_nodes":"7","size_leaf_vector":"1"}},{"base_weights":[7.422443E-3,-8.2565707E-1,1.122382E-1,-7.9885885E-2,-4.2057797E-2,3.912554E-2,-8.094291E-3],"categories":[],"categories_nodes":[],"categories_segments":[],"categories_sizes":[],"default_left":[0,0,0,0,0,0,0],"id":12,"left_children":[1,3,5,-1,-1,-1,-1],"loss_changes":[2.014684E3,1.0541931E2,3.1207583E3,0E0,0E0,0E0,0E0],"parents":[2147483647,0,0,1,1,2,2],"right_children":[2,4,6,-1,-1,-1,-1],"split_conditions":[1.25529E6,2.6520863E1,1.28323E6,-7.9885885E-2,-4.2057797E-2,3.912554E-2,-8.094291E-3],"split_indices":[60,108,60,0,0,0,0],"split_type":[0,0,0,0,0,0,0],"sum_hessian":[2.3064768E4,2.5744888E3,2.0490277E4,2.565669E2,2.3179219E3,6.220702E3,1.4269576E4],"tree_param":{"num_deleted":"0","num_feature":"120","num_nodes":"7","size_leaf_vector":"1"}},{"base_weights":[-5.564351E-3,-5.7023954E-1,1.4407817E-1,2.560769E-2,-3.8535368E-2,-3.9862186E-2,1.4300295E-2],"categories":[],"categories_nodes":[],"categories_segments":[],"categories_sizes":[],"default_left":[0,0,0,0,0,0,0],"id":13,"left_children":[1,3,5,-1,-1,-1,-1],"loss_changes":[1.9357086E3,6.057051E2,1.7596572E3,0E0,0E0,0E0,0E0],"parents":[2147483647,0,0,1,1,2,2],"right_children":[2,4,6,-1,-1,-1,-1],"split_conditions":[5.1E0,4.1033465E-1,1.564577E5,2.560769E-2,-3.8535368E-2,-3.9862186E-2,1.4300295E-2],"split_indices":[14,12,36,0,0,0,0],"split_type":[0,0,0,0,0,0,0],"sum_hessian":[2.289972E4,4.795006E3,1.8104717E4,5.0725134E2,4.2877544E3,2.0974692E3,1.6007247E4],"tree_param":{"num_deleted":"0","num_feature":"120","num_nodes":"7","size_leaf_vector":"1"}},{"base_weights":[6.0249167E-3,-5.383052E-1,1.4243707E-1,-1.1287978E-2,-5.716391E-2,-3.9427817E-2,1.3947881E-2],"categories":[],"categories_nodes":[],"categories_segments":[],"categories_sizes":[],"default_left":[0,0,0,0,0,0,0],"id":14,"left_children":[1,3,5,-1,-1,-1,-1],"loss_changes":[1.7018021E3,7.523351E2,1.6880735E3,0E0,0E0,0E0,0E0],"parents":[2147483647,0,0,1,1,2,2],"right_children":[2,4,6,-1,-1,-1,-1],"split_conditions":[1.3768985E0,2.257697E2,3.046272E7,-1.1287978E-2,-5.716391E-2,-3.9427817E-2,1.3947881E-2],"split_indices":[13,72,48,0,0,0,0],"split_type":[0,0,0,0,0,0,0],"sum_hessian":[2.2911123E4,4.5886396E3,1.8322484E4,2.7248237E3,1.8638158E3,2.0644072E3,1.6258077E4],"tree_param":{"num_deleted":"0","num_feature":"120","num_nodes":"7","size_leaf_vector":"1"}},{"base_weights":[-7.7051856E-3,-2.2317469E-1,3.470194E-1,-1.4527532E-2,1.0064326E-1,2.542096E-2,-1.3920391E-2],"categories":[],"categories_nodes":[],"categories_segments":[],"categories_sizes":[],"default_left":[0,0,0,0,0,0,0],"id":15,"left_children":[1,3,5,-1,-1,-1,-1],"loss_changes":[1.7427114E3,1.0934774E3,5.6535376E2,0E0,0E0,0E0,0E0],"parents":[2147483647,0,0,1,1,2,2],"right_children":[2,4,6,-1,-1,-1,-1],"split_conditions":[6.65307E1,3.2140423E1,2.0745156E5,-1.4527532E-2,1.0064326E-1,2.542096E-2,-1.3920391E-2],"split_indices":[2,108,36,0,0,0,0],"split_type":[0,0,0,0,0,0,0],"sum_hessian":[2.2792768E4,1.4180695E4,8.612072E3,1.3924592E4,2.56104E2,7.275529E3,1.3365437E3],"tree_param":{"num_deleted":"0","num_feature":"120","num_nodes":"7","size_leaf_vector":"1"}},{"base_weights":[-2.868221E-3,-2.0604654E-1,3.2992917E-1,-6.1863437E-2,-7.4169985E-3,2.4221048E-2,-1.3154032E-2],"categories":[],"categories_nodes":[],"categories_segments":[],"categories_sizes":[],"default_left":[0,0,0,0,0,0,0],"id":16,"left_children":[1,3,5,-1,-1,-1,-1],"loss_changes":[1.5382035E3,9.3014667E2,5.147399E2,0E0,0E0,0E0,0E0],"parents":[2147483647,0,0,1,1,2,2],"right_children":[2,4,6,-1,-1,-1,-1],"split_conditions":[6.65307E1,1.2544866E6,1.33298E6,-6.1863437E-2,-7.4169985E-3,2.4221048E-2,-1.3154032E-2],"split_indices":[2,60,60,0,0,0,0],"split_type":[0,0,0,0,0,0,0],"sum_hessian":[2.27408E4,1.4121263E4,8.619539E3,1.0459203E3,1.3075342E4,7.268797E3,1.350742E3],"tree_param":{"num_deleted":"0","num_feature":"120","num_nodes":"7","size_leaf_vector":"1"}},{"base_weights":[-6.249905E-3,-4.7700977E-1,1.2293571E-1,-1.21303955E-2,-5.6828465E-2,-3.421534E-2,1.2415259E-2],"categories":[],"categories_nodes":[],"categories_segments":[],"categories_sizes":[],"default_left":[0,0,0,0,0,0,0],"id":17,"left_children":[1,3,5,-1,-1,-1,-1],"loss_changes":[1.381368E3,6.884617E2,1.31759E3,0E0,0E0,0E0,0E0],"parents":[2147483647,0,0,1,1,2,2],"right_children":[2,4,6,-1,-1,-1,-1],"split_conditions":[1.479059E0,2.2630354E2,1.569815E5,-1.21303955E-2,-5.6828465E-2,-3.421534E-2,1.2415259E-2],"split_indices":[13,72,36,0,0,0,0],"split_type":[0,0,0,0,0,0,0],"sum_hessian":[2.2705865E4,4.8870234E3,1.7818842E4,3.3148716E3,1.5721521E3,2.1274377E3,1.5691404E4],"tree_param":{"num_deleted":"0","num_feature":"120","num_nodes":"7","size_leaf_vector":"1"}},{"base_weights":[-5.1768105E-3,-4.9761984E-1,1.2018391E-1,-1.3381817E-2,-5.4262344E-2,-3.5504233E-2,1.1821998E-2],"categories":[],"categories_nodes":[],"categories_segments":[],"categories_sizes":[],"default_left":[0,0,0,0,0,0,0],"id":18,"left_children":[1,3,5,-1,-1,-1,-1],"loss_changes":[1.40275E3,5.650919E2,1.2673518E3,0E0,0E0,0E0,0E0],"parents":[2147483647,0,0,1,1,2,2],"right_children":[2,4,6,-1,-1,-1,-1],"split_conditions":[5.1E0,2.2613504E2,3.046272E7,-1.3381817E-2,-5.4262344E-2,-3.5504233E-2,1.1821998E-2],"split_indices":[14,72,48,0,0,0,0],"split_type":[0,0,0,0,0,0,0],"sum_hessian":[2.2714566E4,4.6067915E3,1.8107775E4,2.9981733E3,1.6086183E3,1.961652E3,1.6146123E4],"tree_param":{"num_deleted":"0","num_feature":"120","num_nodes":"7","size_leaf_vector":"1"}},{"base_weights":[-1.4869002E-2,-4.929165E-1,1.0425333E-1,-3.405557E-2,9.246527E-2,-3.2528605E-2,1.0628065E-2],"categories":[],"categories_nodes":[],"categories_segments":[],"categories_sizes":[],"default_left":[0,0,0,0,0,0,0],"id":19,"left_children":[1,3,5,-1,-1,-1,-1],"loss_changes":[1.2824463E3,1.156261E3,1.077376E3,0E0,0E0,0E0,0E0],"parents":[2147483647,0,0,1,1,2,2],"right_children":[2,4,6,-1,-1,-1,-1],"split_conditions":[5.1E0,3.2140423E1,1.5668055E5,-3.405557E-2,9.246527E-2,-3.2528605E-2,1.0628065E-2],"split_indices":[14,108,36,0,0,0,0],"split_type":[0,0,0,0,0,0,0],"sum_hessian":[2.2512271E4,4.488316E3,1.8023957E4,4.2560317E3,2.3228436E2,2.0130658E3,1.6010891E4],"tree_param":{"num_deleted":"0","num_feature":"120","num_nodes":"7","size_leaf_vector":"1"}},{"base_weights":[-5.5327304E-3,1.8766545E-1,-3.2143077E-1,-3.720559E-2,1.99351E-2,-7.057119E-2,-9.476344E-3],"categories":[],"categories_nodes":[],"categories_segments":[],"categories_sizes":[],"default_left":[0,0,0,0,0,0,0],"id":20,"left_children":[1,3,5,-1,-1,-1,-1],"loss_changes":[1.3801411E3,2.050186E3,1.2270084E3,0E0,0E0,0E0,0E0],"parents":[2147483647,0,0,1,1,2,2],"right_children":[2,4,6,-1,-1,-1,-1],"split_conditions":[1.856541E5,1.25529E6,1.31189E6,-3.720559E-2,1.99351E-2,-7.057119E-2,-9.476344E-3],"split_indices":[36,60,60,0,0,0,0],"split_type":[0,0,0,0,0,0,0],"sum_hessian":[2.2605701E4,1.4027883E4,8.577818E3,2.3281736E3,1.1699709E4,1.1767909E3,7.4010273E3],"tree_param":{"num_deleted":"0","num_feature":"120","num_nodes":"7","size_leaf_vector":"1"}},{"base_weights":[-1.4701798E-2,-1.8419826E-1,2.6184976E-1,3.0117764E-4,-2.789207E-2,9.41041E-3,4.5272443E-2],"categories":[],"categories_nodes":[],"categories_segments":[],"categories_sizes":[],"default_left":[0,0,0,0,0,0,0],"id":21,"left_children":[1,3,5,-1,-1,-1,-1],"loss_changes":[1.0474569E3,8.328336E2,4.338625E2,0E0,0E0,0E0,0E0],"parents":[2147483647,0,0,1,1,2,2],"right_children":[2,4,6,-1,-1,-1,-1],"split_conditions":[6.65307E1,1.3094E6,1.7508767E0,3.0117764E-4,-2.789207E-2,9.41041E-3,4.5272443E-2],"split_indices":[2,60,109,0,0,0,0],"split_type":[0,0,0,0,0,0,0],"sum_hessian":[2.2337979E4,1.3850615E4,8.487363E3,8.669183E3,5.181433E3,7.2704272E3,1.2169365E3],"tree_param":{"num_deleted":"0","num_feature":"120","num_nodes":"7","size_leaf_vector":"1"}},{"base_weights":[-9.3880845E-3,9.611814E-2,-4.7157747E-1,-3.2378275E-2,1.0831437E-2,-3.5202533E-2,2.2883927E-2],"categories":[],"categories_nodes":[],"categories_segments":[],"categories_sizes":[],"default_left":[0,0,0,0,0,0,0],"id":22,"left_children":[1,3,5,-1,-1,-1,-1],"loss_changes":[1.0944949E3,1.220912E3,5.939398E2,0E0,0E0,0E0,0E0],"parents":[2147483647,0,0,1,1,2,2],"right_children":[2,4,6,-1,-1,-1,-1],"split_conditions":[2.0646642E5,1.25529E6,1.35037E6,-3.2378275E-2,1.0831437E-2,-3.5202533E-2,2.2883927E-2],"split_indices":[36,60,60,0,0,0,0],"split_type":[0,0,0,0,0,0,0],"sum_hessian":[2.2436559E4,1.8269186E4,4.1673745E3,2.3154573E3,1.5953728E4,3.525595E3,6.417794E2],"tree_param":{"num_deleted":"0","num_feature":"120","num_nodes":"7","size_leaf_vector":"1"}},{"base_weights":[-8.5624744E-4,3.69169E-1,-1.3581344E-1,-2.816437E-2,2.6461631E-2,-6.272426E-2,-5.282529E-3],"categories":[],"categories_nodes":[],"categories_segments":[],"categories_sizes":[],"default_left":[0,0,0,0,0,0,0],"id":23,"left_children":[1,3,5,-1,-1,-1,-1],"loss_changes":[1.123041E3,5.6035876E2,6.6743787E2,0E0,0E0,0E0,0E0],"parents":[2147483647,0,0,1,1,2,2],"right_children":[2,4,6,-1,-1,-1,-1],"split_conditions":[6.0104024E-1,1.564577E5,9.628E0,-2.816437E-2,2.6461631E-2,-6.272426E-2,-5.282529E-3],"split_indices":[32,36,2,0,0,0,0],"split_type":[0,0,0,0,0,0,0],"sum_hessian":[2.2481201E4,6.006141E3,1.647506E4,6.4895233E2,5.3571885E3,6.483355E2,1.5826725E4],"tree_param":{"num_deleted":"0","num_feature":"120","num_nodes":"7","size_leaf_vector":"1"}},{"base_weights":[-1.5938785E-3,-1.3966025E-1,3.2513943E-1,-2.5415057E-2,-1.4149001E-3,-2.5777075E-2,2.4678692E-2],"categories":[],"categories_nodes":[],"categories_segments":[],"categories_sizes":[],"default_left":[0,0,0,0,0,0,0],"id":24,"left_children":[1,3,5,-1,-1,-1,-1],"loss_changes":[1.0068968E3,5.6818994E2,6.193096E2,0E0,0E0,0E0,0E0],"parents":[2147483647,0,0,1,1,2,2],"right_children":[2,4,6,-1,-1,-1,-1],"split_conditions":[4.871602E0,2.630072E0,1.25525E6,-2.5415057E-2,-1.4149001E-3,-2.5777075E-2,2.4678692E-2],"split_indices":[33,21,60,0,0,0,0],"split_type":[0,0,0,0,0,0,0],"sum_hessian":[2.2312738E4,1.5686608E4,6.6261304E3,4.1516836E3,1.1534925E4,8.6317615E2,5.7629546E3],"tree_param":{"num_deleted":"0","num_feature":"120","num_nodes":"7","size_leaf_vector":"1"}},{"base_weights":[-7.8611E-3,1.5950917E-1,-2.856516E-1,-3.120013E-2,1.6639642E-2,-6.653688E-2,-7.841225E-3],"categories":[],"categories_nodes":[],"categories_segments":[],"categories_sizes":[],"default_left":[0,0,0,0,0,0,0],"id":25,"left_children":[1,3,5,-1,-1,-1,-1],"loss_changes":[1.0340145E3,1.394886E3,1.100634E3,0E0,0E0,0E0,0E0],"parents":[2147483647,0,0,1,1,2,2],"right_children":[2,4,6,-1,-1,-1,-1],"split_conditions":[3.3872104E7,3.0529012E7,1.9487703E5,-3.120013E-2,1.6639642E-2,-6.653688E-2,-7.841225E-3],"split_indices":[48,48,36,0,0,0,0],"split_type":[0,0,0,0,0,0,0],"sum_hessian":[2.2231703E4,1.3874002E4,8.357701E3,2.2493333E3,1.1624669E4,1.1429148E3,7.2147866E3],"tree_param":{"num_deleted":"0","num_feature":"120","num_nodes":"7","size_leaf_vector":"1"}},{"base_weights":[-9.163672E-3,-1.0860516E-1,4.193981E-1,-3.249793E-2,-2.5224283E-3,-2.1317938E-2,2.935108E-2],"categories":[],"categories_nodes":[],"categories_segments":[],"categories_sizes":[],"default_left":[0,0,0,0,0,0,0],"id":26,"left_children":[1,3,5,-1,-1,-1,-1],"loss_changes":[9.460261E2,5.4184155E2,3.632586E2,0E0,0E0,0E0,0E0],"parents":[2147483647,0,0,1,1,2,2],"right_children":[2,4,6,-1,-1,-1,-1],"split_conditions":[5.4670553E0,4E-1,1.25525E6,-3.249793E-2,-2.5224283E-3,-2.1317938E-2,2.935108E-2],"split_indices":[33,110,60,0,0,0,0],"split_type":[0,0,0,0,0,0,0],"sum_hessian":[2.2190643E4,1.8013918E4,4.1767236E3,2.1121873E3,1.5901731E4,4.9428915E2,3.6824343E3],"tree_param":{"num_deleted":"0","num_feature":"120","num_nodes":"7","size_leaf_vector":"1"}},{"base_weights":[-7.714557E-3,8.415911E-2,-4.4651327E-1,-3.2317918E-2,9.361939E-3,-3.43812E-2,2.2288842E-2],"categories":[],"categories_nodes":[],"categories_segments":[],"categories_sizes":[],"default_left":[0,0,0,0,0,0,0],"id":27,"left_children":[1,3,5,-1,-1,-1,-1],"loss_changes":[8.9096716E2,1.0218825E3,5.562035E2,0E0,0E0,0E0,0E0],"parents":[2147483647,0,0,1,1,2,2],"right_children":[2,4,6,-1,-1,-1,-1],"split_conditions":[1.33298E6,1.25525E6,1.35037E6,-3.2317918E-2,9.361939E-3,-3.43812E-2,2.2288842E-2],"split_indices":[60,60,60,0,0,0,0],"split_type":[0,0,0,0,0,0,0],"sum_hessian":[2.209233E4,1.8270098E4,3.8222314E3,2.0480713E3,1.6222026E4,3.1802178E3,6.4201373E2],"tree_param":{"num_deleted":"0","num_feature":"120","num_nodes":"7","size_leaf_vector":"1"}},{"base_weights":[-9.248708E-3,-8.994068E-2,4.7472402E-1,-6.415633E-3,9.2020154E-2,4.065134E-2,1.0438698E-2],"categories":[],"categories_nodes":[],"categories_segments":[],"categories_sizes":[],"default_left":[0,0,0,0,0,0,0],"id":28,"left_children":[1,3,5,-1,-1,-1,-1],"loss_changes":[8.6193915E2,8.366562E2,2.3102838E2,0E0,0E0,0E0,0E0],"parents":[2147483647,0,0,1,1,2,2],"right_children":[2,4,6,-1,-1,-1,-1],"split_conditions":[2.504365E2,3.2140423E1,1.6696095E5,-6.415633E-3,9.2020154E-2,4.065134E-2,1.0438698E-2],"split_indices":[115,108,36,0,0,0,0],"split_type":[0,0,0,0,0,0,0],"sum_hessian":[2.2063463E4,1.8913451E4,3.1500132E3,1.8646154E4,2.672957E2,1.662636E3,1.4873772E3],"tree_param":{"num_deleted":"0","num_feature":"120","num_nodes":"7","size_leaf_vector":"1"}},{"base_weights":[-2.6369258E-4,9.156858E-2,-4.120619E-1,-4.1491434E-2,8.627331E-3,-3.0904682E-2,1.589323E-2],"categories":[],"categories_nodes":[],"categories_segments":[],"categories_sizes":[],"default_left":[0,0,0,0,0,0,0],"id":29,"left_children":[1,3,5,-1,-1,-1,-1],"loss_changes":[8.371099E2,9.61996E2,4.0414655E2,0E0,0E0,0E0,0E0],"parents":[2147483647,0,0,1,1,2,2],"right_children":[2,4,6,-1,-1,-1,-1],"split_conditions":[2.0646642E5,1.5353375E5,2.2731448E5,-4.1491434E-2,8.627331E-3,-3.0904682E-2,1.589323E-2],"split_indices":[36,36,36,0,0,0,0],"split_type":[0,0,0,0,0,0,0],"sum_hessian":[2.212762E4,1.8095264E4,4.032354E3,1.271977E3,1.6823287E4,3.3460488E3,6.8630505E2],"tree_param":{"num_deleted":"0","num_feature":"120","num_nodes":"7","size_leaf_vector":"1"}},{"base_weights":[-1.8714411E-2,1.3184142E-1,-2.7273998E-1,-4.0430784E-2,1.2073647E-2,-6.77452E-2,-6.7425575E-3],"categories":[],"categories_nodes":[],"categories_segments":[],"categories_sizes":[],"default_left":[0,0,0,0,0,0,0],"id":30,"left_children":[1,3,5,-1,-1,-1,-1],"loss_changes":[8.4235175E2,1.01098755E3,1.1728754E3,0E0,0E0,0E0,0E0],"parents":[2147483647,0,0,1,1,2,2],"right_children":[2,4,6,-1,-1,-1,-1],"split_conditions":[1.856541E5,1.25467E6,1.31189E6,-4.0430784E-2,1.2073647E-2,-6.77452E-2,-6.7425575E-3],"split_indices":[36,60,60,0,0,0,0],"split_type":[0,0,0,0,0,0,0],"sum_hessian":[2.2017123E4,1.3824988E4,8.192135E3,1.2444554E3,1.2580533E4,1.128826E3,7.0633086E3],"tree_param":{"num_deleted":"0","num_feature":"120","num_nodes":"7","size_leaf_vector":"1"}},{"base_weights":[-7.771732E-3,2.494965E-1,-1.4398801E-1,2.033251E-2,-1.3479603E-2,-5.968964E-2,-5.803785E-3],"categories":[],"categories_nodes":[],"categories_segments":[],"categories_sizes":[],"default_left":[0,0,0,0,0,0,0],"id":31,"left_children":[1,3,5,-1,-1,-1,-1],"loss_changes":[7.700606E2,4.3378168E2,5.290796E2,0E0,0E0,0E0,0E0],"parents":[2147483647,0,0,1,1,2,2],"right_children":[2,4,6,-1,-1,-1,-1],"split_conditions":[6.2059355E-1,1.3663655E2,9.628E0,2.033251E-2,-1.3479603E-2,-5.968964E-2,-5.803785E-3],"split_indices":[32,0,2,0,0,0,0],"split_type":[0,0,0,0,0,0,0],"sum_hessian":[2.1966135E4,7.6029033E3,1.4363231E4,6.153913E3,1.4489899E3,5.844803E2,1.3778752E4],"tree_param":{"num_deleted":"0","num_feature":"120","num_nodes":"7","size_leaf_vector":"1"}},{"base_weights":[9.66208E-3,-1.22730926E-1,2.4674352E-1,-6.1361976E-2,-4.4165635E-3,1.8118864E-2,-1.2245374E-2],"categories":[],"categories_nodes":[],"categories_segments":[],"categories_sizes":[],"default_left":[0,0,0,0,0,0,0],"id":32,"left_children":[1,3,5,-1,-1,-1,-1],"loss_changes":[6.916016E2,6.00398E2,2.908855E2,0E0,0E0,0E0,0E0],"parents":[2147483647,0,0,1,1,2,2],"right_children":[2,4,6,-1,-1,-1,-1],"split_conditions":[1.5491401E1,9.628E0,2.0745156E5,-6.1361976E-2,-4.4165635E-3,1.8118864E-2,-1.2245374E-2],"split_indices":[1,2,36,0,0,0,0],"split_type":[0,0,0,0,0,0,0],"sum_hessian":[2.2025883E4,1.4134449E4,7.891433E3,5.9480414E2,1.3539645E4,6.7522393E3,1.139194E3],"tree_param":{"num_deleted":"0","num_feature":"120","num_nodes":"7","size_leaf_vector":"1"}},{"base_weights":[-7.313914E-3,2.2493263E-1,-1.4803356E-1,-2.721142E-2,2.4933359E-2,-2.3530098E-2,-8.8929344E-4],"categories":[],"categories_nodes":[],"categories_segments":[],"categories_sizes":[],"default_left":[0,0,0,0,0,0,0],"id":33,"left_children":[1,3,5,-1,-1,-1,-1],"loss_changes":[7.134435E2,1.3127935E3,4.9322955E2,0E0,0E0,0E0,0E0],"parents":[2147483647,0,0,1,1,2,2],"right_children":[2,4,6,-1,-1,-1,-1],"split_conditions":[1.28323E6,1.25525E6,3.3068E1,-2.721142E-2,2.4933359E-2,-2.3530098E-2,-8.8929344E-4],"split_indices":[60,60,2,0,0,0,0],"split_type":[0,0,0,0,0,0,0],"sum_hessian":[2.182218E4,8.2323955E3,1.3589783E4,1.958985E3,6.2734106E3,4.4078896E3,9.181894E3],"tree_param":{"num_deleted":"0","num_feature":"120","num_nodes":"7","size_leaf_vector":"1"}},{"base_weights":[3.4070592E-3,7.972465E-2,-3.7843546E-1,-2.4340155E-2,8.178481E-3,-2.382602E-2,1.082681E-1],"categories":[],"categories_nodes":[],"categories_segments":[],"categories_sizes":[],"default_left":[0,0,0,0,0,0,0],"id":34,"left_children":[1,3,5,-1,-1,-1,-1],"loss_changes":[6.3915814E2,6.3585077E2,4.253056E2,0E0,0E0,0E0,0E0],"parents":[2147483647,0,0,1,1,2,2],"right_children":[2,4,6,-1,-1,-1,-1],"split_conditions":[3.5699524E7,3.0529012E7,1.5135422E0,-2.4340155E-2,8.178481E-3,-2.382602E-2,1.082681E-1],"split_indices":[48,48,37,0,0,0,0],"split_type":[0,0,0,0,0,0,0],"sum_hessian":[2.1925623E4,1.8276168E4,3.649456E3,2.1003618E3,1.6175806E4,3.576249E3,7.320681E1],"tree_param":{"num_deleted":"0","num_feature":"120","num_nodes":"7","size_leaf_vector":"1"}},{"base_weights":[-1.384338E-3,2.7625588E-1,-1.0404339E-1,2.0631861E-2,-1.7436445E-2,4.5963973E-3,-1.4067441E-2],"categories":[],"categories_nodes":[],"categories_segments":[],"categories_sizes":[],"default_left":[0,0,0,0,0,0,0],"id":35,"left_children":[1,3,5,-1,-1,-1,-1],"loss_changes":[6.246526E2,3.3005536E2,4.4428802E2,0E0,0E0,0E0,0E0],"parents":[2147483647,0,0,1,1,2,2],"right_children":[2,4,6,-1,-1,-1,-1],"split_conditions":[6.0104024E-1,1.33287E6,2.2511743E2,2.0631861E-2,-1.7436445E-2,4.5963973E-3,-1.4067441E-2],"split_indices":[32,60,84,0,0,0,0],"split_type":[0,0,0,0,0,0,0],"sum_hessian":[2.1908258E4,5.911974E3,1.5996284E4,5.09672E3,8.152539E2,7.0950244E3,8.90126E3],"tree_param":{"num_deleted":"0","num_feature":"120","num_nodes":"7","size_leaf_vector":"1"}},{"base_weights":[3.492206E-3,-8.742724E-1,3.7765723E-2,9.467427E-2,-5.75049E-2,2.3724377E-2,-1.6473676E-3],"categories":[],"categories_nodes":[],"categories_segments":[],"categories_sizes":[],"default_left":[0,0,0,0,0,0,0],"id":36,"left_children":[1,3,5,-1,-1,-1,-1],"loss_changes":[6.586232E2,3.4404913E2,5.516522E2,0E0,0E0,0E0,0E0],"parents":[2147483647,0,0,1,1,2,2],"right_children":[2,4,6,-1,-1,-1,-1],"split_conditions":[1.0913E1,2.2361992E2,7.5831537E0,9.467427E-2,-5.75049E-2,2.3724377E-2,-1.6473676E-3],"split_indices":[2,84,12,0,0,0,0],"split_type":[0,0,0,0,0,0,0],"sum_hessian":[2.1886238E4,8.187068E2,2.1067531E4,4.5344757E1,7.73362E2,3.1099966E3,1.7957535E4],"tree_param":{"num_deleted":"0","num_feature":"120","num_nodes":"7","size_leaf_vector":"1"}},{"base_weights":[1.33632645E-2,-4.8056287E-3,1.5003091E0,-4.7860954E-2,2.9762972E-3,9.991397E-2,-2.6647037E-2],"categories":[],"categories_nodes":[],"categories_segments":[],"categories_sizes":[],"default_left":[0,0,0,0,0,0,0],"id":37,"left_children":[1,3,5,-1,-1,-1,-1],"loss_changes":[5.9104004E2,1.0776387E3,1.57776E2,0E0,0E0,0E0,0E0],"parents":[2147483647,0,0,1,1,2,2],"right_children":[2,4,6,-1,-1,-1,-1],"split_conditions":[3.2140423E1,2.046999E-1,2.2624126E2,-4.7860954E-2,2.9762972E-3,9.991397E-2,-2.6647037E-2],"split_indices":[108,13,84,0,0,0,0],"split_type":[0,0,0,0,0,0,0],"sum_hessian":[2.1868479E4,2.1608389E4,2.6009085E2,1.3753112E3,2.0233076E4,2.266933E2,3.339756E1],"tree_param":{"num_deleted":"0","num_feature":"120","num_nodes":"7","size_leaf_vector":"1"}},{"base_weights":[1.8031785E-2,-7.3762494E-1,5.306169E-2,-4.7822904E-2,1.504873E-2,1.8974442E-2,-5.580579E-3],"categories":[],"categories_nodes":[],"categories_segments":[],"categories_sizes":[],"default_left":[0,0,0,0,0,0,0],"id":38,"left_children":[1,3,5,-1,-1,-1,-1],"loss_changes":[5.771572E2,1.19511536E2,9.2009106E2,0E0,0E0,0E0,0E0],"parents":[2147483647,0,0,1,1,2,2],"right_children":[2,4,6,-1,-1,-1,-1],"split_conditions":[1.2544866E6,5.203982E2,1.28323E6,-4.7822904E-2,1.504873E-2,1.8974442E-2,-5.580579E-3],"split_indices":[60,26,60,0,0,0,0],"split_type":[0,0,0,0,0,0,0],"sum_hessian":[2.1795555E4,9.6197296E2,2.0833582E4,8.5890247E2,1.0307052E2,7.2385884E3,1.3594994E4],"tree_param":{"num_deleted":"0","num_feature":"120","num_nodes":"7","size_leaf_vector":"1"}},{"base_weights":[-5.7442533E-3,4.7509435E-1,-6.0718868E-2,4.881395E-3,4.4194855E-2,-5.7913747E-2,-1.9585332E-3],"categories":[],"categories_nodes":[],"categories_segments":[],"categories_sizes":[],"default_left":[0,0,0,0,0,0,0],"id":39,"left_children":[1,3,5,-1,-1,-1,-1],"loss_changes":[5.740845E2,2.750764E2,4.872976E2,0E0,0E0,0E0,0E0],"parents":[2147483647,0,0,1,1,2,2],"right_children":[2,4,6,-1,-1,-1,-1],"split_conditions":[8.7561214E-1,2.4262715E6,9.293E0,4.881395E-3,4.4194855E-2,-5.7913747E-2,-1.9585332E-3],"split_indices":[27,35,2,0,0,0,0],"split_type":[0,0,0,0,0,0,0],"sum_hessian":[2.1710416E4,2.2242346E3,1.9486182E4,1.00699146E3,1.2172433E3,4.9055222E2,1.8995629E4],"tree_param":{"num_deleted":"0","num_feature":"120","num_nodes":"7","size_leaf_vector":"1"}},{"base_weights":[-2.507224E-2,1.8227421E-1,-1.514817E-1,-2.4120245E-2,2.1423632E-2,-5.045825E-2,-6.609867E-3],"categories":[],"categories_nodes":[],"categories_segments":[],"categories_sizes":[],"default_left":[0,0,0,0,0,0,0],"id":40,"left_children":[1,3,5,-1,-1,-1,-1],"loss_changes":[5.630331E2,1.0160811E3,3.2911618E2,0E0,0E0,0E0,0E0],"parents":[2147483647,0,0,1,1,2,2],"right_children":[2,4,6,-1,-1,-1,-1],"split_conditions":[1.28323E6,1.25529E6,1.709842E5,-2.4120245E-2,2.1423632E-2,-5.045825E-2,-6.609867E-3],"split_indices":[60,60,36,0,0,0,0],"split_type":[0,0,0,0,0,0,0],"sum_hessian":[2.1473027E4,8.1319995E3,1.3341027E4,2.0129082E3,6.1190913E3,5.492103E2,1.2791817E4],"tree_param":{"num_deleted":"0","num_feature":"120","num_nodes":"7","size_leaf_vector":"1"}},{"base_weights":[-1.2993899E-2,-1.1095631E0,1.1293459E-2,-7.376538E-3,-6.541634E-2,4.2783017E-3,-2.0534014E-2],"categories":[],"categories_nodes":[],"categories_segments":[],"categories_sizes":[],"default_left":[0,0,0,0,0,0,0],"id":41,"left_children":[1,3,5,-1,-1,-1,-1],"loss_changes":[5.767536E2,2.9524048E1,5.2849994E2,0E0,0E0,0E0,0E0],"parents":[2147483647,0,0,1,1,2,2],"right_children":[2,4,6,-1,-1,-1,-1],"split_conditions":[9.293E0,2.2495737E2,3.5829876E7,-7.376538E-3,-6.541634E-2,4.2783017E-3,-2.0534014E-2],"split_indices":[2,72,48,0,0,0,0],"split_type":[0,0,0,0,0,0,0],"sum_hessian":[2.1647125E4,4.6525046E2,2.1181875E4,3.0245167E1,4.3500528E2,1.8068945E4,3.1129282E3],"tree_param":{"num_deleted":"0","num_feature":"120","num_nodes":"7","size_leaf_vector":"1"}},{"base_weights":[1.2847141E-2,-8.394794E-1,4.2803723E-2,8.6322136E-2,-5.5714343E-2,-3.5308074E-2,4.293069E-3],"categories":[],"categories_nodes":[],"categories_segments":[],"categories_sizes":[],"default_left":[0,0,0,0,0,0,0],"id":42,"left_children":[1,3,5,-1,-1,-1,-1],"loss_changes":[5.566014E2,2.9228412E2,4.8998325E2,0E0,0E0,0E0,0E0],"parents":[2147483647,0,0,1,1,2,2],"right_children":[2,4,6,-1,-1,-1,-1],"split_conditions":[1.0913E1,2.2361992E2,1.5325469E5,8.6322136E-2,-5.5714343E-2,-3.5308074E-2,4.293069E-3],"split_indices":[2,84,36,0,0,0,0],"split_type":[0,0,0,0,0,0,0],"sum_hessian":[2.1791955E4,7.3616705E2,2.1055787E4,4.4432686E1,6.917344E2,1.0126452E3,2.0043143E4],"tree_param":{"num_deleted":"0","num_feature":"120","num_nodes":"7","size_leaf_vector":"1"}},{"base_weights":[-1.2199612E-2,-2.9413857E-2,1.3769349E0,-4.0105723E-2,1.2985589E-3,8.942338E-2,-2.71484E-2],"categories":[],"categories_nodes":[],"categories_segments":[],"categories_sizes":[],"default_left":[0,0,0,0,0,0,0],"id":43,"left_children":[1,3,5,-1,-1,-1,-1],"loss_changes":[5.138883E2,7.741662E2,1.1601953E2,0E0,0E0,0E0,0E0],"parents":[2147483647,0,0,1,1,2,2],"right_children":[2,4,6,-1,-1,-1,-1],"split_conditions":[3.2140423E1,1.228228E1,2.2495737E2,-4.0105723E-2,1.2985589E-3,8.942338E-2,-2.71484E-2],"split_indices":[108,23,72,0,0,0,0],"split_type":[0,0,0,0,0,0,0],"sum_hessian":[2.1483031E4,2.1223986E4,2.590462E2,1.5012057E3,1.972278E4,2.3113078E2,2.7915434E1],"tree_param":{"num_deleted":"0","num_feature":"120","num_nodes":"7","size_leaf_vector":"1"}},{"base_weights":[9.66644E-3,4.5014057E-1,-4.5300327E-2,4.6294406E-2,1.3448149E-2,-3.5741453E-3,7.540252E-2],"categories":[],"categories_nodes":[],"categories_segments":[],"categories_sizes":[],"default_left":[0,0,0,0,0,0,0],"id":44,"left_children":[1,3,5,-1,-1,-1,-1],"loss_changes":[5.230267E2,1.8987415E2,5.0922787E2,0E0,0E0,0E0,0E0],"parents":[2147483647,0,0,1,1,2,2],"right_children":[2,4,6,-1,-1,-1,-1],"split_conditions":[8.8454014E-1,1.28808E6,3.2140423E1,4.6294406E-2,1.3448149E-2,-3.5741453E-3,7.540252E-2],"split_indices":[27,60,108,0,0,0,0],"split_type":[0,0,0,0,0,0,0],"sum_hessian":[2.1593967E4,2.3926926E3,1.9201275E4,8.407984E2,1.5518943E3,1.8949021E4,2.522527E2],"tree_param":{"num_deleted":"0","num_feature":"120","num_nodes":"7","size_leaf_vector":"1"}},{"base_weights":[5.6169597E-3,7.259614E-2,-3.3785853E-1,-2.3090383E-2,7.133915E-3,-2.8102875E-2,2.5157733E-2],"categories":[],"categories_nodes":[],"categories_segments":[],"categories_sizes":[],"default_left":[0,0,0,0,0,0,0],"id":45,"left_children":[1,3,5,-1,-1,-1,-1],"loss_changes":[4.96261E2,4.8949323E2,4.6567096E2,0E0,0E0,0E0,0E0],"parents":[2147483647,0,0,1,1,2,2],"right_children":[2,4,6,-1,-1,-1,-1],"split_conditions":[1.33298E6,1.25525E6,1.35037E6,-2.3090383E-2,7.133915E-3,-2.8102875E-2,2.5157733E-2],"split_indices":[60,60,60,0,0,0,0],"split_type":[0,0,0,0,0,0,0],"sum_hessian":[2.1563729E4,1.8047701E4,3.5160283E3,1.8447356E3,1.6202965E4,2.9032573E3,6.127708E2],"tree_param":{"num_deleted":"0","num_feature":"120","num_nodes":"7","size_leaf_vector":"1"}},{"base_weights":[-2.017355E-3,-2.945145E-1,8.1811644E-2,-6.1366176E-3,-3.534516E-2,-3.1785116E-2,6.3424543E-3],"categories":[],"categories_nodes":[],"categories_segments":[],"categories_sizes":[],"default_left":[0,0,0,0,0,0,0],"id":46,"left_children":[1,3,5,-1,-1,-1,-1],"loss_changes":[5.255954E2,2.9933508E2,3.5009476E2,0E0,0E0,0E0,0E0],"parents":[2147483647,0,0,1,1,2,2],"right_children":[2,4,6,-1,-1,-1,-1],"split_conditions":[3.2371857E0,3.3872104E7,1.5251852E5,-6.1366176E-3,-3.534516E-2,-3.1785116E-2,6.3424543E-3],"split_indices":[33,48,36,0,0,0,0],"split_type":[0,0,0,0,0,0,0],"sum_hessian":[2.1427086E4,4.770958E3,1.6656129E4,3.0998047E3,1.6711531E3,7.785918E2,1.5877537E4],"tree_param":{"num_deleted":"0","num_feature":"120","num_nodes":"7","size_leaf_vector":"1"}},{"base_weights":[-1.8574413E-2,-3.481257E-2,1.3064164E0,-4.1837964E-2,9.354212E-4,8.263146E-2,-4.6652604E-2],"categories":[],"categories_nodes":[],"categories_segments":[],"categories_sizes":[],"default_left":[0,0,0,0,0,0,0],"id":47,"left_children":[1,3,5,-1,-1,-1,-1],"loss_changes":[4.5754434E2,7.776685E2,1.0355936E2,0E0,0E0,0E0,0E0],"parents":[2147483647,0,0,1,1,2,2],"right_children":[2,4,6,-1,-1,-1,-1],"split_conditions":[3.2140423E1,2.3545271E-1,2.2573582E2,-4.1837964E-2,9.354212E-4,8.263146E-2,-4.6652604E-2],"split_indices":[108,13,72,0,0,0,0],"split_type":[0,0,0,0,0,0,0],"sum_hessian":[2.1257426E4,2.100396E4,2.5346509E2,1.4070964E3,1.9596865E4,2.3516106E2,1.8304035E1],"tree_param":{"num_deleted":"0","num_feature":"120","num_nodes":"7","size_leaf_vector":"1"}},{"base_weights":[-7.1677513E-4,-7.976083E-2,3.2190776E-1,-5.527016E-3,6.978365E-2,2.1637905E-2,-2.08269E-2],"categories":[],"categories_nodes":[],"categories_segments":[],"categories_sizes":[],"default_left":[0,0,0,0,0,0,0],"id":48,"left_children":[1,3,5,-1,-1,-1,-1],"loss_changes":[5.4616174E2,4.4916748E2,1.9692462E2,0E0,0E0,0E0,0E0],"parents":[2147483647,0,0,1,1,2,2],"right_children":[2,4,6,-1,-1,-1,-1],"split_conditions":[5.434864E0,3.2140423E1,1.4193167E2,-5.527016E-3,6.978365E-2,2.1637905E-2,-2.08269E-2],"split_indices":[33,108,0,0,0,0,0],"split_type":[0,0,0,0,0,0,0],"sum_hessian":[2.140942E4,1.7198863E4,4.2105576E3,1.6954002E4,2.4486058E2,3.8430068E3,3.675507E2],"tree_param":{"num_deleted":"0","num_feature":"120","num_nodes":"7","size_leaf_vector":"1"}},{"base_weights":[1.7201152E-2,-9.769358E-1,3.6745638E-2,1.203803E-2,-5.791187E-2,1.2352248E-2,-4.224871E-3],"categories":[],"categories_nodes":[],"categories_segments":[],"categories_sizes":[],"default_left":[0,0,0,0,0,0,0],"id":49,"left_children":[1,3,5,-1,-1,-1,-1],"loss_changes":[4.1884637E2,3.2559753E1,4.4124762E2,0E0,0E0,0E0,0E0],"parents":[2147483647,0,0,1,1,2,2],"right_children":[2,4,6,-1,-1,-1,-1],"split_conditions":[9.293E0,2.3236132E0,1.28323E6,1.203803E-2,-5.791187E-2,1.2352248E-2,-4.224871E-3],"split_indices":[2,93,60,0,0,0,0],"split_type":[0,0,0,0,0,0,0],"sum_hessian":[2.1548674E4,4.1163013E2,2.1137043E4,2.0328896E1,3.9130124E2,7.9931323E3,1.314391E4],"tree_param":{"num_deleted":"0","num_feature":"120","num_nodes":"7","size_leaf_vector":"1"}},{"base_weights":[-1.226853E-4,-2.5612727E-1,7.214275E-2,-1.8868111E-2,6.697105E-2,-3.0735876E-2,5.714E-3],"categories":[],"categories_nodes":[],"categories_segments":[],"categories_sizes":[],"default_left":[0,0,0,0,0,0,0],"id":50,"left_children":[1,3,5,-1,-1,-1,-1],"loss_changes":[3.9449686E2,5.6976483E2,3.1728522E2,0E0,0E0,0E0,0E0],"parents":[2147483647,0,0,1,1,2,2],"right_children":[2,4,6,-1,-1,-1,-1],"split_conditions":[3.2371857E0,3.2140423E1,1.5251852E5,-1.8868111E-2,6.697105E-2,-3.0735876E-2,5.714E-3],"split_indices":[33,108,36,0,0,0,0],"split_type":[0,0,0,0,0,0,0],"sum_hessian":[2.1315168E4,4.6902915E3,1.6624877E4,4.4410835E3,2.4920815E2,7.7177313E2,1.58531045E4],"tree_param":{"num_deleted":"0","num_feature":"120","num_nodes":"7","size_leaf_vector":"1"}},{"base_weights":[3.2641473E-3,2.2189885E-1,-7.977256E-2,-3.0227302E-2,1.5067604E-2,-2.6215073E-2,-1.9619802E-3],"categories":[],"categories_nodes":[],"categories_segments":[],"categories_sizes":[],"default_left":[0,0,0,0,0,0,0],"id":51,"left_children":[1,3,5,-1,-1,-1,-1],"loss_changes":[3.8748633E2,2.2019388E2,2.6934616E2,0E0,0E0,0E0,0E0],"parents":[2147483647,0,0,1,1,2,2],"right_children":[2,4,6,-1,-1,-1,-1],"split_conditions":[6.02126E-1,1.25467E6,1.1E0,-3.0227302E-2,1.5067604E-2,-2.6215073E-2,-1.9619802E-3],"split_indices":[32,60,14,0,0,0,0],"split_type":[0,0,0,0,0,0,0],"sum_hessian":[2.1335148E4,5.870999E3,1.5464148E4,3.4993246E2,5.5210664E3,1.5754954E3,1.3888653E4],"tree_param":{"num_deleted":"0","num_feature":"120","num_nodes":"7","size_leaf_vector":"1"}},{"base_weights":[-1.1213762E-2,-4.0870525E-2,6.1809295E-1,-2.5633272E-2,4.027156E-6,4.4983193E-2,6.0225427E-3],"categories":[],"categories_nodes":[],"categories_segments":[],"categories_sizes":[],"default_left":[0,0,0,0,0,0,0],"id":52,"left_children":[1,3,5,-1,-1,-1,-1],"loss_changes":[3.955968E2,3.479304E2,9.2120575E1,0E0,0E0,0E0,0E0],"parents":[2147483647,0,0,1,1,2,2],"right_children":[2,4,6,-1,-1,-1,-1],"split_conditions":[2.1348087E2,1.569815E5,5.894001E-1,-2.5633272E-2,4.027156E-6,4.4983193E-2,6.0225427E-3],"split_indices":[25,36,32,0,0,0,0],"split_type":[0,0,0,0,0,0,0],"sum_hessian":[2.1189295E4,2.023934E4,9.499546E2,1.7952147E3,1.8444125E4,6.900213E2,2.5993335E2],"tree_param":{"num_deleted":"0","num_feature":"120","num_nodes":"7","size_leaf_vector":"1"}},{"base_weights":[-1.2032689E-2,-9.888902E-1,5.91112E-3,2.729627E-2,-6.0531482E-2,1.7819287E-2,-2.9897164E-3],"categories":[],"categories_nodes":[],"categories_segments":[],"categories_sizes":[],"default_left":[0,0,0,0,0,0,0],"id":53,"left_children":[1,3,5,-1,-1,-1,-1],"loss_changes":[3.704458E2,5.7916504E1,3.890372E2,0E0,0E0,0E0,0E0],"parents":[2147483647,0,0,1,1,2,2],"right_children":[2,4,6,-1,-1,-1,-1],"split_conditions":[9.293E0,6.4135027E-1,9.508524E-1,2.729627E-2,-6.0531482E-2,1.7819287E-2,-2.9897164E-3],"split_indices":[2,15,15,0,0,0,0],"split_type":[0,0,0,0,0,0,0],"sum_hessian":[2.1124742E4,3.7720407E2,2.074754E4,2.2588705E1,3.5461536E2,3.3062566E3,1.7441281E4],"tree_param":{"num_deleted":"0","num_feature":"120","num_nodes":"7","size_leaf_vector":"1"}},{"base_weights":[-1.2923182E-2,-4.666085E-1,2.3681013E-2,-4.063371E-3,-4.3344524E-2,-3.1011768E-2,2.8465954E-3],"categories":[],"categories_nodes":[],"categories_segments":[],"categories_sizes":[],"default_left":[0,0,0,0,0,0,0],"id":54,"left_children":[1,3,5,-1,-1,-1,-1],"loss_changes":[3.504381E2,1.933541E2,3.117113E2,0E0,0E0,0E0,0E0],"parents":[2147483647,0,0,1,1,2,2],"right_children":[2,4,6,-1,-1,-1,-1],"split_conditions":[1.1E0,2.7435775E0,1.25466E6,-4.063371E-3,-4.3344524E-2,-3.1011768E-2,2.8465954E-3],"split_indices":[14,105,60,0,0,0,0],"split_type":[0,0,0,0,0,0,0],"sum_hessian":[2.1093646E4,1.5714467E3,1.95222E4,6.974926E2,8.739541E2,8.778695E2,1.864433E4],"tree_param":{"num_deleted":"0","num_feature":"120","num_nodes":"7","size_leaf_vector":"1"}},{"base_weights":[-1.2162876E-2,-6.463423E-1,1.3521156E-2,-4.4621572E-2,2.42059E-2,1.3163079E-2,-5.905636E-3],"categories":[],"categories_nodes":[],"categories_segments":[],"categories_sizes":[],"default_left":[0,0,0,0,0,0,0],"id":55,"left_children":[1,3,5,-1,-1,-1,-1],"loss_changes":[3.4424127E2,1.397327E2,5.420533E2,0E0,0E0,0E0,0E0],"parents":[2147483647,0,0,1,1,2,2],"right_children":[2,4,6,-1,-1,-1,-1],"split_conditions":[1.2544866E6,5.203982E2,1.28323E6,-4.4621572E-2,2.42059E-2,1.3163079E-2,-5.905636E-3],"split_indices":[60,26,60,0,0,0,0],"split_type":[0,0,0,0,0,0,0],"sum_hessian":[2.1125521E4,8.18615E2,2.0306906E4,7.1665497E2,1.01960014E2,7.08924E3,1.3217666E4],"tree_param":{"num_deleted":"0","num_feature":"120","num_nodes":"7","size_leaf_vector":"1"}},{"base_weights":[6.7364317E-3,1.7842932E-1,-9.6156925E-2,1.7120523E-3,3.916532E-2,-4.2485952E-2,-2.8061348E-3],"categories":[],"categories_nodes":[],"categories_segments":[],"categories_sizes":[],"default_left":[0,0,0,0,0,0,0],"id":56,"left_children":[1,3,5,-1,-1,-1,-1],"loss_changes":[3.7300275E2,6.136505E2,4.0267114E2,0E0,0E0,0E0,0E0],"parents":[2147483647,0,0,1,1,2,2],"right_children":[2,4,6,-1,-1,-1,-1],"split_conditions":[1.28323E6,3.1797546E7,1.7231645E5,1.7120523E-3,3.916532E-2,-4.2485952E-2,-2.8061348E-3],"split_indices":[60,48,36,0,0,0,0],"split_type":[0,0,0,0,0,0,0],"sum_hessian":[2.1105895E4,7.907977E3,1.3197918E4,6.17634E3,1.731637E3,8.42347E2,1.2355571E4],"tree_param":{"num_deleted":"0","num_feature":"120","num_nodes":"7","size_leaf_vector":"1"}},{"base_weights":[-9.225678E-3,4.8958875E-2,-3.1564403E-1,1.5668508E-2,-1.7011209E-3,-2.6876546E-2,2.4620516E-2],"categories":[],"categories_nodes":[],"categories_segments":[],"categories_sizes":[],"default_left":[0,0,0,0,0,0,0],"id":57,"left_children":[1,3,5,-1,-1,-1,-1],"loss_changes":[3.7617957E2,3.2805768E2,4.2794446E2,0E0,0E0,0E0,0E0],"parents":[2147483647,0,0,1,1,2,2],"right_children":[2,4,6,-1,-1,-1,-1],"split_conditions":[3.5699524E7,5.9363014E-1,1.35037E6,1.5668508E-2,-1.7011209E-3,-2.6876546E-2,2.4620516E-2],"split_indices":[48,32,60,0,0,0,0],"split_type":[0,0,0,0,0,0,0],"sum_hessian":[2.1091055E4,1.7727912E4,3.3631423E3,4.514558E3,1.32133545E4,2.7563125E3,6.0682983E2],"tree_param":{"num_deleted":"0","num_feature":"120","num_nodes":"7","size_leaf_vector":"1"}},{"base_weights":[3.6711444E-3,1.516597E-1,-1.0782065E-1,-1.8242527E-2,1.1405377E-2,-7.0037562E-3,6.2626235E-2],"categories":[],"categories_nodes":[],"categories_segments":[],"categories_sizes":[],"default_left":[0,0,0,0,0,0,0],"id":58,"left_children":[1,3,5,-1,-1,-1,-1],"loss_changes":[3.4948325E2,2.3281416E2,2.6916516E2,0E0,0E0,0E0,0E0],"parents":[2147483647,0,0,1,1,2,2],"right_children":[2,4,6,-1,-1,-1,-1],"split_conditions":[6.3674784E-1,1.25525E6,1.8085896E1,-1.8242527E-2,1.1405377E-2,-7.0037562E-3,6.2626235E-2],"split_indices":[32,60,12,0,0,0,0],"split_type":[0,0,0,0,0,0,0],"sum_hessian":[2.117329E4,9.097239E3,1.2076049E4,9.0779663E2,8.1894424E3,1.1905582E4,1.7046729E2],"tree_param":{"num_deleted":"0","num_feature":"120","num_nodes":"7","size_leaf_vector":"1"}},{"base_weights":[1.769959E-2,1.1637872E-1,-1.5274757E-1,4.2708367E-2,4.401808E-3,-6.2077984E-2,9.988481E-5],"categories":[],"categories_nodes":[],"categories_segments":[],"categories_sizes":[],"default_left":[0,0,0,0,0,0,0],"id":59,"left_children":[1,3,5,-1,-1,-1,-1],"loss_changes":[3.570686E2,3.2604102E2,1.1582678E3,0E0,0E0,0E0,0E0],"parents":[2147483647,0,0,1,1,2,2],"right_children":[2,4,6,-1,-1,-1,-1],"split_conditions":[1.856541E5,2.556141E1,1.9487703E5,4.2708367E-2,4.401808E-3,-6.2077984E-2,9.988481E-5],"split_indices":[36,108,36,0,0,0,0],"split_type":[0,0,0,0,0,0,0],"sum_hessian":[2.1221264E4,1.3441229E4,7.7800356E3,7.235986E2,1.271763E4,1.0727207E3,6.707315E3],"tree_param":{"num_deleted":"0","num_feature":"120","num_nodes":"7","size_leaf_vector":"1"}},{"base_weights":[7.508087E-3,-6.5757637E-3,1.1512985E0,-3.1725768E-2,1.9463081E-3,7.832051E-2,-2.146005E-2],"categories":[],"categories_nodes":[],"categories_segments":[],"categories_sizes":[],"default_left":[0,0,0,0,0,0,0],"id":60,"left_children":[1,3,5,-1,-1,-1,-1],"loss_changes":[3.3980243E2,4.8795605E2,1.0322952E2,0E0,0E0,0E0,0E0],"parents":[2147483647,0,0,1,1,2,2],"right_children":[2,4,6,-1,-1,-1,-1],"split_conditions":[3.2140423E1,1.0049653E0,2.2611081E2,-3.1725768E-2,1.9463081E-3,7.832051E-2,-2.146005E-2],"split_indices":[108,22,84,0,0,0,0],"split_type":[0,0,0,0,0,0,0],"sum_hessian":[2.1083314E4,2.0830736E4,2.5257846E2,1.4270542E3,1.9403682E4,2.1682913E2,3.574934E1],"tree_param":{"num_deleted":"0","num_feature":"120","num_nodes":"7","size_leaf_vector":"1"}},{"base_weights":[1.4867419E-2,1.1850438E-3,1.1541063E0,-3.5545498E-2,2.2376613E-3,7.3156774E-2,-6.221666E-2],"categories":[],"categories_nodes":[],"categories_segments":[],"categories_sizes":[],"default_left":[0,0,0,0,0,0,0],"id":61,"left_children":[1,3,5,-1,-1,-1,-1],"loss_changes":[3.2963852E2,5.2215265E2,9.741397E1,0E0,0E0,0E0,0E0],"parents":[2147483647,0,0,1,1,2,2],"right_children":[2,4,6,-1,-1,-1,-1],"split_conditions":[3.2140423E1,3.9839375E1,2.2573582E2,-3.5545498E-2,2.2376613E-3,7.3156774E-2,-6.221666E-2],"split_indices":[108,19,72,0,0,0,0],"split_type":[0,0,0,0,0,0,0],"sum_hessian":[2.1148977E4,2.0902004E4,2.4697296E2,1.1977817E3,1.970422E4,2.3227988E2,1.4693087E1],"tree_param":{"num_deleted":"0","num_feature":"120","num_nodes":"7","size_leaf_vector":"1"}},{"base_weights":[2.997103E-3,5.538328E-2,-2.7058575E-1,1.2844155E-3,3.3504765E-2,-2.336964E-2,2.2355175E-2],"categories":[],"categories_nodes":[],"categories_segments":[],"categories_sizes":[],"default_left":[0,0,0,0,0,0,0],"id":62,"left_children":[1,3,5,-1,-1,-1,-1],"loss_changes":[3.0074655E2,3.1093576E2,3.3930872E2,0E0,0E0,0E0,0E0],"parents":[2147483647,0,0,1,1,2,2],"right_children":[2,4,6,-1,-1,-1,-1],"split_conditions":[1.33298E6,2.0427658E5,1.35037E6,1.2844155E-3,3.3504765E-2,-2.336964E-2,2.2355175E-2],"split_indices":[60,36,60,0,0,0,0],"split_type":[0,0,0,0,0,0,0],"sum_hessian":[2.097716E4,1.7608824E4,3.368336E3,1.6630455E4,9.783697E2,2.7573572E3,6.1097876E2],"tree_param":{"num_deleted":"0","num_feature":"120","num_nodes":"7","size_leaf_vector":"1"}},{"base_weights":[3.4507434E-3,-1.0284349E-2,1.1182085E0,-3.783218E-2,1.4436218E-3,7.095742E-2,-4.5309618E-2],"categories":[],"categories_nodes":[],"categories_segments":[],"categories_sizes":[],"default_left":[0,0,0,0,0,0,0],"id":63,"left_children":[1,3,5,-1,-1,-1,-1],"loss_changes":[3.221825E2,5.0418478E2,8.182138E1,0E0,0E0,0E0,0E0],"parents":[2147483647,0,0,1,1,2,2],"right_children":[2,4,6,-1,-1,-1,-1],"split_conditions":[3.2140423E1,2.046999E-1,2.2549448E2,-3.783218E-2,1.4436218E-3,7.095742E-2,-4.5309618E-2],"split_indices":[108,13,72,0,0,0,0],"split_type":[0,0,0,0,0,0,0],"sum_hessian":[2.1030252E4,2.0778145E4,2.5210904E2,1.0629437E3,1.97152E4,2.3446959E2,1.7639444E1],"tree_param":{"num_deleted":"0","num_feature":"120","num_nodes":"7","size_leaf_vector":"1"}},{"base_weights":[-1.0536847E-2,8.008792E-2,-1.6902682E-1,-7.240913E-5,2.5608517E-2,-6.361986E-2,-8.988101E-4],"categories":[],"categories_nodes":[],"categories_segments":[],"categories_sizes":[],"default_left":[0,0,0,0,0,0,0],"id":64,"left_children":[1,3,5,-1,-1,-1,-1],"loss_changes":[3.0055768E2,4.1187164E2,1.1335948E3,0E0,0E0,0E0,0E0],"parents":[2147483647,0,0,1,1,2,2],"right_children":[2,4,6,-1,-1,-1,-1],"split_conditions":[3.3872104E7,1.7982683E5,1.9487703E5,-7.240913E-5,2.5608517E-2,-6.361986E-2,-8.988101E-4],"split_indices":[48,36,36,0,0,0,0],"split_type":[0,0,0,0,0,0,0],"sum_hessian":[2.0917475E4,1.3308952E4,7.608523E3,1.0964845E4,2.3441077E3,1.0284359E3,6.580087E3],"tree_param":{"num_deleted":"0","num_feature":"120","num_nodes":"7","size_leaf_vector":"1"}},{"base_weights":[-3.4704492E-3,-2.633407E-2,5.767349E-1,-3.104622E-2,-6.0470084E-5,5.3053524E-2,2.173682E-2],"categories":[],"categories_nodes":[],"categories_segments":[],"categories_sizes":[],"default_left":[0,0,0,0,0,0,0],"id":65,"left_children":[1,3,5,-1,-1,-1,-1],"loss_changes":[2.7812057E2,2.706901E2,5.4139404E1,0E0,0E0,0E0,0E0],"parents":[2147483647,0,0,1,1,2,2],"right_children":[2,4,6,-1,-1,-1,-1],"split_conditions":[2.1789911E2,3.00516E7,1.003437E2,-3.104622E-2,-6.0470084E-5,5.3053524E-2,2.173682E-2],"split_indices":[25,48,49,0,0,0,0],"split_type":[0,0,0,0,0,0,0],"sum_hessian":[2.0959777E4,2.0168934E4,7.9084503E2,9.105817E2,1.9258352E4,2.5600055E2,5.348445E2],"tree_param":{"num_deleted":"0","num_feature":"120","num_nodes":"7","size_leaf_vector":"1"}},{"base_weights":[6.80654E-3,5.8010828E-2,-2.9550678E-1,-2.83264E-2,4.6827784E-3,-3.289638E-2,3.1805022E-3],"categories":[],"categories_nodes":[],"categories_segments":[],"categories_sizes":[],"default_left":[0,0,0,0,0,0,0],"id":66,"left_children":[1,3,5,-1,-1,-1,-1],"loss_changes":[3.24386E2,2.6574155E2,3.1661502E2,0E0,0E0,0E0,0E0],"parents":[2147483647,0,0,1,1,2,2],"right_children":[2,4,6,-1,-1,-1,-1],"split_conditions":[1.33315E6,1.2544866E6,1.34153E6,-2.83264E-2,4.6827784E-3,-3.289638E-2,3.1805022E-3],"split_indices":[60,60,60,0,0,0,0],"split_type":[0,0,0,0,0,0,0],"sum_hessian":[2.094813E4,1.791691E4,3.0312202E3,7.86125E2,1.7130785E4,1.6475656E3,1.3836547E3],"tree_param":{"num_deleted":"0","num_feature":"120","num_nodes":"7","size_leaf_vector":"1"}},{"base_weights":[-3.2922649E-3,-6.5406233E-1,1.5527416E-2,6.555063E-2,-4.372041E-2,2.8481571E-2,-4.955481E-4],"categories":[],"categories_nodes":[],"categories_segments":[],"categories_sizes":[],"default_left":[0,0,0,0,0,0,0],"id":67,"left_children":[1,3,5,-1,-1,-1,-1],"loss_changes":[2.5359686E2,1.4396338E2,2.4403021E2,0E0,0E0,0E0,0E0],"parents":[2147483647,0,0,1,1,2,2],"right_children":[2,4,6,-1,-1,-1,-1],"split_conditions":[1.0913E1,2.2392017E2,2.556141E1,6.555063E-2,-4.372041E-2,2.8481571E-2,-4.955481E-4],"split_indices":[2,96,108,0,0,0,0],"split_type":[0,0,0,0,0,0,0],"sum_hessian":[2.0695543E4,5.779818E2,2.011756E4,3.6565903E1,5.414159E2,9.4032336E2,1.9177238E4],"tree_param":{"num_deleted":"0","num_feature":"120","num_nodes":"7","size_leaf_vector":"1"}},{"base_weights":[-2.2746459E-2,2.3668746E-2,-3.009433E-1,3.9434258E-2,-5.0156354E-4,-3.255209E-2,1.1066465E-3],"categories":[],"categories_nodes":[],"categories_segments":[],"categories_sizes":[],"default_left":[0,0,0,0,0,0,0],"id":68,"left_children":[1,3,5,-1,-1,-1,-1],"loss_changes":[2.6743842E2,3.9742307E2,2.6992624E2,0E0,0E0,0E0,0E0],"parents":[2147483647,0,0,1,1,2,2],"right_children":[2,4,6,-1,-1,-1,-1],"split_conditions":[3.5829876E7,2.556141E1,3.68887E7,3.9434258E-2,-5.0156354E-4,-3.255209E-2,1.1066465E-3],"split_indices":[48,108,48,0,0,0,0],"split_type":[0,0,0,0,0,0,0],"sum_hessian":[2.0703836E4,1.774639E4,2.9574456E3,8.0451263E2,1.6941879E4,1.5671089E3,1.3903367E3],"tree_param":{"num_deleted":"0","num_feature":"120","num_nodes":"7","size_leaf_vector":"1"}},{"base_weights":[2.0290561E-2,1.3773736E-1,-8.22591E-2,3.705596E-2,4.7581247E-3,-3.180415E-2,-1.4281878E-3],"categories":[],"categories_nodes":[],"categories_segments":[],"categories_sizes":[],"default_left":[0,0,0,0,0,0,0],"id":69,"left_children":[1,3,5,-1,-1,-1,-1],"loss_changes":[2.5237706E2,2.6918988E2,3.096513E2,0E0,0E0,0E0,0E0],"parents":[2147483647,0,0,1,1,2,2],"right_children":[2,4,6,-1,-1,-1,-1],"split_conditions":[2.2511743E2,8.9461267E-1,2.528016E-1,3.705596E-2,4.7581247E-3,-3.180415E-2,-1.4281878E-3],"split_indices":[84,15,13,0,0,0,0],"split_type":[0,0,0,0,0,0,0],"sum_hessian":[2.0946291E4,9.76362E3,1.1182672E4,8.7439453E2,8.889226E3,1.1555548E3,1.0027117E4],"tree_param":{"num_deleted":"0","num_feature":"120","num_nodes":"7","size_leaf_vector":"1"}},{"base_weights":[5.9418953E-3,-9.512963E-1,2.0637773E-2,3.7498192E-3,-5.725372E-2,2.2586076E-2,-7.6230016E-4],"categories":[],"categories_nodes":[],"categories_segments":[],"categories_sizes":[],"default_left":[0,0,0,0,0,0,0],"id":70,"left_children":[1,3,5,-1,-1,-1,-1],"loss_changes":[2.942863E2,2.5325714E1,2.7261148E2,0E0,0E0,0E0,0E0],"parents":[2147483647,0,0,1,1,2,2],"right_children":[2,4,6,-1,-1,-1,-1],"split_conditions":[9.293E0,2.2492683E2,6.072952E-1,3.7498192E-3,-5.725372E-2,2.2586076E-2,-7.6230016E-4],"split_indices":[2,72,37,0,0,0,0],"split_type":[0,0,0,0,0,0,0],"sum_hessian":[2.0914533E4,3.1230988E2,2.0602223E4,2.2065544E1,2.9024432E2,1.6826566E3,1.8919566E4],"tree_param":{"num_deleted":"0","num_feature":"120","num_nodes":"7","size_leaf_vector":"1"}},{"base_weights":[4.9778284E-4,-5.304713E-1,2.458244E-2,-3.3590034E-2,8.73732E-2,-1.0457828E-2,4.6315384E-3],"categories":[],"categories_nodes":[],"categories_segments":[],"categories_sizes":[],"default_left":[0,0,0,0,0,0,0],"id":71,"left_children":[1,3,5,-1,-1,-1,-1],"loss_changes":[2.6602713E2,1.4238652E2,2.48089E2,0E0,0E0,0E0,0E0],"parents":[2147483647,0,0,1,1,2,2],"right_children":[2,4,6,-1,-1,-1,-1],"split_conditions":[1.5325469E5,3.7227278E6,3.2371857E0,-3.3590034E-2,8.73732E-2,-1.0457828E-2,4.6315384E-3],"split_indices":[36,34,33,0,0,0,0],"split_type":[0,0,0,0,0,0,0],"sum_hessian":[2.0797127E4,8.9865027E2,1.9898477E4,8.712007E2,2.7449587E1,4.3015103E3,1.5596967E4],"tree_param":{"num_deleted":"0","num_feature":"120","num_nodes":"7","size_leaf_vector":"1"}},{"base_weights":[-3.7149966E-3,-6.164538E-1,1.4101243E-2,1.7946731E-2,-4.9759794E-2,1.749987E-4,6.922024E-2],"categories":[],"categories_nodes":[],"categories_segments":[],"categories_sizes":[],"default_left":[0,0,0,0,0,0,0],"id":72,"left_children":[1,3,5,-1,-1,-1,-1],"loss_changes":[2.2575266E2,1.5355429E2,2.7062512E2,0E0,0E0,0E0,0E0],"parents":[2147483647,0,0,1,1,2,2],"right_children":[2,4,6,-1,-1,-1,-1],"split_conditions":[1.123184E1,2.2665228E2,1.8085896E1,1.7946731E-2,-4.9759794E-2,1.749987E-4,6.922024E-2],"split_indices":[2,84,12,0,0,0,0],"split_type":[0,0,0,0,0,0,0],"sum_hessian":[2.066866E4,5.803004E2,2.0088361E4,1.3225629E2,4.4804416E2,1.9914992E4,1.7336804E2],"tree_param":{"num_deleted":"0","num_feature":"120","num_nodes":"7","size_leaf_vector":"1"}},{"base_weights":[8.413337E-3,-7.896069E-2,1.4513426E-1,-5.5596614E-3,5.945201E-2,3.530355E-2,5.8099017E-3],"categories":[],"categories_nodes":[],"categories_segments":[],"categories_sizes":[],"default_left":[0,0,0,0,0,0,0],"id":73,"left_children":[1,3,5,-1,-1,-1,-1],"loss_changes":[2.4922433E2,3.0621887E2,1.617927E2,0E0,0E0,0E0,0E0],"parents":[2147483647,0,0,1,1,2,2],"right_children":[2,4,6,-1,-1,-1,-1],"split_conditions":[3.08157E2,3.2140423E1,6.4388237E0,-5.5596614E-3,5.945201E-2,3.530355E-2,5.8099017E-3],"split_indices":[26,108,12,0,0,0,0],"split_type":[0,0,0,0,0,0,0],"sum_hessian":[2.0854617E4,1.2724187E4,8.1304307E3,1.2499704E4,2.2448288E2,6.202488E2,7.510182E3],"tree_param":{"num_deleted":"0","num_feature":"120","num_nodes":"7","size_leaf_vector":"1"}},{"base_weights":[-2.6336918E-3,-4.9339905E-1,2.0650834E-2,-3.1657264E-2,9.091057E-2,1.1104155E-2,-4.093478E-3],"categories":[],"categories_nodes":[],"categories_segments":[],"categories_sizes":[],"default_left":[0,0,0,0,0,0,0],"id":74,"left_children":[1,3,5,-1,-1,-1,-1],"loss_changes":[2.3719447E2,1.5458061E2,3.3399686E2,0E0,0E0,0E0,0E0],"parents":[2147483647,0,0,1,1,2,2],"right_children":[2,4,6,-1,-1,-1,-1],"split_conditions":[3.00516E7,3.7227278E6,3.2183192E7,-3.1657264E-2,9.091057E-2,1.1104155E-2,-4.093478E-3],"split_indices":[48,34,48,0,0,0,0],"split_type":[0,0,0,0,0,0,0],"sum_hessian":[2.0746584E4,9.362163E2,1.9810367E4,9.069948E2,2.9221493E1,6.832625E3,1.2977742E4],"tree_param":{"num_deleted":"0","num_feature":"120","num_nodes":"7","size_leaf_vector":"1"}},{"base_weights":[4.4106073E-3,-6.1961007E-3,1.007307E0,-3.1037444E-2,1.4503571E-3,6.6793375E-2,-3.4885056E-2],"categories":[],"categories_nodes":[],"categories_segments":[],"categories_sizes":[],"default_left":[0,0,0,0,0,0,0],"id":75,"left_children":[1,3,5,-1,-1,-1,-1],"loss_changes":[2.209819E2,3.6574994E2,7.159984E1,0E0,0E0,0E0,0E0],"parents":[2147483647,0,0,1,1,2,2],"right_children":[2,4,6,-1,-1,-1,-1],"split_conditions":[3.2140423E1,2.3545271E-1,2.2495737E2,-3.1037444E-2,1.4503571E-3,6.6793375E-2,-3.4885056E-2],"split_indices":[108,13,72,0,0,0,0],"split_type":[0,0,0,0,0,0,0],"sum_hessian":[2.07613E4,2.0547893E4,2.134091E2,1.1319226E3,1.941597E4,1.9185907E2,2.1550037E1],"tree_param":{"num_deleted":"0","num_feature":"120","num_nodes":"7","size_leaf_vector":"1"}},{"base_weights":[1.5276677E-2,3.1915304E-1,-2.0381061E-2,1.0414817E-3,3.0881377E-2,5.8477424E-4,-2.697042E-2],"categories":[],"categories_nodes":[],"categories_segments":[],"categories_sizes":[],"default_left":[0,0,0,0,0,0,0],"id":76,"left_children":[1,3,5,-1,-1,-1,-1],"loss_changes":[2.2574481E2,1.5490526E2,2.674471E2,0E0,0E0,0E0,0E0],"parents":[2147483647,0,0,1,1,2,2],"right_children":[2,4,6,-1,-1,-1,-1],"split_conditions":[8.77571E-1,2.2772068E6,6.2E0,1.0414817E-3,3.0881377E-2,5.8477424E-4,-2.697042E-2],"split_indices":[27,35,110,0,0,0,0],"split_type":[0,0,0,0,0,0,0],"sum_hessian":[2.0825475E4,2.1839429E3,1.8641531E4,9.623156E2,1.2216272E3,1.7482152E4,1.1593782E3],"tree_param":{"num_deleted":"0","num_feature":"120","num_nodes":"7","size_leaf_vector":"1"}},{"base_weights":[-1.4282863E-4,-3.413777E-1,3.19048E-2,-3.060701E-2,8.582579E-3,1.0277845E-2,-2.7259127E-3],"categories":[],"categories_nodes":[],"categories_segments":[],"categories_sizes":[],"default_left":[0,0,0,0,0,0,0],"id":77,"left_children":[1,3,5,-1,-1,-1,-1],"loss_changes":[2.268131E2,1.8447493E2,2.343385E2,0E0,0E0,0E0,0E0],"parents":[2147483647,0,0,1,1,2,2],"right_children":[2,4,6,-1,-1,-1,-1],"split_conditions":[3.0529012E7,1.0131713E-3,6.196835E-1,-3.060701E-2,8.582579E-3,1.0277845E-2,-2.7259127E-3],"split_indices":[48,54,32,0,0,0,0],"split_type":[0,0,0,0,0,0,0],"sum_hessian":[2.0730588E4,1.7766616E3,1.8953926E4,1.2501261E3,5.2653546E2,6.5596157E3,1.2394311E4],"tree_param":{"num_deleted":"0","num_feature":"120","num_nodes":"7","size_leaf_vector":"1"}},{"base_weights":[2.3144636E-2,-9.064322E-1,3.5469603E-2,-5.5738106E-2,1.2767602E-2,2.4851691E-2,5.071213E-4],"categories":[],"categories_nodes":[],"categories_segments":[],"categories_sizes":[],"default_left":[0,0,0,0,0,0,0],"id":78,"left_children":[1,3,5,-1,-1,-1,-1],"loss_changes":[2.3811923E2,3.0368332E1,2.2218526E2,0E0,0E0,0E0,0E0],"parents":[2147483647,0,0,1,1,2,2],"right_children":[2,4,6,-1,-1,-1,-1],"split_conditions":[1.248207E3,2.3735537E1,6.4388237E0,-5.5738106E-2,1.2767602E-2,2.4851691E-2,5.071213E-4],"split_indices":[11,119,12,0,0,0,0],"split_type":[0,0,0,0,0,0,0],"sum_hessian":[2.077363E4,2.6795938E2,2.0505672E4,2.4773552E2,2.0223871E1,1.2314486E3,1.9274223E4],"tree_param":{"num_deleted":"0","num_feature":"120","num_nodes":"7","size_leaf_vector":"1"}},{"base_weights":[5.291194E-3,-4.72197E-3,9.673897E-1,-2.9904513E-2,1.3140265E-3,6.183204E-2,-3.949059E-2],"categories":[],"categories_nodes":[],"categories_segments":[],"categories_sizes":[],"default_left":[0,0,0,0,0,0,0],"id":79,"left_children":[1,3,5,-1,-1,-1,-1],"loss_changes":[1.9968062E2,3.0962262E2,5.463649E1,0E0,0E0,0E0,0E0],"parents":[2147483647,0,0,1,1,2,2],"right_children":[2,4,6,-1,-1,-1,-1],"split_conditions":[3.2140423E1,2.2006741E-1,2.2573582E2,-2.9904513E-2,1.3140265E-3,6.183204E-2,-3.949059E-2],"split_indices":[108,13,72,0,0,0,0],"split_type":[0,0,0,0,0,0,0],"sum_hessian":[2.0714777E4,2.0505275E4,2.0950212E2,1.0321815E3,1.9473094E4,1.942457E2,1.5256419E1],"tree_param":{"num_deleted":"0","num_feature":"120","num_nodes":"7","size_leaf_vector":"1"}},{"base_weights":[3.0910652E-3,-1.9423851E-1,5.4324653E-2,-1.3769807E-2,6.3096136E-2,2.175573E-3,4.8467003E-2],"categories":[],"categories_nodes":[],"categories_segments":[],"categories_sizes":[],"default_left":[0,0,0,0,0,0,0],"id":80,"left_children":[1,3,5,-1,-1,-1,-1],"loss_changes":[2.0917703E2,3.023731E2,2.0410196E2,0E0,0E0,0E0,0E0],"parents":[2147483647,0,0,1,1,2,2],"right_children":[2,4,6,-1,-1,-1,-1],"split_conditions":[3.2371857E0,1.8085896E1,2.2859002E5,-1.3769807E-2,6.3096136E-2,2.175573E-3,4.8467003E-2],"split_indices":[33,12,36,0,0,0,0],"split_type":[0,0,0,0,0,0,0],"sum_hessian":[2.0683072E4,4.2606016E3,1.642247E4,4.099677E3,1.6092525E2,1.6125986E4,2.9648444E2],"tree_param":{"num_deleted":"0","num_feature":"120","num_nodes":"7","size_leaf_vector":"1"}},{"base_weights":[-1.6464429E-2,6.868459E-2,-1.423429E-1,2.815083E-4,4.9530514E-2,-3.5460997E-2,-3.8538477E-4],"categories":[],"categories_nodes":[],"categories_segments":[],"categories_sizes":[],"default_left":[0,0,0,0,0,0,0],"id":81,"left_children":[1,3,5,-1,-1,-1,-1],"loss_changes":[2.1933914E2,6.378401E2,5.5328864E2,0E0,0E0,0E0,0E0],"parents":[2147483647,0,0,1,1,2,2],"right_children":[2,4,6,-1,-1,-1,-1],"split_conditions":[1.8309966E5,1.8145044E5,1.9487703E5,2.815083E-4,4.9530514E-2,-3.5460997E-2,-3.8538477E-4],"split_indices":[36,36,36,0,0,0,0],"split_type":[0,0,0,0,0,0,0],"sum_hessian":[2.045563E4,1.2202604E4,8.253027E3,1.1329113E4,8.7348987E2,1.7698457E3,6.483182E3],"tree_param":{"num_deleted":"0","num_feature":"120","num_nodes":"7","size_leaf_vector":"1"}},{"base_weights":[1.0952895E-2,-3.935293E-4,9.855213E-1,-3.1839266E-2,1.1224508E-3,6.5424E-2,-1.3493602E-2],"categories":[],"categories_nodes":[],"categories_segments":[],"categories_sizes":[],"default_left":[0,0,0,0,0,0,0],"id":82,"left_children":[1,3,5,-1,-1,-1,-1],"loss_changes":[2.2854572E2,2.402621E2,5.6737854E1,0E0,0E0,0E0,0E0],"parents":[2147483647,0,0,1,1,2,2],"right_children":[2,4,6,-1,-1,-1,-1],"split_conditions":[3.2140423E1,1.269831E1,2.2473227E2,-3.1839266E-2,1.1224508E-3,6.5424E-2,-1.3493602E-2],"split_indices":[108,2,72,0,0,0,0],"split_type":[0,0,0,0,0,0,0],"sum_hessian":[2.065801E4,2.0424148E4,2.3386032E2,7.054666E2,1.9718682E4,2.0270168E2,3.1158653E1],"tree_param":{"num_deleted":"0","num_feature":"120","num_nodes":"7","size_leaf_vector":"1"}},{"base_weights":[1.2841353E-3,4.5928296E-2,-2.3889734E-1,8.6779665E-4,3.521709E-2,-2.9004931E-2,7.2119613E-3],"categories":[],"categories_nodes":[],"categories_segments":[],"categories_sizes":[],"default_left":[0,0,0,0,0,0,0],"id":83,"left_children":[1,3,5,-1,-1,-1,-1],"loss_changes":[2.2092398E2,3.0925598E2,3.3625067E2,0E0,0E0,0E0,0E0],"parents":[2147483647,0,0,1,1,2,2],"right_children":[2,4,6,-1,-1,-1,-1],"split_conditions":[1.33298E6,1.32388E6,1.34153E6,8.6779665E-4,3.521709E-2,-2.9004931E-2,7.2119613E-3],"split_indices":[60,60,60,0,0,0,0],"split_type":[0,0,0,0,0,0,0],"sum_hessian":[2.0596514E4,1.7371137E4,3.2253762E3,1.6521455E4,8.496816E2,1.8254088E3,1.3999674E3],"tree_param":{"num_deleted":"0","num_feature":"120","num_nodes":"7","size_leaf_vector":"1"}},{"base_weights":[-1.6893445E-2,4.0515226E-1,-3.9607782E-2,-4.334529E-2,3.584085E-2,3.8963445E-3,-7.888821E-3],"categories":[],"categories_nodes":[],"categories_segments":[],"categories_sizes":[],"default_left":[0,0,0,0,0,0,0],"id":84,"left_children":[1,3,5,-1,-1,-1,-1],"loss_changes":[1.9689981E2,2.98713E2,2.1830225E2,0E0,0E0,0E0,0E0],"parents":[2147483647,0,0,1,1,2,2],"right_children":[2,4,6,-1,-1,-1,-1],"split_conditions":[2.556141E1,6.224084E3,9.9998665E-1,-4.334529E-2,3.584085E-2,3.8963445E-3,-7.888821E-3],"split_indices":[108,35,15,0,0,0,0],"split_type":[0,0,0,0,0,0,0],"sum_hessian":[2.0531186E4,1.0449579E3,1.9486227E4,1.7387163E2,8.7108624E2,9.399645E3,1.0086582E4],"tree_param":{"num_deleted":"0","num_feature":"120","num_nodes":"7","size_leaf_vector":"1"}},{"base_weights":[-8.532331E-3,1.22948036E-1,-8.6743966E-2,-1.1115912E-3,3.450024E-2,-4.0623553E-2,-2.300747E-3],"categories":[],"categories_nodes":[],"categories_segments":[],"categories_sizes":[],"default_left":[0,0,0,0,0,0,0],"id":85,"left_children":[1,3,5,-1,-1,-1,-1],"loss_changes":[2.1089217E2,5.4343915E2,3.7536346E2,0E0,0E0,0E0,0E0],"parents":[2147483647,0,0,1,1,2,2],"right_children":[2,4,6,-1,-1,-1,-1],"split_conditions":[1.28323E6,3.1797546E7,3.2595284E7,-1.1115912E-3,3.450024E-2,-4.0623553E-2,-2.300747E-3],"split_indices":[60,48,48,0,0,0,0],"split_type":[0,0,0,0,0,0,0],"sum_hessian":[2.050032E4,7.6451045E3,1.2855216E4,5.9405215E3,1.7045829E3,8.434249E2,1.2011791E4],"tree_param":{"num_deleted":"0","num_feature":"120","num_nodes":"7","size_leaf_vector":"1"}},{"base_weights":[-1.6397343E-3,1.0636785E-1,-9.959313E-2,1.8311705E-2,-6.464503E-4,-6.837433E-3,3.911647E-2],"categories":[],"categories_nodes":[],"categories_segments":[],"categories_sizes":[],"default_left":[0,0,0,0,0,0,0],"id":86,"left_children":[1,3,5,-1,-1,-1,-1],"loss_changes":[2.1694746E2,2.5626367E2,2.0115717E2,0E0,0E0,0E0,0E0],"parents":[2147483647,0,0,1,1,2,2],"right_children":[2,4,6,-1,-1,-1,-1],"split_conditions":[2.2514456E2,2.071534E1,8.3064923E2,1.8311705E-2,-6.464503E-4,-6.837433E-3,3.911647E-2],"split_indices":[84,95,119,0,0,0,0],"split_type":[0,0,0,0,0,0,0],"sum_hessian":[2.0498037E4,9.748212E3,1.0749825E4,3.3737966E3,6.3744155E3,1.0450227E4,2.9959818E2],"tree_param":{"num_deleted":"0","num_feature":"120","num_nodes":"7","size_leaf_vector":"1"}},{"base_weights":[8.571618E-3,-8.0049115E-1,1.8816741E-2,-5.3214286E-2,9.140285E-3,-2.9498166E-3,7.7844094E-3],"categories":[],"categories_nodes":[],"categories_segments":[],"categories_sizes":[],"default_left":[0,0,0,0,0,0,0],"id":87,"left_children":[1,3,5,-1,-1,-1,-1],"loss_changes":[1.7003102E2,3.9224487E1,1.7620299E2,0E0,0E0,0E0,0E0],"parents":[2147483647,0,0,1,1,2,2],"right_children":[2,4,6,-1,-1,-1,-1],"split_conditions":[9.293E0,3.9919758E-1,9.803922E-4,-5.3214286E-2,9.140285E-3,-2.9498166E-3,7.7844094E-3],"split_indices":[2,66,42,0,0,0,0],"split_type":[0,0,0,0,0,0,0],"sum_hessian":[2.0508076E4,2.5250607E2,2.025557E4,2.1749696E2,3.5009106E1,1.2714349E4,7.5412207E3],"tree_param":{"num_deleted":"0","num_feature":"120","num_nodes":"7","size_leaf_vector":"1"}},{"base_weights":[-2.4844704E-3,-1.3447209E-1,5.2481294E-2,-4.660231E-3,-3.0710697E-2,2.3392867E-3,6.465073E-2],"categories":[],"categories_nodes":[],"categories_segments":[],"categories_sizes":[],"default_left":[0,0,0,0,0,0,0],"id":88,"left_children":[1,3,5,-1,-1,-1,-1],"loss_changes":[1.4859482E2,1.2728249E2,1.67257E2,0E0,0E0,0E0,0E0],"parents":[2147483647,0,0,1,1,2,2],"right_children":[2,4,6,-1,-1,-1,-1],"split_conditions":[6.527335E-1,1.4522629E2,1.8085896E1,-4.660231E-3,-3.0710697E-2,2.3392867E-3,6.465073E-2],"split_indices":[104,0,12,0,0,0,0],"split_type":[0,0,0,0,0,0,0],"sum_hessian":[2.0473625E4,6.0180664E3,1.4455558E4,5.3703267E3,6.477398E2,1.4324885E4,1.3067271E2],"tree_param":{"num_deleted":"0","num_feature":"120","num_nodes":"7","size_leaf_vector":"1"}},{"base_weights":[-8.04274E-3,-5.940301E-1,5.5505894E-3,6.0044523E-2,-4.1457284E-2,2.1333732E-2,-1.3008917E-3],"categories":[],"categories_nodes":[],"categories_segments":[],"categories_sizes":[],"default_left":[0,0,0,0,0,0,0],"id":89,"left_children":[1,3,5,-1,-1,-1,-1],"loss_changes":[1.6288368E2,1.202657E2,2.184476E2,0E0,0E0,0E0,0E0],"parents":[2147483647,0,0,1,1,2,2],"right_children":[2,4,6,-1,-1,-1,-1],"split_conditions":[1.0913E1,2.2193988E2,6.752347E0,6.0044523E-2,-4.1457284E-2,2.1333732E-2,-1.3008917E-3],"split_indices":[2,72,12,0,0,0,0],"split_type":[0,0,0,0,0,0,0],"sum_hessian":[2.0437959E4,4.595983E2,1.9978361E4,3.5963364E1,4.2363492E2,1.4175449E3,1.8560816E4],"tree_param":{"num_deleted":"0","num_feature":"120","num_nodes":"7","size_leaf_vector":"1"}},{"base_weights":[1.7897565E-2,-1.8522578E-1,6.8761155E-2,-1.3641489E-2,4.788678E-2,-1.5425557E-2,5.701196E-3],"categories":[],"categories_nodes":[],"categories_segments":[],"categories_sizes":[],"default_left":[0,0,0,0,0,0,0],"id":90,"left_children":[1,3,5,-1,-1,-1,-1],"loss_changes":[2.1362747E2,2.6021423E2,1.9282077E2,0E0,0E0,0E0,0E0],"parents":[2147483647,0,0,1,1,2,2],"right_children":[2,4,6,-1,-1,-1,-1],"split_conditions":[3.2371857E0,8.15529E2,1.25525E6,-1.3641489E-2,4.788678E-2,-1.5425557E-2,5.701196E-3],"split_indices":[33,43,60,0,0,0,0],"split_type":[0,0,0,0,0,0,0],"sum_hessian":[2.0668963E4,4.136799E3,1.6532164E4,3.9156086E3,2.2119005E2,1.4642477E3,1.5067916E4],"tree_param":{"num_deleted":"0","num_feature":"120","num_nodes":"7","size_leaf_vector":"1"}},{"base_weights":[-9.487989E-3,-1.9044576E-2,8.9958346E-1,-3.131102E-2,2.824497E-4,6.226252E-2,-2.3777857E-2],"categories":[],"categories_nodes":[],"categories_segments":[],"categories_sizes":[],"default_left":[0,0,0,0,0,0,0],"id":91,"left_children":[1,3,5,-1,-1,-1,-1],"loss_changes":[1.7736702E2,2.6499478E2,6.374724E1,0E0,0E0,0E0,0E0],"parents":[2147483647,0,0,1,1,2,2],"right_children":[2,4,6,-1,-1,-1,-1],"split_conditions":[3.2140423E1,2.0079178E-1,2.2473227E2,-3.131102E-2,2.824497E-4,6.226252E-2,-2.3777857E-2],"split_indices":[108,13,72,0,0,0,0],"split_type":[0,0,0,0,0,0,0],"sum_hessian":[2.0411014E4,2.0202623E4,2.083902E2,8.5464453E2,1.9347979E4,1.7941994E2,2.8970251E1],"tree_param":{"num_deleted":"0","num_feature":"120","num_nodes":"7","size_leaf_vector":"1"}},{"base_weights":[-6.1214934E-3,8.295334E-2,-9.037728E-2,1.0156137E-2,-5.981208E-3,-3.1414166E-2,-2.6021597E-3],"categories":[],"categories_nodes":[],"categories_segments":[],"categories_sizes":[],"default_left":[0,0,0,0,0,0,0],"id":92,"left_children":[1,3,5,-1,-1,-1,-1],"loss_changes":[1.5336945E2,1.8839633E2,2.170357E2,0E0,0E0,0E0,0E0],"parents":[2147483647,0,0,1,1,2,2],"right_children":[2,4,6,-1,-1,-1,-1],"split_conditions":[2.25443E2,5.080669E-1,2.4106283E-1,1.0156137E-2,-5.981208E-3,-3.1414166E-2,-2.6021597E-3],"split_indices":[96,97,13,0,0,0,0],"split_type":[0,0,0,0,0,0,0],"sum_hessian":[2.0427387E4,9.929367E3,1.04980205E4,6.5210186E3,3.4083484E3,8.802505E2,9.61777E3],"tree_param":{"num_deleted":"0","num_feature":"120","num_nodes":"7","size_leaf_vector":"1"}},{"base_weights":[1.767748E-2,4.10365E-2,-3.324103E-1,7.0835506E-3,-4.340105E-3,-2.9005768E-2,3.6527116E-2],"categories":[],"categories_nodes":[],"categories_segments":[],"categories_sizes":[],"default_left":[0,0,0,0,0,0,0],"id":93,"left_children":[1,3,5,-1,-1,-1,-1],"loss_changes":[1.6832498E2,1.9814014E2,2.4172981E2,0E0,0E0,0E0,0E0],"parents":[2147483647,0,0,1,1,2,2],"right_children":[2,4,6,-1,-1,-1,-1],"split_conditions":[6.6E0,1.8309966E5,3.381E0,7.0835506E-3,-4.340105E-3,-2.9005768E-2,3.6527116E-2],"split_indices":[110,36,74,0,0,0,0],"split_type":[0,0,0,0,0,0,0],"sum_hessian":[2.0575129E4,1.929165E4,1.2834802E3,1.1186003E4,8.105647E3,1.0793347E3,2.0414548E2],"tree_param":{"num_deleted":"0","num_feature":"120","num_nodes":"7","size_leaf_vector":"1"}},{"base_weights":[-3.0556507E-2,2.2748157E-1,-6.028748E-2,-2.1311125E-2,1.5690025E-2,1.9667126E-2,-4.7073276E-3],"categories":[],"categories_nodes":[],"categories_segments":[],"categories_sizes":[],"default_left":[0,0,0,0,0,0,0],"id":94,"left_children":[1,3,5,-1,-1,-1,-1],"loss_changes":[1.5502232E2,6.9834175E1,1.8224983E2,0E0,0E0,0E0,0E0],"parents":[2147483647,0,0,1,1,2,2],"right_children":[2,4,6,-1,-1,-1,-1],"split_conditions":[8.77571E-1,4.5905176E-1,2.556141E1,-2.1311125E-2,1.5690025E-2,1.9667126E-2,-4.7073276E-3],"split_indices":[27,32,108,0,0,0,0],"split_type":[0,0,0,0,0,0,0],"sum_hessian":[2.0197299E4,2.0837095E3,1.811359E4,1.6860497E2,1.9151044E3,1.0018454E3,1.7111744E4],"tree_param":{"num_deleted":"0","num_feature":"120","num_nodes":"7","size_leaf_vector":"1"}},{"base_weights":[6.4348434E-3,-5.1517296E-1,2.517761E-2,2.879554E-2,-3.7941106E-2,9.369305E-3,-2.9125353E-3],"categories":[],"categories_nodes":[],"categories_segments":[],"categories_sizes":[],"default_left":[0,0,0,0,0,0,0],"id":95,"left_children":[1,3,5,-1,-1,-1,-1],"loss_changes":[1.9924297E2,1.2304669E2,2.1841986E2,0E0,0E0,0E0,0E0],"parents":[2147483647,0,0,1,1,2,2],"right_children":[2,4,6,-1,-1,-1,-1],"split_conditions":[1.2544866E6,9.999802E-1,1.28323E6,2.879554E-2,-3.7941106E-2,9.369305E-3,-2.9125353E-3],"split_indices":[60,3,60,0,0,0,0],"split_type":[0,0,0,0,0,0,0],"sum_hessian":[2.0374127E4,7.029046E2,1.9671223E4,9.6432915E1,6.064717E2,6.907619E3,1.2763604E4],"tree_param":{"num_deleted":"0","num_feature":"120","num_nodes":"7","size_leaf_vector":"1"}},{"base_weights":[9.100729E-3,1.0306622E-1,-7.5723074E-2,4.4606537E-2,4.169268E-3,-4.9401526E-3,5.002651E-2],"categories":[],"categories_nodes":[],"categories_segments":[],"categories_sizes":[],"default_left":[0,0,0,0,0,0,0],"id":96,"left_children":[1,3,5,-1,-1,-1,-1],"loss_changes":[1.6310759E2,1.9057492E2,1.37063E2,0E0,0E0,0E0,0E0],"parents":[2147483647,0,0,1,1,2,2],"right_children":[2,4,6,-1,-1,-1,-1],"split_conditions":[2.2511743E2,2.4803406E-1,1.1650408E3,4.4606537E-2,4.169268E-3,-4.9401526E-3,5.002651E-2],"split_indices":[84,53,119,0,0,0,0],"split_type":[0,0,0,0,0,0,0],"sum_hessian":[2.0455738E4,9.704876E3,1.0750862E4,3.7155634E2,9.33332E3,1.0612476E4,1.383865E2],"tree_param":{"num_deleted":"0","num_feature":"120","num_nodes":"7","size_leaf_vector":"1"}},{"base_weights":[-1.7994656E-3,4.098561E-2,-2.3387365E-1,-5.065693E-4,1.9641561E-2,-1.5308556E-2,8.571782E-2],"categories":[],"categories_nodes":[],"categories_segments":[],"categories_sizes":[],"default_left":[0,0,0,0,0,0,0],"id":97,"left_children":[1,3,5,-1,-1,-1,-1],"loss_changes":[2.013632E2,2.6757956E2,2.3245581E2,0E0,0E0,0E0,0E0],"parents":[2147483647,0,0,1,1,2,2],"right_children":[2,4,6,-1,-1,-1,-1],"split_conditions":[1.33298E6,1.988966E5,1.5135422E0,-5.065693E-4,1.9641561E-2,-1.5308556E-2,8.571782E-2],"split_indices":[60,36,37,0,0,0,0],"split_type":[0,0,0,0,0,0,0],"sum_hessian":[2.0270506E4,1.7117697E4,3.1528079E3,1.4752715E4,2.3649824E3,3.0845664E3,6.8241264E1],"tree_param":{"num_deleted":"0","num_feature":"120","num_nodes":"7","size_leaf_vector":"1"}},{"base_weights":[1.3446753E-2,-5.679465E-2,1.2997092E-1,1.7106816E-2,-5.3954795E-3,-3.51819E-2,8.771607E-3],"categories":[],"categories_nodes":[],"categories_segments":[],"categories_sizes":[],"default_left":[0,0,0,0,0,0,0],"id":98,"left_children":[1,3,5,-1,-1,-1,-1],"loss_changes":[1.6757355E2,1.8693533E2,1.626526E2,0E0,0E0,0E0,0E0],"parents":[2147483647,0,0,1,1,2,2],"right_children":[2,4,6,-1,-1,-1,-1],"split_conditions":[9.803922E-4,-1.669675E0,1.1305364E1,1.7106816E-2,-5.3954795E-3,-3.51819E-2,8.771607E-3],"split_indices":[42,28,83,0,0,0,0],"split_type":[0,0,0,0,0,0,0],"sum_hessian":[2.0465486E4,1.2769459E4,7.696028E3,1.265439E3,1.150402E4,2.662948E2,7.429733E3],"tree_param":{"num_deleted":"0","num_feature":"120","num_nodes":"7","size_leaf_vector":"1"}},{"base_weights":[1.8876368E-3,4.1168433E-2,-2.1081492E-1,6.579678E-4,3.3864453E-2,-2.5640275E-2,5.8167926E-3],"categories":[],"categories_nodes":[],"categories_segments":[],"categories_sizes":[],"default_left":[0,0,0,0,0,0,0],"id":99,"left_children":[1,3,5,-1,-1,-1,-1],"loss_changes":[1.6919293E2,2.84545E2,2.490083E2,0E0,0E0,0E0,0E0],"parents":[2147483647,0,0,1,1,2,2],"right_children":[2,4,6,-1,-1,-1,-1],"split_conditions":[1.33298E6,1.32388E6,1.34153E6,6.579678E-4,3.3864453E-2,-2.5640275E-2,5.8167926E-3],"split_indices":[60,60,60,0,0,0,0],"split_type":[0,0,0,0,0,0,0],"sum_hessian":[2.024341E4,1.7090727E4,3.1526838E3,1.6254236E4,8.3649E2,1.7578301E3,1.3948538E3],"tree_param":{"num_deleted":"0","num_feature":"120","num_nodes":"7","size_leaf_vector":"1"}},{"base_weights":[-6.9105076E-3,-1.6645342E-2,8.2467675E-1,-6.1649602E-2,-5.462043E-4,1.1174833E-1,3.460699E-2],"categories":[],"categories_nodes":[],"categories_segments":[],"categories_sizes":[],"default_left":[0,0,0,0,0,0,0],"id":100,"left_children":[1,3,5,-1,-1,-1,-1],"loss_changes":[1.6402328E2,1.4917114E2,5.10932E1,0E0,0E0,0E0,0E0],"parents":[2147483647,0,0,1,1,2,2],"right_children":[2,4,6,-1,-1,-1,-1],"split_conditions":[1.1650408E3,1.486495E5,7.9059136E3,-6.1649602E-2,-5.462043E-4,1.1174833E-1,3.460699E-2],"split_indices":[119,36,7,0,0,0,0],"split_type":[0,0,0,0,0,0,0],"sum_hessian":[2.0257336E4,2.0026895E4,2.3044145E2,1.2050671E2,1.9906389E4,2.8456581E1,2.0198488E2],"tree_param":{"num_deleted":"0","num_feature":"120","num_nodes":"7","size_leaf_vector":"1"}},{"base_weights":[-1.1793855E-2,3.9249492E-1,-3.3458386E-2,-3.2393716E-2,3.9168734E-2,3.9564366E-3,-7.1016727E-3],"categories":[],"categories_nodes":[],"categories_segments":[],"categories_sizes":[],"default_left":[0,0,0,0,0,0,0],"id":101,"left_children":[1,3,5,-1,-1,-1,-1],"loss_changes":[1.7714842E2,3.1379712E2,1.8902924E2,0E0,0E0,0E0,0E0],"parents":[2147483647,0,0,1,1,2,2],"right_children":[2,4,6,-1,-1,-1,-1],"split_conditions":[2.556141E1,1.4769722E2,9.999793E-1,-3.2393716E-2,3.9168734E-2,3.9564366E-3,-7.1016727E-3],"split_indices":[108,24,15,0,0,0,0],"split_type":[0,0,0,0,0,0,0],"sum_hessian":[2.0218133E4,1.0246804E3,1.9193451E4,2.4720139E2,7.7747906E2,9.09469E3,1.0098762E4],"tree_param":{"num_deleted":"0","num_feature":"120","num_nodes":"7","size_leaf_vector":"1"}},{"base_weights":[8.0200415E-3,-2.8076518E-1,3.2044783E-2,-2.2817077E-2,1.3336458E-2,-2.7858005E-3,1.06106475E-2],"categories":[],"categories_nodes":[],"categories_segments":[],"categories_sizes":[],"default_left":[0,0,0,0,0,0,0],"id":102,"left_children":[1,3,5,-1,-1,-1,-1],"loss_changes":[1.4173145E2,1.05938324E2,2.4568675E2,0E0,0E0,0E0,0E0],"parents":[2147483647,0,0,1,1,2,2],"right_children":[2,4,6,-1,-1,-1,-1],"split_conditions":[1.25525E6,1.0057004E-7,9.803922E-4,-2.2817077E-2,1.3336458E-2,-2.7858005E-3,1.06106475E-2],"split_indices":[60,67,42,0,0,0,0],"split_type":[0,0,0,0,0,0,0],"sum_hessian":[2.0421549E4,1.5649384E3,1.8856611E4,1.2543782E3,3.1056012E2,1.2426794E4,6.4298164E3],"tree_param":{"num_deleted":"0","num_feature":"120","num_nodes":"7","size_leaf_vector":"1"}},{"base_weights":[-6.584385E-3,-7.047162E-2,1.3148993E-1,-4.761923E-3,4.2834383E-2,9.9955425E-3,-2.428744E-2],"categories":[],"categories_nodes":[],"categories_segments":[],"categories_sizes":[],"default_left":[0,0,0,0,0,0,0],"id":103,"left_children":[1,3,5,-1,-1,-1,-1],"loss_changes":[1.7879263E2,1.7600941E2,1.7554007E2,0E0,0E0,0E0,0E0],"parents":[2147483647,0,0,1,1,2,2],"right_children":[2,4,6,-1,-1,-1,-1],"split_conditions":[9.813543E-4,8.2597955E2,1.3347718E6,-4.761923E-3,4.2834383E-2,9.9955425E-3,-2.428744E-2],"split_indices":[42,43,60,0,0,0,0],"split_type":[0,0,0,0,0,0,0],"sum_hessian":[2.0260812E4,1.3853309E4,6.4075044E3,1.3612358E4,2.4095026E2,5.9095713E3,4.97933E2],"tree_param":{"num_deleted":"0","num_feature":"120","num_nodes":"7","size_leaf_vector":"1"}},{"base_weights":[-4.1940566E-3,-3.2654217E-1,2.2960413E-2,-2.5709528E-2,7.43947E-3,1.0907305E-2,-3.2707897E-3],"categories":[],"categories_nodes":[],"categories_segments":[],"categories_sizes":[],"default_left":[0,0,0,0,0,0,0],"id":104,"left_children":[1,3,5,-1,-1,-1,-1],"loss_changes":[1.7731749E2,9.8383316E1,2.642828E2,0E0,0E0,0E0,0E0],"parents":[2147483647,0,0,1,1,2,2],"right_children":[2,4,6,-1,-1,-1,-1],"split_conditions":[3.046272E7,1.0214505E-3,1.28323E6,-2.5709528E-2,7.43947E-3,1.0907305E-2,-3.2707897E-3],"split_indices":[48,54,60,0,0,0,0],"split_type":[0,0,0,0,0,0,0],"sum_hessian":[2.0247701E4,1.5699049E3,1.8677797E4,1.213027E3,3.5687793E2,5.9905522E3,1.2687244E4],"tree_param":{"num_deleted":"0","num_feature":"120","num_nodes":"7","size_leaf_vector":"1"}},{"base_weights":[3.7391952E-3,-7.0102885E-2,1.07406385E-1,-3.781881E-2,-2.7014455E-3,1.0377525E-2,-2.3097843E-3],"categories":[],"categories_nodes":[],"categories_segments":[],"categories_sizes":[],"default_left":[0,0,0,0,0,0,0],"id":105,"left_children":[1,3,5,-1,-1,-1,-1],"loss_changes":[1.5505145E2,1.5524493E2,9.925913E1,0E0,0E0,0E0,0E0],"parents":[2147483647,0,0,1,1,2,2],"right_children":[2,4,6,-1,-1,-1,-1],"split_conditions":[6.9087285E-1,1.5251852E5,1.8599742E5,-3.781881E-2,-2.7014455E-3,1.0377525E-2,-2.3097843E-3],"split_indices":[92,36,36,0,0,0,0],"split_type":[0,0,0,0,0,0,0],"sum_hessian":[2.0246664E4,1.182463E4,8.422033E3,3.9969104E2,1.1424939E4,5.500585E3,2.921448E3],"tree_param":{"num_deleted":"0","num_feature":"120","num_nodes":"7","size_leaf_vector":"1"}},{"base_weights":[-5.9202695E-3,-3.421912E-1,1.636188E-2,4.553082E-3,-4.7041774E-2,2.5768522E-2,-4.1851233E-4],"categories":[],"categories_nodes":[],"categories_segments":[],"categories_sizes":[],"default_left":[0,0,0,0,0,0,0],"id":106,"left_children":[1,3,5,-1,-1,-1,-1],"loss_changes":[1.5118399E2,2.678283E2,2.0189838E2,0E0,0E0,0E0,0E0],"parents":[2147483647,0,0,1,1,2,2],"right_children":[2,4,6,-1,-1,-1,-1],"split_conditions":[1.1E0,2.2583443E2,2.5600197E1,4.553082E-3,-4.7041774E-2,2.5768522E-2,-4.1851233E-4],"split_indices":[14,72,108,0,0,0,0],"split_type":[0,0,0,0,0,0,0],"sum_hessian":[2.0167209E4,1.2499039E3,1.8917305E4,6.8003296E2,5.698709E2,9.5649744E2,1.7960807E4],"tree_param":{"num_deleted":"0","num_feature":"120","num_nodes":"7","size_leaf_vector":"1"}},{"base_weights":[1.2176978E-2,-6.0530204E-2,1.8348282E-2,6.938688E-3,-2.4567142E-3],"categories":[],"categories_nodes":[],"categories_segments":[],"categories_sizes":[],"default_left":[0,0,0,0,0],"id":107,"left_children":[1,-1,3,-1,-1],"loss_changes":[1.3731935E2,0E0,1.3373941E2,0E0,0E0],"parents":[2147483647,0,0,2,2],"right_children":[2,-1,4,-1,-1],"split_conditions":[2.9335374E7,-6.0530204E-2,1.28323E6,6.938688E-3,-2.4567142E-3],"split_indices":[48,0,60,0,0],"split_type":[0,0,0,0,0],"sum_hessian":[2.0225371E4,1.0887711E2,2.0116494E4,7.445203E3,1.2671291E4],"tree_param":{"num_deleted":"0","num_feature":"120","num_nodes":"5","size_leaf_vector":"1"}},{"base_weights":[-1.2432399E-2,1.8976921E0,-1.645524E-2,1.7774892E-1,-3.210784E-3,-1.3101E-2,1.2650521E-3],"categories":[],"categories_nodes":[],"categories_segments":[],"categories_sizes":[],"default_left":[0,0,0,0,0,0,0],"id":108,"left_children":[1,3,5,-1,-1,-1,-1],"loss_changes":[1.5479901E2,1.0827367E2,1.7257191E2,0E0,0E0,0E0,0E0],"parents":[2147483647,0,0,1,1,2,2],"right_children":[2,4,6,-1,-1,-1,-1],"split_conditions":[2.2297743E1,-5.1220565E0,2.992102E0,1.7774892E-1,-3.210784E-3,-1.3101E-2,1.2650521E-3],"split_indices":[34,112,33,0,0,0,0],"split_type":[0,0,0,0,0,0,0],"sum_hessian":[2.0141557E4,3.8338875E1,2.0103217E4,2.155161E1,1.6787262E1,3.0488987E3,1.7054318E4],"tree_param":{"num_deleted":"0","num_feature":"120","num_nodes":"7","size_leaf_vector":"1"}},{"base_weights":[-1.6606194E-3,8.907825E-2,-8.954224E-2,7.022575E-3,-2.1640288E-2,-5.9026526E-3,5.0663292E-2],"categories":[],"categories_nodes":[],"categories_segments":[],"categories_sizes":[],"default_left":[0,0,0,0,0,0,0],"id":109,"left_children":[1,3,5,-1,-1,-1,-1],"loss_changes":[1.6068135E2,1.7603604E2,1.6949857E2,0E0,0E0,0E0,0E0],"parents":[2147483647,0,0,1,1,2,2],"right_children":[2,4,6,-1,-1,-1,-1],"split_conditions":[2.2521782E2,6.2E0,1.8085896E1,7.022575E-3,-2.1640288E-2,-5.9026526E-3,5.0663292E-2],"split_indices":[84,110,12,0,0,0,0],"split_type":[0,0,0,0,0,0,0],"sum_hessian":[2.0141953E4,9.909475E3,1.0232479E4,9.198262E3,7.112138E2,1.0069692E4,1.6278583E2],"tree_param":{"num_deleted":"0","num_feature":"120","num_nodes":"7","size_leaf_vector":"1"}},{"base_weights":[-1.3652574E-2,-1.6346836E-1,2.5737373E-2,-3.4240216E-2,-5.755429E-3,6.848829E-4,3.22107E-2],"categories":[],"categories_nodes":[],"categories_segments":[],"categories_sizes":[],"default_left":[0,0,0,0,0,0,0],"id":110,"left_children":[1,3,5,-1,-1,-1,-1],"loss_changes":[1.1843965E2,1.1305282E2,1.1797383E2,0E0,0E0,0E0,0E0],"parents":[2147483647,0,0,1,1,2,2],"right_children":[2,4,6,-1,-1,-1,-1],"split_conditions":[6.321983E-1,2.0458736E0,8.123186E-1,-3.4240216E-2,-5.755429E-3,6.848829E-4,3.22107E-2],"split_indices":[104,21,32,0,0,0,0],"split_type":[0,0,0,0,0,0,0],"sum_hessian":[2.0061889E4,4.174334E3,1.5887554E4,4.852074E2,3.6891267E3,1.5515019E4,3.7253552E2],"tree_param":{"num_deleted":"0","num_feature":"120","num_nodes":"7","size_leaf_vector":"1"}},{"base_weights":[2.5878963E-3,-7.2427103E-3,9.275057E-1,-1.1653932E-2,2.2851436E-3,5.7801515E-2,-3.3399425E-2],"categories":[],"categories_nodes":[],"categories_segments":[],"categories_sizes":[],"default_left":[0,0,0,0,0,0,0],"id":111,"left_children":[1,3,5,-1,-1,-1,-1],"loss_changes":[1.8391428E2,1.9545465E2,3.8650345E1,0E0,0E0,0E0,0E0],"parents":[2147483647,0,0,1,1,2,2],"right_children":[2,4,6,-1,-1,-1,-1],"split_conditions":[3.2140423E1,3.2371857E0,2.2573582E2,-1.1653932E-2,2.2851436E-3,5.7801515E-2,-3.3399425E-2],"split_indices":[108,33,72,0,0,0,0],"split_type":[0,0,0,0,0,0,0],"sum_hessian":[2.0213242E4,2.0004518E4,2.087259E2,3.8556313E3,1.6148886E4,1.9580144E2,1.292446E1],"tree_param":{"num_deleted":"0","num_feature":"120","num_nodes":"7","size_leaf_vector":"1"}},{"base_weights":[3.2537244E-2,-2.512008E-1,5.7139084E-2,-5.453764E-3,-3.8403146E-2,3.6243536E-2,1.8029416E-3],"categories":[],"categories_nodes":[],"categories_segments":[],"categories_sizes":[],"default_left":[0,0,0,0,0,0,0],"id":112,"left_children":[1,3,5,-1,-1,-1,-1],"loss_changes":[1.4245111E2,1.0915641E2,2.7587665E2,0E0,0E0,0E0,0E0],"parents":[2147483647,0,0,1,1,2,2],"right_children":[2,4,6,-1,-1,-1,-1],"split_conditions":[1.25528E6,1.2549058E6,1.25716E6,-5.453764E-3,-3.8403146E-2,3.6243536E-2,1.8029416E-3],"split_indices":[60,60,60,0,0,0,0],"split_type":[0,0,0,0,0,0,0],"sum_hessian":[2.0396725E4,1.6242576E3,1.8772467E4,1.2077355E3,4.1652206E2,7.462935E2,1.8026174E4],"tree_param":{"num_deleted":"0","num_feature":"120","num_nodes":"7","size_leaf_vector":"1"}},{"base_weights":[-2.1965303E-3,-1.0407889E-2,8.684621E-1,-2.2410354E-2,4.2378352E-4,-2.3133138E-2,5.676712E-2],"categories":[],"categories_nodes":[],"categories_segments":[],"categories_sizes":[],"default_left":[0,0,0,0,0,0,0],"id":113,"left_children":[1,3,5,-1,-1,-1,-1],"loss_changes":[1.4302477E2,1.4021526E2,3.81306E1,0E0,0E0,0E0,0E0],"parents":[2147483647,0,0,1,1,2,2],"right_children":[2,4,6,-1,-1,-1,-1],"split_conditions":[3.2140423E1,1.0515185E1,9.4778323E-1,-2.2410354E-2,4.2378352E-4,-2.3133138E-2,5.676712E-2],"split_indices":[108,23,3,0,0,0,0],"split_type":[0,0,0,0,0,0,0],"sum_hessian":[2.000449E4,1.9821578E4,1.829128E2,8.670648E2,1.8954514E4,1.8534157E1,1.6437863E2],"tree_param":{"num_deleted":"0","num_feature":"120","num_nodes":"7","size_leaf_vector":"1"}},{"base_weights":[-1.0652731E-2,-2.0727478E-2,6.035515E-1,5.6045636E-4,-1.9986337E-2,5.7813276E-2,-5.21202E-2],"categories":[],"categories_nodes":[],"categories_segments":[],"categories_sizes":[],"default_left":[0,0,0,0,0,0,0],"id":114,"left_children":[1,3,5,-1,-1,-1,-1],"loss_changes":[1.2472387E2,2.0675526E2,2.2198898E2,0E0,0E0,0E0,0E0],"parents":[2147483647,0,0,1,1,2,2],"right_children":[2,4,6,-1,-1,-1,-1],"split_conditions":[3.7609252E7,3.6297644E7,4.925937E0,5.6045636E-4,-1.9986337E-2,5.7813276E-2,-5.21202E-2],"split_indices":[48,48,33,0,0,0,0],"split_type":[0,0,0,0,0,0,0],"sum_hessian":[2.0150191E4,1.9828914E4,3.2127844E2,1.8178246E4,1.6506678E3,2.5152687E2,6.9751564E1],"tree_param":{"num_deleted":"0","num_feature":"120","num_nodes":"7","size_leaf_vector":"1"}},{"base_weights":[-1.6583905E-3,-7.254329E-2,1.152306E-1,-5.706066E-3,1.3803296E-2,-2.2054594E-2,8.48447E-3],"categories":[],"categories_nodes":[],"categories_segments":[],"categories_sizes":[],"default_left":[0,0,0,0,0,0,0],"id":115,"left_children":[1,3,5,-1,-1,-1,-1],"loss_changes":[1.6642267E2,1.2031976E2,1.4463693E2,0E0,0E0,0E0,0E0],"parents":[2147483647,0,0,1,1,2,2],"right_children":[2,4,6,-1,-1,-1,-1],"split_conditions":[9.803922E-4,2.2027006E5,1.2544866E6,-5.706066E-3,1.3803296E-2,-2.2054594E-2,8.48447E-3],"split_indices":[42,36,60,0,0,0,0],"split_type":[0,0,0,0,0,0,0],"sum_hessian":[2.0077932E4,1.2499788E4,7.578143E3,1.1433069E4,1.0667186E3,5.114137E2,7.066729E3],"tree_param":{"num_deleted":"0","num_feature":"120","num_nodes":"7","size_leaf_vector":"1"}},{"base_weights":[1.2470469E-2,3.2585114E-2,-2.8320888E-1,-7.4190674E-3,3.9849677E-3,-3.8047757E-2,-2.4231889E-3],"categories":[],"categories_nodes":[],"categories_segments":[],"categories_sizes":[],"default_left":[0,0,0,0,0,0,0],"id":116,"left_children":[1,3,5,-1,-1,-1,-1],"loss_changes":[1.20080444E2,1.2242641E2,1.2326951E2,0E0,0E0,0E0,0E0],"parents":[2147483647,0,0,1,1,2,2],"right_children":[2,4,6,-1,-1,-1,-1],"split_conditions":[5.299313E-2,-7.85423E-4,4.883865E0,-7.4190674E-3,3.9849677E-3,-3.8047757E-2,-2.4231889E-3],"split_indices":[30,77,94,0,0,0,0],"split_type":[0,0,0,0,0,0,0],"sum_hessian":[2.0182762E4,1.8900756E4,1.2820054E3,3.5970388E3,1.5303717E4,4.7707904E2,8.049263E2],"tree_param":{"num_deleted":"0","num_feature":"120","num_nodes":"7","size_leaf_vector":"1"}},{"base_weights":[1.1312722E-3,-5.9908044E-2,6.692989E-3,-2.5509493E-3,6.840115E-3],"categories":[],"categories_nodes":[],"categories_segments":[],"categories_sizes":[],"default_left":[0,0,0,0,0],"id":117,"left_children":[1,-1,3,-1,-1],"loss_changes":[1.2106624E2,0E0,1.22787926E2,0E0,0E0],"parents":[2147483647,0,0,2,2],"right_children":[2,-1,4,-1,-1],"split_conditions":[1.486495E5,-5.9908044E-2,9.813543E-4,-2.5509493E-3,6.840115E-3],"split_indices":[36,0,42,0,0],"split_type":[0,0,0,0,0],"sum_hessian":[2.0202322E4,9.971116E1,2.0102611E4,1.3846E4,6.2566113E3],"tree_param":{"num_deleted":"0","num_feature":"120","num_nodes":"5","size_leaf_vector":"1"}},{"base_weights":[4.9492978E-3,-3.4230403E-3,7.3212594E-1,-1.7319374E-2,1.4841624E-3,6.701354E-2,-6.7983955E-2],"categories":[],"categories_nodes":[],"categories_segments":[],"categories_sizes":[],"default_left":[0,0,0,0,0,0,0],"id":118,"left_children":[1,3,5,-1,-1,-1,-1],"loss_changes":[1.2241947E2,1.8413087E2,2.1698581E2,0E0,0E0,0E0,0E0],"parents":[2147483647,0,0,1,1,2,2],"right_children":[2,4,6,-1,-1,-1,-1],"split_conditions":[1.8085896E1,2.0458736E0,8.6812964E2,-1.7319374E-2,1.4841624E-3,6.701354E-2,-6.7983955E-2],"split_indices":[12,21,43,0,0,0,0],"split_type":[0,0,0,0,0,0,0],"sum_hessian":[2.0094049E4,1.9869172E4,2.2487611E2,1.7664303E3,1.8102742E4,1.8237729E2,4.249883E1],"tree_param":{"num_deleted":"0","num_feature":"120","num_nodes":"7","size_leaf_vector":"1"}},{"base_weights":[-5.301007E-3,2.852867E-2,-2.140762E-1,-8.7943225E-4,1.552081E-2,-2.7995287E-2,5.213015E-3],"categories":[],"categories_nodes":[],"categories_segments":[],"categories_sizes":[],"default_left":[0,0,0,0,0,0,0],"id":119,"left_children":[1,3,5,-1,-1,-1,-1],"loss_changes":[1.4233272E2,1.9251462E2,2.5014432E2,0E0,0E0,0E0,0E0],"parents":[2147483647,0,0,1,1,2,2],"right_children":[2,4,6,-1,-1,-1,-1],"split_conditions":[1.33315E6,1.988966E5,1.34153E6,-8.7943225E-4,1.552081E-2,-2.7995287E-2,5.213015E-3],"split_indices":[60,36,60,0,0,0,0],"split_type":[0,0,0,0,0,0,0],"sum_hessian":[2.0143227E4,1.7337078E4,2.8061494E3,1.4732077E4,2.6050002E3,1.4459913E3,1.3601581E3],"tree_param":{"num_deleted":"0","num_feature":"120","num_nodes":"7","size_leaf_vector":"1"}},{"base_weights":[-5.1355152E-3,1.4626251E-1,-4.7090165E-2,-4.231992E-3,2.0784115E-2,8.666337E-3,-5.4985615E-3],"categories":[],"categories_nodes":[],"categories_segments":[],"categories_sizes":[],"default_left":[0,0,0,0,0,0,0],"id":120,"left_children":[1,3,5,-1,-1,-1,-1],"loss_changes":[1.2778421E2,2.2063335E2,1.652997E2,0E0,0E0,0E0,0E0],"parents":[2147483647,0,0,1,1,2,2],"right_children":[2,4,6,-1,-1,-1,-1],"split_conditions":[1.619112E2,5.2E0,2.213235E2,-4.231992E-3,2.0784115E-2,8.666337E-3,-5.4985615E-3],"split_indices":[26,14,22,0,0,0,0],"split_type":[0,0,0,0,0,0,0],"sum_hessian":[2.0110352E4,4.3611406E3,1.5749212E4,2.2055916E3,2.1555493E3,3.1980347E3,1.2551177E4],"tree_param":{"num_deleted":"0","num_feature":"120","num_nodes":"7","size_leaf_vector":"1"}},{"base_weights":[4.115934E-3,3.6835077E-1,-1.564724E-2,4.6014898E-2,-1.55986715E-2,-8.894836E-3,3.5950728E-3],"categories":[],"categories_nodes":[],"categories_segments":[],"categories_sizes":[],"default_left":[0,0,0,0,0,0,0],"id":121,"left_children":[1,3,5,-1,-1,-1,-1],"loss_changes":[1.4517352E2,3.096759E2,2.213696E2,0E0,0E0,0E0,0E0],"parents":[2147483647,0,0,1,1,2,2],"right_children":[2,4,6,-1,-1,-1,-1],"split_conditions":[2.556141E1,2.2690742E2,2.6861755E1,4.6014898E-2,-1.55986715E-2,-8.894836E-3,3.5950728E-3],"split_indices":[108,84,108,0,0,0,0],"split_type":[0,0,0,0,0,0,0],"sum_hessian":[2.0156863E4,1.0339562E3,1.9122908E4,6.0517365E2,4.2878256E2,6.8363735E3,1.2286534E4],"tree_param":{"num_deleted":"0","num_feature":"120","num_nodes":"7","size_leaf_vector":"1"}},{"base_weights":[-5.973985E-3,-6.204936E-2,-1.1013658E-3,3.8285464E-2,-6.093437E-4],"categories":[],"categories_nodes":[],"categories_segments":[],"categories_sizes":[],"default_left":[0,0,0,0,0],"id":122,"left_children":[1,-1,3,-1,-1],"loss_changes":[1.0843755E2,0E0,1.3569424E2,0E0,0E0],"parents":[2147483647,0,0,2,2],"right_children":[2,-1,4,-1,-1],"split_conditions":[-1.2167858E2,-6.204936E-2,-1.03586334E2,3.8285464E-2,-6.093437E-4],"split_indices":[0,0,0,0,0],"split_type":[0,0,0,0,0],"sum_hessian":[2.0077354E4,8.37794E1,1.9993572E4,2.777463E2,1.9715826E4],"tree_param":{"num_deleted":"0","num_feature":"120","num_nodes":"5","size_leaf_vector":"1"}},{"base_weights":[-4.444254E-3,-4.4312865E-2,1.5161175E-1,-3.4810386E-3,2.3534404E-2,-5.427773E-4,1.838108E-2],"categories":[],"categories_nodes":[],"categories_segments":[],"categories_sizes":[],"default_left":[0,0,0,0,0,0,0],"id":123,"left_children":[1,3,5,-1,-1,-1,-1],"loss_changes":[1.2490197E2,1.3636066E2,1.1782326E2,0E0,0E0,0E0,0E0],"parents":[2147483647,0,0,1,1,2,2],"right_children":[2,4,6,-1,-1,-1,-1],"split_conditions":[9.115934E-1,1.35037E6,2.969251E0,-3.4810386E-3,2.3534404E-2,-5.427773E-4,1.838108E-2],