{"learner":{"attributes":{"best_iteration":"26","best_score":"0.14552002697143265"},"feature_names":["rTotalActivePower","rTotalReactivePower","rTotalApparentPower","rTotalReactiveEnergy","rTotalApparentEnergy","aCurrentL1","aCurrentL2","aCurrentL3","aVoltage_L1_N","aVoltage_L2_N","aVoltage_L3_N","aActivePower_L1","aActivePower_L2","aActivePower_L3","aReactivePower_L1","aReactivePower_L2","aReactivePower_L3","aApparentPower_L1","aApparentPower_L2","aApparentPower_L3","aCosPhi_L1","aCosPhi_L2","aCosPhi_L3","aPowerFactorPF_L2","airTotal","airDurchfluss","airTempeatur"],"feature_types":[],"gradient_booster":{"model":{"gbtree_model_param":{"num_parallel_tree":"1","num_trees":"57"},"iteration_indptr":[0,1,2,3,4,5,6,7,8,9,10,11,12,13,14,15,16,17,18,19,20,21,22,23,24,25,26,27,28,29,30,31,32,33,34,35,36,37,38,39,40,41,42,43,44,45,46,47,48,49,50,51,52,53,54,55,56,57],"tree_info":[0,0,0,0,0,0,0,0,0,0,0,0,0,0,0,0,0,0,0,0,0,0,0,0,0,0,0,0,0,0,0,0,0,0,0,0,0,0,0,0,0,0,0,0,0,0,0,0,0,0,0,0,0,0,0,0,0],"trees":[{"base_weights":[2.2052778E-3,-8.444842E-2,6.319039E-1,7.8828686E-1,-1.025993E-1,9.604184E-1,-2.3838958E-1,3.8706616E-2,-2.5516652E-2,-3.7942246E-2,-1.313446E-3,1.4305094E-2,3.8256478E-2,-4.8920885E-2,-1.1100108E-3],"categories":[],"categories_nodes":[],"categories_segments":[],"categories_sizes":[],"default_left":[0,0,0,0,0,0,0,0,0,0,0,0,0,0,0],"id":0,"left_children":[1,3,5,7,9,11,13,-1,-1,-1,-1,-1,-1,-1,-1],"loss_changes":[5.1331353E3,1.3088994E3,3.2549229E3,1.1741462E3,5.426336E3,1.0455889E3,8.2778394E2,0E0,0E0,0E0,0E0,0E0,0E0,0E0,0E0],"parents":[2147483647,0,0,1,1,2,2,3,3,4,4,5,5,6,6],"right_children":[2,4,6,8,10,12,14,-1,-1,-1,-1,-1,-1,-1,-1],"split_conditions":[9.1678524E-1,1.8945533E3,2.2721426E2,-7.312378E2,4.0219197E3,3.5355857E3,-4.208009E1,3.8706616E-2,-2.5516652E-2,-3.7942246E-2,-1.313446E-3,1.4305094E-2,3.8256478E-2,-4.8920885E-2,-1.1100108E-3],"split_indices":[22,19,9,1,0,0,15,0,0,0,0,0,0,0,0],"split_type":[0,0,0,0,0,0,0,0,0,0,0,0,0,0,0],"sum_hessian":[9.405514E4,8.267714E4,1.1377999E4,1.6813839E3,8.099576E4,8.261063E3,3.116936E3,1.3213289E3,3.6005505E2,4.2634937E3,7.673226E4,2.7284402E3,5.5326235E3,4.1637042E2,2.7005657E3],"tree_param":{"num_deleted":"0","num_feature":"27","num_nodes":"15","size_leaf_vector":"1"}},{"base_weights":[-6.751684E-4,3.3122757E-1,-3.418105E-1,1.509747E0,1.9238806E-1,-8.303311E-1,-2.5997868E-1,-5.087721E-2,4.8789337E-2,1.3957378E-2,1.0194286E-3,-4.128385E-2,-2.1483695E-2,7.0176534E-3,-1.0568819E-2],"categories":[],"categories_nodes":[],"categories_segments":[],"categories_sizes":[],"default_left":[0,0,0,0,0,0,0,0,0,0,0,0,0,0,0],"id":1,"left_children":[1,3,5,7,9,11,13,-1,-1,-1,-1,-1,-1,-1,-1],"loss_changes":[1.0631947E4,7.784533E3,1.8493789E3,5.3423047E2,1.6985272E3,4.7163232E2,1.4229712E3,0E0,0E0,0E0,0E0,0E0,0E0,0E0,0E0],"parents":[2147483647,0,0,1,1,2,2,3,3,4,4,5,5,6,6],"right_children":[2,4,6,8,10,12,14,-1,-1,-1,-1,-1,-1,-1,-1],"split_conditions":[4.334932E5,2.2337034E3,1.99882E6,1.97621E6,1.0510495E1,1.154277E1,4.59012E5,-5.087721E-2,4.8789337E-2,1.3957378E-2,1.0194286E-3,-4.128385E-2,-2.1483695E-2,7.0176534E-3,-1.0568819E-2],"split_indices":[24,19,3,3,6,5,24,0,0,0,0,0,0,0,0],"split_type":[0,0,0,0,0,0,0,0,0,0,0,0,0,0,0],"sum_hessian":[9.389847E4,4.7591234E4,4.630723E4,5.012868E3,4.2578367E4,6.6392305E3,3.9668E4,5.2539566E1,4.9603286E3,1.6652219E4,2.5926148E4,1.5908153E3,5.048415E3,5.3014824E3,3.4366516E4],"tree_param":{"num_deleted":"0","num_feature":"27","num_nodes":"15","size_leaf_vector":"1"}},{"base_weights":[-2.8339871E-3,5.9000343E-1,-8.306132E-2,-9.131348E-1,6.6822004E-1,1.1366386E-2,-1.9922264E-1,-4.1046787E-2,9.1936365E-3,3.0462526E-2,4.902486E-3,2.3289067E-3,-7.456722E-3,7.18348E-5,-8.040321E-3],"categories":[],"categories_nodes":[],"categories_segments":[],"categories_sizes":[],"default_left":[0,0,0,0,0,0,0,0,0,0,0,0,0,0,0],"id":2,"left_children":[1,3,5,7,9,11,13,-1,-1,-1,-1,-1,-1,-1,-1],"loss_changes":[4.4567114E3,1.3138643E3,9.057377E2,2.584277E2,1.6085781E3,7.0142175E2,4.1184167E2,0E0,0E0,0E0,0E0,0E0,0E0,0E0,0E0],"parents":[2147483647,0,0,1,1,2,2,3,3,4,4,5,5,6,6],"right_children":[2,4,6,8,10,12,14,-1,-1,-1,-1,-1,-1,-1,-1],"split_conditions":[5.2033334E0,3.412129E3,3.9366665E1,2.834E1,2.2041992E3,2.2772298E2,1.0964092E1,-4.1046787E-2,9.1936365E-3,3.0462526E-2,4.902486E-3,2.3289067E-3,-7.456722E-3,7.18348E-5,-8.040321E-3],"split_indices":[25,2,25,26,19,9,6,0,0,0,0,0,0,0,0],"split_type":[0,0,0,0,0,0,0,0,0,0,0,0,0,0,0],"sum_hessian":[9.37149E4,1.1167146E4,8.254775E4,5.505414E2,1.06166045E4,4.552778E4,3.701997E4,4.1778146E2,1.3275993E2,6.7335737E3,3.8830315E3,3.6369426E4,9.1583545E3,7.951428E3,2.906854E4],"tree_param":{"num_deleted":"0","num_feature":"27","num_nodes":"15","size_leaf_vector":"1"}},{"base_weights":[4.2829485E-4,-1.1558773E-1,6.6975826E-1,1.6917782E-1,-3.4621748E-1,-1.2845743E0,7.804058E-1,5.8432933E-2,3.7290815E-3,-2.5966408E-2,-8.798118E-3,-3.129531E-2,-5.2952822E-2,1.4810221E-2,3.5842773E-2],"categories":[],"categories_nodes":[],"categories_segments":[],"categories_sizes":[],"default_left":[0,0,0,0,0,0,0,0,0,0,0,0,0,0,0],"id":3,"left_children":[1,3,5,7,9,11,13,-1,-1,-1,-1,-1,-1,-1,-1],"loss_changes":[7.2849946E3,5.25081E3,2.9979995E3,3.072793E3,1.4228921E3,7.882849E1,1.443352E3,0E0,0E0,0E0,0E0,0E0,0E0,0E0,0E0],"parents":[2147483647,0,0,1,1,2,2,3,3,4,4,5,5,6,6],"right_children":[2,4,6,8,10,12,14,-1,-1,-1,-1,-1,-1,-1,-1],"split_conditions":[8.997485E-1,1.9988E6,4.1770237E1,9.388383E2,4.47334E5,1.5752695E3,9.261283E-1,5.8432933E-2,3.7290815E-3,-2.5966408E-2,-8.798118E-3,-3.129531E-2,-5.2952822E-2,1.4810221E-2,3.5842773E-2],"split_indices":[20,3,16,1,24,11,20,0,0,0,0,0,0,0,0],"split_type":[0,0,0,0,0,0,0,0,0,0,0,0,0,0,0],"sum_hessian":[9.38013E4,7.9943875E4,1.3857421E4,3.5770902E4,4.4172973E4,7.4084937E2,1.3116571E4,1.0554617E3,3.471544E4,5.513366E3,3.865961E4,4.280743E2,3.1277505E2,6.974284E3,6.142287E3],"tree_param":{"num_deleted":"0","num_feature":"27","num_nodes":"15","size_leaf_vector":"1"}},{"base_weights":[5.462297E-3,7.40699E-1,-5.183345E-2,-7.817191E-1,8.05912E-1,7.0384614E-2,-1.9041593E-1,-2.9757783E-2,2.4276191E-2,1.5432885E-2,4.207929E-2,-5.3020373E-2,2.9914123E-3,-7.8503E-3,1.8503389E-3],"categories":[],"categories_nodes":[],"categories_segments":[],"categories_sizes":[],"default_left":[0,0,0,0,0,0,0,0,0,0,0,0,0,0,0],"id":4,"left_children":[1,3,5,7,9,11,13,-1,-1,-1,-1,-1,-1,-1,-1],"loss_changes":[3.9723132E3,6.7796216E2,1.4814637E3,7.08533E1,1.0876265E3,1.9684376E3,5.9172534E2,0E0,0E0,0E0,0E0,0E0,0E0,0E0,0E0],"parents":[2147483647,0,0,1,1,2,2,3,3,4,4,5,5,6,6],"right_children":[2,4,6,8,10,12,14,-1,-1,-1,-1,-1,-1,-1,-1],"split_conditions":[8.07715E0,3.4989786E0,1.1067148E1,8.795877E2,2.571069E3,-8.878418E-1,3.729285E3,-2.9757783E-2,2.4276191E-2,1.5432885E-2,4.207929E-2,-5.3020373E-2,2.9914123E-3,-7.8503E-3,1.8503389E-3],"split_indices":[6,6,6,13,17,21,17,0,0,0,0,0,0,0,0],"split_type":[0,0,0,0,0,0,0,0,0,0,0,0,0,0,0],"sum_hessian":[9.427008E4,6.8154463E3,8.7454625E4,2.7828152E2,6.5371646E3,4.6466203E4,4.0988426E4,2.537106E2,2.457093E1,4.0779197E3,2.459245E3,6.336722E2,4.583253E4,3.325287E4,7.735556E3],"tree_param":{"num_deleted":"0","num_feature":"27","num_nodes":"15","size_leaf_vector":"1"}},{"base_weights":[-5.763358E-3,6.976254E-1,-5.55456E-2,1.0371184E0,-1.752389E-1,3.9359292E-1,-9.877513E-2,5.1093783E-2,1.4840179E-2,2.7765952E-2,-2.8530182E-2,2.4234068E-2,-1.4205572E-2,-1.9988544E-2,-2.225044E-3],"categories":[],"categories_nodes":[],"categories_segments":[],"categories_sizes":[],"default_left":[0,0,0,0,0,0,0,0,0,0,0,0,0,0,0],"id":5,"left_children":[1,3,5,7,9,11,13,-1,-1,-1,-1,-1,-1,-1,-1],"loss_changes":[3.284747E3,1.8388127E3,1.7011155E3,1.4643057E3,1.3324847E3,2.4205615E3,1.2095359E3,0E0,0E0,0E0,0E0,0E0,0E0,0E0,0E0],"parents":[2147483647,0,0,1,1,2,2,3,3,4,4,5,5,6,6],"right_children":[2,4,6,8,10,12,14,-1,-1,-1,-1,-1,-1,-1,-1],"split_conditions":[2.0973433E3,2.2530148E2,8.910636E2,4.263487E5,4.80212E5,2.2718436E2,1.0502808E1,5.1093783E-2,1.4840179E-2,2.7765952E-2,-2.8530182E-2,2.4234068E-2,-1.4205572E-2,-1.9988544E-2,-2.225044E-3],"split_indices":[19,10,14,24,24,10,7,0,0,0,0,0,0,0,0],"split_type":[0,0,0,0,0,0,0,0,0,0,0,0,0,0,0],"sum_hessian":[9.382808E4,6.1983867E3,8.762969E4,4.463577E3,1.7348097E3,7.689749E3,7.993994E4,2.2059717E3,2.2576055E3,7.075699E2,1.0272397E3,5.331685E3,2.358064E3,4.0320781E3,7.590786E4],"tree_param":{"num_deleted":"0","num_feature":"27","num_nodes":"15","size_leaf_vector":"1"}},{"base_weights":[5.0042383E-3,3.1708685E-1,-3.1997386E-1,1.3324835E0,1.8990292E-1,-6.272567E-1,-2.4787523E-1,4.6906553E-2,3.0030161E-2,1.544251E-2,2.6611062E-3,1.9773832E-3,-4.060444E-2,-1.3812936E-2,-5.128965E-3],"categories":[],"categories_nodes":[],"categories_segments":[],"categories_sizes":[],"default_left":[0,0,0,0,0,0,0,0,0,0,0,0,0,0,0],"id":6,"left_children":[1,3,5,7,9,11,13,-1,-1,-1,-1,-1,-1,-1,-1],"loss_changes":[9.542884E3,6.1963765E3,1.0196616E3,3.0372852E2,1.3460624E3,3.9719998E3,6.036116E2,0E0,0E0,0E0,0E0,0E0,0E0,0E0,0E0],"parents":[2147483647,0,0,1,1,2,2,3,3,4,4,5,5,6,6],"right_children":[2,4,6,8,10,12,14,-1,-1,-1,-1,-1,-1,-1,-1],"split_conditions":[4.334932E5,2.242613E3,1.0594373E3,2.2441832E2,2.2759468E3,2.2583574E2,2.2331366E2,4.6906553E-2,3.0030161E-2,1.544251E-2,2.6611062E-3,1.9773832E-3,-4.060444E-2,-1.3812936E-2,-5.128965E-3],"split_indices":[24,19,12,8,18,8,8,0,0,0,0,0,0,0,0],"split_type":[0,0,0,0,0,0,0,0,0,0,0,0,0,0,0],"sum_hessian":[9.4089234E4,4.79991E4,4.6090133E4,5.3398496E3,4.265925E4,8.7528545E3,3.7337277E4,3.8177761E3,1.5220735E3,1.1146334E4,3.1512916E4,4.2708965E3,4.481958E3,1.1625686E4,2.571159E4],"tree_param":{"num_deleted":"0","num_feature":"27","num_nodes":"15","size_leaf_vector":"1"}},{"base_weights":[-1.9527711E-3,4.941035E-1,-6.7970164E-2,1.0263419E0,-3.2326567E-1,4.002358E-1,-8.714226E-2,4.49632E-2,9.104981E-3,1.9013219E-2,-3.171868E-2,2.5707418E-2,-3.222536E-3,4.610729E-3,-9.890261E-3],"categories":[],"categories_nodes":[],"categories_segments":[],"categories_sizes":[],"default_left":[0,0,0,0,0,0,0,0,0,0,0,0,0,0,0],"id":7,"left_children":[1,3,5,7,9,11,13,-1,-1,-1,-1,-1,-1,-1,-1],"loss_changes":[3.071979E3,4.7945312E3,7.429358E2,1.9492202E3,2.7352883E3,6.763842E2,4.185534E3,0E0,0E0,0E0,0E0,0E0,0E0,0E0,0E0],"parents":[2147483647,0,0,1,1,2,2,3,3,4,4,5,5,6,6],"right_children":[2,4,6,8,10,12,14,-1,-1,-1,-1,-1,-1,-1,-1],"split_conditions":[5.2033334E0,2.2572514E2,8.591727E2,4.32713E5,4.1490116E5,4.32713E5,4.334932E5,4.49632E-2,9.104981E-3,1.9013219E-2,-3.171868E-2,2.5707418E-2,-3.222536E-3,4.610729E-3,-9.890261E-3],"split_indices":[25,8,14,24,24,24,24,0,0,0,0,0,0,0,0],"split_type":[0,0,0,0,0,0,0,0,0,0,0,0,0,0,0],"sum_hessian":[9.382014E4,1.1015675E4,8.280447E4,6.6722314E3,4.3434434E3,3.2530752E3,7.955139E4,4.3396426E3,2.3325889E3,1.8400625E3,2.503381E3,1.7857598E3,1.4673154E3,3.9144633E4,4.0406758E4],"tree_param":{"num_deleted":"0","num_feature":"27","num_nodes":"15","size_leaf_vector":"1"}},{"base_weights":[9.2890207E-4,2.9169506E-1,-2.983514E-1,7.612108E-1,1.7321794E-1,-8.626953E-1,-2.5433227E-1,3.8806126E-2,1.5234522E-2,4.802936E-2,3.9161933E-3,-3.558171E-2,3.4888852E-2,1.7371041E-3,-8.782912E-3],"categories":[],"categories_nodes":[],"categories_segments":[],"categories_sizes":[],"default_left":[0,0,0,0,0,0,0,0,0,0,0,0,0,0,0],"id":8,"left_children":[1,3,5,7,9,11,13,-1,-1,-1,-1,-1,-1,-1,-1],"loss_changes":[8.1611094E3,2.6446902E3,1.1460815E3,1.244875E3,2.51979E3,1.730458E3,3.1257788E2,0E0,0E0,0E0,0E0,0E0,0E0,0E0,0E0],"parents":[2147483647,0,0,1,1,2,2,3,3,4,4,5,5,6,6],"right_children":[2,4,6,8,10,12,14,-1,-1,-1,-1,-1,-1,-1,-1],"split_conditions":[1.9988E6,5.2496594E-1,4.2742512E-1,2.2140508E3,2.276806E3,2.39907E8,4.8960812E2,3.8806126E-2,1.5234522E-2,4.802936E-2,3.9161933E-3,-3.558171E-2,3.4888852E-2,1.7371041E-3,-8.782912E-3],"split_indices":[3,23,23,19,19,4,16,0,0,0,0,0,0,0,0],"split_type":[0,0,0,0,0,0,0,0,0,0,0,0,0,0,0],"sum_hessian":[9.3780266E4,4.7569117E4,4.6211152E4,9.580617E3,3.79885E4,3.33904E3,4.287211E4,3.5828208E3,5.9977964E3,1.3394458E3,3.6649055E4,2.9463657E3,3.926742E2,3.0286536E3,3.9843457E4],"tree_param":{"num_deleted":"0","num_feature":"27","num_nodes":"15","size_leaf_vector":"1"}},{"base_weights":[4.241932E-3,6.036067E-1,-5.9903257E-2,-1.4065883E0,7.1413994E-1,-2.7776396E-1,3.9658904E-2,-2.1785049E-2,-5.0326277E-2,2.708521E-2,-1.3179294E-2,-2.827789E-2,-3.4554226E-3,1.7540343E-2,-1.3598658E-3],"categories":[],"categories_nodes":[],"categories_segments":[],"categories_sizes":[],"default_left":[0,0,0,0,0,0,0,0,0,0,0,0,0,0,0],"id":9,"left_children":[1,3,5,7,9,11,13,-1,-1,-1,-1,-1,-1,-1,-1],"loss_changes":[3.6097659E3,2.017686E3,1.8395958E3,5.7906067E1,1.3912651E3,2.7625862E3,2.480213E3,0E0,0E0,0E0,0E0,0E0,0E0,0E0,0E0],"parents":[2147483647,0,0,1,1,2,2,3,3,4,4,5,5,6,6],"right_children":[2,4,6,8,10,12,14,-1,-1,-1,-1,-1,-1,-1,-1],"split_conditions":[1.8710328E3,4.599904E0,1.3658818E1,4.919729E2,1.6590648E3,4.0219197E3,1.2911307E3,-2.1785049E-2,-5.0326277E-2,2.708521E-2,-1.3179294E-2,-2.827789E-2,-3.4554226E-3,1.7540343E-2,-1.3598658E-3],"split_indices":[18,7,5,12,1,0,12,0,0,0,0,0,0,0,0],"split_type":[0,0,0,0,0,0,0,0,0,0,0,0,0,0,0],"sum_hessian":[9.386792E4,9.075396E3,8.479252E4,4.7128513E2,8.604111E3,2.6599225E4,5.8193297E4,1.0013916E2,3.7114597E2,7.6411104E3,9.630013E2,5.7015366E3,2.089769E4,8.047419E3,5.014588E4],"tree_param":{"num_deleted":"0","num_feature":"27","num_nodes":"15","size_leaf_vector":"1"}},{"base_weights":[-2.9137647E-3,-1.0098898E-1,5.822831E-1,-2.3645863E-1,5.0942186E-2,-1.2818737E0,6.8643755E-1,2.2976032E-2,-8.624609E-3,4.4764103E-3,-2.2494833E-3,-1.746883E-2,-4.9455807E-2,2.6062425E-2,1.1806966E-2],"categories":[],"categories_nodes":[],"categories_segments":[],"categories_sizes":[],"default_left":[0,0,0,0,0,0,0,0,0,0,0,0,0,0,0],"id":10,"left_children":[1,3,5,7,9,11,13,-1,-1,-1,-1,-1,-1,-1,-1],"loss_changes":[5.372264E3,1.6505605E3,2.609337E3,1.4867637E3,4.1860168E2,1.4214758E2,5.4784766E2,0E0,0E0,0E0,0E0,0E0,0E0,0E0,0E0],"parents":[2147483647,0,0,1,1,2,2,3,3,4,4,5,5,6,6],"right_children":[2,4,6,8,10,12,14,-1,-1,-1,-1,-1,-1,-1,-1],"split_conditions":[9.0081966E-1,8.332588E-1,3.4649002E2,1.7242859E3,1.0942603E1,1.7654653E3,2.085134E3,2.2976032E-2,-8.624609E-3,4.4764103E-3,-2.2494833E-3,-1.746883E-2,-4.9455807E-2,2.6062425E-2,1.1806966E-2],"split_indices":[20,20,1,18,6,18,1,0,0,0,0,0,0,0,0],"split_type":[0,0,0,0,0,0,0,0,0,0,0,0,0,0,0],"sum_hessian":[9.361246E4,8.017883E4,1.3433629E4,4.2389938E4,3.778889E4,7.090928E2,1.2724536E4,1.5412017E3,4.084874E4,2.1691281E4,1.6097611E4,2.0099826E2,5.080945E2,8.822148E3,3.9023872E3],"tree_param":{"num_deleted":"0","num_feature":"27","num_nodes":"15","size_leaf_vector":"1"}},{"base_weights":[7.0234765E-3,4.3724024E-1,-5.018352E-2,1.1059397E0,-1.4801045E-1,1.9184425E-2,-1.2170237E-1,4.2866148E-2,3.4643004E-3,-3.089703E-2,9.578207E-4,-7.973624E-3,6.735009E-3,-4.286322E-3,1.0108308E-2],"categories":[],"categories_nodes":[],"categories_segments":[],"categories_sizes":[],"default_left":[0,0,0,0,0,0,0,0,0,0,0,0,0,0,0],"id":11,"left_children":[1,3,5,7,9,11,13,-1,-1,-1,-1,-1,-1,-1,-1],"loss_changes":[2.3142056E3,4.3207046E3,4.1177988E2,1.2824888E3,8.719703E2,2.2166082E3,2.5079193E2,0E0,0E0,0E0,0E0,0E0,0E0,0E0,0E0],"parents":[2147483647,0,0,1,1,2,2,3,3,4,4,5,5,6,6],"right_children":[2,4,6,8,10,12,14,-1,-1,-1,-1,-1,-1,-1,-1],"split_conditions":[5.2033334E0,4.1490116E5,1.2444424E1,2.2935626E2,8.8451296E-1,1.3578822E1,7.105291E3,4.2866148E-2,3.4643004E-3,-3.089703E-2,9.578207E-4,-7.973624E-3,6.735009E-3,-4.286322E-3,1.0108308E-2],"split_indices":[25,24,7,9,22,5,0,0,0,0,0,0,0,0,0],"split_type":[0,0,0,0,0,0,0,0,0,0,0,0,0,0,0],"sum_hessian":[9.400462E4,1.1034429E4,8.2970195E4,5.150428E3,5.884E3,4.2109246E4,4.0860945E4,4.114752E3,1.0356763E3,1.0410231E3,4.842977E3,1.7542459E4,2.4566785E4,3.9617094E4,1.2438522E3],"tree_param":{"num_deleted":"0","num_feature":"27","num_nodes":"15","size_leaf_vector":"1"}},{"base_weights":[7.008872E-3,2.7083832E-1,-2.6662886E-1,8.256053E-1,1.2286374E-1,-5.808657E-1,-2.02429E-1,4.014348E-2,1.9424625E-2,8.534303E-3,1.421063E-3,-3.0795062E-2,-5.155484E-3,1.3558693E-2,-6.7984727E-3],"categories":[],"categories_nodes":[],"categories_segments":[],"categories_sizes":[],"default_left":[0,0,0,0,0,0,0,0,0,0,0,0,0,0,0],"id":12,"left_children":[1,3,5,7,9,11,13,-1,-1,-1,-1,-1,-1,-1,-1],"loss_changes":[6.777252E3,3.9222341E3,9.2829785E2,9.398638E2,4.321324E2,1.2822207E3,3.0588904E2,0E0,0E0,0E0,0E0,0E0,0E0,0E0,0E0],"parents":[2147483647,0,0,1,1,2,2,3,3,4,4,5,5,6,6],"right_children":[2,4,6,8,10,12,14,-1,-1,-1,-1,-1,-1,-1,-1],"split_conditions":[2.09648E8,7.423731E2,1.523832E3,6.92815E3,8.553242E-1,9.1678524E-1,6.6258765E3,4.014348E-2,1.9424625E-2,8.534303E-3,1.421063E-3,-3.0795062E-2,-5.155484E-3,1.3558693E-2,-6.7984727E-3],"split_indices":[4,16,11,2,22,22,2,0,0,0,0,0,0,0,0],"split_type":[0,0,0,0,0,0,0,0,0,0,0,0,0,0,0],"sum_hessian":[9.387236E4,4.7795312E4,4.6077047E4,1.0060474E4,3.773484E4,7.810669E3,3.8266375E4,3.233928E3,6.826546E3,1.3054457E4,2.4680383E4,4.0194373E3,3.7912317E3,7.491829E2,3.7517195E4],"tree_param":{"num_deleted":"0","num_feature":"27","num_nodes":"15","size_leaf_vector":"1"}},{"base_weights":[-9.3697285E-4,3.5146555E-1,-5.7609178E-2,1.0259331E0,-1.7815925E-1,1.5025346E-1,-2.6252478E-1,3.9030038E-2,4.903943E-3,2.3716995E-3,-3.348394E-2,-1.04055125E-5,1.4827583E-2,-2.3494685E-2,-6.2653515E-3],"categories":[],"categories_nodes":[],"categories_segments":[],"categories_sizes":[],"default_left":[0,0,0,0,0,0,0,0,0,0,0,0,0,0,0],"id":13,"left_children":[1,3,5,7,9,11,13,-1,-1,-1,-1,-1,-1,-1,-1],"loss_changes":[1.8674417E3,4.628673E3,3.432158E3,1.0345342E3,1.6205294E3,1.9211335E3,1.2529138E3,0E0,0E0,0E0,0E0,0E0,0E0,0E0,0E0],"parents":[2147483647,0,0,1,1,2,2,3,3,4,4,5,5,6,6],"right_children":[2,4,6,8,10,12,14,-1,-1,-1,-1,-1,-1,-1,-1],"split_conditions":[3.4425348E2,1.9978026E6,1.9988E6,2.2884935E2,1.920172E3,4.08921E5,4.47334E5,3.9030038E-2,4.903943E-3,2.3716995E-3,-3.348394E-2,-1.04055125E-5,1.4827583E-2,-2.3494685E-2,-6.2653515E-3],"split_indices":[15,3,3,9,18,24,24,0,0,0,0,0,0,0,0],"split_type":[0,0,0,0,0,0,0,0,0,0,0,0,0,0,0],"sum_hessian":[9.352256E4,1.2951725E4,8.0570836E4,5.6972964E3,7.254428E3,3.9994668E4,4.0576168E4,4.5929917E3,1.1043048E3,5.6353057E3,1.6191224E3,2.7164135E4,1.2830534E4,4.7813696E3,3.5794797E4],"tree_param":{"num_deleted":"0","num_feature":"27","num_nodes":"15","size_leaf_vector":"1"}},{"base_weights":[-4.047232E-3,1.1123782E-1,-9.617069E-2,4.1900527E-1,-3.0002728E-2,3.5768595E-2,-2.1330589E-1,2.6409803E-2,-6.7661703E-3,3.157333E-3,-7.958729E-3,-4.5643467E-3,1.0995834E-2,-1.25377625E-2,-4.507147E-3],"categories":[],"categories_nodes":[],"categories_segments":[],"categories_sizes":[],"default_left":[0,0,0,0,0,0,0,0,0,0,0,0,0,0,0],"id":14,"left_children":[1,3,5,7,9,11,13,-1,-1,-1,-1,-1,-1,-1,-1],"loss_changes":[9.905379E2,1.8010613E3,8.015702E2,3.4380325E3,8.181847E2,1.3714235E3,3.5532788E2,0E0,0E0,0E0,0E0,0E0,0E0,0E0,0E0],"parents":[2147483647,0,0,1,1,2,2,3,3,4,4,5,5,6,6],"right_children":[2,4,6,8,10,12,14,-1,-1,-1,-1,-1,-1,-1,-1],"split_conditions":[1.790135E3,8.7578094E2,1.9988E6,4.334932E5,2.2663931E2,4.08921E5,2.237715E2,2.6409803E-2,-6.7661703E-3,3.157333E-3,-7.958729E-3,-4.5643467E-3,1.0995834E-2,-1.25377625E-2,-4.507147E-3],"split_indices":[13,14,3,24,9,24,9,0,0,0,0,0,0,0,0],"split_type":[0,0,0,0,0,0,0,0,0,0,0,0,0,0,0],"sum_hessian":[9.3265414E4,4.1418312E4,5.18471E4,1.30306045E4,2.8387709E4,2.4377748E4,2.7469354E4,7.860224E3,5.1703804E3,1.7899596E4,1.0488112E4,1.5453493E4,8.924255E3,7.636614E3,1.983274E4],"tree_param":{"num_deleted":"0","num_feature":"27","num_nodes":"15","size_leaf_vector":"1"}},{"base_weights":[-1.674798E-3,2.4136464E-1,-2.5248227E-1,8.04887E-1,1.2770168E-1,-7.2196317E-1,-1.8668325E-1,-5.628756E-2,2.957586E-2,1.1446906E-2,1.9035965E-6,1.575517E-2,-2.4118619E-2,-2.793014E-3,-1.3995796E-2],"categories":[],"categories_nodes":[],"categories_segments":[],"categories_sizes":[],"default_left":[0,0,0,0,0,0,0,0,0,0,0,0,0,0,0],"id":15,"left_children":[1,3,5,7,9,11,13,-1,-1,-1,-1,-1,-1,-1,-1],"loss_changes":[5.690327E3,3.035011E3,1.4177783E3,2.69321E3,1.1802396E3,2.8427002E2,1.0140294E3,0E0,0E0,0E0,0E0,0E0,0E0,0E0,0E0],"parents":[2147483647,0,0,1,1,2,2,3,3,4,4,5,5,6,6],"right_children":[2,4,6,8,10,12,14,-1,-1,-1,-1,-1,-1,-1,-1],"split_conditions":[1.9988E6,7.59379E3,4.47334E5,3.5331706E5,3.4116665E1,4.334932E5,2.05835E6,-5.628756E-2,2.957586E-2,1.1446906E-2,1.9035965E-6,1.575517E-2,-2.4118619E-2,-2.793014E-3,-1.3995796E-2],"split_indices":[3,2,24,24,25,24,3,0,0,0,0,0,0,0,0],"split_type":[0,0,0,0,0,0,0,0,0,0,0,0,0,0,0],"sum_hessian":[9.334745E4,4.7405105E4,4.5942344E4,7.9529224E3,3.9452184E4,5.6426924E3,4.029965E4,3.8149377E2,7.5714287E3,1.3901911E4,2.5550273E4,1.821667E2,5.460526E3,2.9126777E4,1.1172874E4],"tree_param":{"num_deleted":"0","num_feature":"27","num_nodes":"15","size_leaf_vector":"1"}},{"base_weights":[4.5366827E-3,-5.0641797E-2,4.079627E-1,1.5528554E-1,-2.5601718E-1,9.5236754E-1,2.9542835E-2,4.564567E-2,3.9896206E-3,-1.9720953E-2,-5.8165183E-3,-5.6838833E-2,3.2486904E-2,-4.9376674E-2,3.7374329E-3],"categories":[],"categories_nodes":[],"categories_segments":[],"categories_sizes":[],"default_left":[0,0,0,0,0,0,0,0,0,0,0,0,0,0,0],"id":16,"left_children":[1,3,5,7,9,11,13,-1,-1,-1,-1,-1,-1,-1,-1],"loss_changes":[2.0808784E3,3.477029E3,2.3157349E3,1.5348884E3,1.0889912E3,9.5935205E2,9.356599E2,0E0,0E0,0E0,0E0,0E0,0E0,0E0,0E0],"parents":[2147483647,0,0,1,1,2,2,3,3,4,4,5,5,6,6],"right_children":[2,4,6,8,10,12,14,-1,-1,-1,-1,-1,-1,-1,-1],"split_conditions":[9.1678524E-1,2.09648E8,1.9968911E6,-1.640558E2,8.513508E2,3.5331706E5,-8.878418E-1,4.564567E-2,3.9896206E-3,-1.9720953E-2,-5.8165183E-3,-5.6838833E-2,3.2486904E-2,-4.9376674E-2,3.7374329E-3],"split_indices":[22,4,3,16,16,24,21,0,0,0,0,0,0,0,0],"split_type":[0,0,0,0,0,0,0,0,0,0,0,0,0,0,0],"sum_hessian":[9.345311E4,8.220732E4,1.1245789E4,4.104534E4,4.116198E4,4.6089287E3,6.6368604E3,9.020797E2,4.0143258E4,6.730646E3,3.4431336E4,1.21519554E2,4.4874087E3,3.479657E2,6.2888945E3],"tree_param":{"num_deleted":"0","num_feature":"27","num_nodes":"15","size_leaf_vector":"1"}},{"base_weights":[-1.5462682E-3,2.2549571E-1,-2.3640512E-1,6.343662E-1,6.315805E-2,-1.3812411E-1,-6.0741E-1,-5.0570626E-2,2.2338735E-2,-2.8161914E-3,1.2003349E-2,-2.1630974E-2,-1.8118849E-3,-3.4763664E-2,-7.7702724E-3],"categories":[],"categories_nodes":[],"categories_segments":[],"categories_sizes":[],"default_left":[0,0,0,0,0,0,0,0,0,0,0,0,0,0,0],"id":17,"left_children":[1,3,5,7,9,11,13,-1,-1,-1,-1,-1,-1,-1,-1],"loss_changes":[4.9749595E3,3.1475137E3,1.6711018E3,2.1811392E3,1.6375073E3,1.5994196E3,1.7072844E3,0E0,0E0,0E0,0E0,0E0,0E0,0E0,0E0],"parents":[2147483647,0,0,1,1,2,2,3,3,4,4,5,5,6,6],"right_children":[2,4,6,8,10,12,14,-1,-1,-1,-1,-1,-1,-1,-1],"split_conditions":[4.334932E5,9.856806E0,2.2683815E2,3.5331706E5,2.0209E8,2.14409E8,1.0212431E1,-5.0570626E-2,2.2338735E-2,-2.8161914E-3,1.2003349E-2,-2.1630974E-2,-1.8118849E-3,-3.4763664E-2,-7.7702724E-3],"split_indices":[24,6,10,24,4,4,6,0,0,0,0,0,0,0,0],"split_type":[0,0,0,0,0,0,0,0,0,0,0,0,0,0,0],"sum_hessian":[9.3295086E4,4.7434E4,4.5861086E4,1.3476886E4,3.3957113E4,3.626141E4,9.599673E3,4.212215E2,1.3055664E4,2.2927936E4,1.1029179E4,4.668579E3,3.1592832E4,4.061043E3,5.53863E3],"tree_param":{"num_deleted":"0","num_feature":"27","num_nodes":"15","size_leaf_vector":"1"}},{"base_weights":[-3.024072E-3,2.2169258E-1,-2.364517E-1,1.0815737E0,1.2954397E-1,-6.3100404E-1,-1.7018077E-1,-5.023434E-2,3.4855198E-2,-1.9354724E-3,8.633077E-3,-3.6617342E-2,-1.5651232E-2,-2.196724E-3,-1.7699229E-2],"categories":[],"categories_nodes":[],"categories_segments":[],"categories_sizes":[],"default_left":[0,0,0,0,0,0,0,0,0,0,0,0,0,0,0],"id":18,"left_children":[1,3,5,7,9,11,13,-1,-1,-1,-1,-1,-1,-1,-1],"loss_changes":[4.8916787E3,3.7626675E3,1.1947727E3,2.6264307E2,1.175988E3,4.6776123E2,1.5362954E3,0E0,0E0,0E0,0E0,0E0,0E0,0E0,0E0],"parents":[2147483647,0,0,1,1,2,2,3,3,4,4,5,5,6,6],"right_children":[2,4,6,8,10,12,14,-1,-1,-1,-1,-1,-1,-1,-1],"split_conditions":[1.9988E6,2.2140508E3,1.99882E6,1.86703E8,1.9624088E8,1.0725592E1,2.2674152E2,-5.023434E-2,3.4855198E-2,-1.9354724E-3,8.633077E-3,-3.6617342E-2,-1.5651232E-2,-2.196724E-3,-1.7699229E-2],"split_indices":[3,19,3,4,4,7,10,0,0,0,0,0,0,0,0],"split_type":[0,0,0,0,0,0,0,0,0,0,0,0,0,0,0],"sum_hessian":[9.3250734E4,4.75089E4,4.5741836E4,4.5951846E3,4.2913715E4,6.5729624E3,3.9168875E4,3.46398E1,4.5605444E3,1.8425254E4,2.448846E4,1.341039E3,5.231924E3,3.1133217E4,8.035657E3],"tree_param":{"num_deleted":"0","num_feature":"27","num_nodes":"15","size_leaf_vector":"1"}},{"base_weights":[-8.2909846E-4,4.0564072E-1,-6.718605E-2,7.49309E-1,-1.0950658E-1,1.0971063E-1,-2.4189252E-1,-5.3841703E-2,2.7460044E-2,-2.3989562E-2,-6.704023E-4,-3.426231E-4,1.137978E-2,-6.0250093E-3,-1.8911937E-2],"categories":[],"categories_nodes":[],"categories_segments":[],"categories_sizes":[],"default_left":[0,0,0,0,0,0,0,0,0,0,0,0,0,0,0],"id":19,"left_children":[1,3,5,7,9,11,13,-1,-1,-1,-1,-1,-1,-1,-1],"loss_changes":[2.5098662E3,2.3129624E3,2.4730234E3,2.2977026E3,2.9856268E2,1.2001775E3,7.3447E2,0E0,0E0,0E0,0E0,0E0,0E0,0E0,0E0],"parents":[2147483647,0,0,1,1,2,2,3,3,4,4,5,5,6,6],"right_children":[2,4,6,8,10,12,14,-1,-1,-1,-1,-1,-1,-1,-1],"split_conditions":[8.7578094E2,2.09648E8,2.09648E8,1.86047E8,4.9863716E3,2.0209E8,2.272084E2,-5.3841703E-2,2.7460044E-2,-2.3989562E-2,-6.704023E-4,-3.426231E-4,1.137978E-2,-6.0250093E-3,-1.8911937E-2],"split_indices":[14,4,4,4,2,4,8,0,0,0,0,0,0,0,0],"split_type":[0,0,0,0,0,0,0,0,0,0,0,0,0,0,0],"sum_hessian":[9.3068055E4,1.3057062E4,8.001099E4,7.833215E3,5.223846E3,3.9752668E4,4.0258324E4,3.6224957E2,7.470965E3,6.216958E2,4.6021504E3,2.6828873E4,1.2923796E4,3.520176E4,5.056564E3],"tree_param":{"num_deleted":"0","num_feature":"27","num_nodes":"15","size_leaf_vector":"1"}},{"base_weights":[-1.3131341E-4,6.116799E-1,-4.0899806E-2,9.6831065E-1,-1.4233406E-1,-2.2440037E-1,3.5769504E-2,3.652125E-2,1.9722452E-2,-3.717197E-2,7.867486E-3,8.494461E-3,-8.997506E-3,4.5227986E-3,-5.966364E-3],"categories":[],"categories_nodes":[],"categories_segments":[],"categories_sizes":[],"default_left":[0,0,0,0,0,0,0,0,0,0,0,0,0,0,0],"id":20,"left_children":[1,3,5,7,9,11,13,-1,-1,-1,-1,-1,-1,-1,-1],"loss_changes":[2.3250715E3,1.5673206E3,1.2302491E3,2.5114551E2,7.5819434E2,7.6604236E2,1.485853E3,0E0,0E0,0E0,0E0,0E0,0E0,0E0,0E0],"parents":[2147483647,0,0,1,1,2,2,3,3,4,4,5,5,6,6],"right_children":[2,4,6,8,10,12,14,-1,-1,-1,-1,-1,-1,-1,-1],"split_conditions":[1.8048312E3,4.86018E5,3.0243633E3,1.99786E6,7.258244E0,1.9988E6,1.9988E6,3.652125E-2,1.9722452E-2,-3.717197E-2,7.867486E-3,8.494461E-3,-8.997506E-3,4.5227986E-3,-5.966364E-3],"split_indices":[18,24,17,3,7,3,3,0,0,0,0,0,0,0,0],"split_type":[0,0,0,0,0,0,0,0,0,0,0,0,0,0,0],"sum_hessian":[9.324507E4,5.821617E3,8.742345E4,3.9531929E3,1.8684244E3,2.5767104E4,6.1656344E4,2.5557393E3,1.3974537E3,5.130098E2,1.3554146E3,2.8028884E3,2.2964215E4,4.1721074E4,1.9935271E4],"tree_param":{"num_deleted":"0","num_feature":"27","num_nodes":"15","size_leaf_vector":"1"}},{"base_weights":[1.8024729E-3,2.911691E-1,-4.5711584E-2,6.943461E-1,-4.166558E-1,-1.7480062E-1,1.09707415E-2,1.0983325E-2,2.9329749E-2,-2.2626271E-2,1.21041E-2,-2.7259214E-2,-2.0009275E-3,2.9736229E-3,-5.1998636E-3],"categories":[],"categories_nodes":[],"categories_segments":[],"categories_sizes":[],"default_left":[0,0,0,0,0,0,0,0,0,0,0,0,0,0,0],"id":21,"left_children":[1,3,5,7,9,11,13,-1,-1,-1,-1,-1,-1,-1,-1],"loss_changes":[1.2798511E3,3.747837E3,5.851024E2,6.756008E2,1.1408643E3,1.8690505E3,8.0993787E2,0E0,0E0,0E0,0E0,0E0,0E0,0E0,0E0],"parents":[2147483647,0,0,1,1,2,2,3,3,4,4,5,5,6,6],"right_children":[2,4,6,8,10,12,14,-1,-1,-1,-1,-1,-1,-1,-1],"split_conditions":[3.571555E2,2.2589005E2,1.3712049E1,1.495986E3,3.735903E3,4.0219197E3,1.9988E6,1.0983325E-2,2.9329749E-2,-2.2626271E-2,1.21041E-2,-2.7259214E-2,-2.0009275E-3,2.9736229E-3,-5.1998636E-3],"split_indices":[15,8,5,11,0,0,3,0,0,0,0,0,0,0,0],"split_type":[0,0,0,0,0,0,0,0,0,0,0,0,0,0,0],"sum_hessian":[9.305873E4,1.3127966E4,7.993076E4,8.365164E3,4.7628013E3,2.4394732E4,5.553603E4,3.3707354E3,4.9944287E3,3.4672932E3,1.2955082E3,3.4001208E3,2.0994611E4,3.769327E4,1.7842762E4],"tree_param":{"num_deleted":"0","num_feature":"27","num_nodes":"15","size_leaf_vector":"1"}},{"base_weights":[1.3517293E-3,4.9486017E-1,-3.5244092E-2,7.335198E-1,-5.8256125E-1,-7.9673433E-1,2.475437E-3,-8.346082E-4,2.5216669E-2,8.218346E-3,-3.67968E-2,-2.925367E-2,5.3624343E-2,-2.1372733E-3,1.1801088E-2],"categories":[],"categories_nodes":[],"categories_segments":[],"categories_sizes":[],"default_left":[0,0,0,0,0,0,0,0,0,0,0,0,0,0,0],"id":22,"left_children":[1,3,5,7,9,11,13,-1,-1,-1,-1,-1,-1,-1,-1],"loss_changes":[1.6788375E3,1.6511329E3,2.4857754E3,2.5791187E2,5.7207697E2,1.3134651E3,2.1432776E3,0E0,0E0,0E0,0E0,0E0,0E0,0E0,0E0],"parents":[2147483647,0,0,1,1,2,2,3,3,4,4,5,5,6,6],"right_children":[2,4,6,8,10,12,14,-1,-1,-1,-1,-1,-1,-1,-1],"split_conditions":[8.07715E0,2.2667749E2,3.5617036E3,2.6142372E1,2.00372E6,2.06153E6,8.897717E-1,-8.346082E-4,2.5216669E-2,8.218346E-3,-3.67968E-2,-2.925367E-2,5.3624343E-2,-2.1372733E-3,1.1801088E-2],"split_indices":[6,10,0,26,3,3,20,0,0,0,0,0,0,0,0],"split_type":[0,0,0,0,0,0,0,0,0,0,0,0,0,0,0],"sum_hessian":[9.291831E4,6.415729E3,8.6502586E4,5.2538076E3,1.1619214E3,4.0826475E3,8.241994E4,4.0825964E2,4.845548E3,4.7394064E2,6.879808E2,3.883671E3,1.989766E2,6.931728E4,1.310266E4],"tree_param":{"num_deleted":"0","num_feature":"27","num_nodes":"15","size_leaf_vector":"1"}},{"base_weights":[3.960671E-3,4.8703793E-2,-2.5060284E-1,3.0412292E-1,-5.0849702E-2,-7.304432E-1,-3.030021E-2,1.7544696E-2,2.8334951E-3,2.362593E-3,-5.2622682E-3,3.1431527E-3,-3.77185E-2,3.2117506E-3,-5.8856434E-3],"categories":[],"categories_nodes":[],"categories_segments":[],"categories_sizes":[],"default_left":[0,0,0,0,0,0,0,0,0,0,0,0,0,0,0],"id":23,"left_children":[1,3,5,7,9,11,13,-1,-1,-1,-1,-1,-1,-1,-1],"loss_changes":[1.0616992E3,2.0169253E3,1.4718134E3,1.1964026E3,8.289232E2,1.685218E3,1.9663216E2,0E0,0E0,0E0,0E0,0E0,0E0,0E0,0E0],"parents":[2147483647,0,0,1,1,2,2,3,3,4,4,5,5,6,6],"right_children":[2,4,6,8,10,12,14,-1,-1,-1,-1,-1,-1,-1,-1],"split_conditions":[2.2742847E2,1.1530599E1,1.1026582E1,8.591727E2,2.6577778E1,2.03788E8,3.928E1,1.7544696E-2,2.8334951E-3,2.362593E-3,-5.2622682E-3,3.1431527E-3,-3.77185E-2,3.2117506E-3,-5.8856434E-3],"split_indices":[8,7,7,14,26,4,25,0,0,0,0,0,0,0,0],"split_type":[0,0,0,0,0,0,0,0,0,0,0,0,0,0,0],"sum_hessian":[9.323454E4,7.930283E4,1.3931713E4,2.2243695E4,5.7059133E4,4.380403E3,9.551311E3,1.0245608E4,1.1998086E4,2.734648E4,2.971265E4,1.5679182E3,2.8124846E3,5.1693335E3,4.3819766E3],"tree_param":{"num_deleted":"0","num_feature":"27","num_nodes":"15","size_leaf_vector":"1"}},{"base_weights":[-1.3472942E-3,3.3361387E-1,-4.4746626E-2,-8.6897784E-1,3.9145613E-1,-4.015969E-1,-2.3526242E-2,-1.3782962E-2,-4.475294E-2,-3.17592E-2,1.6245646E-2,1.1890591E-2,-2.2555921E-2,4.2793737E-3,-3.6029485E-3],"categories":[],"categories_nodes":[],"categories_segments":[],"categories_sizes":[],"default_left":[0,0,0,0,0,0,0,0,0,0,0,0,0,0,0],"id":24,"left_children":[1,3,5,7,9,11,13,-1,-1,-1,-1,-1,-1,-1,-1],"loss_changes":[1.3525269E3,7.4225024E2,6.233351E2,1.1216574E2,1.7426174E3,1.1224631E3,1.118177E3,0E0,0E0,0E0,0E0,0E0,0E0,0E0,0E0],"parents":[2147483647,0,0,1,1,2,2,3,3,4,4,5,5,6,6],"right_children":[2,4,6,8,10,12,14,-1,-1,-1,-1,-1,-1,-1,-1],"split_conditions":[5.2033334E0,3.412129E3,9.542093E2,4.705371E0,-9.214364E-1,1.9986E6,3.5486668E1,-1.3782962E-2,-4.475294E-2,-3.17592E-2,1.6245646E-2,1.1890591E-2,-2.2555921E-2,4.2793737E-3,-3.6029485E-3],"split_indices":[25,2,12,5,21,3,25,0,0,0,0,0,0,0,0],"split_type":[0,0,0,0,0,0,0,0,0,0,0,0,0,0,0],"sum_hessian":[9.306375E4,1.0669735E4,8.2394016E4,4.8741016E2,1.0182325E4,4.619179E3,7.7774836E4,2.7524762E2,2.1216252E2,8.195482E2,9.362777E3,1.3211772E3,3.2980017E3,2.820736E4,4.956748E4],"tree_param":{"num_deleted":"0","num_feature":"27","num_nodes":"15","size_leaf_vector":"1"}},{"base_weights":[4.5394707E-3,4.8970453E-2,-2.4859594E-1,2.639122E-1,-2.2423742E-2,5.0229594E-2,-6.152418E-1,1.8918874E-2,1.6274954E-3,3.660937E-3,-3.452982E-3,-4.8068255E-2,3.4648927E-3,-3.613525E-2,-4.1538216E-3],"categories":[],"categories_nodes":[],"categories_segments":[],"categories_sizes":[],"default_left":[0,0,0,0,0,0,0,0,0,0,0,0,0,0,0],"id":25,"left_children":[1,3,5,7,9,11,13,-1,-1,-1,-1,-1,-1,-1,-1],"loss_changes":[1.0462485E3,1.2151001E3,1.5225487E3,1.4024854E3,7.1324664E2,7.1232654E2,1.5918264E3,0E0,0E0,0E0,0E0,0E0,0E0,0E0,0E0],"parents":[2147483647,0,0,1,1,2,2,3,3,4,4,5,5,6,6],"right_children":[2,4,6,8,10,12,14,-1,-1,-1,-1,-1,-1,-1,-1],"split_conditions":[2.2742847E2,7.7919707E3,4.1490116E5,4.2083335E0,3.8301666E1,-8.878418E-1,2.8705857E3,1.8918874E-2,1.6274954E-3,3.660937E-3,-3.452982E-3,-4.8068255E-2,3.4648927E-3,-3.613525E-2,-4.1538216E-3],"split_indices":[8,2,24,25,25,21,1,0,0,0,0,0,0,0,0],"split_type":[0,0,0,0,0,0,0,0,0,0,0,0,0,0,0],"sum_hessian":[9.3045195E4,7.915807E4,1.3887127E4,1.9740717E4,5.941735E4,7.649953E3,6.237174E3,7.661232E3,1.2079485E4,2.2914193E4,3.650316E4,2.7625195E2,7.373701E3,2.9798247E3,3.257349E3],"tree_param":{"num_deleted":"0","num_feature":"27","num_nodes":"15","size_leaf_vector":"1"}},{"base_weights":[5.849578E-4,4.628385E-1,-3.0158618E-2,6.81692E-1,-3.8001332E-1,-1.4309752E0,-2.1400627E-2,3.5850085E-2,1.1298193E-2,-4.6584472E-2,1.4682E-3,-4.6242364E-2,-7.6263906E-3,1.1940369E-2,-1.689355E-3],"categories":[],"categories_nodes":[],"categories_segments":[],"categories_sizes":[],"default_left":[0,0,0,0,0,0,0,0,0,0,0,0,0,0,0],"id":26,"left_children":[1,3,5,7,9,11,13,-1,-1,-1,-1,-1,-1,-1,-1],"loss_changes":[1.3185596E3,1.0681908E3,1.06471E3,6.7150684E2,5.584103E2,1.7586426E1,1.1051018E3,0E0,0E0,0E0,0E0,0E0,0E0,0E0,0E0],"parents":[2147483647,0,0,1,1,2,2,3,3,4,4,5,5,6,6],"right_children":[2,4,6,8,10,12,14,-1,-1,-1,-1,-1,-1,-1,-1],"split_conditions":[9.310051E0,2.2663931E2,-7.639537E1,2.0771293E8,4.599904E0,-7.213781E-1,8.591727E2,3.5850085E-2,1.1298193E-2,-4.6584472E-2,1.4682E-3,-4.6242364E-2,-7.6263906E-3,1.1940369E-2,-1.689355E-3],"split_indices":[7,9,15,4,7,21,14,0,0,0,0,0,0,0,0],"split_type":[0,0,0,0,0,0,0,0,0,0,0,0,0,0,0],"sum_hessian":[9.273655E4,5.7843794E3,8.6952164E4,4.5935967E3,1.1907825E3,5.374951E2,8.641467E4,1.9137606E3,2.6798362E3,3.337298E2,8.570527E2,5.218578E2,1.5637327E1,6.4176143E3,7.9997055E4],"tree_param":{"num_deleted":"0","num_feature":"27","num_nodes":"15","size_leaf_vector":"1"}},{"base_weights":[3.3811552E-3,4.4228107E-1,-2.813212E-2,-4.9272653E-1,5.167012E-1,-2.1208458E-1,4.5947764E-2,-3.110243E-2,3.2172218E-2,-2.3241516E-2,1.9950068E-2,-2.3344332E-2,-1.2742112E-3,8.083322E-3,-2.408294E-3],"categories":[],"categories_nodes":[],"categories_segments":[],"categories_sizes":[],"default_left":[0,0,0,0,0,0,0,0,0,0,0,0,0,0,0],"id":27,"left_children":[1,3,5,7,9,11,13,-1,-1,-1,-1,-1,-1,-1,-1],"loss_changes":[1.2852826E3,4.3366284E2,1.1811754E3,3.419936E2,8.275813E2,2.2494077E3,1.5833113E3,0E0,0E0,0E0,0E0,0E0,0E0,0E0,0E0],"parents":[2147483647,0,0,1,1,2,2,3,3,4,4,5,5,6,6],"right_children":[2,4,6,8,10,12,14,-1,-1,-1,-1,-1,-1,-1,-1],"split_conditions":[2.1118848E3,-9.214364E-1,3.0243633E3,3.2902234E3,1.0382827E3,4.0219197E3,3.5172882E1,-3.110243E-2,3.2172218E-2,-2.3241516E-2,1.9950068E-2,-2.3344332E-2,-1.2742112E-3,8.083322E-3,-2.408294E-3],"split_indices":[19,21,17,0,19,0,25,0,0,0,0,0,0,0,0],"split_type":[0,0,0,0,0,0,0,0,0,0,0,0,0,0,0],"sum_hessian":[9.288159E4,6.223614E3,8.665798E4,4.567328E2,5.766881E3,2.4883543E4,6.1774438E4,3.4579727E2,1.1093553E2,4.813506E2,5.2855303E3,6.117814E3,1.8765729E4,2.27344E4,3.9040035E4],"tree_param":{"num_deleted":"0","num_feature":"27","num_nodes":"15","size_leaf_vector":"1"}},{"base_weights":[1.3381623E-3,1.8959093E-1,-1.9488166E-1,4.27901E-1,-9.422475E-3,-7.2263813E-1,-1.258544E-1,1.1792893E-2,3.1797186E-2,-1.4735623E-3,7.2087273E-3,-3.375214E-2,-1.9391976E-2,2.5333066E-2,-4.5922524E-3],"categories":[],"categories_nodes":[],"categories_segments":[],"categories_sizes":[],"default_left":[0,0,0,0,0,0,0,0,0,0,0,0,0,0,0],"id":28,"left_children":[1,3,5,7,9,11,13,-1,-1,-1,-1,-1,-1,-1,-1],"loss_changes":[3.4221125E3,2.24316E3,1.6510295E3,6.7911646E2,2.273941E2,1.9402124E2,7.224218E2,0E0,0E0,0E0,0E0,0E0,0E0,0E0,0E0],"parents":[2147483647,0,0,1,1,2,2,3,3,4,4,5,5,6,6],"right_children":[2,4,6,8,10,12,14,-1,-1,-1,-1,-1,-1,-1,-1],"split_conditions":[2.09648E8,3.4116665E1,2.1363E8,2.8003334E1,1.7426492E3,1.2539926E3,2.52E1,1.1792893E-2,3.1797186E-2,-1.4735623E-3,7.2087273E-3,-3.375214E-2,-1.9391976E-2,2.5333066E-2,-4.5922524E-3],"split_indices":[4,25,4,26,12,12,26,0,0,0,0,0,0,0,0],"split_type":[0,0,0,0,0,0,0,0,0,0,0,0,0,0,0],"sum_hessian":[9.263913E4,4.7283043E4,4.5356086E4,2.1519416E4,2.5763629E4,5.2418823E3,4.0114203E4,1.9661322E4,1.8580928E3,2.228102E4,3.4826082E3,1.2520145E3,3.9898677E3,8.206393E2,3.9293566E4],"tree_param":{"num_deleted":"0","num_feature":"27","num_nodes":"15","size_leaf_vector":"1"}},{"base_weights":[-2.797835E-4,4.4273716E-1,-4.0867437E-2,-1.1110886E0,5.3457314E-1,-5.0529027E-1,-1.169195E-2,2.9886164E-2,-4.158553E-2,3.0003104E-2,3.864784E-3,-2.4932165E-2,6.499182E-5,4.051845E-3,-5.1575885E-3],"categories":[],"categories_nodes":[],"categories_segments":[],"categories_sizes":[],"default_left":[0,0,0,0,0,0,0,0,0,0,0,0,0,0,0],"id":29,"left_children":[1,3,5,7,9,11,13,-1,-1,-1,-1,-1,-1,-1,-1],"loss_changes":[1.6620878E3,1.1072327E3,1.1470598E3,1.847666E2,1.250977E3,7.209219E2,1.6891497E3,0E0,0E0,0E0,0E0,0E0,0E0,0E0,0E0],"parents":[2147483647,0,0,1,1,2,2,3,3,4,4,5,5,6,6],"right_children":[2,4,6,8,10,12,14,-1,-1,-1,-1,-1,-1,-1,-1],"split_conditions":[1.8532417E3,4.599904E0,1.2794545E3,2.28815E8,2.0771293E8,1.2749145E1,2.09648E8,2.9886164E-2,-4.158553E-2,3.0003104E-2,3.864784E-3,-2.4932165E-2,6.499182E-5,4.051845E-3,-5.1575885E-3],"split_indices":[18,7,13,4,4,5,4,0,0,0,0,0,0,0,0],"split_type":[0,0,0,0,0,0,0,0,0,0,0,0,0,0,0],"sum_hessian":[9.24632E4,7.75586E3,8.470734E4,4.308833E2,7.3249766E3,5.002353E3,7.9704984E4,3.780048E1,3.9308282E2,3.6491023E3,3.6758743E3,3.2101418E3,1.7922112E3,4.143449E4,3.82705E4],"tree_param":{"num_deleted":"0","num_feature":"27","num_nodes":"15","size_leaf_vector":"1"}},{"base_weights":[-1.6846779E-3,2.3788801E-1,-3.5908945E-2,5.4791796E-1,-4.8257518E-1,1.07081875E-1,-1.8277611E-1,3.763824E-2,8.680176E-3,-2.1952651E-2,7.344706E-4,-7.731985E-5,1.0859011E-2,-1.7389052E-2,-3.8750921E-3],"categories":[],"categories_nodes":[],"categories_segments":[],"categories_sizes":[],"default_left":[0,0,0,0,0,0,0,0,0,0,0,0,0,0,0],"id":30,"left_children":[1,3,5,7,9,11,13,-1,-1,-1,-1,-1,-1,-1,-1],"loss_changes":[7.573868E2,2.579472E3,1.6982871E3,1.4160349E3,3.7335638E2,1.0616006E3,8.8092444E2,0E0,0E0,0E0,0E0,0E0,0E0,0E0,0E0],"parents":[2147483647,0,0,1,1,2,2,3,3,4,4,5,5,6,6],"right_children":[2,4,6,8,10,12,14,-1,-1,-1,-1,-1,-1,-1,-1],"split_conditions":[4.8960812E2,2.2670961E2,4.334932E5,1.99447E6,1.328395E1,1.9965E6,1.99882E6,3.763824E-2,8.680176E-3,-2.1952651E-2,7.344706E-4,-7.731985E-5,1.0859011E-2,-1.7389052E-2,-3.8750921E-3],"split_indices":[16,10,24,3,5,3,3,0,0,0,0,0,0,0,0],"split_type":[0,0,0,0,0,0,0,0,0,0,0,0,0,0,0],"sum_hessian":[9.2403875E4,1.1543987E4,8.085988E4,8.0725522E3,3.4714353E3,4.0966074E4,3.9893812E4,2.404673E3,5.6678794E3,2.447731E3,1.0237042E3,2.7995596E4,1.29704795E4,5.6092554E3,3.4284555E4],"tree_param":{"num_deleted":"0","num_feature":"27","num_nodes":"15","size_leaf_vector":"1"}},{"base_weights":[-3.3587206E-3,3.9198148E-1,-4.614639E-2,-1.1058865E0,4.6637085E-1,-6.717046E-1,9.195645E-4,-2.8098784E-2,-4.4687558E-2,-9.97306E-3,1.9230256E-2,-1.214072E-2,-4.156965E-2,1.0627128E-2,-2.1551186E-3],"categories":[],"categories_nodes":[],"categories_segments":[],"categories_sizes":[],"default_left":[0,0,0,0,0,0,0,0,0,0,0,0,0,0,0],"id":31,"left_children":[1,3,5,7,9,11,13,-1,-1,-1,-1,-1,-1,-1,-1],"loss_changes":[1.5641464E3,1.00618726E3,2.4583652E3,2.3106567E1,9.5646265E2,1.0779797E3,1.7990781E3,0E0,0E0,0E0,0E0,0E0,0E0,0E0,0E0],"parents":[2147483647,0,0,1,1,2,2,3,3,4,4,5,5,6,6],"right_children":[2,4,6,8,10,12,14,-1,-1,-1,-1,-1,-1,-1,-1],"split_conditions":[1.8793079E3,4.599904E0,4.0219197E3,-3.7082405E1,2.621356E1,1.02387177E3,2.2759468E3,-2.8098784E-2,-4.4687558E-2,-9.97306E-3,1.9230256E-2,-1.214072E-2,-4.156965E-2,1.0627128E-2,-2.1551186E-3],"split_indices":[18,7,0,14,26,14,18,0,0,0,0,0,0,0,0],"split_type":[0,0,0,0,0,0,0,0,0,0,0,0,0,0,0],"sum_hessian":[9.249198E4,9.028219E3,8.346376E4,4.251232E2,8.603096E3,5.8406953E3,7.762306E4,2.561024E2,1.6902083E2,1.3207979E3,7.282298E3,4.0400872E3,1.8006082E3,1.3266218E4,6.4356848E4],"tree_param":{"num_deleted":"0","num_feature":"27","num_nodes":"15","size_leaf_vector":"1"}},{"base_weights":[-2.65386E-3,1.5954772E-1,-1.7145592E-1,3.8798833E-1,-3.160844E-2,-6.0334194E-1,-1.0171829E-1,-1.7794942E-2,1.375914E-2,-4.0283324E-3,5.7511176E-3,-3.2042816E-2,-1.4830087E-2,-2.0056609E-2,-2.7935023E-3],"categories":[],"categories_nodes":[],"categories_segments":[],"categories_sizes":[],"default_left":[0,0,0,0,0,0,0,0,0,0,0,0,0,0,0],"id":32,"left_children":[1,3,5,7,9,11,13,-1,-1,-1,-1,-1,-1,-1,-1],"loss_changes":[2.5207222E3,2.0505322E3,1.3578156E3,9.6308374E2,5.230798E2,3.4227856E2,2.7496692E2,0E0,0E0,0E0,0E0,0E0,0E0,0E0,0E0],"parents":[2147483647,0,0,1,1,2,2,3,3,4,4,5,5,6,6],"right_children":[2,4,6,8,10,12,14,-1,-1,-1,-1,-1,-1,-1,-1],"split_conditions":[2.09648E8,3.4116665E1,1.99882E6,1.97621E6,6.586466E-1,9.670159E0,-1.716288E1,-1.7794942E-2,1.375914E-2,-4.0283324E-3,5.7511176E-3,-3.2042816E-2,-1.4830087E-2,-2.0056609E-2,-2.7935023E-3],"split_indices":[4,25,3,3,23,6,15,0,0,0,0,0,0,0,0],"split_type":[0,0,0,0,0,0,0,0,0,0,0,0,0,0,0],"sum_hessian":[9.206038E4,4.6943926E4,4.5116457E4,2.138878E4,2.5555145E4,6.2676245E3,3.8848832E4,1.0117606E3,2.037702E4,1.7644152E4,7.9109927E3,1.5384124E3,4.7292124E3,9.4401306E2,3.790482E4],"tree_param":{"num_deleted":"0","num_feature":"27","num_nodes":"15","size_leaf_vector":"1"}},{"base_weights":[-4.0153433E-3,4.9492523E-1,-2.9268574E-2,6.915695E-2,7.639782E-1,-3.337315E-1,1.0144617E-3,2.0511605E-2,-8.212306E-3,-4.376916E-2,2.6752444E-2,2.0752639E-2,-1.2419959E-2,4.2259376E-3,-3.0920978E-3],"categories":[],"categories_nodes":[],"categories_segments":[],"categories_sizes":[],"default_left":[0,0,0,0,0,0,0,0,0,0,0,0,0,0,0],"id":33,"left_children":[1,3,5,7,9,11,13,-1,-1,-1,-1,-1,-1,-1,-1],"loss_changes":[1.1584146E3,5.0611157E2,8.0777783E2,3.2871805E2,4.816432E2,4.6487207E2,1.0445487E3,0E0,0E0,0E0,0E0,0E0,0E0,0E0,0E0],"parents":[2147483647,0,0,1,1,2,2,3,3,4,4,5,5,6,6],"right_children":[2,4,6,8,10,12,14,-1,-1,-1,-1,-1,-1,-1,-1],"split_conditions":[2.0501313E3,1.335839E3,2.642454E3,2.0033E6,9.981354E2,1.9988E6,3.699E1,2.0511605E-2,-8.212306E-3,-4.376916E-2,2.6752444E-2,2.0752639E-2,-1.2419959E-2,4.2259376E-3,-3.0920978E-3],"split_indices":[19,11,17,3,19,3,25,0,0,0,0,0,0,0,0],"split_type":[0,0,0,0,0,0,0,0,0,0,0,0,0,0,0],"sum_hessian":[9.198622E4,4.427247E3,8.755897E4,1.7171992E3,2.7100479E3,7.923641E3,7.963533E4,6.22541E2,1.0946583E3,9.847448E1,2.6115735E3,4.4475745E2,7.478884E3,3.4003062E4,4.5632266E4],"tree_param":{"num_deleted":"0","num_feature":"27","num_nodes":"15","size_leaf_vector":"1"}},{"base_weights":[1.8180513E-3,1.617662E-1,-1.6526133E-1,6.077734E-1,8.2107335E-2,-5.623363E-1,-9.94936E-2,-2.1208854E-2,2.1984858E-2,7.1346047E-3,2.4163365E-4,-4.6043057E-2,-1.609522E-2,1.1918119E-2,-5.4506725E-3],"categories":[],"categories_nodes":[],"categories_segments":[],"categories_sizes":[],"default_left":[0,0,0,0,0,0,0,0,0,0,0,0,0,0,0],"id":34,"left_children":[1,3,5,7,9,11,13,-1,-1,-1,-1,-1,-1,-1,-1],"loss_changes":[2.4663777E3,1.6743287E3,1.1776678E3,8.0282715E2,4.2760504E2,3.0043494E2,1.3463259E3,0E0,0E0,0E0,0E0,0E0,0E0,0E0,0E0],"parents":[2147483647,0,0,1,1,2,2,3,3,4,4,5,5,6,6],"right_children":[2,4,6,8,10,12,14,-1,-1,-1,-1,-1,-1,-1,-1],"split_conditions":[2.09648E8,1.7718682E3,2.14409E8,-9.214364E-1,1.2058692E1,9.388383E2,2.17025E8,-2.1208854E-2,2.1984858E-2,7.1346047E-3,2.4163365E-4,-4.6043057E-2,-1.609522E-2,1.1918119E-2,-5.4506725E-3],"split_indices":[4,1,4,21,7,1,4,0,0,0,0,0,0,0,0],"split_type":[0,0,0,0,0,0,0,0,0,0,0,0,0,0,0],"sum_hessian":[9.228726E4,4.715412E4,4.5133137E4,7.1412783E3,4.0012844E4,6.408318E3,3.872482E4,4.5702576E2,6.684253E3,1.3654368E4,2.6358475E4,3.5510828E2,6.05321E3,5.1378315E3,3.358699E4],"tree_param":{"num_deleted":"0","num_feature":"27","num_nodes":"15","size_leaf_vector":"1"}},{"base_weights":[-1.0802886E-3,2.8849062E-1,-4.3975286E-2,6.947037E-1,-3.494143E-2,-8.825701E-1,-1.9345118E-2,3.8554553E-2,1.840691E-2,8.894789E-3,-2.7706334E-2,-1.5616287E-3,-3.0868024E-2,3.747796E-3,-1.7731391E-3],"categories":[],"categories_nodes":[],"categories_segments":[],"categories_sizes":[],"default_left":[0,0,0,0,0,0,0,0,0,0,0,0,0,0,0],"id":35,"left_children":[1,3,5,7,9,11,13,-1,-1,-1,-1,-1,-1,-1,-1],"loss_changes":[1.1434834E3,1.5613767E3,1.6554294E3,3.0692236E2,1.7617885E3,1.7769543E2,3.9493912E2,0E0,0E0,0E0,0E0,0E0,0E0,0E0,0E0],"parents":[2147483647,0,0,1,1,2,2,3,3,4,4,5,5,6,6],"right_children":[2,4,6,8,10,12,14,-1,-1,-1,-1,-1,-1,-1,-1],"split_conditions":[8.591727E2,1.9978026E6,1.4547095E3,6.363654E3,2.2661574E2,4.2083335E0,1.2082905E3,3.8554553E-2,1.840691E-2,8.894789E-3,-2.7706334E-2,-1.5616287E-3,-3.0868024E-2,3.747796E-3,-1.7731391E-3],"split_indices":[14,3,11,2,10,25,14,0,0,0,0,0,0,0,0],"split_type":[0,0,0,0,0,0,0,0,0,0,0,0,0,0,0],"sum_hessian":[9.208321E4,1.187517E4,8.020804E4,5.264952E3,6.6102173E3,2.2852002E3,7.7922836E4,9.2259937E2,4.342353E3,4.804001E3,1.8062162E3,2.335656E2,2.0516348E3,1.6387518E4,6.153532E4],"tree_param":{"num_deleted":"0","num_feature":"27","num_nodes":"15","size_leaf_vector":"1"}},{"base_weights":[4.156702E-3,4.661458E-1,-3.0360995E-2,-3.7903982E-1,5.205027E-1,-4.6083305E-2,-2.0724613E-2,-2.3319263E-2,2.418599E-2,1.0301644E-2,2.393894E-2,-2.2537056E-3,1.166976E-2],"categories":[],"categories_nodes":[],"categories_segments":[],"categories_sizes":[],"default_left":[0,0,0,0,0,0,0,0,0,0,0,0,0],"id":36,"left_children":[1,3,5,7,9,-1,11,-1,-1,-1,-1,-1,-1],"loss_changes":[1.4687466E3,2.9471912E2,1.1763768E3,1.5957184E2,2.7547656E2,0E0,1.6778625E3,0E0,0E0,0E0,0E0,0E0,0E0],"parents":[2147483647,0,0,1,1,2,2,3,3,4,4,6,6],"right_children":[2,4,6,8,10,-1,12,-1,-1,-1,-1,-1,-1],"split_conditions":[1.8249551E3,-9.214364E-1,-8.878418E-1,1.1129822E3,9.212795E-1,-4.6083305E-2,8.987228E-1,-2.3319263E-2,2.418599E-2,1.0301644E-2,2.393894E-2,-2.2537056E-3,1.166976E-2],"split_indices":[18,21,21,13,20,0,20,0,0,0,0,0,0],"split_type":[0,0,0,0,0,0,0,0,0,0,0,0,0],"sum_hessian":[9.206165E4,6.401496E3,8.566016E4,3.8464716E2,6.016849E3,5.7157794E2,8.508858E4,2.9423514E2,9.041202E1,3.3090032E3,2.707846E3,7.5323305E4,9.765271E3],"tree_param":{"num_deleted":"0","num_feature":"27","num_nodes":"13","size_leaf_vector":"1"}},{"base_weights":[-9.153576E-3,2.4691431E-1,-5.3516507E-2,3.5357367E-2,4.4037953E-1,-7.1507055E-1,-2.8465396E-2,9.541602E-3,-1.43135665E-2,-3.1841338E-2,1.8925631E-2,-3.3291157E-3,-3.1957813E-2,-3.7617262E-3,-1.2377018E-4],"categories":[],"categories_nodes":[],"categories_segments":[],"categories_sizes":[],"default_left":[0,0,0,0,0,0,0,0,0,0,0,0,0,0,0],"id":37,"left_children":[1,3,5,7,9,11,13,-1,-1,-1,-1,-1,-1,-1,-1],"loss_changes":[1.0411117E3,5.531618E2,1.2939058E3,8.4180804E2,1.620639E3,5.124846E2,1.6719997E2,0E0,0E0,0E0,0E0,0E0,0E0,0E0,0E0],"parents":[2147483647,0,0,1,1,2,2,3,3,4,4,5,5,6,6],"right_children":[2,4,6,8,10,12,14,-1,-1,-1,-1,-1,-1,-1,-1],"split_conditions":[9.1891187E2,9.212795E-1,1.3292953E3,2.2663931E2,8.8451296E-1,1.9246414E3,2.234932E2,9.541602E-3,-1.43135665E-2,-3.1841338E-2,1.8925631E-2,-3.3291157E-3,-3.1957813E-2,-3.7617262E-3,-1.2377018E-4],"split_indices":[14,20,13,9,22,1,9,0,0,0,0,0,0,0,0],"split_type":[0,0,0,0,0,0,0,0,0,0,0,0,0,0,0],"sum_hessian":[9.166763E4,1.3530238E4,7.813739E4,6.4673525E3,7.062886E3,2.847092E3,7.52903E4,4.1857856E3,2.2815667E3,6.94739E2,6.368147E3,9.328144E2,1.9142776E3,1.60450625E4,5.924524E4],"tree_param":{"num_deleted":"0","num_feature":"27","num_nodes":"15","size_leaf_vector":"1"}},{"base_weights":[-1.323502E-3,1.5504181E-1,-1.6409132E-1,4.6336052E-1,5.075374E-2,-3.8711017E-1,-1.01026036E-1,-4.297031E-2,1.669762E-2,-2.9758562E-3,1.08586885E-2,-1.4624711E-2,2.3004336E-2,-1.45774465E-2,-1.6464532E-3],"categories":[],"categories_nodes":[],"categories_segments":[],"categories_sizes":[],"default_left":[0,0,0,0,0,0,0,0,0,0,0,0,0,0,0],"id":38,"left_children":[1,3,5,7,9,11,13,-1,-1,-1,-1,-1,-1,-1,-1],"loss_changes":[2.3342437E3,1.5031681E3,6.3134106E2,1.3988955E3,1.4835259E3,8.347588E2,6.168672E2,0E0,0E0,0E0,0E0,0E0,0E0,0E0,0E0],"parents":[2147483647,0,0,1,1,2,2,3,3,4,4,5,5,6,6],"right_children":[2,4,6,8,10,12,14,-1,-1,-1,-1,-1,-1,-1,-1],"split_conditions":[1.9988E6,1.6177777E3,1.5013494E3,3.5331706E5,2.0209E8,5.39286E5,2.1363E8,-4.297031E-2,1.669762E-2,-2.9758562E-3,1.08586885E-2,-1.4624711E-2,2.3004336E-2,-1.45774465E-2,-1.6464532E-3],"split_indices":[3,13,13,24,4,24,4,0,0,0,0,0,0,0,0],"split_type":[0,0,0,0,0,0,0,0,0,0,0,0,0,0,0],"sum_hessian":[9.171032E4,4.6770805E4,4.4939516E4,1.1816622E4,3.4954184E4,9.899764E3,3.503975E4,4.044761E2,1.14121455E4,2.3379967E4,1.1574215E4,9.273287E3,6.2647626E2,4.1859346E3,3.0853816E4],"tree_param":{"num_deleted":"0","num_feature":"27","num_nodes":"15","size_leaf_vector":"1"}},{"base_weights":[6.43287E-3,2.7742368E-1,-3.5390273E-2,-6.566488E-1,3.1381136E-1,-3.09307E-1,-1.8217223E-2,2.4405206E-2,-4.0749013E-2,-3.0148618E-2,1.3176849E-2,-8.900437E-3,-4.3502685E-2,-7.898956E-3,4.9623955E-5],"categories":[],"categories_nodes":[],"categories_segments":[],"categories_sizes":[],"default_left":[0,0,0,0,0,0,0,0,0,0,0,0,0,0,0],"id":39,"left_children":[1,3,5,7,9,11,13,-1,-1,-1,-1,-1,-1,-1,-1],"loss_changes":[1.0443619E3,4.1864252E2,3.748985E2,4.1922626E2,1.5499473E3,1.3606876E2,3.4462964E2,0E0,0E0,0E0,0E0,0E0,0E0,0E0,0E0],"parents":[2147483647,0,0,1,1,2,2,3,3,4,4,5,5,6,6],"right_children":[2,4,6,8,10,12,14,-1,-1,-1,-1,-1,-1,-1,-1],"split_conditions":[8.7578094E2,3.412129E3,2.6095034E3,2.00897E6,-9.214364E-1,2.0588265E6,8.0525E-1,2.4405206E-2,-4.0749013E-2,-3.0148618E-2,1.3176849E-2,-8.900437E-3,-4.3502685E-2,-7.898956E-3,4.9623955E-5],"split_indices":[14,2,17,3,21,3,21,0,0,0,0,0,0,0,0],"split_type":[0,0,0,0,0,0,0,0,0,0,0,0,0,0,0],"sum_hessian":[9.211377E4,1.2318702E4,7.979507E4,4.5933954E2,1.1859363E4,4.701034E3,7.509404E4,1.4016827E2,3.1917126E2,8.8976117E2,1.0969602E4,4.585478E3,1.1555611E2,5.912511E3,6.918153E4],"tree_param":{"num_deleted":"0","num_feature":"27","num_nodes":"15","size_leaf_vector":"1"}},{"base_weights":[-2.6382129E-3,1.470379E-1,-1.6008444E-1,4.213502E-1,4.1519895E-2,-8.1235284E-1,-1.4061356E-1,-4.260851E-2,1.5249036E-2,-3.1767304E-3,1.0508379E-2,-4.424469E-2,-1.8265337E-2,1.3427059E-2,-5.339367E-3],"categories":[],"categories_nodes":[],"categories_segments":[],"categories_sizes":[],"default_left":[0,0,0,0,0,0,0,0,0,0,0,0,0,0,0],"id":40,"left_children":[1,3,5,7,9,11,13,-1,-1,-1,-1,-1,-1,-1,-1],"loss_changes":[2.159494E3,1.3589375E3,5.6570776E2,1.4104629E3,1.402421E3,1.7382013E2,6.942057E2,0E0,0E0,0E0,0E0,0E0,0E0,0E0,0E0],"parents":[2147483647,0,0,1,1,2,2,3,3,4,4,5,5,6,6],"right_children":[2,4,6,8,10,12,14,-1,-1,-1,-1,-1,-1,-1,-1],"split_conditions":[4.334932E5,5.1699985E3,-1.716288E1,3.5331706E5,4.08921E5,4.0304703E-1,2.0666504E3,-4.260851E-2,1.5249036E-2,-3.1767304E-3,1.0508379E-2,-4.424469E-2,-1.8265337E-2,1.3427059E-2,-5.339367E-3],"split_indices":[24,0,15,24,24,23,19,0,0,0,0,0,0,0,0],"split_type":[0,0,0,0,0,0,0,0,0,0,0,0,0,0,0],"sum_hessian":[9.1631945E4,4.6970645E4,4.46613E4,1.3043469E4,3.392717E4,1.2904019E3,4.33709E4,4.3343066E2,1.2610038E4,2.27958E4,1.1131372E4,3.6391052E2,9.2649133E2,2.0649092E3,4.130599E4],"tree_param":{"num_deleted":"0","num_feature":"27","num_nodes":"15","size_leaf_vector":"1"}},{"base_weights":[3.3270384E-3,-4.2825797E-1,2.1031043E-2,1.736455E-2,-9.647546E-1,3.6413658E-1,-1.3369642E-2,9.244113E-3,-9.102562E-3,-2.390982E-2,-3.6506966E-2,2.3666712E-2,-4.3921634E-3,-1.2597519E-2,2.652374E-5],"categories":[],"categories_nodes":[],"categories_segments":[],"categories_sizes":[],"default_left":[0,0,0,0,0,0,0,0,0,0,0,0,0,0,0],"id":41,"left_children":[1,3,5,7,9,11,13,-1,-1,-1,-1,-1,-1,-1,-1],"loss_changes":[7.027213E2,8.677167E2,1.0441185E3,1.6647601E2,6.1031616E1,1.5609633E3,4.4038168E2,0E0,0E0,0E0,0E0,0E0,0E0,0E0,0E0],"parents":[2147483647,0,0,1,1,2,2,3,3,4,4,5,5,6,6],"right_children":[2,4,6,8,10,12,14,-1,-1,-1,-1,-1,-1,-1,-1],"split_conditions":[1.3233434E3,2.2677333E2,5.2033334E0,5.9067085E3,5.2033334E0,2.2566618E2,4.634306E-1,9.244113E-3,-9.102562E-3,-2.390982E-2,-3.6506966E-2,2.3666712E-2,-4.3921634E-3,-1.2597519E-2,2.652374E-5],"split_indices":[11,10,25,2,25,10,23,0,0,0,0,0,0,0,0],"split_type":[0,0,0,0,0,0,0,0,0,0,0,0,0,0,0],"sum_hessian":[9.2039984E4,3.6220928E3,8.841789E4,1.9781348E3,1.6439581E3,8.0593247E3,8.035856E4,1.0430433E3,9.3509143E2,7.9249774E2,8.514604E2,4.5684272E3,3.4908972E3,2.8605247E3,7.749804E4],"tree_param":{"num_deleted":"0","num_feature":"27","num_nodes":"15","size_leaf_vector":"1"}},{"base_weights":[1.012438E-3,1.4569141E-1,-1.5137808E-1,4.4337073E-1,5.7290614E-2,1.28037E0,-1.585391E-1,2.3663875E-2,5.574612E-3,3.4911686E-3,-1.3245624E-3,4.7459636E-2,1.7948661E-2,-2.1927426E-2,-3.8412097E-3],"categories":[],"categories_nodes":[],"categories_segments":[],"categories_sizes":[],"default_left":[0,0,0,0,0,0,0,0,0,0,0,0,0,0,0],"id":42,"left_children":[1,3,5,7,9,11,13,-1,-1,-1,-1,-1,-1,-1,-1],"loss_changes":[2.0250488E3,1.23926E3,4.5738123E2,8.777178E2,1.9174219E2,3.0587189E1,8.8030505E2,0E0,0E0,0E0,0E0,0E0,0E0,0E0,0E0],"parents":[2147483647,0,0,1,1,2,2,3,3,4,4,5,5,6,6],"right_children":[2,4,6,8,10,12,14,-1,-1,-1,-1,-1,-1,-1,-1],"split_conditions":[4.334932E5,4.966431E3,2.471E1,2.2550475E2,2.6443333E1,6.354936E-1,4.2245322E-1,2.3663875E-2,5.574612E-3,3.4911686E-3,-1.3245624E-3,4.7459636E-2,1.7948661E-2,-2.1927426E-2,-3.8412097E-3],"split_indices":[24,0,26,9,26,23,23,0,0,0,0,0,0,0,0],"split_type":[0,0,0,0,0,0,0,0,0,0,0,0,0,0,0],"sum_hessian":[9.184535E4,4.7119484E4,4.4725867E4,1.0783741E4,3.6335742E4,2.2006795E2,4.45058E4,5.0269214E3,5.7568193E3,2.366585E4,1.2669895E4,1.6496318E2,5.510477E1,2.873983E3,4.1631816E4],"tree_param":{"num_deleted":"0","num_feature":"27","num_nodes":"15","size_leaf_vector":"1"}},{"base_weights":[-1.4326932E-3,2.0327385E-1,-3.2362983E-2,-8.990428E-1,2.91172E-1,-1.0650377E-1,6.7146504E-3,2.5229747E-4,-4.2450745E-2,1.6418658E-2,-4.014271E-3,-1.5596248E-3,-1.4123351E-2,5.7312525E-3,-1.5709528E-3],"categories":[],"categories_nodes":[],"categories_segments":[],"categories_sizes":[],"default_left":[0,0,0,0,0,0,0,0,0,0,0,0,0,0,0],"id":43,"left_children":[1,3,5,7,9,11,13,-1,-1,-1,-1,-1,-1,-1,-1],"loss_changes":[5.8088446E2,1.1663339E3,2.3116382E2,3.5973383E2,1.0655593E3,5.349183E2,5.144977E2,0E0,0E0,0E0,0E0,0E0,0E0,0E0,0E0],"parents":[2147483647,0,0,1,1,2,2,3,3,4,4,5,5,6,6],"right_children":[2,4,6,8,10,12,14,-1,-1,-1,-1,-1,-1,-1,-1],"split_conditions":[3.4425348E2,-9.214364E-1,1.3999722E1,2.0318318E3,2.266672E2,2.2772298E2,2.7016646E3,2.5229747E-4,-4.2450745E-2,1.6418658E-2,-4.014271E-3,-1.5596248E-3,-1.4123351E-2,5.7312525E-3,-1.5709528E-3],"split_indices":[15,21,5,19,9,9,19,0,0,0,0,0,0,0,0],"split_type":[0,0,0,0,0,0,0,0,0,0,0,0,0,0,0],"sum_hessian":[9.177713E4,1.2039723E4,7.9737414E4,8.8677765E2,1.1152945E4,2.7532793E4,5.2204617E4,2.9098648E2,5.9579114E2,7.2163164E3,3.9366287E3,2.3578852E4,3.9539414E3,1.2753313E4,3.9451305E4],"tree_param":{"num_deleted":"0","num_feature":"27","num_nodes":"15","size_leaf_vector":"1"}},{"base_weights":[-5.1429594E-4,1.3120109E-1,-1.3789763E-1,3.178485E-1,-3.0290771E-2,-5.030592E-1,-7.868653E-2,1.8059412E-3,1.4920369E-2,-5.499327E-3,8.08857E-3,-2.8552065E-2,-1.2474854E-2,1.1628637E-2,-4.7193076E-3],"categories":[],"categories_nodes":[],"categories_segments":[],"categories_sizes":[],"default_left":[0,0,0,0,0,0,0,0,0,0,0,0,0,0,0],"id":44,"left_children":[1,3,5,7,9,11,13,-1,-1,-1,-1,-1,-1,-1,-1],"loss_changes":[1.6492968E3,1.4028188E3,9.6381573E2,8.6708984E2,1.0257513E3,2.6746753E2,1.2108955E3,0E0,0E0,0E0,0E0,0E0,0E0,0E0,0E0],"parents":[2147483647,0,0,1,1,2,2,3,3,4,4,5,5,6,6],"right_children":[2,4,6,8,10,12,14,-1,-1,-1,-1,-1,-1,-1,-1],"split_conditions":[4.334932E5,3.5172882E1,1.99882E6,1.9782E6,4.08921E5,4.068582E3,4.59012E5,1.8059412E-3,1.4920369E-2,-5.499327E-3,8.08857E-3,-2.8552065E-2,-1.2474854E-2,1.1628637E-2,-4.7193076E-3],"split_indices":[24,25,3,3,24,0,24,0,0,0,0,0,0,0,0],"split_type":[0,0,0,0,0,0,0,0,0,0,0,0,0,0,0],"sum_hessian":[9.1140016E4,4.6524715E4,4.46153E4,2.1584686E4,2.4940031E4,6.2198926E3,3.8395406E4,8.026459E3,1.3558227E4,1.6607197E4,8.332835E3,1.3197019E3,4.900191E3,5.2390884E3,3.315632E4],"tree_param":{"num_deleted":"0","num_feature":"27","num_nodes":"15","size_leaf_vector":"1"}},{"base_weights":[4.2004883E-3,4.100202E-1,-1.7634135E-2,-7.143068E-1,5.299561E-1,-5.9328705E-1,1.486439E-2,3.0228669E-2,-3.8074803E-2,3.456315E-2,1.253722E-2,-9.094605E-3,-2.5836607E-2,5.7966365E-3,-1.3809172E-3],"categories":[],"categories_nodes":[],"categories_segments":[],"categories_sizes":[],"default_left":[0,0,0,0,0,0,0,0,0,0,0,0,0,0,0],"id":45,"left_children":[1,3,5,7,9,11,13,-1,-1,-1,-1,-1,-1,-1,-1],"loss_changes":[8.128321E2,6.319864E2,1.6281682E3,3.7189984E2,3.1525977E2,3.165714E2,8.1275586E2,0E0,0E0,0E0,0E0,0E0,0E0,0E0,0E0],"parents":[2147483647,0,0,1,1,2,2,3,3,4,4,5,5,6,6],"right_children":[2,4,6,8,10,12,14,-1,-1,-1,-1,-1,-1,-1,-1],"split_conditions":[2.0666504E3,1.0382827E3,1.495986E3,2.2485309E2,-3.7082405E1,2.2678252E2,1.2082905E3,3.0228669E-2,-3.8074803E-2,3.456315E-2,1.253722E-2,-9.094605E-3,-2.5836607E-2,5.7966365E-3,-1.3809172E-3],"split_indices":[19,19,11,9,14,9,14,0,0,0,0,0,0,0,0],"split_type":[0,0,0,0,0,0,0,0,0,0,0,0,0,0,0],"sum_hessian":[9.166756E4,4.681896E3,8.6985664E4,4.4933817E2,4.2325576E3,4.6490215E3,8.233664E4,1.0093128E2,3.484069E2,8.051846E2,3.4273733E3,1.9716136E3,2.6774077E3,2.123569E4,6.1100953E4],"tree_param":{"num_deleted":"0","num_feature":"27","num_nodes":"15","size_leaf_vector":"1"}},{"base_weights":[-8.0482126E-4,8.3649024E-2,-8.199709E-2,-1.2125911E-1,2.0895098E-1,-1.6180837E-1,-1.8719522E-2,-2.2708163E-2,1.9236619E-3,-3.1084163E-2,7.6015447E-3,-5.8604865E-3,1.1799553E-2,4.900925E-3,-3.5723522E-3],"categories":[],"categories_nodes":[],"categories_segments":[],"categories_sizes":[],"default_left":[0,0,0,0,0,0,0,0,0,0,0,0,0,0,0],"id":46,"left_children":[1,3,5,7,9,11,13,-1,-1,-1,-1,-1,-1,-1,-1],"loss_changes":[6.25751E2,1.1484208E3,2.3476108E2,1.8463701E3,1.0436399E3,2.597323E2,4.255385E2,0E0,0E0,0E0,0E0,0E0,0E0,0E0,0E0],"parents":[2147483647,0,0,1,1,2,2,3,3,4,4,5,5,6,6],"right_children":[2,4,6,8,10,12,14,-1,-1,-1,-1,-1,-1,-1,-1],"split_conditions":[3.699E1,8.332588E-1,6.510813E-1,5.360944E-1,8.0045134E-1,2.05927E6,1.9988E6,-2.2708163E-2,1.9236619E-3,-3.1084163E-2,7.6015447E-3,-5.8604865E-3,1.1799553E-2,4.900925E-3,-3.5723522E-3],"split_indices":[25,20,23,23,22,3,3,0,0,0,0,0,0,0,0],"split_type":[0,0,0,0,0,0,0,0,0,0,0,0,0,0,0],"sum_hessian":[9.125407E4,4.472023E4,4.6533844E4,1.6965414E4,2.7754816E4,2.0567547E4,2.5966295E4,3.9652783E3,1.3000137E4,7.129607E2,2.7041855E4,1.9702062E4,8.6548395E2,9.128709E3,1.6837586E4],"tree_param":{"num_deleted":"0","num_feature":"27","num_nodes":"15","size_leaf_vector":"1"}},{"base_weights":[7.517965E-5,-2.926588E-2,1.9731428E-1,-1.007894E0,-1.2833607E-2,5.90298E-1,-6.191478E-2,-3.4014896E-2,1.1667743E-3,1.6277062E-2,-6.635541E-4,1.4023604E-3,2.9358933E-2,-6.8934746E-2,1.5475798E-3],"categories":[],"categories_nodes":[],"categories_segments":[],"categories_sizes":[],"default_left":[0,0,0,0,0,0,0,0,0,0,0,0,0,0,0],"id":47,"left_children":[1,3,5,7,9,11,13,-1,-1,-1,-1,-1,-1,-1,-1],"loss_changes":[5.2842804E2,1.2761107E3,1.2054524E3,9.501709E1,3.3587454E2,8.677466E2,1.6771273E3,0E0,0E0,0E0,0E0,0E0,0E0,0E0,0E0],"parents":[2147483647,0,0,1,1,2,2,3,3,4,4,5,5,6,6],"right_children":[2,4,6,8,10,12,14,-1,-1,-1,-1,-1,-1,-1,-1],"split_conditions":[9.086124E-1,4.2742512E-1,2.03788E8,1.438626E1,-7.365805E-1,1.9624088E8,2.04184E8,-3.4014896E-2,1.1667743E-3,1.6277062E-2,-6.635541E-4,1.4023604E-3,2.9358933E-2,-6.8934746E-2,1.5475798E-3],"split_indices":[22,23,4,5,22,4,4,0,0,0,0,0,0,0,0],"split_type":[0,0,0,0,0,0,0,0,0,0,0,0,0,0,0],"sum_hessian":[9.126588E4,7.9442555E4,1.1823327E4,1.3087565E3,7.8133805E4,4.700547E3,7.1227803E3,1.2296613E3,7.909521E1,1.1853439E3,7.694846E4,1.8016364E3,2.8989104E3,3.531504E2,6.76963E3],"tree_param":{"num_deleted":"0","num_feature":"27","num_nodes":"15","size_leaf_vector":"1"}},{"base_weights":[3.1338944E-3,8.60717E-2,-8.873557E-2,1.71993E-1,-1.6445255E-1,-1.4695212E-1,-3.330833E-2,1.006902E-2,1.8452196E-3,-1.9279886E-2,3.313332E-3,-5.862645E-3,-2.1355036E-3,-2.8983993E-3,4.999981E-3],"categories":[],"categories_nodes":[],"categories_segments":[],"categories_sizes":[],"default_left":[0,0,0,0,0,0,0,0,0,0,0,0,0,0,0],"id":48,"left_children":[1,3,5,7,9,11,13,-1,-1,-1,-1,-1,-1,-1,-1],"loss_changes":[6.949096E2,1.0319678E3,1.3934265E2,5.939795E2,1.4692368E3,6.4137085E1,2.4792397E2,0E0,0E0,0E0,0E0,0E0,0E0,0E0,0E0],"parents":[2147483647,0,0,1,1,2,2,3,3,4,4,5,5,6,6],"right_children":[2,4,6,8,10,12,14,-1,-1,-1,-1,-1,-1,-1,-1],"split_conditions":[3.819661E1,2.270433E2,6.586466E-1,2.1930605E3,7.570965E3,2.2664578E2,1.5492383E1,1.006902E-2,1.8452196E-3,-1.9279886E-2,3.313332E-3,-5.862645E-3,-2.1355036E-3,-2.8983993E-3,4.999981E-3],"split_indices":[25,10,23,18,2,10,5,0,0,0,0,0,0,0,0],"split_type":[0,0,0,0,0,0,0,0,0,0,0,0,0,0,0],"sum_hessian":[9.1199E4,4.793738E4,4.326162E4,3.569969E4,1.22376875E4,2.1086266E4,2.2175355E4,1.5581705E4,2.0117984E4,4.611212E3,7.626475E3,1.4182467E4,6.9037993E3,1.6999873E4,5.1754834E3],"tree_param":{"num_deleted":"0","num_feature":"27","num_nodes":"15","size_leaf_vector":"1"}},{"base_weights":[-3.9310004E-3,-5.95571E-2,2.1020629E-1,5.9497064E-1,-6.86296E-2,-1.1622126E0,2.4146518E-1,3.7650205E-2,-3.3984184E-2,-6.750416E-4,-1.1583892E-2,-4.558001E-2,1.1487784E-3,-2.3628142E-2,8.506313E-3],"categories":[],"categories_nodes":[],"categories_segments":[],"categories_sizes":[],"default_left":[0,0,0,0,0,0,0,0,0,0,0,0,0,0,0],"id":49,"left_children":[1,3,5,7,9,11,13,-1,-1,-1,-1,-1,-1,-1,-1],"loss_changes":[1.0872064E3,4.2968848E2,8.0656476E2,9.871547E2,1.00600543E3,1.4239575E2,5.0316528E2,0E0,0E0,0E0,0E0,0E0,0E0,0E0,0E0],"parents":[2147483647,0,0,1,1,2,2,3,3,4,4,5,5,6,6],"right_children":[2,4,6,8,10,12,14,-1,-1,-1,-1,-1,-1,-1,-1],"split_conditions":[8.877905E-1,-8.5599536E-1,1.9762281E6,2.17025E8,2.31996E8,1.86047E8,-9.214364E-1,3.7650205E-2,-3.3984184E-2,-6.750416E-4,-1.1583892E-2,-4.558001E-2,1.1487784E-3,-2.3628142E-2,8.506313E-3],"split_indices":[20,20,3,4,4,4,21,0,0,0,0,0,0,0,0],"split_type":[0,0,0,0,0,0,0,0,0,0,0,0,0,0,0],"sum_hessian":[9.12867E4,7.246924E4,1.8817467E4,9.871298E2,7.148211E4,4.1664688E2,1.840082E4,7.2842773E2,2.587021E2,6.16972E4,9.78491E3,3.3842337E2,7.822351E1,4.980489E2,1.7902771E4],"tree_param":{"num_deleted":"0","num_feature":"27","num_nodes":"15","size_leaf_vector":"1"}},{"base_weights":[-1.6599114E-3,1.2523177E-1,-1.3500604E-1,7.2443086E-1,8.037228E-2,-3.9636695E-1,-7.821572E-2,2.6601968E-2,6.2827663E-3,7.0839324E-3,-1.0178471E-3,2.3445447E-3,-2.2385493E-2,1.9885337E-3,-3.728183E-3],"categories":[],"categories_nodes":[],"categories_segments":[],"categories_sizes":[],"default_left":[0,0,0,0,0,0,0,0,0,0,0,0,0,0,0],"id":50,"left_children":[1,3,5,7,9,11,13,-1,-1,-1,-1,-1,-1,-1,-1],"loss_changes":[1.5412083E3,1.2531624E3,6.5857245E2,1.983899E2,7.029525E2,1.1638215E3,2.0477039E2,0E0,0E0,0E0,0E0,0E0,0E0,0E0,0E0],"parents":[2147483647,0,0,1,1,2,2,3,3,4,4,5,5,6,6],"right_children":[2,4,6,8,10,12,14,-1,-1,-1,-1,-1,-1,-1,-1],"split_conditions":[2.09648E8,9.697556E0,1.0432126E3,7.333333E-2,3.6038334E1,9.254561E0,1.0744488E1,2.6601968E-2,6.2827663E-3,7.0839324E-3,-1.0178471E-3,2.3445447E-3,-2.2385493E-2,1.9885337E-3,-3.728183E-3],"split_indices":[4,7,12,25,25,7,6,0,0,0,0,0,0,0,0],"split_type":[0,0,0,0,0,0,0,0,0,0,0,0,0,0,0],"sum_hessian":[9.108087E4,4.6664652E4,4.4416215E4,3.2462424E3,4.341841E4,7.922101E3,3.6494113E4,2.6513152E3,5.9492706E2,1.9073322E4,2.434509E4,3.1565537E3,4.7655474E3,8.0102266E3,2.8483887E4],"tree_param":{"num_deleted":"0","num_feature":"27","num_nodes":"15","size_leaf_vector":"1"}},{"base_weights":[2.6983712E-3,2.1530092E-1,-2.9992161E-2,-4.3349993E-1,3.2474935E-1,5.872042E-3,-2.8788027E-1,-3.9580118E-2,-4.224559E-3,1.59918E-2,-4.987084E-3,2.7770828E-3,-2.8643196E-3,-1.1102805E-2,2.5627734E-2],"categories":[],"categories_nodes":[],"categories_segments":[],"categories_sizes":[],"default_left":[0,0,0,0,0,0,0,0,0,0,0,0,0,0,0],"id":51,"left_children":[1,3,5,7,9,11,13,-1,-1,-1,-1,-1,-1,-1,-1],"loss_changes":[6.3323944E2,8.624013E2,7.3043384E2,4.278299E2,9.0941565E2,5.4823145E2,6.7144086E2,0E0,0E0,0E0,0E0,0E0,0E0,0E0,0E0],"parents":[2147483647,0,0,1,1,2,2,3,3,4,4,5,5,6,6],"right_children":[2,4,6,8,10,12,14,-1,-1,-1,-1,-1,-1,-1,-1],"split_conditions":[1.8213944E3,3.5381028E-1,2.31996E8,-1.716288E1,2.2678252E2,3.9366665E1,2.06153E6,-3.9580118E-2,-4.224559E-3,1.59918E-2,-4.987084E-3,2.7770828E-3,-2.8643196E-3,-1.1102805E-2,2.5627734E-2],"split_indices":[1,23,4,15,9,25,3,0,0,0,0,0,0,0,0],"split_type":[0,0,0,0,0,0,0,0,0,0,0,0,0,0,0],"sum_hessian":[9.107199E4,1.2141637E4,7.893035E4,1.7499855E3,1.0391651E4,6.929053E4,9.639822E3,4.6634683E2,1.2836387E3,7.556651E3,2.8350005E3,3.7468473E4,3.1822059E4,9.11626E3,5.235617E2],"tree_param":{"num_deleted":"0","num_feature":"27","num_nodes":"15","size_leaf_vector":"1"}},{"base_weights":[-1.451012E-3,1.1940093E-1,-1.2798166E-1,-5.070127E-2,2.3848388E-1,-5.958736E-1,-7.211314E-2,2.8453657E-2,-2.1691243E-3,3.0526176E-2,4.187503E-3,-2.6690844E-2,-1.5441922E-2,2.7743623E-2,-2.9025332E-3],"categories":[],"categories_nodes":[],"categories_segments":[],"categories_sizes":[],"default_left":[0,0,0,0,0,0,0,0,0,0,0,0,0,0,0],"id":52,"left_children":[1,3,5,7,9,11,13,-1,-1,-1,-1,-1,-1,-1,-1],"loss_changes":[1.3914493E3,9.4292694E2,1.1611578E3,3.2557083E2,2.1089395E3,1.2385535E2,7.430454E2,0E0,0E0,0E0,0E0,0E0,0E0,0E0,0E0],"parents":[2147483647,0,0,1,1,2,2,3,3,4,4,5,5,6,6],"right_children":[2,4,6,8,10,12,14,-1,-1,-1,-1,-1,-1,-1,-1],"split_conditions":[2.09648E8,1.9624088E8,4.4646897E5,1.2145402E1,1.97229E8,3.00552E3,2.52E1,2.8453657E-2,-2.1691243E-3,3.0526176E-2,4.187503E-3,-2.6690844E-2,-1.5441922E-2,2.7743623E-2,-2.9025332E-3],"split_indices":[4,4,24,5,4,1,26,0,0,0,0,0,0,0,0],"split_type":[0,0,0,0,0,0,0,0,0,0,0,0,0,0,0],"sum_hessian":[9.099081E4,4.65342E4,4.4456613E4,1.9157834E4,2.7376365E4,4.737639E3,3.9718977E4,3.5144284E2,1.880639E4,3.478765E3,2.38976E4,1.4209799E3,3.3166592E3,8.0478394E2,3.891419E4],"tree_param":{"num_deleted":"0","num_feature":"27","num_nodes":"15","size_leaf_vector":"1"}},{"base_weights":[1.2888574E-3,3.272383E-2,-1.8500353E-1,3.3260337E-1,-8.576839E-3,-1.0596857E-1,-1.2697958E0,2.7032936E-2,3.8224615E-3,-1.644541E-2,2.9114037E-4,-1.8146759E-2,1.0178222E-3,-4.1136086E-2,5.5014823E-2],"categories":[],"categories_nodes":[],"categories_segments":[],"categories_sizes":[],"default_left":[0,0,0,0,0,0,0,0,0,0,0,0,0,0,0],"id":53,"left_children":[1,3,5,7,9,11,13,-1,-1,-1,-1,-1,-1,-1,-1],"loss_changes":[5.327265E2,9.6492725E2,1.1238152E3,1.0418278E3,6.2374506E2,7.928231E2,8.832678E1,0E0,0E0,0E0,0E0,0E0,0E0,0E0,0E0],"parents":[2147483647,0,0,1,1,2,2,3,3,4,4,5,5,6,6],"right_children":[2,4,6,8,10,12,14,-1,-1,-1,-1,-1,-1,-1,-1],"split_conditions":[2.2786487E2,8.591727E2,2.32638E8,1.97229E8,4.0219197E3,4.068582E3,2.40103E8,2.7032936E-2,3.8224615E-3,-1.644541E-2,2.9114037E-4,-1.8146759E-2,1.0178222E-3,-4.1136086E-2,5.5014823E-2],"split_indices":[10,14,4,4,0,0,4,0,0,0,0,0,0,0,0],"split_type":[0,0,0,0,0,0,0,0,0,0,0,0,0,0,0],"sum_hessian":[9.100211E4,7.7871055E4,1.3131058E4,9.429044E3,6.844201E4,1.2242324E4,8.8873364E2,2.7143713E3,6.714673E3,2.3001165E3,6.614189E4,2.7907712E3,9.451553E3,8.8091815E2,7.815434E0],"tree_param":{"num_deleted":"0","num_feature":"27","num_nodes":"15","size_leaf_vector":"1"}},{"base_weights":[-3.8001717E-3,2.7259693E-2,-1.8286659E-1,-9.96242E-3,2.9789558E-1,-5.508064E-1,-2.3333741E-2,2.1728112E-3,-2.37292E-3,1.2930357E-2,7.65342E-4,-1.0233675E-2,-2.9727709E-2,8.439404E-3,-2.6498027E-3],"categories":[],"categories_nodes":[],"categories_segments":[],"categories_sizes":[],"default_left":[0,0,0,0,0,0,0,0,0,0,0,0,0,0,0],"id":54,"left_children":[1,3,5,7,9,11,13,-1,-1,-1,-1,-1,-1,-1,-1],"loss_changes":[5.0423343E2,7.782909E2,7.858491E2,3.4789902E2,2.8366516E2,3.561145E2,1.6408394E2,0E0,0E0,0E0,0E0,0E0,0E0,0E0,0E0],"parents":[2147483647,0,0,1,1,2,2,3,3,4,4,5,5,6,6],"right_children":[2,4,6,8,10,12,14,-1,-1,-1,-1,-1,-1,-1,-1],"split_conditions":[2.2742847E2,9.086124E-1,1.1065403E1,2.6552542E1,2.2532553E2,9.696223E2,2.9595396E3,2.1728112E-3,-2.37292E-3,1.2930357E-2,7.65342E-4,-1.0233675E-2,-2.9727709E-2,8.439404E-3,-2.6498027E-3],"split_indices":[8,22,7,26,8,14,1,0,0,0,0,0,0,0,0],"split_type":[0,0,0,0,0,0,0,0,0,0,0,0,0,0,0],"sum_hessian":[9.061829E4,7.721819E4,1.3400102E4,6.787897E4,9.339224E3,4.0488933E3,9.351209E3,3.072188E4,3.7157082E4,6.6366606E3,2.7025627E3,2.5628013E3,1.4860922E3,1.6075907E3,7.7436177E3],"tree_param":{"num_deleted":"0","num_feature":"27","num_nodes":"15","size_leaf_vector":"1"}},{"base_weights":[-5.136251E-4,-2.638356E-1,2.2825727E-2,-1.445044E-2,-8.0646265E-1,3.3704233E-1,-2.0659914E-2,5.6173517E-3,-1.6743353E-2,-1.1867042E-2,-3.224337E-2,1.4502582E-2,-3.1993673E-3,-2.8270113E-3,1.0033932E-3],"categories":[],"categories_nodes":[],"categories_segments":[],"categories_sizes":[],"default_left":[0,0,0,0,0,0,0,0,0,0,0,0,0,0,0],"id":55,"left_children":[1,3,5,7,9,11,13,-1,-1,-1,-1,-1,-1,-1,-1],"loss_changes":[5.585507E2,1.000228E3,1.1404243E3,5.0305392E2,2.1181067E2,5.421986E2,2.6424872E2,0E0,0E0,0E0,0E0,0E0,0E0,0E0,0E0],"parents":[2147483647,0,0,1,1,2,2,3,3,4,4,5,5,6,6],"right_children":[2,4,6,8,10,12,14,-1,-1,-1,-1,-1,-1,-1,-1],"split_conditions":[1.495986E3,1.8213944E3,1.00185767E3,2.265356E2,2.266672E2,2.2697469E2,8.180012E-1,5.6173517E-3,-1.6743353E-2,-1.1867042E-2,-3.224337E-2,1.4502582E-2,-3.1993673E-3,-2.8270113E-3,1.0033932E-3],"split_indices":[11,1,14,8,9,10,20,0,0,0,0,0,0,0,0],"split_type":[0,0,0,0,0,0,0,0,0,0,0,0,0,0,0],"sum_hessian":[9.082593E4,7.3982227E3,8.34277E4,5.071693E3,2.3265295E3,1.0144694E4,7.328301E4,3.6928884E3,1.3788047E3,7.74864E2,1.5516656E3,7.9409126E3,2.2037817E3,3.1700857E4,4.1582152E4],"tree_param":{"num_deleted":"0","num_feature":"27","num_nodes":"15","size_leaf_vector":"1"}},{"base_weights":[3.6600512E-3,-3.4829035E-1,1.7877182E-2,3.8210873E-2,-7.692111E-1,-1.980513E-2,3.42163E-1,3.8826582E-3,-3.8743332E-2,-1.4982317E-2,-3.216651E-2,2.1148086E-2,-8.905727E-4,1.4472026E-2,-4.032832E-3],"categories":[],"categories_nodes":[],"categories_segments":[],"categories_sizes":[],"default_left":[0,0,0,0,0,0,0,0,0,0,0,0,0,0,0],"id":56,"left_children":[1,3,5,7,9,11,13,-1,-1,-1,-1,-1,-1,-1,-1],"loss_changes":[4.542356E2,5.7444653E2,1.0678173E3,1.9527489E2,1.2096735E2,4.5041824E2,4.9504102E2,0E0,0E0,0E0,0E0,0E0,0E0,0E0,0E0],"parents":[2147483647,0,0,1,1,2,2,3,3,4,4,5,5,6,6],"right_children":[2,4,6,8,10,12,14,-1,-1,-1,-1,-1,-1,-1,-1],"split_conditions":[1.3233434E3,2.2675418E2,9.082411E-1,2.33445E8,1.8876829E3,1.7242859E3,2.27375E2,3.8826582E-3,-3.8743332E-2,-1.4982317E-2,-3.216651E-2,2.1148086E-2,-8.905727E-4,1.4472026E-2,-4.032832E-3],"split_indices":[11,9,20,4,18,18,9,0,0,0,0,0,0,0,0],"split_type":[0,0,0,0,0,0,0,0,0,0,0,0,0,0,0],"sum_hessian":[9.0867234E4,3.5226934E3,8.734454E4,1.835544E3,1.6871494E3,7.824927E4,9.09527E3,1.7228732E3,1.1267077E2,7.760041E2,9.111453E2,9.3579193E2,7.731348E4,7.3000923E3,1.7951771E3],"tree_param":{"num_deleted":"0","num_feature":"27","num_nodes":"15","size_leaf_vector":"1"}}]},"name":"gbtree"},"learner_model_param":{"base_score":"4.6189505E-1","boost_from_average":"1","num_class":"0","num_feature":"27","num_target":"1"},"objective":{"name":"binary:logistic","reg_loss_param":{"scale_pos_weight":"7.82570362"}}},"version":[3,0,2]}